{"score": 106994, "inputs": [1, 0, 0, 0, 0, 0, 0, 0, 0, 1, 1, 0, 0, 0, 0, 0, 0, 0, 0, 1, 1, 0, 0, 0, 0, 0, 0, 0, 0, 1, 1, 0, 0, 0, 0, 0, 0, 0, 0, 1, 1, 0, 0, 1, 1, 1, 1, 1, 1, 1, 0.84, 0.828], "layers": [[{"weights": [1.6116137499982692, -0.8342433462698204, -0.19925328389026076, -0.3960287792171969, 1.1356042605208931, 0.38295693121196195, 0.3554060224011757, -0.5959181744601927, -1.0047760746783356, 0.5866043313711733, -0.2576617214313567, -0.12121726894714768, 0.2717523336171429, 0.7319899880833335, -0.23027572593107348, -2.1798286394751254, -0.805978402917627, 0.5557091572178405, -0.03966125083656791, -0.22045792847942525, -0.6994160968125002, -0.3588556690348872, 0.2045233125562106, -0.41298247382555275, 0.4087443178371448, -1.242772879449832, -1.2973349380423593, 0.7092237628398593, -0.1660233598676264, -1.2169675412526266, -0.6240060403754286, 1.7239163174126597, 0.18185057575518782, -0.441488349855087, -0.0585532547430716, 0.46938553580126996, -0.10115895728673385, 0.4343813701982252, -0.07702152814467444, -0.49603459901368746, 1.6240980436360033, -1.6987520557040041, 0.702211752050178, 1.01120780736096, 0.8599326408418078, 0.7469110709058494, -0.06330596980056358, 0.20871137123560568, -0.5394757277751936, -0.1293017801478849, 0.24875840894146495, -0.09794693680678723], "bias": 0.7070193573776113}, {"weights": [-0.08477594957422696, -0.2199538798180269, 0.5162542503055562, 0.11040114788265054, 1.113343252314022, -0.04160013916179117, 0.8107060603885252, 1.0012640820435532, -0.9995168590312042, -0.3264866430934241, -0.15365830876137476, -0.7802215029222817, -0.623198201565331, -0.45501360302357763, 0.463675529862448, -2.0704795302849908, -0.56455754204874, -0.24681446329722267, 0.09605069133750144, 0.7689557797625524, 0.922091265811076, -0.35145369404673055, 0.32518021456659574, 0.4572489883232733, 1.0276453060115625, -1.4372701590053736, 0.576785802853347, -0.21226584377725521, -0.8090641436040136, 0.9697183684177288, 0.7252704880175915, 1.634803051630315, 1.2805962847965757, 0.917366175420359, -0.6211538745270351, 0.8103067324325757, 0.6095728373714295, -1.1742908482350871, -0.08081908910490654, -0.1799296487697024, -0.9373139151765091, -0.9336130773581992, -0.34478289989834154, -0.6337942913725754, -0.5569687917762487, -0.8251952015332292, 1.2991364442290203, 1.2701349896695555, 0.8123583406425833, 0.8659310900069574, -0.818083965979392, 0.3445986857406844], "bias": 0.7626205548708532}, {"weights": [-0.636574911193535, 0.09167652019866757, -0.052757674033772295, 0.05763063641477251, 0.6312224944046971, 0.8424503650167903, 0.5340521196821822, -0.45584840860768094, 0.2358272227081979, 0.10259439535888026, -0.3499300328035808, 0.6816939847168318, -0.49468885095875675, -0.28589391062407565, -0.446389342953626, 0.18856428551564286, -1.624511233415269, 1.3893218177673345, -0.5886190875640979, -0.4552005288225778, 0.3805969590320114, 0.5656736872831637, -0.2449953874729286, -1.414879865984042, 0.8900894543669293, 0.30237965071977113, -0.3980101820824562, -0.7886327311195747, -0.19550221811577806, 0.5371698751272636, -0.41798754071879285, -0.8263765270523491, -0.10331022487844677, -0.2108167509249359, -1.8413512026291632, 0.11844889241133061, -0.11788165087774816, -0.2198292780535085, -0.17967611572498288, -0.9593551390365925, 0.6520012813563292, -0.09429694137233369, 1.175821337051044, -0.5662620805435656, -1.1408708189131764, 1.1742631910821308, -0.17941073565450516, 0.2578191072900623, -0.6906802725776597, 0.25356495090642867, -1.4288963618828476, -1.3192141266588524], "bias": 0.37812846587559057}, {"weights": [-0.7613309359860924, -0.9630081883519486, -1.1521728694680553, -0.042088717304980094, -0.7742752394014569, 1.3361283794992551, -1.8995469799241416, -0.2578840116648852, -2.876786245319759, -0.49113615936387683, 0.5034164831523844, -0.023907580513887194, -0.5293269573111774, 0.22312068069985302, -0.24152497873869716, -0.8017525334098161, -0.2784763140068296, -0.9828519155053781, 0.45098473282529317, -1.7025409297400615, 0.08001286725335588, 0.07987396434927396, 0.7836460389737714, -0.3059125602916092, 0.14601874461830966, -2.1283115897118092, 0.39742013682556243, 1.3578247282860763, -0.317664198355062, -0.40005126061355945, 0.362133726678712, 0.6529587005958322, 0.335340829200804, 1.223764756287005, -0.9295410390273642, -1.4314487668135105, -1.7371857060007398, 0.4613533846284958, -0.3528798283186497, -0.04125251062673896, -0.8767409827249555, -0.7631314737523235, 1.389992696331537, 0.8891271651251687, -0.9459633420152531, -1.7051043468621714, 0.48814157704300976, 0.7189838259843555, 0.9580025535089842, 0.7031405693733329, -0.7797547602553306, 0.7220072993209209], "bias": -0.3129010638896872}, {"weights": [-2.084146200765583, 1.9435268412428237, 0.45876757488306186, 0.9015452761522553, 0.8216047515170833, 0.8225051755409747, 0.3711976124722933, -0.7385518171413491, -0.6132145828966235, 0.6588904002126579, -1.303658354555643, 0.4527620395083404, -0.8088236016019221, 0.274828032672388, -0.25953744400121226, -0.14600963843103354, -0.44512900224319507, 0.44632537578338694, 0.8551678643525086, -0.7571233886349402, -0.5183772400753583, 0.5873078989821818, -0.2702826345407622, -0.8975772959295372, 0.3407816325111156, 0.05315840068070532, -0.10497612014939617, 0.21758360736394244, 0.33529750955680737, 0.3065000533962541, -0.06719734139483602, -0.4046551494314281, -0.6841830308915242, -0.07048901859247653, 0.6697106840429915, 0.8994614712147269, 1.1334850926016493, -0.21960548283648573, 0.6833375274796439, 0.9792797835655345, -0.5703880212966361, 0.41066848681448986, -0.22596479023521643, 0.39685936488056317, 0.37244805112493884, 0.5691593940589674, 0.5170161737813997, 1.3514987123355109, -0.06894502564026994, -0.630539308301646, -0.10173590431338653, -0.03420392286296625], "bias": -0.45931844011875256}, {"weights": [0.11840499717307007, 0.13477249228091637, 0.8877692232928245, 0.74052729999984, -0.26693903993838375, 2.1523833326268393, 0.15038002779595827, 1.1335044352836132, -0.12071690394913415, 0.6533545433849286, -0.41953788772321976, 0.7385510465910751, -0.17330444801564993, 0.06467567953783443, 1.3647917432436207, -0.22607168522472287, -0.637099949791925, -0.8445763103533436, 1.2305099767385854, 2.075457663740792, 0.09498583785572556, 0.06895451868000646, 0.876318756443871, -0.9596890934644315, 0.2393038674409249, 0.03907380953630768, -0.4177734707012656, 1.1053446264715654, 0.3131420280704002, -0.18334491970949263, 1.0629377420786148, 0.040871609834812306, -1.030291445586655, -0.32287211735332577, 0.4450131789912939, -0.38280980639825735, 0.46534310835880754, 0.578918480310957, 0.8234507404066725, -0.5939996958273243, 0.3498818024813086, -0.0044453334220684315, 0.021675103330931034, -0.3921258425976294, 0.03499793082158131, 1.4201140645434738, 0.44917202880430684, -0.30257277192357573, 0.04323664232952129, 0.6009876081965178, -0.935397260570646, 1.0186406745391905], "bias": -0.04790475292518814}, {"weights": [-0.5791062316413749, 0.16910975495158542, -0.9034852457515294, 1.1140282509198463, -0.2085306275320412, -0.4123963224133087, 0.6613353952993131, -1.1899857347334826, -0.3301522733316079, -0.20156049052454839, -0.6324973228773454, 0.14067774869191513, 0.8956777608316189, -0.664085363464732, -1.088124495946676, 0.49917156019337483, 2.170682428205989, -0.015366904327226427, -0.7907470277157229, 0.7045649173715545, 0.9578660993548718, 0.7715490594233114, 0.9947339815922538, 0.7629890645145867, 0.7981605895829302, 1.4147685948507713, 0.2620395712628939, -0.9388601592452473, -0.8029074759430918, -1.0564451388269138, -0.018774860052105935, -0.2418187091507083, -0.15851768545905776, -0.2821849592257244, -1.2967836468533054, -0.24158788362060735, -0.451748915423679, -0.2034937380252465, -0.6593519087686806, 0.6035474406140927, -0.04400233380527274, -0.14886078630685462, -1.1415829484629558, 0.2745065414844041, -1.1738663725921545, -0.05045692506055677, 0.6638845696378227, -1.7579821485250462, -0.13369453709174817, -1.5550047197578385, 0.2988851770216234, 0.7218099374402971], "bias": -1.34551237698697}, {"weights": [1.1817492728725898, -1.493725518586826, -0.7058313025659109, -1.0236513228135844, -1.5110760200727755, 1.4695589754455596, 0.3416742529001279, -0.012881698160719712, -0.15210680757806005, 0.049817018524504264, 0.7481503771204729, -0.7169052017550761, 0.793565488722809, -0.1926010083056109, 0.07706398708055784, -1.0133167742751625, 0.3007411711957737, 0.48001174311046757, -0.5287403623278554, 1.2771083109359154, 0.21925023968660495, 0.35789067017579157, -0.5160175374271521, -0.35333177911695446, 0.7640167871917598, 0.46334295069385134, 1.6729809411192438, -0.012427343595024176, 0.7358283247799584, -1.3469891683004356, 0.11758950442425098, -1.0607547936941621, -0.5869165093186255, -0.7048420929204577, -0.83053597914046, 0.6663405082249492, -0.7524737333857818, -0.8036708469369077, -0.7054479688854701, -0.5814257620424275, 0.9450572786235409, -1.8047413688149037, 0.2961473561573461, -0.4673004996368185, 1.780717691758687, -0.539984489279874, -0.386541532664262, 0.08212347442815604, 1.2408405771039446, 0.4059182589773782, 1.041330950051056, 0.9679220855345523], "bias": 1.0392997552898304}, {"weights": [-0.5551292294486456, -0.8571275328623951, -0.2267442909705104, -0.7555846564087512, -1.8655581436736193, 0.6206762851435872, -0.9588592415721872, -0.7404974082473018, -0.40072854892945065, -0.20760641466748586, 0.5390962587924771, 1.6335164597958742, 0.27846553995186596, 0.9531031765444915, 0.5509870584566667, 0.5882176582596493, -0.31854606361629656, -0.41075416114002816, -1.2417280478991743, 0.07730477379225753, -0.21282720646920528, -0.805888905508544, 0.0442788755679106, 0.9927932593250943, 1.2063841535146629, 0.9403840980548968, 0.3283026149303571, -0.7712681252915257, 0.9877345599254779, 1.0116410043080655, -2.032139570512317, -0.9845006247088823, -0.40194910816452034, -0.13489486175924187, -0.20879003844982907, -0.5937666288816816, 0.1984764937020813, 1.038761290023632, -1.2378218487748334, -1.448781109231954, -0.9765736681699, -1.0740679685387744, -0.8156948746133199, 2.3769661283347245, 0.4927666531403805, 0.38297870894349173, -0.4753067249635733, 0.25474705113469154, 0.7392424235433761, 0.26906802689538667, 0.3481828789079937, -0.44304200956443784], "bias": -0.673125505508825}, {"weights": [-0.0625539517477548, 0.20362849000697847, -1.4900491318571847, -1.168612794123137, -0.4324584096109929, -0.1485533352752897, -0.926982727168831, -0.033383645443540555, -0.23144238776950082, -0.021920868598668597, -0.44803799184871546, -2.237474416054428, -0.38047428301142816, 0.6348476450175926, -0.24596666615868712, -0.5712984938687455, 1.4519119156492994, -0.4930008968110058, 0.8152902785404124, -0.048246357744786694, -0.20210963532813975, 0.23810082523235554, 0.16078316877945897, 0.4803470814386235, -0.14587884706074838, -0.7008961684612147, -0.1938858892032309, 0.19122031154320418, -0.37297455233420584, 1.11393026683207, -0.32496429573875973, 0.11174679498538398, 0.04523616806620723, 0.8162684021447841, -0.6848806859544823, 1.8906262852512314, 0.1680974786840952, 0.7253928576422146, -0.9903146949079693, 1.3211017968854901, 0.32308902130258943, 0.5509152114505655, -1.0555954219609107, -0.22814167625468973, 0.6255297963557147, -1.322924692161265, 0.628057739743636, 0.31643602691813744, 0.26306968577392265, -0.053453580482654695, -0.024906349344303136, 0.8125266990778388], "bias": 0.22499426315090965}], [{"weights": [1.3464466015465388, -0.008614874703278153, -0.7714860761080771, -0.18294932695663246, -0.21381746111755917, -0.6379174133312218, -0.7343423638735305, 0.1454733371984439, 0.7336560436002908, 0.12868613475939727], "bias": -0.0680624477054248}, {"weights": [-0.0388889934809038, 0.33806459966505387, -0.11949660296466069, 1.0509796950690804, 0.7076600497396743, 0.23378583495920424, 0.07115482651420318, 0.10028149495974048, -1.3294599426044245, 0.44147346081388816], "bias": -0.20850703302904716}, {"weights": [0.0032969081155099778, 0.9317401526463196, -0.49168798231510213, 0.44591174048112037, -0.20850989807154918, 1.499220690309089, -0.9895820483693161, -0.5170907241069075, 0.2819769571966022, -0.08757305267253646], "bias": -0.10732238045656167}, {"weights": [0.7653792975780921, -0.1788084252069343, -1.1653999506136772, 0.5295923401907561, -0.2546695900970175, -0.48099097027109894, 0.3965576369510494, 0.9181587709152881, -0.7298408076940165, -1.2299327957363972], "bias": -0.8866573450105609}, {"weights": [-1.1255015418344445, -0.2934680096461143, -0.6511613241496856, 0.037926300415393355, -0.09630930251978098, -1.1051431910482454, -1.1687246551250883, 1.6763014642983913, 0.4645569923289832, -0.045288662782125955], "bias": 0.881610169710742}, {"weights": [0.2335524823993821, -0.5016454062880784, -0.09293877688907415, -0.12597630339298638, 0.2222471129889163, -0.6576340008698764, 0.26775087925593954, -0.7794505161911509, -0.8988391936180513, 0.7166294276602321], "bias": -1.9539465663099849}, {"weights": [0.8392729527594525, 0.30993917774158386, -2.1137329938736475, 1.8612711281950198, -1.275049843162966, 0.4974565743357293, -1.6313234332867574, -0.20994539705650184, 1.3864460360622857, 0.2226898229437933], "bias": -0.6394632150922344}, {"weights": [0.7674186670090821, 1.084477514637426, -1.6185008110863532, -0.7537230531879999, 0.035427348438191064, 0.33649728586222205, -0.05140393308152025, -0.2516461119194888, 1.009691905769396, 0.10510262906707779], "bias": -0.042052627987753555}, {"weights": [-0.5694988225102156, -0.5584099984696312, -0.542854523395589, -0.4140834177138544, 0.8569313372047124, -0.650941318676173, -1.016476880122019, -0.07231754238312205, 0.7951490584103416, 0.7052738044674121], "bias": 0.36387300648267995}, {"weights": [1.2654580462400022, -0.4457346917860381, -0.10570554487484474, 0.6121098845665165, 0.3145832488603878, 0.055117803859001224, -0.39755476393589306, -1.3133982088604546, 1.1438078660681223, -0.9368948237691388], "bias": 0.22854123770744283}], [{"weights": [-1.2707784129791468, -0.1294987422958671, 0.7226645091928585, 1.8015718185349137, 0.30110876791780117, 0.36355203148570214, 0.5908383825343271, -0.8710917475811254, -0.05652630816568838, -0.7342765097187718], "bias": 0.5981311700557015}, {"weights": [-1.1289530137171888, 0.1388329384873337, -0.4503029090755942, 1.0072463404707257, 0.49193127528866554, -0.45091368725644765, 1.1429682833862187, 0.02975002025750828, 0.7979081762396509, 0.9769941642692692], "bias": -0.5528812223528572}, {"weights": [0.8289603988245218, -0.7494451933784718, 0.421525102575661, 0.04730508278238571, 0.1809853107939105, 0.9694212432197757, 0.32342099918876843, 0.5847437086351424, -0.4303023856379023, -0.0870593242116845], "bias": 0.23501942149975164}]], "generation": 700}