{"score": 128760, "inputs": [1, 0, 0, 0, 0, 0, 0, 0, 0, 1, 1, 0, 0, 1, 1, 1, 1, 1, 1, 1, 1, 0, 0, 0, 0, 0, 0, 0, 0, 1, 1, 0, 0, 0, 0, 0, 0, 0, 0, 1, 1, 1, 1, 0, 0, 0, 0, 0, 0, 1, 0.48, 0.708], "layers": [[{"weights": [-1.1237413721833853, 0.16095400355458134, -0.43513236322692395, 0.6056506438200364, -1.47907039259081, -0.6444723227566052, -1.4579127967644159, 0.4873431636313983, -0.4032677887110119, -0.08973859401117945, 1.5629150665377505, -0.21089655723373757, -0.7647196671493265, 0.8558588150698698, -0.4912849673332642, 0.5246363352326295, 0.6341748153456233, -0.9904919914448811, -0.6815700959845798, 0.399976766953383, -0.46095458175140436, 0.19304394704825656, -0.47768440676113166, 0.8979114144009694, 0.7609204310899299, 0.04234589767186492, 1.1708135759400382, -0.30513774767956225, -0.7206864766782818, -0.817832987932243, -0.3911568381351853, 0.9933430038341953, 0.6120333733042203, 0.19241558277550963, 0.14857831463470128, -1.3075408699534847, 0.24736142103972314, -0.13651740989224392, -0.1983828997034056, -0.7374773183523167, 0.6022852565303443, 1.3123722339383301, -0.08979174890668395, -0.07240184323329502, -0.9022147529377269, 0.7193125304816912, -0.3062890739631572, 0.18910334169672405, 0.32656349969484477, -0.5227812298240018, -0.9792931280637964, -0.14489559522085038], "bias": 0.5097193471872798}, {"weights": [0.41555296399945985, 0.31254802420787664, 1.026559439849544, -0.9179747578274482, 0.7730634324136296, -0.15950602864693986, -0.5193522805608789, -0.8665751889371305, 0.11153623649328526, 0.6016288779510677, 0.03594059562927665, -0.5418326317183959, 1.0536491811487347, 0.40919910862371056, 0.2311437800195948, 0.4845605836442366, 1.9095435444203959, -0.8382235014081549, -0.6226973030479748, 1.7748209104251302, -0.08756631200590836, -0.1485125225368662, 0.6356921626222163, 0.15959843794513406, -0.18232868594106194, -0.27112950816819126, 0.8154052524207209, 0.5962170301168936, 1.0811268626406498, 0.1859155168212836, 0.8564785809073617, 0.35962069966851984, -0.4013973416615393, 0.1398155670761394, 0.10851223332612059, -0.22072726417366018, 0.7114213529868816, 0.9880704923694135, 0.5411344763869939, 0.6009642374262403, 0.9751113823357547, 0.24711341022897582, 0.7158699738378975, 0.016444771067397834, 0.03962910377192519, -0.2617322447613336, 0.935473612238235, -0.25074416919517706, 0.5573001148809499, 0.6216996667820023, 0.22865779031601918, -0.16522959123239056], "bias": -0.9853541254109484}, {"weights": [-0.31398620546411404, -0.2595131286102057, -0.9680801391353715, 0.759120801238488, -0.45336376090237696, 0.5801063986332529, -0.2533405499974193, -0.1826765007253991, 0.5996805930862568, 0.09173835915839224, 0.730383018561003, -1.6585500105496833, 0.20367992969863602, 0.3771419484867515, -0.5174460064070194, 0.37185671122340036, -0.19334355756533433, -0.5579842106410697, -0.4049375483126467, -1.2775560164117148, -0.6991835986884913, 0.3993367022247297, -1.284274765136299, -0.08165500962636996, -0.45406285038940714, 1.27641139714108, -1.9225529689346919, 0.030614694579608193, 0.8524851815934292, -0.6575561002053807, -0.7284194636242145, -0.45917278787382276, 0.2873533355683876, -0.2832446169906362, 0.7287863823225145, 0.23403051279808695, 0.09950078074177005, 1.2426602216057565, 0.4557591483103695, 0.8240363899508272, -0.8905535810601368, -0.17122255877879655, -1.4068481493465277, 2.0308844360130536, 0.9203133862144179, -0.7309059965658513, -2.0112458062063387, -0.62986657302469, -0.898599714865864, -0.5281332165661348, -0.311238605948718, -1.4163545629321086], "bias": -0.9853385544253142}, {"weights": [0.39490098510451377, -0.9963381747458646, 0.1749456020421637, 0.20562211544535836, 0.23591807769464324, 0.5097481494798151, 1.2717397042560497, -0.6007722010582225, 0.06956061345479048, 0.19827222347742113, 0.8578333219804095, 0.569276434764733, 0.7462151004952866, 0.5740265635994635, 0.3783652929477185, -0.21573917733935488, -0.469473198880879, 0.377766680462688, -2.1603573449224602, -0.3238732551039476, 1.9190255351539656, 0.7367573264242628, 0.5906666324272245, 0.7099065342584031, 0.1801932953071228, -0.40911589593367315, -1.0331397843694108, 1.475356232884883, 0.8166578781068708, 0.16842160748031998, 0.17655225501784022, 0.1327718198568033, -1.038977352407698, -0.033784414539868024, 0.4103734707560379, -0.6818946594722667, -0.972700418195392, -0.3536174274025251, -0.2907140200252196, 0.34790791931289666, -0.939892768739305, 0.05121821442979668, 0.6326521605674379, -0.6393645352328916, 0.33087750186637255, -0.31115673296791857, 0.04033966410949974, -0.07422731080476552, 0.7575848172334878, -0.03960962444308325, 0.8409007337024339, -0.5689873608198863], "bias": 0.2375510749575399}, {"weights": [-0.19424142116087828, -1.1598528386382099, 0.8365457655354678, -0.625881549767477, -0.5085660962386575, -0.9408565583954833, 0.1428356374481563, -0.9782430904690891, 0.36842845660087, 0.9384816344309772, -0.1352949252336395, -1.0470623113440616, -0.056932852437114434, 0.3768972272405016, 0.4665737117168278, 0.9959745574139356, 0.2252728475420529, 0.26994288504739195, -0.366396241223074, 0.04426644091104093, -0.6248514300368826, 0.7907261864300137, 0.30775796787845033, 0.8780519919535034, 0.6896081657225934, -0.6761761827612345, -0.09736658898937456, 0.41735694287892255, 0.1616571876127233, -0.1284995442949044, 0.5861974105216501, -0.788320322862585, 0.5016193525025907, -0.31465918562067774, -0.7984138450735446, -0.1637305579393824, -0.6241748845748398, 0.02119489628803528, -0.33039916320678286, 0.6326203709407441, -0.7613821137178958, -0.8364453362960771, 0.7020399986170689, -0.04681866581988414, -0.12817422988685123, 0.5034831858418908, 0.6236159905789895, -1.6103487906707779, 0.768643791636848, -0.6817183612939792, -0.29419053398711825, 0.14036236158169046], "bias": 0.8893025221718682}, {"weights": [1.0681199743129681, 0.30248921230235637, -0.8453190119330521, -0.5259003867252692, -0.4172023476956498, 0.13783114973958965, 0.489984166530562, 0.35810820441673524, -0.6021808590556148, -0.7465862557992542, -0.7314459235600377, 0.1931916214152688, -1.0177716109884933, 0.6330004634410579, 0.9685801295516123, -0.1687159546551812, 0.3702605628865947, -0.08542507671979699, 0.08737213840033808, 0.029686337399200458, -0.21346478196910146, -0.30179970889843055, -0.2647118985472299, -1.6052139824436296, 1.1704499765197685, 1.6072776799218806, 0.7627206876548944, 0.08358474538869198, 1.2893145630926492, -0.6057465556750133, 0.14140294209172333, 1.5895014705360173, 1.0342609088550856, -1.177688393748776, -0.8493128013684486, 0.7928514647512177, 0.7716180659415446, -0.9013716145859745, -0.27094723074139604, -0.8742219564392399, -0.18377816631596028, -0.38008838321407523, 0.3167329007550873, -0.5961309891061253, 0.9111033934179975, 0.6409078938066788, 0.7974954761700986, -1.2597724270589694, 0.3522160318635934, -0.7009973678453241, -0.06310290177378253, 0.40854918432176945], "bias": 0.9830517214108413}, {"weights": [0.33031196365267834, -0.5687264256021298, -0.9655869701949762, 1.335782875620606, -0.37163419306484113, 0.18453444586159068, -0.19573369779223504, 0.5629380487586517, 0.7226821294897465, 0.10286691482820798, -0.22638564934201855, 0.2047246071799429, -0.6111176747270659, -0.710800243692449, -0.16014501213766996, 0.8457726504645007, 0.050436224563477516, -0.201971088570701, -0.1232550010045983, -0.5026503345094409, 0.7598491539256653, -0.5759792207084424, 0.6585472794689098, 0.4131150482999755, 0.7170080725179571, -0.6852084750807038, 0.7804968112509914, -0.6725685604650639, 0.6835497747070904, -0.4754129434181943, -0.042093237810204354, -0.6439600943530086, 0.8819425908065297, -0.8646379811255334, 0.4564397790290162, 1.1199478352716128, 0.32899859109210317, -0.03591600234608605, -1.1551452688509236, 0.6951465331755908, 0.7851042350526753, -0.030714258603927735, 0.3835375018014382, -0.9533835895187968, 0.8936608051481112, 0.6151834592206489, -0.294635044706297, -0.7733474057972818, 0.7098745050856494, -0.030549399652503695, 0.37699856694508527, 0.5408366812056028], "bias": 1.0528145660990762}, {"weights": [-0.48692807553012124, -0.08523195650086013, 0.09681360852110832, -0.2749232016672747, -0.44822623044424903, -0.43798858951374475, -0.055215174412866164, 0.345152924339055, -0.5754657862603922, 0.5864276592093973, -0.900950827792929, -0.9352176384513111, -0.3166264292943388, 0.019559580748840233, -0.01836774395004892, 0.2640198208293345, -0.6892158740926071, 1.1490330274657428, 0.2716414786799528, -0.7590164727291311, -0.046659504659851414, -0.2754991893304868, 0.7298188640721273, -1.049921120401868, -0.1768859206167488, -0.3189903592735799, -0.63313816359855, -0.12776177830329694, 0.7369960893965202, 0.022832617155659762, -0.09122842306504575, -0.08815562696805401, -0.23328690112628414, -0.48755129975316414, 7.425110100323096e-06, 0.9360941815129196, 1.538771209696738, 0.36056359123228554, 0.5799261355281125, -1.0530386980032604, -0.13430764459328726, 0.7780155962176785, -0.3642545386418692, 1.2368299008070789, -0.7905468812519834, 0.2419071166593345, -0.20545548875597097, -1.3835410062508808, 0.31707192756392, -0.01696993770455757, -0.5711124405162451, 0.3869438137773801], "bias": -0.7418376295613591}, {"weights": [0.19306721453659115, -0.3747439645226034, 0.6793746811313792, -0.19454778008097806, -1.3870845212585847, -0.4816973713083601, -0.9491977496833439, 0.12208061939991777, -0.6363498086174788, -0.5652568048543214, 0.3879186506633623, -0.13148450632352593, -0.052116880407585775, -1.0789603170489268, 0.08505494347522413, -0.9907289987471244, -0.6145925400737765, 0.9803664776881875, -0.6982779327649652, -0.9071135872386866, -0.8411682363805728, 0.038109068149262404, -1.1078549638396755, -0.5392161211399021, 1.2194166199606706, 0.39344891478547606, 0.21781785272887566, -0.7104829513351287, 0.6894173817603236, -0.7524393138062624, -0.48105942874824603, 1.0967259239738651, 0.09703507306054915, -0.04293760886832798, -0.06981222523790598, -0.37232026422700654, 0.31050445615711486, 0.25878418200335357, 0.09777990692255578, 0.5664092845234034, 0.6001826124030003, 0.32671507645677345, 0.9011068124382178, -0.35516426904185583, 0.6105791365174456, 0.8308559522696103, 0.08083887966602898, -0.46137556079172887, -0.4774996511292696, 0.34712867826170957, 0.3966479709606969, -0.14123837491791158], "bias": -0.9644883558461359}, {"weights": [-0.6079136785395258, 0.6977483036090404, 0.7113641711727938, 0.5157207229717027, -0.8964267642605177, 0.30306431276269663, 0.9461735119977148, -0.2933667612180094, 0.5366995812807951, 0.04825661023291461, 0.5713755821189399, 0.6722960907233575, 0.46966204665251654, 0.1765765779935644, 0.16108043695446406, 0.08865802015259616, 0.8167969839723908, -0.4299900675934095, 0.308023075341436, -0.8512089646376713, 0.8994017059405894, 0.5575168599243561, 1.5205913454981377, -0.4895689240739083, -0.07256813398365392, 0.7548916108101809, -0.8650143804110596, -0.05807085885094043, -1.0997043211003943, 0.35791477154877205, 0.4030655878047986, -0.5729668972288882, -0.10716916165715795, -0.40127544219546074, 0.6739166007961992, 0.5019637836679094, 1.1340646680711368, -1.4165516417429347, 0.3051063229944, -0.3275356963470202, 0.3866378111033226, 0.23575151507374836, -0.2731065450340511, 0.8401234113846259, 0.3070840716057801, -0.37171982813166593, 0.33785556878706724, 0.7377426279665544, -0.892330451351663, 0.876956161834993, 0.6367806986252642, -0.8691748904707545], "bias": -1.0839867291242442}], [{"weights": [0.6937940777554024, 0.799236224769756, 0.6428227887894719, 0.4768955468193202, 1.590619318658663, 1.4925724930394317, 0.15106602406422653, 0.3138854409678641, -0.5394768265487837, -0.15135506544253874], "bias": 0.45010177729499223}, {"weights": [0.638395469947687, -0.43399815092313054, -0.5302134811765504, 0.871003843487564, -0.894790976682931, 0.6223873800985149, 0.06803288163833932, 0.13524454048896417, 0.9530251216834691, 0.16812965463129093], "bias": -0.7253055299059556}, {"weights": [0.6399309771719608, 0.9680642559845538, -0.6313625315328146, 0.609903953896459, 0.3717028092844833, 0.30017381241215324, -0.2290412464713507, 1.9857596577070606, -0.40953891066104176, -1.0044646759069247], "bias": -0.06706759612401736}, {"weights": [0.787597522718676, 0.10382683754327032, 0.6849986950350158, 0.30730618651986896, 1.127460949155589, 1.122163902973502, -0.2618776483643497, 0.8600472818563837, -0.15727958935019304, 0.20538849094340716], "bias": -1.298135858374216}, {"weights": [-0.6022586987566867, -0.34626714413996623, 0.38222468902052575, 0.9504890875998475, -0.2916560179040233, -0.0718454664328878, 0.4748172938992178, -2.03789328567748, 0.8199980071876874, -0.3977090923511877], "bias": -0.8244706740946242}, {"weights": [0.04135784381231422, 1.2976866510627145, 0.6845929386214646, 1.0485635070163517, -1.3696977969420696, -0.5590719552196283, 0.5692524679378641, 0.7620545625965198, -1.1758815349245513, 0.2818557631769849], "bias": -0.8033228778232093}, {"weights": [0.7642424016637958, -0.8804628893130402, -0.2398585321947596, 0.3617547926736949, -0.08551333062420419, 0.7878510477196723, 0.6873272227313942, -0.7930898200595458, -0.7660818814031105, 0.7725670129738006], "bias": 0.49490859075547866}, {"weights": [-0.8256021699103235, -0.33740885780308877, -0.41252843317866117, 0.2096305527682114, -0.5425727769966684, 0.30360133297726777, -0.6790518079034178, -0.8986840487588872, 0.7788342181896322, -0.10145298467541863], "bias": -0.7648965624726463}, {"weights": [0.3592324527914166, -1.8862917397259873, 0.46856458827822167, -0.37375859140879786, 0.7867603011783519, -0.15039511898581703, 0.6861117996398012, -0.12402783081636781, -0.6495160284363235, 0.5773753535325783], "bias": -0.3071254651629476}, {"weights": [-0.5841697920042217, -0.372655770283725, 0.7122107191491931, -0.012480526065593134, -1.2973538347799947, -0.7136015643875484, -0.5517047685922176, -0.5250180074753705, 0.9174207348566674, 0.8556595613852416], "bias": 0.8190287707718802}], [{"weights": [0.030572688264470127, 0.7594156317092307, -0.17794672462687067, 0.006522178359886555, -0.8378596276639523, 0.3763111092189558, -0.7219767730784459, -0.3059029637361208, -0.17789186733660345, -0.4602617291565106], "bias": 0.8048859519602949}, {"weights": [0.28589040487063744, -1.9717661538661475, -0.5205434301843521, -0.26608335111830106, 0.6167071486619689, 0.9397542577915314, 0.09741857251244457, 0.917238538115775, -0.014400539735823614, -0.16787059793222087], "bias": 0.6945594611372392}, {"weights": [-0.2636725744770739, 0.7067209586605376, -0.15809214255313786, 0.449035471253451, 0.545144266713775, -0.7614677801481968, 0.13321416738293435, -0.5115632038729545, -0.7247312914751667, -0.6472038727846211], "bias": 0.7663501537099944}]], "generation": 700}