{"score": 106994, "inputs": [1, 0, 0, 0, 0, 0, 0, 0, 0, 1, 1, 0, 0, 0, 0, 0, 0, 0, 0, 1, 1, 0, 0, 0, 0, 0, 0, 0, 0, 1, 1, 0, 0, 0, 0, 0, 0, 0, 0, 1, 1, 0, 0, 1, 1, 1, 1, 1, 1, 1, 0.84, 0.828], "layers": [[{"weights": [1.1452986468174493, 0.8146695401789674, 0.8453044758170181, -0.6948984193188422, 0.7169010087741842, 0.4019567677630299, 0.29260140126279166, -0.4304766832062552, 0.3878641419674104, -0.7922860163346305, -1.4074793602760054, -0.3287747712222614, -0.8095050466489189, -0.367679900568901, 0.5402531727850537, 1.0633635937688446, -0.5251391590912492, -0.03264764538336429, -0.6310316638299414, -0.18417415525462966, -0.998962754701165, -0.6069647862803866, -1.387183450461671, -1.3330191384191907, 1.1192668892357527, 0.23910898325381358, -1.107358795042526, -0.7769126556171959, -0.4848142231064366, -0.5584781678105022, 0.43939788504339283, -0.81986433105448, 1.80014681172193, 0.16816634666359764, 1.121775926690002, -0.5421405755903018, 0.15182869051242376, 0.2966912523089058, -0.004185632130230266, 0.6550503255033266, 1.208871714347107, 0.16678721064373336, 0.8336653380262096, -0.9900432665587877, 0.07313203480465591, -0.60212365411713, 0.522298966729845, -0.26065826432328465, -1.2361426322782376, -0.5606720449359252, 0.2702587832988509, -0.7251817147167027], "bias": 1.1293606111744532}, {"weights": [0.07741968522319953, -0.4808861121047585, 0.6994134987743339, 0.9787266669586141, 0.7072413512569844, 0.9745689975676877, 1.6390305373978902, -0.3537835538219047, 0.7910228921008273, 0.21667560667412622, -1.454678212345451, 0.2718465773554055, 0.5770729402785694, 2.0482139785887568, 1.3239726757775696, 1.9671428997215068, -0.18592366619806444, -0.13604277511718, -0.8028388366029517, 0.19469996249381555, -0.6415408428272736, -0.16524359379307207, 1.3211531319315482, 0.38837116151231044, 1.471324770871446, -0.48987880111510884, 0.3673881057451953, -0.2614083153956941, -0.5087777502929127, -0.06811584197568854, 0.2814044961393076, 1.3249559584851913, -0.7286704333853419, 1.343072280166198, 1.3502605033403319, 0.24294386868008233, 0.5130680626323163, -0.6818124297705306, 0.6855908258585965, 1.6653514800800493, 0.26749450068688624, -1.1752183179580151, -0.6207337072672342, 1.2659129963233275, -0.7500758933294043, -0.5054162776748304, 0.27747014555829597, 0.18232467971431987, 0.08415472842252125, 0.8559753619087531, 0.13666798121645285, -0.9049714727827978], "bias": -0.14605730652458881}, {"weights": [0.17044004469229423, -0.7648424920759922, 0.710165368724557, 0.9217194871978787, 0.416812292749441, 0.656391904864496, -0.6394616412693409, 0.02324648041969768, 0.954854227355953, 0.522786869070714, 0.2557052005577476, 0.9262513753904347, -0.22339000439712886, 0.7856800113479963, -0.00015943875488266812, -1.9014053440338397, 0.47914811651861067, 0.9207794914929728, -0.6354063868229016, 0.05858280800087412, 0.6283083259977953, -0.7883987942342299, 1.2669000890758713, -0.6444777781498008, -0.332983028788021, 0.569252292591496, -0.5231394102726348, 0.7031942217954861, -0.21693857643272818, 1.471255136595721, -0.475885955913054, 0.18655651859495004, 1.036595639389313, -0.049807242019005216, -0.3119753961361952, -0.9306058193698385, 0.6904998522760566, -1.2886393731190624, 0.3213974435008101, 0.8163846471050131, 1.1076542220525365, 0.7103489288071009, 0.6679375033317274, -0.8038184484301634, -0.13231290083559433, -0.09096181125206837, -0.6692594501037914, 0.7044705751871365, -0.28758430151582703, 1.5121509001260525, -0.4639947286037621, 0.28904270989818004], "bias": -1.4727326217387566}, {"weights": [-1.1013893101788805, -0.39153889032343636, 0.6413740609237016, 0.8467475028285929, -0.25642029524958887, 0.24513969141108305, -0.894076443283951, -0.6643084088931004, -0.35698992306040334, -0.07076511747027481, -0.3728100436796918, -0.830850043340229, -0.9075857009054433, 0.33798308038597646, -0.5966845115337625, -0.765522277304288, -0.1056765285803527, 0.07483129023232216, 1.2481668644818364, -0.038210915092664166, -0.9147589059315794, 0.05210936764546492, 0.43232302586308446, 1.1823503886258213, -0.7194079243421367, -0.26840999089644546, -0.7853025933957968, -0.5635913394286131, -1.1434740650743123, 1.3874372233338856, -0.3011642580328697, -0.3934187295027369, 0.7022003770841321, 0.9162636779546647, 0.41216725945504074, 0.3843513427839369, 0.07046613227005594, -0.46754110739435717, 0.6395590872656712, -0.5065249511255612, 0.3138326030358263, 0.9403918983786383, 1.1844930282473802, -0.08620241939604845, 1.9265874291087663, -1.2653015013724276, 0.07479566975392893, 0.3169359693910123, -0.5857997397474844, -0.02661795731958838, -0.48493354651649, 0.6648345799515607], "bias": -0.9892461772322116}, {"weights": [0.861975173617923, 0.21974913801829876, 1.3220489513752218, -0.8997014413081219, 0.10650652548676409, -0.05148061660981651, -2.7732669824665725, -0.8582032997290142, -0.3400175044506897, 0.9164478477384348, 0.7001923422032255, 0.22047122593381152, -0.18588208975666487, 0.8149390481664214, -0.8441681391546765, -0.6123369810673939, -0.6836720746739994, 1.1045239787008003, -0.3447013775311921, 0.22406363851153754, 0.6320192699175433, 0.5759349620460844, 0.19625812503292295, -0.83687571432676, 0.29613988696212656, -0.32629862440138535, -0.6387251339858533, -0.20948225805948928, 0.9558933698239871, 0.0624669721442237, -0.6370164732885046, 1.5778180875663685, 0.946517216385889, -0.2934585091241517, 0.462021980791923, 0.7544327545743411, 0.7292771277344232, -1.3987607512015903, 0.6518612784879618, -1.2586514305334857, -0.18912246156550316, 0.19076274786392589, -0.45702094077365407, -0.8491271398908918, 0.10603513617721277, 0.858870699921368, -0.06710840385310979, 0.6594396894073821, -0.1320485750311018, -0.9360120613326492, 0.10850612817059035, 1.492254225225638], "bias": 0.4722516906810147}], [{"weights": [-0.4506592149710118, -1.134687693466678, -0.767841618704563, 0.810128430751387, -0.03824923237949407], "bias": 1.9003461304316063}, {"weights": [1.4496771821513426, -0.4989434498985683, -0.4724897150345089, -0.3953961963843331, 0.7988698003461054], "bias": -0.2290063588329605}, {"weights": [0.5707407397834667, 0.09594827757282842, -1.0048281248467363, 1.8823912305739974, 0.859618387426238], "bias": 0.6371906448192048}]], "generation": 300}