{"score": 106994, "inputs": [1, 0, 0, 0, 0, 0, 0, 0, 0, 1, 1, 0, 0, 0, 0, 0, 0, 0, 0, 1, 1, 0, 0, 0, 0, 0, 0, 0, 0, 1, 1, 0, 0, 0, 0, 0, 0, 0, 0, 1, 1, 0, 0, 1, 1, 1, 1, 1, 1, 1, 0.84, 0.828], "layers": [[{"weights": [0.6244185019264583, -1.2995473587491773, -0.010039144623250396, 1.5729591420980291, -0.3916788054922121, -0.11980730508911663, 0.8729347273141419, 0.4940995702862325, -0.9405482479189831, 0.4909963772529595, -0.4204377987866712, -0.07226192787366725, 0.05863033145756924, -0.655789824467088, 2.1726601082045605, -0.8980609694249907, 0.2499055422692147, 2.034343385809226, -0.8151936984969648, -0.43605986430201654, -0.05934309857414549, 1.1184389901482183, -0.8191445913167432, 0.5334409705407288, -1.2751681873497613, -0.9522515363030892, 1.0380278856949445, 0.264944981225406, -0.6024471682098922, 0.4988878531015232, -0.07662240213376403, -0.3330630421285701, -0.25259553404636437, 0.911682840383234, -0.19489349080902652, -0.8722016808324957, -0.06748510648496886, -0.9812628814987813, -1.334618431308631, 0.24401728789707466, -0.4611110701345523, 0.037021883649001386, -0.6904669269210839, 0.5967683892442961, 0.5667328365590328, 1.6076236251080107, -0.636485906740787, -1.6992354021343385, 0.13480448134167677, -1.1740381505427326, 0.11616007490570546, 1.878298757979023], "bias": -0.23512442140189893}, {"weights": [1.2153867942415166, -0.21780094785895732, 0.20441883013614714, -1.143394615143758, 0.033123881809048794, 0.062333818508489736, 1.1701564611657225, -1.4050584336878578, 0.6346415380037251, 0.5114613662322993, 0.24769115953584842, 0.8590727570027832, 1.2580390241254606, -0.1810681304204994, 1.0947068152066215, 0.12855955527098595, 1.347674250151192, 0.6338326767099925, -0.3076511198708995, -0.9743917243194115, 1.9205868076656687, 1.0867124980321385, -0.025187832764406726, -0.14981746955660147, 0.31035780367497334, -0.5232553299869743, -0.5895375331571353, -1.4239184560782374, 0.9098761398730426, 0.09595229596671317, 0.5479827052116755, 0.03934422004551996, 1.8156095813520754, 0.002916747567934308, 0.9673048390249381, 1.4743951370012158, -0.3745218030027644, 1.361262742499, -0.8796154980343333, 0.2759422418250319, -1.5591990360845562, -0.17343430382922154, 0.14726631211549424, -1.373204074454994, 1.4159331605309275, 1.1183924694685594, 1.3772678386133224, 1.0129997572919347, -1.4275154451476368, 0.6673941186355818, -0.2563445385590766, 1.1979685294355304], "bias": 0.1371972073821195}, {"weights": [-0.12797458816695984, -0.9592968346021071, 0.06947307556091009, -0.11125144022098521, -0.4244162240638016, -0.27921376351075544, -1.1215288955206748, 0.5635079657148372, 2.0867241402342733, 0.20770751698063528, -0.4073081585358107, 0.723724119835786, 2.446395450163413, 1.000522001457604, 1.0436565387185202, 0.6110886875678987, -0.5907804427924754, 0.6954789459849828, 1.2065953431931895, -0.8730689713743736, 0.9358007067736638, -1.0926190989261098, -0.40766200373019434, -1.2737508059130214, -0.9071666339259112, -0.33444931426755115, 0.14581002462961157, 1.399960964013353, 0.9580732091272469, -1.5070612211788086, -0.7115744623353715, 0.4233682864872217, -0.4883056342319606, -0.5123236721363975, 0.5355752017076912, -1.0688097387787612, -1.1992271519733784, 0.4385724429293535, 0.6625850623571962, -0.30290039238209654, -0.9870853427078211, 1.4234870521093992, 1.6001465606029714, -0.35704435185010475, -0.07611102418135618, 0.5125055606767954, 0.34459215231436124, -0.5990467644751496, 0.26232804340205595, 0.9396513681331675, 0.7647651680202594, 0.35662470647147104], "bias": -1.5802432075230803}, {"weights": [0.47659076433633163, -2.187519758573298, -0.8191360802890291, 0.30166308517771423, -0.5612721980609995, -0.25818100007808165, -0.4732099308854387, -0.957810310941802, 0.10180472899727344, 0.22454721254101162, 0.9242374800242101, 0.9834050554716287, -0.6660586621547517, 0.16576045143160467, -1.5073620932777596, 0.9581813905951737, 1.0216149966629635, -0.20168694162310152, 0.7110566557361285, -0.9504778090500379, 0.8007159009687438, 1.5365530721819576, -1.5508245077604665, 1.916045983273896, -0.20210076879768724, -0.6157814109436313, 0.8450608586248629, 0.13541139217837178, 0.6753452227275669, -0.1757992626941527, 0.40184566081562334, 0.009619206874326047, -0.43030826874462846, -0.5740679965789317, 0.7475372643446137, 0.49094498434815076, 0.6643763476265602, 0.5291032643990483, 0.8579442438929223, 1.049932505939293, 0.7543101854557919, 0.6301924335131499, -0.91537275291076, -0.23975934335980353, -0.7369652880581876, 1.8949669872929635, -0.5577421012006182, -0.7922508670046271, -0.21798931648934494, -1.9009279448365162, -0.17914572579874577, -1.1823489027630203], "bias": -1.1195493774497798}, {"weights": [-0.4250271838078732, -0.2981559967655172, -0.23507691451608603, -0.31058113138141463, 1.7518102439749754, 0.621193227216202, -0.23034868867708858, -0.27200640443526747, -0.6676181300804898, 0.1409604538636644, 1.0940151153460984, -0.467996974944365, -0.07660199263007861, 0.657549424340797, 0.3902512946017017, 1.2354780794926172, 1.2328159078349579, -2.011713117743871, 0.4492956691877252, -1.687001584111271, 0.8434619957018541, -0.5696335542649563, -0.30564936070604276, -0.4126184990916619, 1.2495775452594375, 0.19356599711010686, 0.1640982226499894, -0.13174754253862486, 0.5631492342139301, 0.5335708786947921, 0.7982656954991837, 0.20353658036343392, -0.8136081705975686, 0.3943699331633371, -1.4300100436015089, 0.3740406374424028, -0.07035027926559928, -0.6357449032610303, 0.2943093934724943, 0.2823645305588003, -0.5533883765713148, 0.387909363708674, 1.0739149413480478, -0.9896805972525708, -0.759955988516431, 0.16679235386224334, 0.37266360188633896, -1.694990543133513, -0.5020341477388242, 0.11724608847984269, 1.518227821212996, 0.4955579116333122], "bias": 0.1810324033542764}], [{"weights": [-0.30440377541780295, -1.4222216796062925, 0.48579854453181204, -2.4727548144803984, 1.1463926300926073], "bias": 0.02085175507521464}, {"weights": [-0.0748697276077, 0.7155439840758078, 0.8471419332300248, -1.169605756958679, -0.24049843845150298], "bias": 0.9498301301830386}, {"weights": [-0.7469240169419384, -0.347018474145804, -0.09255974829257929, 0.31651186597869163, -1.2691309289426682], "bias": -0.5016282344880656}]], "generation": 700}