{"score": 108994, "inputs": [1, 0, 0, 0, 0, 0, 0, 0, 0, 1, 1, 0, 0, 0, 0, 0, 0, 0, 0, 1, 1, 0, 0, 0, 0, 0, 0, 0, 0, 1, 1, 0, 0, 1, 1, 1, 1, 1, 1, 1, 1, 0, 0, 0, 0, 0, 0, 0, 0, 1, 0.08, 0.828], "layers": [[{"weights": [0.36737559694356714, 0.3484282085082327, -0.37505375144566977, -0.6673027428385787, -0.1209910956566016, 0.10123961994244102, 0.008802622115463565, -0.7709051645658926, -0.10694405545397623, -1.3433986900481352, -0.06562548039247051, 0.18321898881345033, 0.01204743634872174, 1.048671837614272, 1.2634475199189483, -1.2391780075636531, 0.061927399138922645, 0.09242260744985265, 0.764174453188712, 0.392171039174499, -0.18430683114031865, 0.5143903998349131, -0.4298979360451223, 0.6223188333687366, -0.4089392693651763, -0.020370825433510875, -0.9853825436480501, 0.5603621322047061, -1.151855276120378, 0.7732153763082175, 0.25881111719208794, 0.9212425215172657, 0.319257011521507, 0.6569601768906128, 0.3968736849906753, 0.8545503265700489, -0.8421747367588588, 0.10618924048145828, -0.460884362550325, -0.44672781404759276, -1.534098465082793, -0.20870631518101512, -0.5143037942712666, 0.35294491413233575, -0.10444082661119958, -0.3110072440773708, 0.7907561208810938, -0.4172057567115667, -0.5278120457760183, -0.6643391466819246, 0.4896313410853923, 0.4086176059471971], "bias": -0.9316996326525717}, {"weights": [-0.05447714486759059, -0.716073094230993, -0.40585953156927823, 0.04221076208925534, 0.009318752138378184, 0.9907288719997263, 0.3212984666706218, -0.5276352857645139, 0.5626515764964484, -0.10308830955583326, -0.3709836500885534, -0.5170587368453954, 0.8159680958944571, 0.6299503355319728, 0.3465837456627549, -0.32989589207138703, -0.39011607432112816, -0.705235819793718, 0.6463081824059338, 0.7907666006628951, 0.4159281977587661, -0.25297695859563457, -0.06271124145108675, 0.5240744969157385, 0.6920722117706768, -0.021948984751739564, 0.8457251659749476, 1.1575888840450062, 0.6045866082589209, 1.5190045954642282, 0.2567535254823368, -0.8285875786904667, -1.0092119417168723, -0.541082896741689, 0.15655357075691856, 0.06680359234287248, -0.6344024296094664, 0.5458245535399986, -1.544910436618237, -1.3561737553906283, 0.12250165272051028, -0.6201277807766142, 0.20180039455437548, -1.0859247868608135, 0.27942044300610314, -1.042422110448871, -1.1139452869530686, -1.5368149908020332, 0.4001018301267736, -0.04427899498421528, 0.07497731645792882, -0.22079401240706975], "bias": -0.09228415875476514}, {"weights": [0.7642929572398829, 0.17685259705029788, 1.4678625700121124, -1.184336429952575, -1.4393229742062374, 0.1010521495954686, -0.5214321307648249, -0.0238200288058234, -0.18472651599260692, -0.9344870883084726, -0.6793375100247255, -0.6478366712999339, -0.7378649794957375, -0.21565083971499632, 0.8726770987485133, 0.021961761643065125, -0.6711969957178575, 0.9498261466862277, -0.07280500022560399, 0.09259156080052167, 0.2045324153487169, 0.4625195133002249, 0.17926988088080398, 0.8895868372733138, 0.36291142018683586, -0.4304753516289459, 0.11103750672742985, 0.22596584922326035, 0.7041087554641727, 1.116266189151513, -0.2835049110984944, 0.38923313210360266, -0.37382434711863033, -0.8826368342211112, -0.25373174942922283, -0.8611126562744039, -0.028828753738308288, -0.1595047656133909, 0.6868006670678852, 0.10952676009801499, -0.7305510224480496, 0.3116205322234449, 0.836528297570404, -0.3022178118801817, -1.313163971026023, -0.9773451246764135, 0.6501229547018919, 0.16126898803470469, 0.41814434708515413, -0.7989275116710782, -0.4181720223502352, -0.3566599013998418], "bias": 0.8617975376940715}, {"weights": [1.429045266582928, -0.8566269407756326, -0.008532447204268934, 0.7241863050542621, 0.38275608026965213, -0.6670743111232386, -0.20602186759776808, 0.9379344110341985, 0.9748304101074501, -0.34869157444197724, -0.205931794368426, -0.9691966421166622, -0.661061265788691, -0.26706326276150283, -0.9665429055128838, -0.31401576533254505, -0.5840666150237666, 1.5060239004934364, 0.40906636974681465, -0.16436639114494, 0.10853230587943608, -0.9914417937023816, 1.147494513969027, 0.03891884024774073, 0.19832670806866043, -0.2841672213275893, -0.2425689310439716, 0.6460083311495874, -0.1887265818640127, -0.9512592960909982, 0.34348240667026575, 0.2959421443382184, 1.4077831409150314, 0.037003212236113914, 0.21180679372708155, 0.8445604181213082, 0.5300859635361139, -0.5490530015534301, -0.9841527302147719, 0.5077270902282314, 0.08487089094833222, 0.08425966187194711, 0.13516394805940535, -0.8470010137067759, -1.937163680263486, -0.29792425676090195, -0.5205285568459054, 0.9033967956084066, -0.039191978904541847, 0.005916778844842208, 0.9913988215565386, 0.5348754092694455], "bias": 0.27544381465818835}, {"weights": [-0.7109613859836532, -0.25848374139349534, -0.383431435458111, 1.7627294239755165, 1.4169936254897597, 0.7759129234214739, 0.023750134769518816, -0.5771829517371541, -1.5284832072358658, -1.5389900477286758, -0.6719974913815088, -0.37352256898931824, -0.34246209821341844, -1.6997151944299185, 0.4108401905467418, -0.9640250528467476, -0.32455171396490035, -1.131296260583465, 0.2235092893137598, -0.2373321289925927, 0.27468256542863245, 0.5756779709472659, 0.1432237877973479, -0.9977565892876656, 0.06287706166128504, -1.5873977776601076, -0.6452892667971705, -0.06959855657639774, -0.1344572320854598, 0.47915692574015667, 0.5795531447693751, -0.33198597351351933, -0.6648730924338707, 0.4547096099725779, -0.13582538207769312, -0.9597862277051825, -0.7574103261110439, -0.4996716778352124, 0.3545919143852625, -0.6518151402031559, -0.26800689395692157, 0.9025788271796678, -0.4529718731419041, -0.006878682341308284, 0.21658825975419171, -0.560535086003654, 0.6358233764213379, 0.16707018834364717, 0.4252656352006532, 0.34987398603150244, 0.6174187497284671, -0.004290830988927796], "bias": 0.06790369208266667}], [{"weights": [-0.19185100437172564, -0.6210515683877955, -0.03510930957294334, -0.13018906337682146, 0.15567910118991307], "bias": -0.2698778064166719}, {"weights": [0.5154378327118749, 0.4617920058300443, -1.1244624228718463, 0.2078403187208946, -0.1512390564684567], "bias": 0.6654717376415697}, {"weights": [0.6386228496164497, -0.5694083206433206, 0.2726339964257062, -0.5167927941651902, -0.26951423477541603], "bias": -0.36437605682648555}]], "generation": 300}