{"score": 109994, "inputs": [1, 0, 0, 0, 0, 0, 0, 0, 0, 1, 1, 0, 0, 0, 0, 0, 0, 0, 0, 1, 1, 0, 0, 0, 0, 0, 0, 0, 0, 1, 1, 0, 0, 1, 1, 1, 1, 1, 1, 1, 1, 0, 0, 0, 0, 0, 0, 0, 0, 1, 0.2, 0.828], "layers": [[{"weights": [-1.3434263311925991, 0.13908775834978004, -0.24666727587098358, -0.4498112903655058, 1.15764104261003, -0.955464650026653, 0.6853101456829624, -0.297588906329567, 0.6685543324174994, -0.44148300156081866, 0.9879102926339463, -0.3423596885976401, 0.47424037852218326, 0.48599248398842043, -0.5591920814202129, -0.37581554472543965, 0.32050646628723967, 0.2505825850985117, -0.44755175935827385, -0.2948445251687095, -0.3672914411211998, 0.584722036703234, -0.21446837185688494, 0.3836642320432322, 1.2274214445809029, -0.9863660519776999, 0.003858759589789207, -0.3874707683766542, 0.17404045960042436, -0.07152986980590748, -0.44741548541322884, 0.6173900898239972, 0.3584940623606214, 0.47873567315072685, -0.3594712786872206, -0.07479087987480276, -0.15358782988420927, -1.2688840076451617, -0.239240451543818, 0.2829356564964891, 0.1852888093277999, 0.3595782518766386, -0.4472263272397725, -0.4978495962473759, 0.022831683784372725, -0.04552648509964419, 0.5034335271850103, 0.9517756195970517, 0.8836467770566077, -0.8485056439300289, -0.8259723949098028, -1.110919791081069], "bias": 0.9592211886964102}, {"weights": [0.8084154922950826, -0.49598388092201606, -0.6857330975066736, 0.6661297432134917, -1.0523090271442204, -0.12261901106329742, -0.5684768161374238, -0.9114167488714673, -0.24197699690114094, 0.13454818956818482, 0.005814334922965347, 0.547833312790025, -0.5241733710454008, -0.46751088470598234, -0.1596062945295409, -0.6225393938311155, -0.18776363548038877, -0.32606920639079284, -0.5299810256281319, -0.7255927458829237, -0.4345305307140428, 0.7554335950424935, 0.5146926504053007, -0.6279396258347346, -0.4067841723872764, 0.19320353305091043, 0.236743030705292, 0.9704809196502273, -0.6349526690759806, -0.6019525689237251, 0.004498017786178199, -0.0826891139359538, -0.8718946921544258, -0.5808185682722347, 0.7585836650294271, 0.012980294693901273, 0.5179654829725759, 0.16334386061540473, 0.4751155018918729, 0.9908937585204092, -0.945564490013057, 0.10987171988183142, -0.29237420744316367, 0.1718654811373418, 1.0912060290594523, -0.4880698913849456, 0.19531253800266835, -0.9058020011422219, 0.1810462236788376, -0.3545459752485747, 0.10882804468585383, -0.6531550699094777], "bias": -0.7008333841500727}, {"weights": [0.08720058145373594, -0.3456879301748853, -0.06410069343678093, 0.841886154180042, 0.03891276587412773, -0.3221143616887354, 0.44462903496434647, -0.7834940273875795, -0.9399738099555008, 0.0068700568205946055, -0.0988862096416363, 0.5231310457767688, 1.7916504262117068, 0.6798542515338692, -0.46873143076185975, -1.006246584576313, 0.4173068897802228, -0.7486945305771104, -0.9870811990872639, 0.7066550688338398, -1.040516833458871, -0.47109698288405966, -0.956291347961026, 0.11896112297622108, 0.6344895687671781, 0.18616151303086825, -0.0787211101706935, -0.40028508538006413, 0.4282336530070572, 0.9710288095098805, 0.41791705312053584, -0.786193831588403, -0.1402834906909024, 0.1661366530853451, -0.9496444314276227, -0.23204995491993374, 0.9281671969366956, 0.7301144059764616, -0.9114726220351501, -0.3875287789790618, 0.9737072928616424, 0.4591182518991641, -0.2307044056498233, 0.7727339722098421, -0.11229812712287335, -0.0558237469777676, -0.15533765007469014, 0.46347379333297645, 0.8383959815523068, 0.4092277473591477, -0.4649948360906363, 0.34651732500723953], "bias": -0.24330157733044966}, {"weights": [0.21083614674593143, -0.8908839860009592, -0.11002787774706957, 0.367972827613122, -0.5750338389543959, -1.3495152392173686, -0.35029796709784733, -0.7302014229641208, 0.5238197355617311, 0.47520921341117206, -0.6660607804853353, -0.45356514155639305, 0.3130884939858499, 0.5045177100864726, 0.8124952059364732, 0.10852559484185442, -1.1375602637452624, 0.023846761990512944, -0.5008177780295742, 0.41834703041146604, -0.44382309545528176, 0.9703598153323341, -0.8735746191564882, -0.9840605315781902, -0.7497770068149352, -0.4853992412542345, 0.696425368147138, -0.6112164127288542, -0.20065648373203626, 1.09451005319473, 0.020755702354507966, -0.5638444157045828, 0.6856832149765959, -0.18545516088393355, -0.8029997810092955, 0.42867766826469184, 0.7132625765651803, 0.8148640649505274, -0.8554053536553297, -0.2963099471755779, 0.8843292247369954, -0.5813487923224705, -0.5295995243193602, -0.4206491885989623, -1.264224439748403, 0.9868498454034293, -0.9554206077244003, -0.8720935731367399, -0.1005147404900455, -0.6765571693908441, 0.1967894079194128, 0.8405791987130184], "bias": 0.2940860136449084}, {"weights": [1.074030536100042, -1.3282297123525955, -1.2160956816798951, -0.5966318831017605, 0.4641341330646347, -0.5430695390881353, 0.5900722220739808, -0.7817292084472831, 0.8146096862064023, -0.5702211448931944, 0.7765453644191527, -0.9153733872668475, 0.3468600170365823, 0.6209670005206291, 0.9080931243269841, -0.7137567169204575, 0.521741442143997, 0.5903318743632673, 0.29739222220507777, 0.2838854951345914, -0.6690751993235915, -0.06183140747858862, -0.5096937236652526, 0.12723744544171356, -0.9233486707593858, -0.1307311615425546, 0.9989378187474884, -0.5202436219458851, -0.004030418850946127, 0.5467693195175662, 0.47486123754114906, 0.6132310836742405, -0.1219022128050633, -0.06397918863621266, -0.9138761749897641, -0.656804232842032, 0.1265399058192319, 0.7047891731829836, -0.4720571845949135, -0.7828025413054276, -0.43674970483348674, 0.0034009438815205684, -0.04397134028940819, -0.4974918923026801, -0.2608499908848667, 0.4152645182569774, 0.027603481108970485, -0.7070155081282553, -0.9016288697635143, -1.4104296526475897, -0.1964619689912408, 1.7428101687999407], "bias": 0.6120763385031394}], [{"weights": [0.3255354551188012, 0.4721049581685357, -0.40259911235750956, 0.2941840768004469, -0.02839401077404169], "bias": -0.30110725745193423}, {"weights": [0.6020303560084053, -0.2833387212133154, 0.06004725313695314, 0.8680008350410502, -0.8473044232746978], "bias": -0.5341660570538671}, {"weights": [-0.31153243734628555, 1.39926083477511, 0.5888517688150421, 0.122865611021018, -0.6623702543113585], "bias": -0.03937580890315906}]], "generation": 300}