{"score": 110994, "inputs": [1, 0, 0, 0, 0, 0, 0, 0, 0, 1, 1, 0, 0, 0, 0, 0, 0, 0, 0, 1, 1, 0, 0, 0, 0, 0, 0, 0, 0, 1, 1, 0, 0, 1, 1, 1, 1, 1, 1, 1, 1, 0, 0, 0, 0, 0, 0, 0, 0, 1, 0.32, 0.828], "layers": [[{"weights": [-1.0464612298028042, 0.11248421143574028, 0.049643970986364194, -0.28258305817897833, 0.9640294708241057, 0.20940740329683538, -0.2316951423797844, -0.5642357792232373, 0.2793196634507682, 0.15943946670005738, 0.042316600682617445, -1.203759849561076, 0.50990519359345, -0.18898863255917941, 1.3778252341916453, 0.3121465866191958, 0.24023621934666284, -0.24837233472808673, 0.8819434550864559, -0.9881043656640017, -1.1686769356392204, 0.7013300738858139, 0.26256089455806586, -0.03650512444647225, 0.4924553935817858, 0.7347870261477201, 0.27510113116666823, -1.094032939949355, -0.22892095037081495, -0.8876844309059175, -0.18036539980180177, 0.7418733886823033, 0.6967621938807085, 0.6047554911966346, 0.7471957497073674, -0.18040549410399964, -0.47526936275564013, -0.42992308961535497, -0.4242204678452295, -0.7395437304787041, -0.1630060454039748, 0.5911726017263929, 0.9231546738123022, -0.08299694156653037, 0.9145789032348142, 1.0350471558940086, 0.25436152290986713, 0.22296990204595674, -1.0006694483443541, -0.6109010622807971, -0.8005444590016007, -0.4721834781978168], "bias": 0.2845437303627233}, {"weights": [-0.3533089464606732, 0.3898698955251827, -0.3775096454386355, -1.345886627682747, -0.811508385169238, -0.7711595897185125, -0.7999183924813547, -0.2967781999849668, -0.23507595257990477, -0.25929023618815394, 0.46099151518010917, -0.029206465890498468, -0.5012546851137958, 0.6765217620553439, 0.34545865064571024, -0.823855068206083, 0.650271717099951, -0.18079336764150744, 0.19100258410571613, 0.719339668195686, -0.8675372118616167, -0.8104076602266872, 0.6626472487416644, 0.6227002335259841, 0.9515239394776263, 0.33729080068393325, -0.13923737370687894, 0.2729195718805154, 0.41637245300728276, 0.13252764768896008, -0.5496240098949721, 1.477752693093268, 0.3435374262854689, -1.7276962273075231, 0.9177835302097209, -0.6426269566857898, -0.34194498021926634, 0.5654893358403994, 0.159843125039141, 1.1166061030764616, 0.4928289592991534, -0.4622859388654614, -0.2985699798786856, 0.4653720548703959, 1.062524740545334, 0.12835523548388483, -0.24358217740238863, -0.06147668044106558, -0.49702352989560267, 0.6330332188986958, 0.10092897000134116, 0.43102008677154413], "bias": -0.06733282024789178}, {"weights": [0.9877257371738933, 0.27870164787669816, 0.19403623292192917, 1.3684543277745231, 0.05147985956253098, -0.5678238699308443, 1.1784210807758329, -0.23812241923449873, -0.07361430249275258, -0.40834996922913946, -0.6910713182491672, -0.6705257580519941, 0.5422781681009483, 0.6936065634409223, -0.7020594025415132, -0.9753904840177847, 0.7345132117684829, 0.1556292396083807, 0.8307130284197948, -0.9615813568224905, 0.5645234376575581, 0.10024478161513728, 1.3454038055836068, 0.8959839687166422, -0.1086903840965956, 0.532060522707057, -0.6591100387336448, -0.6176340313281916, -0.010543935527001613, -0.031806386980890555, -0.32537534372702215, -0.29049030461379255, -0.22772129837289312, 0.8201579531675187, 0.27169382608609816, 0.5391777580681223, 0.9038028544399744, -0.23621836129399587, 0.16487297302228243, -0.8918735697499188, -0.5527678675589942, 0.2054819405612086, 0.49925613475604846, -1.410734967749566, 0.052947869115556934, -0.7864692410762408, 0.3072783071062697, 0.16861994968520966, 0.6629057978486561, -0.5620729396265605, 0.4792934561765135, 0.17374311215827232], "bias": 0.3830452350800644}, {"weights": [-0.5984529578075144, -1.0832786885966357, -0.6875260312956182, -0.5424260612581828, 0.38137921507497274, 0.7870206268977449, 0.16353700835596752, -0.7735843730573749, 0.0778482718894491, -0.12024286210115265, 0.9740237753286873, 0.014698815552610323, -0.7791082669756253, 0.6317929201850581, 0.9088383954985034, 0.9299290016385171, -0.6728099559997028, 0.7681743102459255, 0.48051859933292573, -0.2857076474864435, 0.31480408789220893, 0.6921393679425109, -0.3290716894969026, 0.05227499911291611, 0.12016764586608908, -0.48050823864857906, -0.19278770733391049, -0.4168934053292226, 0.7878939484706107, -0.3167144540809088, -0.42296827778629675, -0.3159265356058658, -0.7282788190837782, 0.35686023786190324, 0.5257999220109162, -0.06355071577471327, 0.5862227423669379, 0.3361041585130349, 0.5334927659722954, -0.3097443469619572, -0.7050731357492361, -1.0149411234766417, 0.7390740454833924, -0.5288415980437319, 0.4003020056211387, 1.0807488092966175, 0.5817351722617979, 0.4933749969854857, -0.6074490098166138, -0.34522388072631305, 0.4657568564416792, -0.1365983148407639], "bias": -0.7420787947061278}, {"weights": [0.7449782292031173, 0.7388232804704267, 1.314703863390645, -0.31863471313771896, -0.7336641611144765, 0.08853850907385197, -0.39645776049220927, -0.8677614764070523, 0.49644141177232215, -0.7554189329039174, -1.1564307549165507, -1.4573746442404416, 0.3169727087773133, -0.3499500620079361, 0.12574930051621047, 1.7139954052073718, 0.8555244321837042, -0.13486158866481968, -0.3309617298399007, 0.22467171096732863, -0.1191953377981182, -0.7065251090783009, 0.30609683038177604, -0.9215848988475166, 0.3738879072505258, -0.30818233165429265, -0.4254400016007178, -0.3116690035322852, -0.9206276436408509, 0.7572858212175628, 0.554033354719633, 0.12060541257417667, -0.07682438770155442, -0.11859181612784919, 0.8588128607048806, -0.6846863902228975, -0.8468114403146318, 0.830355842872422, -0.9074187091427454, -0.7488990303384653, -0.4998232477314105, 0.9304605235191397, -1.137474425220251, 0.6768234691230575, 0.10984759234765651, 1.194485699928258, 0.011578592163727697, 0.3930281911869442, -0.8760779326160437, 0.8290652220739261, -0.27374034401805303, -0.9323211438138452], "bias": -0.8263408944655268}], [{"weights": [0.5504745384473767, -0.21680268251647905, 0.7567005470926687, -0.05040041139362933, -0.0763235608089452], "bias": 0.517716358553207}, {"weights": [1.2217341336101208, 0.5397155922141907, 0.8200750066877207, -0.1072385666436475, 0.9117907794958835], "bias": 0.7487148224545108}, {"weights": [-0.7273939911165814, 0.16087276291973462, -0.5096274085679672, 0.36309292221735356, -0.5696449126580523], "bias": -0.38113875780689344}]], "generation": 700}