{"score": 128694, "inputs": [1, 0, 0, 0, 0, 0, 0, 0, 0, 1, 1, 0, 0, 1, 1, 1, 1, 1, 1, 1, 1, 0, 0, 0, 0, 0, 0, 0, 0, 1, 1, 0, 0, 0, 0, 0, 0, 0, 0, 1, 1, 1, 1, 0, 0, 0, 0, 0, 0, 1, 0.48, 0.828], "layers": [[{"weights": [-0.3549552508109084, 0.4672894962129037, 0.8114146411233776, 0.126083489598388, 0.958720466610903, 0.3778557390572981, -0.5266643974616672, 1.0843743248996738, 1.7748659604253236, 0.15137106491083352, 0.07484339190552136, 0.6533563522551715, 0.3207562176706286, -0.7835837931085827, -0.40658921071491405, -0.49415327163421585, 0.3666050502741789, 1.018373941631233, -0.6358063908767111, 0.5766588418535059, 0.23363014086372358, 0.8150687656882363, 0.4763577306852189, -1.4798544715869975, -0.44159838125883, -0.8550690147198916, -0.18107978847467032, 0.18068535640784944, 0.2312539933309623, -1.432701234940482, -0.6071845343465838, 0.0967513360206842, -1.0207081576847974, 0.04536360351723867, 0.8983977267187082, 1.4444347425027442, 0.5642595317806711, -0.4271148364812962, 0.8893535672641739, -0.4634234556259156, 0.2641777623262904, -1.0284907935620564, 0.4640756776170665, 0.8520899160561752, 1.203346029647297, 0.35298047141368305, -0.8743698915634797, -0.6938893120787203, -0.4453580079482502, -0.9772854661617016, 1.0190890639663255, 1.2057753601265375], "bias": 0.6009756009081112}, {"weights": [0.05111741096376443, 0.4990745080060761, 0.5608881228090782, -0.82449831144249, -0.5992302064607447, 0.18252295730667978, -0.9322127445958177, -0.2515175009543109, 0.8237328146174041, 0.8017791212968055, 0.5540028421917862, 0.9771463957093118, -0.45842011868084276, -0.3514027061715548, -0.7545842883987653, -0.10278444552125554, 0.5380817827995503, -0.6582018447400366, 0.2712297920889113, 0.059065131503329704, 0.03864586577883733, 0.8713705526548862, -0.35337614803444983, -0.9021121412933789, -0.5987407275766012, -0.11426416161508146, -0.6258553655987531, -0.3129972107303016, 0.2221842233736765, 0.21914415003217735, 0.6779495501343626, -0.6404933358570554, 0.42944883585151417, 1.5831005813108403, -1.3199609801509529, 1.434320402024331, -0.00016752656825658185, -0.4831547740916531, 0.3332957785960734, 0.29256377969921754, -0.19686727813462856, 1.2600440369347417, 0.7133479840514492, -0.7141219939994294, -0.3758849874997426, 0.24705145444950638, -0.49616224559370514, -0.5781105154217249, -0.05680976358960932, 0.6675467136607756, -0.5630847018053275, -0.9885447913860115], "bias": 0.3429658750344926}, {"weights": [-0.2662689860716124, 0.7949136827599985, 0.7339914460733876, 0.6548323976151673, -0.4227947203406832, 0.2173591661812604, -0.9953460524198205, -0.05351148862769861, 0.01182104598388034, 0.6515450354717173, 0.2427133597322515, -0.20160724702216415, 0.5734730840604358, 1.1936951157668243, 0.03232172067310479, 0.14429857827031856, -0.4530917225502764, 0.619853376912624, 0.30625466180381733, -0.47979971834265833, -0.16103026012088595, 0.42466018291212926, 0.08038531867711396, -0.533649617032701, 0.08648280441639489, -0.8769479138498937, -0.6679916562619388, -0.019087028646582627, -0.9921822001207405, 0.05646468906371238, 1.2633694772654567, 0.48779039322531237, -0.9565584335635173, 1.5938296064996185, 0.6606867786613482, 0.23423301946035224, -0.3832299671781494, -0.8325769787274511, 0.12346292164474815, 0.7372315909632978, -0.05090967788628764, -0.9713897345528598, 0.3771542928234871, -0.18638628212606007, -0.8926659328335254, 2.0993510775413355, -0.8152112173671475, 0.7466722970774462, -0.09184501555547908, -0.7126760708868873, 0.9378569847702485, -0.05681818994495491], "bias": 0.1167057979581374}, {"weights": [0.22124523480077962, -0.562800752883132, 0.5521217189548051, -0.03359957447792716, -0.07348420908605546, 0.925121593524513, 0.8613295981081555, -0.8961388093900718, 0.6859867631661034, -0.39057248937937894, 0.6611640880570979, -0.3946535752011887, -0.01072080633051975, -0.4288434319090759, 0.7043965760174236, -0.6508805550037249, 0.5562402955384643, 0.42659150962487424, -1.4722333973110713, -0.5559459051708828, -0.9976074605651228, -0.5336968611850734, -0.28339942192099365, -1.2273363425208308, 0.4321629004852763, 1.5393959070902377, 0.8678992490376125, -0.9784312120300696, -0.7334175750485044, 0.2525808221926973, -0.3290388814375309, 0.23337082154470767, -0.05592627082465884, 0.9610189785708831, -0.8229039015978366, 0.6511527878890706, -1.1572056839879479, 0.9582902205496042, -0.400269966607419, -0.4428691775283927, 0.23776724496480295, 0.8706838361905103, 0.27470448327016084, 0.08359177792256434, 0.9055158536821653, 0.7470379313209481, 0.13931176810718826, -0.6527390429016033, -0.8781541422224425, 0.17997050494830868, -0.6178148678053197, 0.5453926337482231], "bias": 0.5100404159755991}, {"weights": [0.21746139993147895, 1.165771926622336, -0.06896860208344324, -0.0875186611337444, 0.6776485133436754, -0.2345667463292349, 0.9494969394912489, 0.5311146040679372, -0.9245596503030674, 0.3980396414774974, 0.565311273784671, 0.2572892883789172, 0.8893030721963577, -0.9547795242911747, -0.16626500279995216, -0.2290875662852241, 0.0410293417344858, -0.7592614981016128, -0.5026611769838332, -0.6901069825818084, -0.298934130952905, 0.921987214149217, -0.9105696952738349, 0.8763616185656773, -0.9108186514766432, -0.2560667117646356, -0.06288047342233383, -0.12865183691339266, 1.1456065151225803, 1.0022137931313493, -0.7716439485715763, -1.338952747017732, -1.4220756743914034, -0.059308107926601794, -0.06279138914080962, -0.6832223724818078, 0.08193967041882022, 0.16819388714761252, -0.25837076436179496, 0.820111607299695, 0.3366031773110125, -0.1129455419423695, -0.7885294300518483, -1.7909745938356831, -0.637357790368609, -0.016650416102982124, 0.5426700653658431, 0.8022747922995628, 0.04772977529632483, 0.5442485951286407, -0.4145153432918913, 0.3232031554164063], "bias": 0.9719416547557506}], [{"weights": [0.38508255340218245, -0.7211904475955226, -0.4895193645293971, -0.41599645905302685, 0.025486229234944147], "bias": 0.315540863870302}, {"weights": [0.8091769621909752, -0.4567205959092834, 0.46771816288959833, -0.3640821839962678, -0.9463756214671957], "bias": -1.2340503224879944}, {"weights": [0.1411814620351608, 1.3258024659697643, -0.1283225066866973, 0.2543705366638246, -0.6547609396318392], "bias": -0.07529760515767592}]], "generation": 700}