{"score": 128736, "inputs": [1, 0, 0, 0, 0, 0, 0, 0, 0, 1, 1, 0, 0, 1, 1, 1, 1, 1, 1, 1, 1, 0, 0, 0, 0, 0, 0, 0, 0, 1, 1, 0, 0, 0, 0, 0, 0, 0, 0, 1, 1, 1, 1, 0, 0, 0, 0, 0, 0, 1, 0.48, 0.756], "layers": [[{"weights": [-0.29601937777755827, 0.4672894962129037, 0.8114146411233776, 0.6117607969691503, 1.4875099660405422, 0.3778557390572981, -0.5266643974616672, 1.0843743248996738, 1.7748659604253236, -0.1883671110193076, 0.07484339190552136, 0.6533563522551715, 0.3207562176706286, -0.7835837931085827, -0.40658921071491405, -0.9653371754748152, 0.3666050502741789, 1.018373941631233, -0.6358063908767111, 0.5766588418535059, -0.41533518685726656, 0.8150687656882363, 0.3692760465027667, -1.9775920139264564, -0.44159838125883, -0.7404589100159116, -0.18107978847467032, 0.18068535640784944, 0.2312539933309623, -1.432701234940482, -0.056355472966243214, 0.0967513360206842, -1.5584221683952757, 0.04536360351723867, 1.5153588685065058, 1.4444347425027442, 0.24780752360519775, -0.23472249274524515, 0.8893535672641739, -0.4634234556259156, 0.5531327769605366, -1.0284907935620564, 0.4640756776170665, 1.2687416805661493, 1.203346029647297, 0.35298047141368305, -0.8743698915634797, -0.6830684082854943, -0.4453580079482502, -0.9772854661617016, 1.5715032396920423, 0.7085637229291942], "bias": 0.013649617421863214}, {"weights": [0.05111741096376443, 0.4990745080060761, 0.30953861126300725, -1.0348558322175756, -0.2832171439411031, 0.6490160764294388, -0.9322127445958177, -0.2515175009543109, 0.8237328146174041, 0.12331187089203588, 0.5540028421917862, 0.9771463957093118, -0.6230894376228473, -0.3514027061715548, -0.7545842883987653, -0.10278444552125554, 0.8309346191786344, -1.1946245049244166, 0.2712297920889113, 0.059065131503329704, 0.03864586577883733, 1.0718370223765565, 0.24239301430753823, -0.9021121412933789, -0.43479843788118155, -0.11426416161508146, -0.09167914980571235, -0.3129972107303016, 0.2221842233736765, 0.46469635329398684, 0.6779495501343626, -0.6404933358570554, 0.23737779463552644, 1.5831005813108403, -1.3199609801509529, 0.6635801491396562, -0.00016752656825658185, -0.7670402317909674, 0.3332957785960734, -0.28422212769275756, -0.19686727813462856, 1.2600440369347417, 0.7133479840514492, -0.6815675260776972, -0.3758849874997426, 0.24705145444950638, -0.49616224559370514, -0.5781105154217249, -0.05680976358960932, 1.0870679871883537, -0.5634443408280138, -1.5872305937371625], "bias": 0.3429658750344926}, {"weights": [-0.18186322479092176, 0.7949136827599985, 0.7339914460733876, 0.6548323976151673, -0.4227947203406832, 0.2173591661812604, -0.9953460524198205, -0.05351148862769861, 0.02850553058924299, 0.6515450354717173, 0.062323347777941907, -0.20160724702216415, 0.5734730840604358, 1.1936951157668243, -0.21393065843134762, 0.14429857827031856, -0.4530917225502764, 0.619853376912624, 0.30625466180381733, -0.47979971834265833, -0.16103026012088595, 0.42466018291212926, 0.17691651634335903, -0.533649617032701, 0.08648280441639489, -0.5269331642767989, -0.6679916562619388, -0.05379428145686915, -0.9921822001207405, -0.3442235086294436, 1.2633694772654567, 1.1367083648566716, -1.005561833483832, 1.5938296064996185, 0.6606867786613482, -0.42604170621168813, -0.3832299671781494, -0.7233422517375044, 0.12346292164474815, 0.8935916519703446, -0.05090967788628764, -1.0630679823765339, 0.3771542928234871, -0.18638628212606007, -1.0767293563066325, 1.7454459104080633, -1.1842487005661675, 0.3335649537085276, -0.5173150568076128, -0.7126760708868873, 1.4083113146038702, -0.05681818994495491], "bias": 0.1167057979581374}, {"weights": [0.22124523480077962, -0.8301567351022077, 0.6298998604974085, -0.03359957447792716, 0.014176333348274506, 1.0777951163291992, 0.8613295981081555, -0.8961388093900718, 1.3218624109454906, -0.39057248937937894, 0.6611640880570979, -0.3946535752011887, -0.01072080633051975, -0.4288434319090759, 0.18962762330488092, -0.6508805550037249, 0.37701459693223405, 0.06898366625546659, -1.7306073568193572, -0.5666096062161378, -0.9976074605651228, -0.5336968611850734, -0.28339942192099365, -1.2273363425208308, 0.38687664804902955, 1.5393959070902377, 0.8678992490376125, -0.6825733317928061, -0.7334175750485044, 0.15898374834496587, -0.3290388814375309, 0.23337082154470767, -0.05592627082465884, 1.6546727781370663, -0.8229039015978366, 0.6511527878890706, -1.1572056839879479, 1.3146989032573695, -0.400269966607419, -0.27986425046330754, 0.23776724496480295, 0.8706838361905103, 0.27470448327016084, 0.08359177792256434, 0.9055158536821653, 0.7470379313209481, 0.13931176810718826, -0.6527390429016033, -0.8781541422224425, 0.17997050494830868, -0.6178148678053197, 0.5453926337482231], "bias": 0.5100404159755991}, {"weights": [0.839416317636946, 1.165771926622336, -0.06896860208344324, -0.5874288750666818, 1.3204448691499495, -0.2345667463292349, 0.9494969394912489, 0.5311146040679372, -0.9812882873380868, 0.7963860235063491, 1.0049900740486155, 0.05098953903158138, 0.8893030721963577, -0.9547795242911747, 0.5043715118915064, -0.8660698077697266, 0.0410293417344858, -0.7592614981016128, -1.0520543507089957, -0.6901069825818084, -0.298934130952905, 0.921987214149217, -0.9105696952738349, 0.8763616185656773, -0.32258888359026816, -0.06412372845090097, -0.06288047342233383, -0.349746838464214, 1.1456065151225803, 1.5317852873799418, -0.7716439485715763, -1.6547776233917453, -1.4220756743914034, -0.059308107926601794, -0.06279138914080962, -1.7823916322539586, -0.5827167793935292, 0.16819388714761252, -0.050684789320310175, 0.820111607299695, 0.3366031773110125, -0.1129455419423695, -0.7885294300518483, -1.7909745938356831, -0.8163263248792053, -0.016650416102982124, 0.5426700653658431, 0.8022747922995628, 0.04772977529632483, 0.5534035037809828, -0.4145153432918913, 0.3232031554164063], "bias": 0.9719416547557506}], [{"weights": [0.38508255340218245, -0.7211904475955226, -0.4895193645293971, -0.09862232510578484, -0.4755287839265384], "bias": 0.315540863870302}, {"weights": [0.8091769621909752, -0.4567205959092834, 0.46771816288959833, -0.3640821839962678, -0.9463756214671957], "bias": -1.2340503224879944}, {"weights": [0.1411814620351608, 1.3258024659697643, -0.1283225066866973, 0.2543705366638246, -0.554121115324864], "bias": -0.07529760515767592}]], "generation": 700}