{"score": 128760, "inputs": [1, 0, 0, 0, 0, 0, 0, 0, 0, 1, 1, 0, 0, 1, 1, 1, 1, 1, 1, 1, 1, 0, 0, 0, 0, 0, 0, 0, 0, 1, 1, 0, 0, 0, 0, 0, 0, 0, 0, 1, 1, 1, 1, 0, 0, 0, 0, 0, 0, 1, 0.48, 0.708], "layers": [[{"weights": [-0.5252812781651202, 0.6043135385984556, 1.2811332683092511, 0.15360102568412248, 0.958720466610903, 0.3778557390572981, -0.5266643974616672, 1.0843743248996738, 1.7748659604253236, 0.5034148273811467, 0.27445675891518384, 0.0052912652239270885, 0.3207562176706286, -0.5671739346993889, -0.12941962433637422, -0.49415327163421585, 1.5275438667042334, 1.018373941631233, -0.2140756448679353, 0.5766588418535059, 0.23363014086372358, 0.8150687656882363, 0.5107919678845851, -1.4560349724473471, -0.44159838125883, -0.8550690147198916, 0.09137347116550154, -0.12542869759509534, 0.2312539933309623, -1.432701234940482, -0.42036563462089815, 0.41800188446035613, -1.2971228192051096, 0.023500380580881775, 0.39718990500871587, 0.8582223876118369, 1.1573932956904702, -0.07372863626786996, 0.8893535672641739, -0.4634234556259156, 0.4857435705943134, -1.0284907935620564, 0.4640756776170665, 0.32031425832789484, 1.203346029647297, 0.35298047141368305, -0.8743698915634797, -0.8804272290226643, -0.4453580079482502, -1.4521181161102765, 1.0190890639663255, 1.2057753601265375], "bias": 0.6009756009081112}, {"weights": [0.05111741096376443, 0.8195929451223457, 0.5608881228090782, -0.82449831144249, -1.4713057945576202, -0.2151237320283409, -1.4748495763372382, -0.2515175009543109, 0.9100656735701452, 0.8017791212968055, 0.5540028421917862, 1.379981242228681, -0.45842011868084276, -0.34484430197754945, -0.7545842883987653, 0.030382012583271445, 0.5380817827995503, -0.6582018447400366, -0.29341490380346924, -0.4699618827477452, 0.03864586577883733, 1.3031596371754333, 0.16196691837565513, -0.5197528181761469, -1.0637625056994084, 0.504304737704409, 0.12762833083218972, -0.3129972107303016, 0.31494016363887256, -0.08692852297299036, 0.6779495501343626, -0.17530261007463876, 0.47144604383685706, 1.5831005813108403, -1.116284620042716, 1.434320402024331, -0.00016752656825658185, -1.0612587489288519, 0.3332957785960734, 0.13187990266661898, -0.6324434974168938, 1.327933296071114, 0.6397131160659366, -0.3136059121162905, -1.6253305542696983, 0.9142951937825599, 0.06814047363328679, -0.5781105154217249, -0.05680976358960932, 0.9949767460930616, -0.5630847018053275, -1.667618567793057], "bias": 0.3429658750344926}, {"weights": [-0.2662689860716124, 0.06411881327092617, 0.7339914460733876, 0.11093862139060917, -0.9474579878307007, 0.4372970337545272, -0.44883872803293645, -0.05351148862769861, 0.01182104598388034, 0.6515450354717173, 0.2427133597322515, 0.4172553589917156, 0.02740122340899631, 0.8560224210793177, 0.5541028699351247, -0.12547877015007286, -0.4530917225502764, 1.3798242378443055, 0.30625466180381733, -0.613973231232101, -0.16103026012088595, -0.20422898853809685, 0.08038531867711396, -0.533649617032701, 0.08648280441639489, -0.21655145409011767, -0.6679916562619388, 0.29353495266798724, -1.2222268338626343, 0.26594256391447046, 0.8585294680935148, -0.16353742315495234, -0.9565584335635173, 1.3781830490639897, 0.05360460554233892, 0.23423301946035224, -0.5212695838044106, -1.3872892266606824, 0.12346292164474815, 0.7372315909632978, -0.05090967788628764, -0.9713897345528598, 0.0836426394055999, -0.18638628212606007, -0.8926659328335254, 2.675050454397482, -0.8152112173671475, 0.8157010024680971, -0.20390015264872707, -0.7126760708868873, -0.02195566573041935, 0.06518333630136808], "bias": -0.0462075766338339}, {"weights": [-0.46371569258557876, 0.02462152007100965, 0.5521217189548051, -0.08088870500562562, 0.9411741746218774, 0.4807034417611651, 1.4416547347551338, -0.618001746017095, 0.009006489590806521, -0.9888697360235233, 0.6344566161779625, -0.3946535752011887, -0.01072080633051975, -0.4288434319090759, 0.7004292195342706, -0.6704122833413529, -0.5617972590050457, -0.06905133848034423, -1.4722333973110713, -0.2457043559487394, -1.4556057692316036, -0.5336968611850734, 0.3460933068483485, -1.100519248137188, 0.4321629004852763, 2.066621931629691, 0.8678992490376125, -0.9784312120300696, -0.7334175750485044, 0.2525808221926973, 0.22222768994328757, 0.23337082154470767, -0.23382928884509024, 0.9610189785708831, -1.0955571330515912, 0.7118803408129761, -0.6540754383410974, 0.7768216146632121, -0.45988880250373976, 0.1857665406808654, 0.23776724496480295, 1.148285392117437, -0.2276669148949486, 0.05896562646587633, 0.5433106843001947, 0.5019121192950328, -0.1655939975816912, -0.9396574504755265, -1.1293566552121987, 0.17997050494830868, -1.129653830890962, 0.5453926337482231], "bias": 0.5599781053228813}, {"weights": [0.21746139993147895, 0.527792581679308, -0.06896860208344324, -0.7900966767148094, 0.6776485133436754, -0.9978817116504719, 0.4258061752806964, 0.7210259407904311, -0.5262382977686746, 0.3980396414774974, 0.5326211117520534, 0.6133344084850646, 0.8893030721963577, -1.1518688019607288, -0.4657815850933778, -0.5788949866165287, -0.8962775734746713, -0.7592614981016128, -0.5026611769838332, -0.6901069825818084, -0.298934130952905, 0.921987214149217, -0.7940423043129325, 0.4653658571848085, -0.6887745330237344, -1.2654226206252306, 0.4335895056036536, -0.12865183691339266, 1.1456065151225803, 1.0022137931313493, -0.7716439485715763, -1.338952747017732, -1.2058765684485617, 0.016350133113107845, 0.05666811237096114, -0.2790661325273949, 0.08193967041882022, -0.06509702090526043, -0.25837076436179496, 0.6751853193677064, 0.14041243054533337, -0.1129455419423695, 0.7815332597026223, -1.7909745938356831, -0.637357790368609, 0.4396996520938701, 0.3210577350735411, 0.8022747922995628, 0.04772977529632483, -0.07083020901967785, -0.4145153432918913, 0.6572184734432175], "bias": 0.9719416547557506}], [{"weights": [0.38508255340218245, -0.6536450070578437, -1.429419926599714, -0.41599645905302685, -0.5246302638786878], "bias": 0.7759647615973071}, {"weights": [1.2239413602228626, -0.4567205959092834, 0.23540292360588472, -0.7579226898955312, -0.9463756214671957], "bias": -1.2340503224879944}, {"weights": [0.49733159950352457, 1.3258024659697643, -0.1283225066866973, 0.2543705366638246, -0.6547609396318392], "bias": -0.07529760515767592}]], "generation": 700}