{"score": 128760, "inputs": [1, 0, 0, 0, 0, 0, 0, 0, 0, 1, 1, 0, 0, 1, 1, 1, 1, 1, 1, 1, 1, 0, 0, 0, 0, 0, 0, 0, 0, 1, 1, 0, 0, 0, 0, 0, 0, 0, 0, 1, 1, 1, 1, 0, 0, 0, 0, 0, 0, 1, 0.48, 0.696], "layers": [[{"weights": [-0.19852544450757592, 0.4672894962129037, 0.8114146411233776, 0.126083489598388, 0.4718168122659322, 0.3778557390572981, 0.015995212998701547, 2.3060484899726714, 1.910092634659422, 0.15137106491083352, -0.14183829579481894, 1.3205922692760745, 0.3207562176706286, -0.7835837931085827, -0.40658921071491405, -0.49415327163421585, 0.3666050502741789, 1.1348999488697458, -1.133869968784941, 0.5766588418535059, 1.3793261251218292, 0.7686822144793702, 0.39198052239126935, -1.3572357986325345, -0.44159838125883, -0.9518854540789113, -0.5708824274001278, 0.3855094221479505, 0.2312539933309623, -1.432701234940482, -0.4191971613172638, -0.5882115063775196, -1.0905734315872002, 0.04536360351723867, 0.8983977267187082, 1.4444347425027442, 0.5642595317806711, -0.4271148364812962, 0.8893535672641739, -1.12744412997377, 0.2641777623262904, -1.0284907935620564, -0.325891002629876, 0.8520899160561752, 1.4861558124068304, 0.7953994041454333, -0.7768194403361062, -0.6938893120787203, 0.14522919994879468, -0.3068232273872906, 1.0095182566744318, 1.2057753601265375], "bias": 0.6009756009081112}, {"weights": [-0.40323953993053674, 0.15523726738395371, 0.5608881228090782, -0.8031530913883235, -0.5992302064607447, 0.18252295730667978, -1.3571502576637777, -0.2515175009543109, 1.3379778282929415, 0.8017791212968055, 0.5540028421917862, 0.6675374378617963, -0.048263131729803566, -0.4909751102254042, -0.05955080414645397, -0.10278444552125554, 1.0165458634903135, -0.2695472732477733, 0.6411476487273031, 0.059065131503329704, 0.03864586577883733, 0.8713705526548862, -0.10014772633064672, -0.9021121412933789, -0.5987407275766012, -0.11426416161508146, -0.6258553655987531, -0.3129972107303016, 0.2221842233736765, 0.21914415003217735, 0.6779495501343626, -0.6404933358570554, 0.42944883585151417, 1.5372384953321088, -0.7654113594356171, 1.434320402024331, 0.41181300064993764, -0.515588060560523, 0.3332957785960734, 0.29256377969921754, -0.11968810361456239, 2.1650309041809055, 0.7133479840514492, -0.38633411096026316, -0.5918504257819381, 0.24705145444950638, -0.8015655890487828, -0.5781105154217249, -0.06961707778496362, 0.6675467136607756, -0.5630847018053275, -0.9885447913860115], "bias": 0.3429658750344926}, {"weights": [-0.2662689860716124, 0.7949136827599985, 0.7339914460733876, 0.6548323976151673, -0.6049661814049271, -0.3312574878324398, -0.9953460524198205, -0.08021311186667102, 0.01182104598388034, 0.2333926957901215, 0.2427133597322515, 0.38623129723146743, 0.5688404237644158, 1.163425055313592, 0.03232172067310479, 0.14429857827031856, -0.29808157227970744, 0.619853376912624, 0.30625466180381733, -0.47979971834265833, -0.16103026012088595, 0.42466018291212926, 0.08038531867711396, -0.533649617032701, -0.9333135510312374, -1.423038968973869, -0.6952433855400835, -0.6746692226839109, -1.4288111370807253, 0.04057523244709782, 1.2633694772654567, 0.48779039322531237, -0.6481458834611777, 1.8537515331363867, 0.6606867786613482, -0.08757712973808646, -0.3832299671781494, -1.1845552386694798, 0.7726951893986157, 1.3293957141853538, -0.6647264952672435, -0.9713897345528598, 0.3771542928234871, -0.4862344360693592, -0.688675068319725, 2.6838773198607173, -1.2391299601922232, 0.7466722970774462, -0.09184501555547908, -0.6363303046513433, 0.9378569847702485, -0.05681818994495491], "bias": 0.6030814012407875}, {"weights": [0.22124523480077962, -0.562800752883132, 0.5521217189548051, -0.03359957447792716, 0.47326851345049903, 0.925121593524513, 0.8613295981081555, -1.7125430295164, 1.3567599290010932, -0.3755423872388082, 0.01173166484429694, 0.1253616165870438, 0.6577454079555134, -0.4288434319090759, 0.7043965760174236, -0.7311574929072076, 0.5562402955384643, 0.44048285144114135, -1.4722333973110713, -0.0832474286679612, -0.9976074605651228, -0.5336968611850734, 0.30216927684964, -1.2273363425208308, 0.4321629004852763, 1.5393959070902377, 0.8678992490376125, -0.9784312120300696, -0.7334175750485044, 0.2525808221926973, -0.3290388814375309, 0.23337082154470767, -0.2621024586905014, 0.9093805065460204, -0.6815641837439572, 0.09527968084597666, -0.8270129433145057, 0.7173070126134342, -0.400269966607419, -1.0443496766221732, 0.23776724496480295, 0.8706838361905103, 0.27470448327016084, -0.24940486581465982, 0.8195203746945736, 0.05564926534995529, 0.13931176810718826, -1.1229342346980287, -0.8781541422224425, 0.06817731362976531, -1.0045338064898313, 1.1862722686549223], "bias": 0.5100404159755991}, {"weights": [0.03427759193560126, 0.961690595975703, -0.06896860208344324, -0.0875186611337444, 0.6776485133436754, -0.2345667463292349, 0.9494969394912489, -0.32052687031359933, -0.9245596503030674, -0.03064992356600127, 0.565311273784671, 0.2572892883789172, 0.8893030721963577, -0.9547795242911747, 0.19556653437460803, -0.5665213161012451, -0.3136977650319377, -0.7592614981016128, -0.6733014246102598, -0.7004795008708702, 0.9706804257860042, 0.921987214149217, -0.22176177300099886, 0.8763616185656773, -0.6591338950344184, 0.3363349527871118, -0.06288047342233383, 0.29728371171948864, 1.1456065151225803, 1.0022137931313493, -0.7716439485715763, -1.338952747017732, -1.4338867832980697, -0.059308107926601794, -0.06279138914080962, -1.0441694499423722, 0.08193967041882022, 0.7581156662292103, -0.5877479530546239, 0.820111607299695, -0.10607750266505067, -0.1129455419423695, -1.2203706255141875, -1.274137711557154, -0.5634547924212332, -0.016650416102982124, 0.5426700653658431, 0.7374807457808821, 0.04772977529632483, 0.7345416722853305, -0.4145153432918913, 0.3232031554164063], "bias": 0.9719416547557506}], [{"weights": [0.32558496457754893, -0.10029428528564988, -0.623068802207726, -0.6537443805559714, 0.025486229234944147], "bias": -0.2473074604939547}, {"weights": [0.9152521796658855, -0.4567205959092834, 0.46771816288959833, -1.0530594541634422, -0.9463756214671957], "bias": -1.2340503224879944}, {"weights": [0.04407886162597807, 1.3258024659697643, -0.3650624728962176, 0.2543705366638246, -0.4502211108677935], "bias": -0.07529760515767592}]], "generation": 700}