{"score": 128736, "inputs": [1, 0, 0, 0, 0, 0, 0, 0, 0, 1, 1, 0, 0, 1, 1, 1, 1, 1, 1, 1, 1, 0, 0, 0, 0, 0, 0, 0, 0, 1, 1, 0, 0, 0, 0, 0, 0, 0, 0, 1, 1, 1, 1, 0, 0, 0, 0, 0, 0, 1, 0.48, 0.756], "layers": [[{"weights": [0.00888413399110366, 0.1313595197769193, 0.8114146411233776, 0.0013953213039821222, 1.0033009742683072, 0.5449022288997051, -0.5266643974616672, 1.0843743248996738, 1.6229836587526376, 0.4818647501751252, 0.07484339190552136, 0.6533563522551715, -0.1166339058417914, -0.1160280788603485, -0.40658921071491405, -0.7419882099892019, 0.3986315310843531, 1.018373941631233, -0.6358063908767111, 0.5766588418535059, 0.46935462071289014, 0.8150687656882363, 0.4763577306852189, -2.0387067583003216, -0.44159838125883, -0.659354141324553, -0.18107978847467032, 0.18068535640784944, -0.03654994940131112, -1.8002276332858385, -0.4892977790215989, 0.0967513360206842, -0.7589069665866264, 0.04536360351723867, 0.8983977267187082, 1.8865163871672097, -0.38622836983003395, -0.4271148364812962, 0.8893535672641739, -0.4634234556259156, 0.49473972592108795, -1.3251980225452389, 0.7918909702708641, 0.8520899160561752, 1.203346029647297, 0.7204977537546102, -0.8743698915634797, -0.06980471955439882, -0.4453580079482502, -0.9772854661617016, 0.6673816534509299, 1.2057753601265375], "bias": 0.6009756009081112}, {"weights": [-0.010128229834325375, 0.4990745080060761, 0.5608881228090782, -0.82449831144249, -1.2937023647460362, 0.12372256735288167, -0.9322127445958177, -0.2515175009543109, 1.0589987706692503, 1.3201314378417814, 0.5540028421917862, 0.9771463957093118, -0.45842011868084276, -0.319595352345417, -1.5304253953335625, -0.5720841753536587, 0.3015829595894947, -0.21807093397675303, 0.45827440633845806, -1.014440030827981, 0.08486103956450097, 1.438828075768256, -0.35337614803444983, -0.9021121412933789, -0.3424183055294766, -0.11426416161508146, -0.7446946330023744, -0.8991481921700476, -0.11721055842346667, 0.21914415003217735, 0.8502819696520703, -0.664600501749311, 0.42944883585151417, 1.5831005813108403, -1.0317162687981822, 0.9684004734404543, -0.00016752656825658185, -0.4831547740916531, 0.3332957785960734, 0.29256377969921754, 0.26793196104446415, 1.2600440369347417, 0.7133479840514492, -0.7141219939994294, -0.6173484748525029, 0.6373500058774012, -0.49616224559370514, -0.219071919382977, -0.5518322873719825, 0.6675467136607756, -0.5630847018053275, -0.9885447913860115], "bias": 0.5266205171229758}, {"weights": [-0.8449673923620626, 0.7949136827599985, -0.05443330722986872, 0.6548323976151673, 0.27572772722593597, 0.2173591661812604, -1.3834614073228264, -0.05351148862769861, -0.4485330160813984, 0.6515450354717173, 0.9256122195754279, -0.20160724702216415, 0.5734730840604358, 1.0702415165794195, 0.43061870342140884, 0.2455555545353858, -0.47096568219791024, 0.619853376912624, 0.30625466180381733, -0.8908558253318037, -0.25171897143189514, 0.42466018291212926, 0.08038531867711396, -0.533649617032701, 0.08648280441639489, -0.8769479138498937, -0.6679916562619388, -0.019087028646582627, -0.9921822001207405, 0.05646468906371238, 1.422345920343925, 0.006295543516887769, -1.6532198468504469, 1.5938296064996185, 0.05907024769375657, 0.3317754329150613, 0.2306976516575454, -0.3326781509526884, 0.5090127637896912, 0.7372315909632978, -0.05090967788628764, -0.9713897345528598, 0.7027770856018704, -0.18638628212606007, -1.321995177723601, 1.427880180249406, -1.1651833883079055, 1.170509029726429, -0.09184501555547908, -1.1088284931106172, 0.5636008734229001, -0.05681818994495491], "bias": -0.14291365498299752}, {"weights": [0.54526226288298, -0.06395941366556135, 0.5521217189548051, -0.1097369853140015, -0.010347717748786955, 0.925121593524513, 0.8613295981081555, -0.8961388093900718, 0.6859867631661034, -0.39057248937937894, 0.6611640880570979, -0.8855237968413818, -0.22399717746329262, -0.4288434319090759, 0.7043965760174236, -0.6508805550037249, 0.3567583995943613, 0.42659150962487424, -1.4722333973110713, -0.5559459051708828, -0.5806068263902477, -0.5336968611850734, 0.10479132564847493, -1.2273363425208308, 0.4321629004852763, 1.5393959070902377, 1.799696430989214, -0.9784312120300696, -0.7334175750485044, -0.42406362171367706, -0.3290388814375309, 0.23337082154470767, 0.5152076197103919, 0.9610189785708831, -0.5209882465229017, 0.7428609066026818, -0.6588442155872314, 0.9582902205496042, -0.400269966607419, -1.0142053553296106, 1.2596228347065686, 0.8706838361905103, 0.6775480839688806, 0.08359177792256434, 1.4212375560107962, 0.31339888570011104, 0.13931176810718826, -0.9060144712757907, -0.2728378195914062, -0.19191471144435818, -0.6178148678053197, 0.5453926337482231], "bias": 0.5100404159755991}, {"weights": [0.21746139993147895, 0.480279772898792, 0.5589498373613819, -0.0875186611337444, 0.6776485133436754, -0.2345667463292349, 0.9494969394912489, 0.5311146040679372, -1.078262206949225, 0.5776378437968404, 0.565311273784671, 0.2572892883789172, 1.438681614043702, -0.9547795242911747, -0.16626500279995216, -0.2290875662852241, -0.6163748298212588, -0.3381786221152683, -0.5026611769838332, -0.6901069825818084, -0.9335239971557123, 0.921987214149217, -0.9105696952738349, 0.8763616185656773, -1.0491274125308314, -0.2560667117646356, 0.3906954893812271, -0.12865183691339266, 1.7702091083731233, 1.0022137931313493, -0.7716439485715763, -1.338952747017732, -1.5457213253487279, 0.4236975932799354, -0.06279138914080962, -0.6832223724818078, 0.2914529109392164, -0.5241347933880941, -0.25837076436179496, 1.2501724476718925, 0.7099051371595286, -0.770224678621342, -0.2815190660885617, -1.3186126252290575, -0.49422179096069363, -0.016650416102982124, 0.20068329998034856, 0.8022747922995628, 0.04772977529632483, 0.6457477747171472, -0.9433269421134843, 0.3232031554164063], "bias": 0.629752141935848}], [{"weights": [0.2606547419791415, -0.7211904475955226, -0.4895193645293971, -1.0449561364260243, -0.38082278299723665], "bias": -0.0911582490737533}, {"weights": [0.8091769621909752, -0.558941358142766, 0.46771816288959833, 0.01859234870470461, -0.9463756214671957], "bias": -1.2340503224879944}, {"weights": [0.1411814620351608, 1.19643093429785, -0.1283225066866973, 0.2543705366638246, -0.6547609396318392], "bias": -0.07529760515767592}]], "generation": 700}