{"score": 14994, "inputs": [1, 0, 0, 0, 0, 0, 0, 0, 0, 1, 1, 1, 1, 1, 0, 1, 1, 1, 1, 1, 1, 1, 1, 1, 0, 1, 1, 1, 1, 1, 1, 1, 1, 1, 0, 1, 1, 1, 1, 1, 1, 0, 0, 0, 0, 0, 0, 0, 0, 1, 0.8, 0.432], "layers": [[{"weights": [-0.5177923941829217, -0.2971185940454568, 0.9418893365813852, 0.6673755303868492, -0.38151823837440535, -0.1273646187449362, 0.15482213169947845, 0.615080556616106, 0.5028365861580189, -0.018443935018559676, 0.004151316078691902, 0.006198825571910316, -0.04738164682550505, -0.09888082020491784, 0.8199583352358815, -0.5304285287568986, -0.04241714760395077, 0.6691506767011, -0.02491647037972944, 0.24542733022611718, -0.7768587971353713, -0.7307341033328916, 0.6930707238043667, -0.652895292468046, 0.7150380788562012, 0.24947642407430237, -0.9036238918093573, 0.7947952466684773, -0.9822310575550885, -0.3087072411438585, -0.9954678274054602, 0.5193599121372277, 0.17931087476474894, -0.3898128031122823, -0.29804948768636086, -0.9495764975262122, 0.5859877933212428, 0.22548108638956244, 0.9530509862636982, -0.8089440001504092, 0.520491621953582, 0.8999073069385299, -0.46996764760239573, 0.5207601016692656, -0.5886300841028143, -0.781699169285851, -0.3584720916263351, -0.8878278066592156, -0.885087620512123, 0.2778963632121667, 0.9665601801800836, 0.7484768385663141], "bias": -0.4012685718177904}, {"weights": [-0.49217492019126285, -0.595647460583717, 0.8373615585960199, -0.38948458098562533, 0.8140667608782748, -0.5237902324090262, 0.5517593887672974, -0.43330899013569146, -0.0515382219282543, 0.2704482098685421, 0.37090440663210944, -0.9836890088867243, 0.946018020684825, -0.19319056400851764, -0.8157186515646011, 0.32932404758944633, 0.33847360146905126, 0.34610495567544297, 0.5170573961863636, 0.607756349286291, 0.29490381619457784, 0.4545724282609964, 0.6370189057249571, 0.05972082815203361, -0.1384242108928424, -0.031777981299359714, -0.1921628821981587, 0.7200182180520869, 0.19264294272150906, -0.3286269251261622, -0.10487349238838095, -0.4287294262857131, -0.12637920905989697, -0.6202746426255383, 0.08830159688558115, 0.8017674381618807, -0.9861183418693278, -0.6655657595122726, 0.9158148731546303, 0.30053325749158377, 0.1775983079826327, -0.14091603146790388, -0.576657590104352, -0.08275324445603838, -0.7748770755660905, 0.3104104042592186, -0.5453398920385137, 0.4998483825509956, -0.14376015086322758, 0.7146516029793695, -0.5241663998678592, 0.14137000404910322], "bias": 0.6490612779289027}, {"weights": [0.6602196633730777, 0.8389271339999642, -0.9003527524752839, -0.968709892595164, 0.29617606111603, -0.700746136163817, 0.8585163566105496, -0.05708047952705875, 0.1650274328080954, -0.3648120446492513, -0.4498284445899057, 0.04322742214551001, 0.4646472812979172, 0.23794374477091895, -0.5092785897304617, -0.7602859493595471, -0.027234462630994383, -0.5049192519762187, 0.4525905152196985, 0.6978001471130877, 0.6446754705304631, -0.6631824386232947, -0.7529218005273685, -0.8796778320149687, 0.07813867631143379, 0.23014059200455095, -0.04749635430671195, 0.9707541836001314, -0.825737589187135, 0.8079847334189756, 0.45533135158020266, -0.3663757404578092, -0.3128746353231122, 0.2093940225456965, 0.8991883117629489, 0.8586291580734653, 0.5575252902777106, 0.39164730353814003, 0.9430264062770275, -0.23017485712352714, 0.08978674982257218, 0.03533210966221434, 0.4768677002616477, 0.3180890511284451, 1.4434551435353908, -0.7725281749999828, -0.30125536519048635, 0.38310482451494066, 0.6004156139771406, -0.33320710442685586, -0.4834603398618269, 0.0641605275080066], "bias": 0.37549539157237266}, {"weights": [-0.4561046911106359, -0.9426987777192044, 0.6936412167525274, 0.7282579816692245, -0.5452432764778319, 0.7451741010148025, -0.27887818176065093, 0.19773104199107583, -0.7218980920862745, -0.5530352429162089, 0.4611883210830696, -1.5555256379189297, -0.43959454211563975, -0.7589001114581009, 0.871128648873382, 0.23243130968814318, -0.18964075454757068, -0.651879851562535, 0.9835080299945964, -0.1603008271716193, -0.406542438586895, -0.01570412721330161, 0.6998429112880922, 0.8335722967049894, 0.18033679487937526, 0.4099589311134355, -0.03890059318827599, 0.90217217114488, 0.6974668764701177, 0.7362426604123, 0.06649035382372392, 0.019054301371950633, 0.40635259684227965, 0.9549174021423685, -0.3877821277407425, 0.5920891856308934, 0.13337890842250744, -0.792494100010614, -0.6942921852840034, -0.881781091617609, 0.3626753376461014, 0.24557310162115198, -0.7022466898527475, 0.8617697937684652, 0.9780192587314449, 0.47319170454707926, -0.7291720835670741, -0.43978285883433843, -0.46539122519310006, -0.00619572736496754, 0.3769389913761054, -0.815602051585258], "bias": -0.6079864763916587}, {"weights": [-0.4225316960831351, 0.9617661991520963, -0.4841697839336938, 0.5674437373701589, 0.0919675464951728, -0.895768592244296, 0.825428161856465, -0.30098507290331833, 0.9007219524835075, 0.5645146605798597, 0.814200637688872, -0.9208756331649257, -0.6741569513916333, -0.7293351873501928, 0.5828189356343763, 0.5165566374597756, -0.15287710029138335, 0.7416653318595767, -0.29963164529116293, -0.7491842806966107, 0.7351632031773119, 0.5773292060328787, 0.43854128532405356, -0.2593524402183073, 0.12132152407774521, -0.84080199443503, -0.6848239084925924, 0.36028716438739083, -0.8811243688337687, 0.985072270468117, 0.9186976519887811, -0.10480162242606972, 0.5092038004479518, 0.20742261816263707, -0.048010010315971074, -0.907199569877926, -0.14430417967423503, 0.20667869503555547, -0.8421195919401616, -0.7003241322065827, 0.9738168621243284, -0.07896692455896925, -0.13987516774030467, 0.6767894113185831, -0.007854988533694596, -0.06087498375431566, -0.5232581289265359, 0.22456998221912716, -0.18005174710906258, -0.9342244375160267, 0.34551085794879266, 0.09531398146590009], "bias": -0.7240927671356743}], [{"weights": [-0.7797576465762059, 0.7070598874821525, -0.40847071970777216, -0.16717334951964058, 0.2987809075802301], "bias": 0.8465699245426253}, {"weights": [-0.4103264542688325, 0.777473626748391, -0.15390035589394224, 0.30500474832378244, -0.7657284038671226], "bias": -0.9876938825953223}, {"weights": [0.4923911136560568, 0.4349880849793666, 0.17362612390236265, 0.8071638771703828, 0.3162939068136208], "bias": -0.16872501418750296}]], "generation": 300}