{"score": 78862, "inputs": [1, 0, 0, 0, 0, 0, 0, 0, 0, 1, 1, 1, 1, 1, 1, 1, 1, 0, 0, 1, 1, 0, 0, 0, 0, 0, 0, 0, 0, 1, 1, 0, 0, 0, 0, 0, 0, 0, 0, 1, 1, 0, 0, 0, 0, 0, 0, 0, 0, 1, 0.48, 0.432], "layers": [[{"weights": [-0.6609868559632406, 0.026094105814051805, 0.9326488017661855, -0.11367456900193185, 0.6579880148956339, 0.6409067503107799, -0.16619371048301723, -0.6135374309916211, 0.21670582197317212, -0.881886230849722, 0.7433642495507877, 0.8983418786385688, 0.4324413913782248, -0.29251431459767563, 0.2742506257128299, -0.2538588651848914, -0.4048767870072416, 0.23273253917715064, -0.6699918274499848, -0.6763374773797515, 0.6133110791653644, 0.8582653846291972, 0.9341142409122773, -0.7009552527826095, -0.08853862713313032, -0.9275026012354841, -0.12516267539319037, -1.6415848670904116, 0.8716355445759663, -0.26958310371251887, 0.28354680916320313, 0.021157561267234337, -0.9768757651307169, -0.17987052275169324, -0.02637886872467976, 0.10115160747098129, -0.5066686552446629, -1.0386697419951738, -0.27953569012622714, -0.9679743068515092, 1.3056085287394663, -0.6118573902859021, -1.5724141917169663, -0.30942285300585093, 0.8260396885849266, -0.573607595006046, -0.865529416647645, 0.8672413570702897, -0.842904923084596, 1.4525799317111057, 1.0368907753616305, 0.07474273450539104], "bias": -0.7353659614035262}, {"weights": [1.1672566256971346, -0.8749719013341742, 0.5754504528833904, 1.1275106390508, 0.4970373406892926, -0.5116966503841631, -0.6846424782249989, 0.27218408647253667, -0.2572268120549477, -0.2397489347423971, -0.893402807214601, 0.3803412552564347, -1.1406212398659261, -0.7373111262660086, 0.8903985125771807, 0.908882048420568, 0.39826816731472636, 0.3749130710617874, -0.08321110652588226, 0.025712252463657048, 1.243964705719476, 0.33707407349909635, 1.2287622487624672, -0.2524122939714243, 0.5748400376474087, -0.37189777968111204, 0.530541649171353, 0.44515426960847404, 0.3322375663759316, 0.09130088962024807, -0.8038615780205187, -0.021153111708495653, 0.9469497428964861, 0.0029451499434747785, 0.19582066263396647, 0.7615991549603571, 0.36791980494237964, -0.1658324922458545, 0.7827199235342237, -0.8443475735949975, -1.0108061193843767, -0.012996547749761445, -0.02735674657762277, -0.15874117184680003, 1.3802068031782648, -1.1043084681659008, 0.13386480233041753, 0.21840014196849422, 0.19394059375044947, 0.6925421989406896, 0.9219718249894755, -0.2621247582596953], "bias": -0.3984472629798894}, {"weights": [0.4895004071946738, -0.4588210347031174, -0.258116798344067, -0.08272373898279373, 0.22757778427408382, 0.9983461630862834, -1.3738236359165457, -0.768355419897452, -0.43240408598418634, -0.9063782752720815, 0.42579060751113407, -0.7897334964319928, 0.33111088816236034, 0.5228198488661124, 0.7505045405957909, -0.9156249108771084, 0.8991191796199711, 0.01337434498086354, -0.20083200364742337, -1.231760905649681, 0.011728376211023073, -1.3236815857099937, -0.2732762527785387, -0.005342583769219367, -0.7523893901000756, -1.292156761573879, 0.39998908855288584, 1.3560286284874206, -0.7183708210413853, -0.2253758156103629, -0.42387568609767007, -0.8957726329092672, -0.6426482444584012, 0.6972739741891261, 0.9123557324023251, -0.27140606243398024, 0.06589172981897051, -0.32782743132286196, -0.1739102434474924, -0.41602611226828057, -0.7130745319392195, 0.7450669150008737, 0.7791028222453755, 0.815057878283958, 0.8999054219558136, -0.4799061223628267, -0.8500192322312748, -0.6161389072394148, -0.3807899254284399, -1.025360632604161, 0.4360806585585929, 0.4496594309510491], "bias": -0.5798543855644926}, {"weights": [-0.9172461083273391, -0.3200495980128848, -0.22380833833792146, 0.7995510281747509, 0.08074470844489601, -1.0294446022606754, 0.03992205004645988, 0.7177099870951231, -0.7556405789501632, -0.8369263322619245, 0.10883138831782224, 0.012405709507474327, -0.4557480202481484, 0.10693242211017484, -0.901465713089342, -0.6424707172768693, 0.7380295224973261, 0.3223345318514401, 0.7674516840636034, -0.6471015983175515, -0.52388799600328, -0.32828593543903106, 0.07062916798828311, 0.8660223148063304, -0.857752237737176, 0.6900363326004297, -2.151653638246687, 1.2138669801301736, 0.9411577634399161, -1.1615896289059287, -1.0912842177992625, -0.17219639766188677, 1.0720287925673309, 0.07371110983561246, 0.45081123260088485, -0.4890321036519065, -0.8286705200072191, 0.3444707864788184, -0.48774604238682273, 0.43268290137052356, 0.6675772104440075, -0.17443357327899278, -0.22477740070955998, 0.3061197610646591, -0.7846962327583854, 0.3437652030742826, -0.8855536759961586, -0.3020561542108273, 0.21268702580823962, -0.849242846702237, -0.576476416961742, -0.42045739082685674], "bias": -0.9044406296316796}, {"weights": [0.14078450585631752, 0.029518824755205064, -0.5073806677183199, -0.11405374191104833, 0.6941302715989319, -0.18584894817240905, -0.20784888020265013, -0.01282834792405152, 0.6564911333940919, 0.8249168319149853, -0.9945645780097593, -1.911427564622656, -0.7958109465312204, -1.1682651967059827, 1.2754080295201116, -0.18152816729768673, 0.8409095210956726, 0.8110186742457717, 1.7102625790602317, -1.5407449098927768, -0.8189968244308587, 0.18576809451793208, 0.22177124949269345, -0.6081727141149338, 0.8351682090284269, 0.3436221849124539, -0.7233764603545482, 0.4665547061504707, -0.5457400005545003, 0.9210264388648717, 0.748734860376405, -0.2389489052340295, 0.6312059557443084, 0.7540145042583632, -0.6840837533412802, 1.1848551917883303, 0.11594326003104505, 0.9293387037573677, -0.2295525983344684, -0.6489928734036972, -0.5209133821707113, 0.7220419619282765, 0.14973487117305373, 0.7355785712501368, -0.8980214272433746, 0.9866738880967307, 0.8610427349085861, 0.6155610534675142, -0.21830038286044617, -0.8821227582254954, 0.9101282671015432, -0.6388356166536953], "bias": 0.9001886015483636}], [{"weights": [-0.8668519632780687, 0.04001892826471143, -0.0515039157057422, -1.4389880676780478, -0.5107840350427553], "bias": 1.4075687766187248}, {"weights": [0.3531585738435008, 0.1728990319267485, 0.9618558521223872, 1.5633902652727685, -0.1769674741735623], "bias": -0.2150365120088784}, {"weights": [-0.46112261085766404, 0.5579602449381846, -1.19675670849456, 0.9174136318293789, 0.09866545322680365], "bias": 0.016189569790485248}]], "generation": 300}