{"score": 16384, "inputs": [0.0, 0.5, 0.5, -4, 1.2, 0.0], "layers": [[{"weights": [-0.8660054500927277, 0.744287579352497, -0.011025880574918823, -0.43599715831681096, -0.3499176326987332, -0.05633278539703124], "bias": -0.142570108950546}, {"weights": [0.508254725418182, 0.03322397773116115, -0.24164555974390578, -0.33693707153781705, -0.591843578027893, -0.9214425139200735], "bias": 0.9515507654503812}, {"weights": [0.18616496784786918, -0.5384647456248304, 0.8225991549491758, -0.6549053389914863, -0.8732567288220636, 0.0028565454227871268], "bias": -0.9071596997538756}, {"weights": [-0.33588418712471846, -0.05917158315276971, -0.05343735450408116, 0.7444384309287093, 0.7887816844450859, -0.0952836300140174], "bias": 0.8295459905951508}, {"weights": [0.8420017702946243, 0.5944429390554662, 0.666318645599991, 0.5049857999193574, -0.20815553735753722, -0.16327720805671309], "bias": 0.11322080201150952}, {"weights": [-0.6499150975910157, 0.1348401392041232, -0.427520519437536, -0.3287316082231959, -0.2045247075779726, 0.763577719903394], "bias": 0.9712295508270252}, {"weights": [0.06934701185294845, -0.17027650900938096, -0.2530219922581054, 0.02901430876980915, 0.11722570287228096, 0.04991735430106092], "bias": -0.6330167826876878}, {"weights": [-0.9923396356573768, -0.5729116548644932, 0.7559871418355348, -0.2838067498469017, 0.2535246912796292, -0.9624703121667391], "bias": -0.6305283992031774}, {"weights": [-0.336033948035491, -0.3643980852537294, -0.41995044590360964, 0.7982985607025568, -0.5498553993228046, 0.8735792793200954], "bias": -0.7242952240778744}, {"weights": [0.8211711487760867, 0.03827822568602279, 0.3617872484175251, 0.4484903502734261, 0.00042165832084495314, -0.02866401391725626], "bias": 0.3578090331823234}], [{"weights": [-0.3253688839212918, 0.05200209791186339, 0.062417667778704944, -0.2875172154574368, 0.24483900578675355, 0.8084007425662305, -0.2880073852644498, 0.22004310826823392, 0.7388340143749337, -0.15986604336637233], "bias": -0.03467403327501928}, {"weights": [0.07170729666742148, 0.5521264338886045, -0.9856933407906425, 0.6037835376756102, -0.7418705028883843, -0.765099391375621, -0.20488897449248555, -0.3355778871579256, -0.4581638330190092, 0.8946924024580996], "bias": -0.007265901242160977}, {"weights": [-0.44303615022749754, -0.2358419157818903, -0.145625766041934, 0.7830403161012707, 0.7321059181671241, 0.356250928948852, -0.27638825267959, 0.05438308633265354, 0.7513732466726792, 0.44464025120553097], "bias": -0.8180650400240086}, {"weights": [-0.5424393883600049, 0.7246395706290192, -0.17026063811643377, -0.06626167320355614, -0.09002217414216451, -0.5293838982033798, 0.40641358419434237, -0.7901569532886668, 0.9061337132942493, -0.59180759329692], "bias": -0.03944714557332296}, {"weights": [-0.9209714799359257, 0.4280969792042444, 0.20339666398144085, -0.9542476080622004, -0.712257233834229, 0.41793805738300405, -0.6651515505608834, -0.46931356935042157, 0.8399684548100552, -0.15205496404628382], "bias": 0.13440275727508788}, {"weights": [0.8609390017147369, 0.1647025962983799, 0.4258145835313276, -0.057562922314709164, 0.44024091331631854, -0.0030620473026465866, 0.2515735913487591, -0.8344456133126033, 0.11479922065194503, -0.8752866062332161], "bias": -0.09468260693932873}, {"weights": [0.6498644761680386, 0.25394475085260537, 0.3999849180490853, -0.9238454614112255, 0.9984752810483766, -0.09519617774599021, -0.4421962739822225, 0.46284560552352483, 0.5618120310642905, 0.8974029599508027], "bias": 0.633379938769151}, {"weights": [-0.7643042603556287, -0.40830724288934417, -0.2613746295680097, 0.29075984325116755, -0.715253344104996, 0.3308002003348429, 0.09523957747665346, 0.3765045211499525, -0.28705047322146804, -0.7441944531412923], "bias": -0.5087260066770416}, {"weights": [0.3041015001689362, -0.9848860388915743, 0.7856912164655545, 0.7535914536954513, -0.0336381126339802, 0.4973442778217163, 0.6436679002993795, 0.6523473041894294, -0.6263532324069658, 0.9199177781097667], "bias": 0.47198311183108443}, {"weights": [0.989739067259461, -0.8748238374770771, -0.8962145106719814, -0.06193535520724924, 0.38560729746221023, -0.567787491291075, -0.4180686637518285, -0.2061078355699364, 0.28391398293248704, -0.31524421870666264], "bias": 0.7426995713999032}], [{"weights": [0.4908636540354214, -0.17354660715819636, 0.4704005163685421, 0.8866436850530979, 0.8634830216077547, 0.28343057263281923, 0.8636170434168908, 0.5810685373484843, -0.9185966471285656, 0.529754076863522], "bias": -0.608000787307893}, {"weights": [-0.1612914206373981, 0.8605417884649031, 0.32958975700343074, -0.05490070065592456, 0.08731077326872771, 0.15000777148098798, 0.32528345523158175, 0.32581161095874767, 0.8503147394283888, -0.3369336858405998], "bias": -0.8782724515699611}, {"weights": [0.6276530502743614, 0.4946554816721729, 0.648358121587626, -0.45731022931461207, 0.763463034395303, 0.781829812140336, 0.24147283469208491, -0.9759390029098709, 0.36698573271408663, -0.3296066429151059], "bias": -0.12689974407168703}, {"weights": [-0.887563646175356, -0.5742412371559709, 0.4584350947192002, -0.1340259068408849, -0.5320498540830181, -0.4805284106854202, 0.41276509721356835, 0.7683188167782007, -0.16948598553101246, 0.829886142594594], "bias": 0.7180412716896765}, {"weights": [-0.7692967298930451, 0.4446658762069491, -0.9267782529519233, 0.2666403214194524, 0.7478455067792908, 0.8139232795271125, 0.27378121183974335, 0.984700859611124, -0.8140941445291341, 0.9344106368697676], "bias": 0.03833060875003569}, {"weights": [-0.1463787343153884, -0.6719544018869754, -0.985387310935713, -0.7960409701041615, -0.5548008968710492, 0.6343033301465615, -0.5943293923699902, -0.35462853160149654, -0.7649141709980014, 0.41415424458346095], "bias": 0.8657721141886987}, {"weights": [-0.7552649196478736, -0.4734551248923369, 0.9791732137615274, -0.1067770396250387, 0.6694436886442436, -0.48275465122767813, 0.4131175245069112, -0.0670735111753209, 0.5177700382480002, 0.4044335963340544], "bias": -0.7915452028407164}, {"weights": [0.9295836059549931, -0.7116515015733753, 0.63698376766987, 0.026398079443676892, -0.40891596575134126, -0.8847677147831374, -0.6118410491693898, 0.4237317546369195, -0.18211031348790319, 0.3569824754172011], "bias": -0.7375776327635002}, {"weights": [-0.5231827659484947, -0.9937872015546261, 0.08437622916223808, -0.42221908743330694, -0.3127725915385644, 0.800087932837138, 0.1974232448508133, 0.31246592110360094, 0.443881077134469, -0.029880035203930566], "bias": 0.7879562026760021}, {"weights": [0.7476373619633632, -0.8874540993421207, 0.09951465496092649, 0.053003014630377265, 0.8906307040309411, 0.3890674529379292, -0.36109188118010005, 0.5196242375242976, -0.5327311971283659, 0.3888445321061407], "bias": -0.07966090674170467}], [{"weights": [0.1307696773310889, 0.49458492706385826, 0.7515637899750087, -0.9657304373424653, -0.8125965691113339, 0.5695826188938193, 0.0012159387828274415, 0.35190543816118236, -0.3208138032718453, 0.6912956778858974], "bias": -0.6023943270274197}, {"weights": [-0.5259981471522595, -0.40282415706027064, -0.13924174265925937, -0.6427795282488786, -0.1129463387787415, 0.7426260627710559, 0.9077513803589121, 0.8601556313840568, -0.6947955435809396, 0.28017571941163166], "bias": -0.7827461118895438}, {"weights": [-0.8665415100201699, 0.9643294708972503, -0.7088535994418095, -0.8690702322862713, 0.3534411021825814, 0.09958074733769662, 0.9383837387350247, 0.32617827424062473, 0.5162894101795608, 0.6391284828804631], "bias": -0.6289817522704051}]], "generation": 0}