{"score": 8192, "inputs": [0.85, 0.5, 0.5, -4, 1.2, 0.85], "layers": [[{"weights": [0.9839524911105286, 0.41707061684403324, 0.15732461889331484, 0.5150974172728195, -0.5891306848695537, 0.4224347967402977], "bias": 0.06906554151022459}, {"weights": [-0.5185619732491653, 0.9768792956942434, 0.22121952929087518, -0.7516859832407534, -0.06840344093120909, -0.2774997925044085], "bias": 0.4261460377417894}, {"weights": [-0.003298424895324281, 0.4263191530022039, 0.1737514727206193, -0.27488172841613934, 0.16078341606244662, -0.9324200207723916], "bias": 0.6101260684497736}, {"weights": [0.3203427660874685, -0.83485945922262, 0.09884647841209948, 0.6396772870300236, -0.7293589891601924, -0.16250794522501333], "bias": 0.5322382969391886}, {"weights": [-0.21660678912975295, 0.08854522930556286, 0.06343956378832316, 0.3684699078432718, 0.3699989130271988, 0.43245909241602853], "bias": 0.8351770102797722}, {"weights": [-0.2937713570571998, 0.7719728729882287, 0.7624178022077903, 0.9318729737965428, 0.8704956478612236, -0.8012435242531535], "bias": -0.2966626077968446}, {"weights": [-0.42153950503702364, -0.17103537259778978, -0.594659074980026, -0.2014293345091709, -0.6867063743710378, -0.9907877412704602], "bias": 0.66245079406879}, {"weights": [0.3129652186848271, 0.10861484775825492, 0.5531996081996657, -0.6141147614441469, -0.3123737319502471, -0.5238618162943018], "bias": 0.7416629805408164}, {"weights": [-0.6071395007510987, 0.14939257356776592, 0.08229727412062693, 0.5779059001741096, -0.35566561730906665, 0.44908604986008327], "bias": -0.978429463359302}, {"weights": [0.5773682456088816, -0.7154849240396877, -0.7627942589066341, -0.0029686470159580036, 0.13945798401999498, -0.2937053163942691], "bias": -0.6062949998403679}], [{"weights": [-0.47155367209037236, -0.6727021736516521, -0.3116840283446449, 0.9822091891780105, 0.6127887357998387, -0.5083984057043429, 0.7999087989556772, -0.7939595880551238, 0.9800526050120719, -0.6961565715468869], "bias": -0.4910893170598565}, {"weights": [0.9620181815153239, -0.5441416766334082, -0.8397309576471153, 0.2782998789436033, -0.8439369761092586, -0.05579856875564637, -0.8485597183731555, -0.029835119528318188, -0.36895828119945007, 0.39117398555281135], "bias": -0.654397552009881}, {"weights": [0.8475488493690311, 0.8576469833845595, -0.09288041584359452, 0.7939647636086695, -0.23020764962494233, -0.39902829147843755, 0.5101541045512723, 0.5833987248814658, -0.9266913255641314, 0.6413494021151798], "bias": -0.2797096544191906}, {"weights": [0.22513076676867905, -0.4924698015357234, -0.008011333845493684, -0.8910966028069929, -0.39842132055130697, -0.7937375102817474, -0.1441605819164018, -0.26847858642744726, 0.32946766780491976, -0.643193396325427], "bias": -0.44256582666671185}, {"weights": [0.9016603723228114, -0.08686127812537103, 0.18102963884308654, 0.7699788223900885, 0.16940279926977309, -0.4501093227096984, 0.8707280641574635, -0.478341909987817, -0.9142813254378723, 0.9406042836051227], "bias": -0.47358852079352665}, {"weights": [-0.10139397428377528, -0.4051377839225212, -0.9684685035878768, 0.44833628857912644, 0.6370317261127063, 0.354988629285129, -0.4245679587620961, -0.6813357867326117, 0.6901230362431852, 0.586944481503707], "bias": 0.47432524234753837}, {"weights": [-0.30384336203905393, -0.12555159215040113, -0.046615127176128146, -0.574057665035721, 0.6538848274746691, 0.5056365957784343, -0.6624826100619718, 0.05159557260862524, 0.743739930812924, 0.9078589324407282], "bias": 0.4807924821003202}, {"weights": [-0.608373605687968, 0.30346813760048685, -0.32616249548078, -0.16961323630438185, -0.6800597978965721, -0.6764206551293064, -0.7678030550612123, -0.6800199516761014, 0.03279587900768011, -0.609813289706449], "bias": -0.8130480608282515}, {"weights": [0.8697440772762934, 0.8111021981467907, -0.3448513346665152, -0.9350896776210882, 0.9918019693607742, -0.9736547586195885, -0.37173291042993073, -0.6364561201114851, -0.5485666211959725, 0.6991408706223681], "bias": 0.40654336436233307}, {"weights": [-0.5109771824136191, -0.5413328945043772, -0.9307214071993102, -0.31771079660346824, 0.8809502425372606, 0.13955247856873942, -0.06727502638005722, -0.2130549203209231, -0.584246529862541, -0.6192156476442494], "bias": 0.11777228897933911}], [{"weights": [-0.3716131141364143, -0.4298196932207854, 0.5414109989043021, -0.7119654811307505, -0.08594935510676116, -0.8782883256903466, -0.1376932731011682, 0.36612057715232993, 0.5045117004117983, 0.1588021986227468], "bias": -0.3642950092403059}, {"weights": [0.27550418553912404, 0.6368370196818147, -0.6494322500210923, 0.7797506233384806, -0.23483425334123265, -0.6180241570058802, 0.5668570995416076, 0.6085054626939377, 0.633905503934489, -0.5486163285210843], "bias": -0.4690818112687707}, {"weights": [0.8609867561148792, -0.16069984690103967, -0.567891853458524, 0.6443805914263394, -0.8315861321809188, -0.16934364171539218, 0.4800878835157609, -0.6297062558913196, 0.36542060989899405, -0.657462538938008], "bias": 0.9911003361514195}, {"weights": [-0.12687287374653744, -0.7544684951052449, -0.08904972808185962, 0.3973149972535175, -0.5593403135115691, 0.3911644818912723, 0.10312928438989877, -0.580368417629124, -0.10713707401096673, -0.22933579369973067], "bias": -0.5827281591487559}, {"weights": [-0.6381795322118589, -0.029713492098153438, 0.29889374407487046, -0.22783018116441034, -0.25323569119562195, 0.8551732811214809, 0.5992584130473511, -0.6269941382374205, 0.014108745612654516, -0.48572841842528747], "bias": -0.3158146865207876}, {"weights": [0.9876186943309457, 0.14816449708850077, 0.6948641221931628, -0.47406928244691526, 0.17241167542109892, -0.266438457239784, -0.4658875338910511, -0.5275235548496009, -0.29199923280391316, -0.6816899318503917], "bias": 0.9251381864147707}, {"weights": [-0.2641904070800276, -0.22083803434848015, -0.3575234198839734, 0.32721205426252187, 0.43552620528304087, 0.262578598292762, -0.3861406709346915, 0.5535136602113104, -0.27699163291090545, -0.11841124264341585], "bias": -0.8940191389763967}, {"weights": [0.8706815359099556, -0.33005806578040975, 0.06615721972497979, 0.8852748588491797, 0.844805452859984, 0.13874791843360268, 0.22715083640024591, 0.891709240583906, -0.6543444514855639, 0.2284529395897552], "bias": -0.2264120097680764}, {"weights": [-0.031396876023892295, -0.27515900010553107, 0.4171231889296485, 0.6388328139029975, -0.05188908390711955, 0.3047069505234745, -0.47311786356461116, 0.07202053505816197, 0.2100749097756125, -0.0975308956782337], "bias": -0.4904676950864104}, {"weights": [-0.6452895711059248, 0.8292422967957773, 0.6015981164740223, -0.20930072105373854, -0.23478182481023402, -0.6936608781343125, 0.8956612228363032, -0.3081829861705805, 0.11517987785971795, -0.1337410201473075], "bias": 0.6208990976897544}], [{"weights": [-0.08650170138829205, -0.026475396082863423, 0.3663118005656083, -0.8536631862721429, 0.3309791829106241, 0.4582490794938814, -0.4405134017896335, 0.9020067388982611, 0.02622966166673435, 0.4323695901576716], "bias": 0.5406802471694483}, {"weights": [-0.8501825963516088, -0.08937226271876786, 0.6606543136528575, -0.13579330136752032, -0.8976570353423843, -0.7817089028961419, 0.378184339307436, -0.272441731213267, -0.8971657468549645, 0.9142608441558153], "bias": -0.6240237727062097}, {"weights": [0.5347685850327473, -0.19966678673813165, 0.8053939001809947, -0.18721714528288969, -0.06073593951082912, 0.9705090170651758, -0.18248242758444366, 0.06531575723862781, -0.7488902621913449, -0.7589448405493868], "bias": -0.5993386112095538}]], "generation": 0}