{"score": 8192, "inputs": [0.85, 0.5, 0.5, 4, 1.2, 0.85], "layers": [[{"weights": [0.021176617217758098, -0.7978405142279676, 0.16281282964466404, -0.5500372417509911, -0.20497918623674738, 0.14624013485350473], "bias": 0.23409510215081042}, {"weights": [-0.13308788998967835, -0.08434315915774393, 0.06064278027735681, -0.7124650413906293, -0.6379787344972481, 0.6594687242822617], "bias": 0.6686205513703418}, {"weights": [0.2612873869284207, -0.6140414032598476, 0.03301378988681458, -0.368353329126625, -0.30874957999456387, -0.3764258431050298], "bias": 0.39180688727176305}, {"weights": [0.22267603518470547, -0.9585749611771215, 0.6736233622802343, 0.9408235252496335, 0.16741576790860546, 0.5804553018812593], "bias": 0.06364279589786093}, {"weights": [-0.48124614813863165, -0.29854114466195547, -0.8084614218319379, 0.5862749950407726, 0.18820161431470828, -0.9678804893166388], "bias": -0.658197611169842}, {"weights": [-0.2800078024023498, -0.307750723749461, -0.5423082868794824, 0.15585530010237725, -0.04610145445831204, 0.8945205836360282], "bias": -0.32713330646823824}, {"weights": [0.5880439302925478, 0.6373943931925705, -0.6340553145270105, -0.9858772003057121, 0.11376961330291024, 0.4541429622655868], "bias": -0.8620492788065877}, {"weights": [0.027250076504972354, 0.8883883956399055, 0.9816842268640993, -0.45418097012970793, -0.8165361464716723, 0.28794083128476], "bias": 0.6949453584850467}, {"weights": [0.785968117257432, 0.8134990678222598, -0.4888740742247597, -0.575861169210599, -0.13339584122300074, 0.27312577821455086], "bias": -0.7773106356328359}, {"weights": [-0.8607179613343927, 0.8106740223738418, 0.4550890563395449, 0.7103091852896795, 0.9843120004030983, 0.5776585862186472], "bias": 0.3897303370171121}], [{"weights": [0.22141482505378773, 0.8876124627208, 0.6259702701785903, -0.5051942320900062, -0.3697562310271476, -0.061179200383533416, 0.24888071577635906, -0.42313242373004645, 0.26269130050360356, 0.47486287940754623], "bias": 0.7082642856949681}, {"weights": [0.2216537899404527, -0.6816477635453917, -0.029536991784291144, 0.9422357952786267, -0.6520147461154462, 0.134964049062132, 0.5948352912504318, -0.6654716697354894, 0.6462645104575031, 0.4302907081101375], "bias": 0.24278007469564167}, {"weights": [0.062228616571381457, -0.4407387858643623, -0.7974884029045926, -0.9944843583721672, 0.5043183375952824, -0.07623558890409043, 0.6077718044355944, 0.892515003285296, -0.32082642973918674, 0.3468106994552964], "bias": -0.8225879567974572}, {"weights": [0.6977617490623442, -0.8480954785102863, -0.8525593510795617, -0.1556482327796882, 0.11099260124253973, 0.6862086821050517, 0.23757648427997968, 0.13534340114581567, 0.07136822395225106, -0.7454247890042587], "bias": -0.752880000424528}, {"weights": [0.0033065668956147043, -0.44132087362859296, 0.737282931209386, 0.33885096655764646, -0.35696770925532006, -0.8987385577769809, 0.4207455535888278, -0.7725291414945068, -0.4260416437760792, -0.7857203749104902], "bias": -0.21008279185100553}, {"weights": [-0.9244396354370044, -0.5617295599952488, 0.8657305488404545, -0.8060806820473596, -0.32263522675539136, -0.3455091693804666, 0.19442377132518018, 0.4391505549611845, 0.3977418698904902, 0.8789656652940021], "bias": 0.8789494180227553}, {"weights": [0.8666823660727079, 0.9995421569793712, 0.3379835519729162, 0.9956060847040038, 0.9237259971051388, -0.6046722835582887, -0.14043257086257843, -0.9039476864851279, 0.943481378856392, 0.339481588409692], "bias": 0.707979373078774}, {"weights": [0.9986118668133139, -0.0967407416407684, -0.04121114257460978, -0.13462407231268614, 0.9402360084258883, -0.21311390942333275, -0.5548935990832216, 0.5410117158514005, 0.24994783856849412, -0.8145915318446755], "bias": -0.3577778048097022}, {"weights": [-0.09224731462750047, -0.2665979506474996, -0.7933587152294137, -0.12103515563822453, 0.7345350029191624, 0.34947206920024243, -0.5176665322666916, 0.698627803266388, -0.5580649264518505, -0.5020133751723572], "bias": 0.18500287215200584}, {"weights": [-0.09211970583725404, -0.004376798005460536, -0.8112512497935325, 0.21449143981156693, 0.299198324529488, -0.1040595589507316, 0.9552403263737395, 0.8767354930613287, -0.6034390036324575, 0.8650290696895488], "bias": -0.40498837920610264}], [{"weights": [0.9301349569580841, 0.2577202863348116, 0.93142598194796, -0.7858690658073619, -0.28196498390154834, -0.36995464128433264, -0.009351815864841795, 0.5080980675762816, 0.10922481765487535, 0.5125784135458424], "bias": -0.11775958193185776}, {"weights": [-0.709673147909403, -0.3866822450230094, 0.4422071380835688, 0.16627049793593462, -0.17602713654739066, 0.4827892984919826, 0.3557648764418062, -0.5058746125336826, 0.12832005522613632, 0.38765899234573453], "bias": 0.10544939625948246}, {"weights": [0.9836610150391305, 0.3791193308555427, -0.8054453342065546, -0.5743509693797377, 0.832119789103402, 0.18184352425652328, -0.9847753252276088, 0.7812266903692875, 0.8562577842335182, 0.640228823825967], "bias": -0.6954565920743665}, {"weights": [-0.5772230739753195, 0.9282139760020096, 0.44813995786280914, 0.35817316524286014, -0.7564261989273793, -0.20536204356027432, 0.27089417309147934, -0.8878076363493512, -0.05217396987733336, -0.5277172822822103], "bias": -0.9483668827891532}, {"weights": [0.21088364073331567, -0.5186350607184409, 0.09989257264499285, -0.43157603749117723, 0.6706185673850111, 0.2546192246234946, 0.5955133055971515, 0.7304429436383393, 0.9863714192615392, 0.7333362022020398], "bias": 0.6973089374596173}, {"weights": [0.3542086752411522, -0.7297516118636365, -0.9612284517642209, 0.7869779619679032, -0.23008011112354287, -0.9740165947238222, -0.5609806307772469, 0.2402363858908163, 0.00946441584989155, -0.8549595663517386], "bias": -0.48989862684562757}, {"weights": [-0.002096685429042955, 0.56696310349472, -0.358503122587555, -0.4821741848563674, 0.7065755592166378, 0.9356365844356096, 0.8305656714228198, 0.822363979778808, -0.03413569304732933, -0.0701995535492399], "bias": 0.8873879363375456}, {"weights": [0.40048058413759735, -0.22538806991684357, -0.5491918481777247, 0.8466475960875559, 0.37147737576202267, -0.45675996735878455, -0.3908319192661982, 0.44982193372321455, -0.553564552171115, 0.5369935030553492], "bias": 0.6670030420913942}, {"weights": [-0.4885169341437545, -0.35224222165000585, -0.24707930981266757, 0.6383832930683755, -0.46897051284723035, 0.5389737936775885, -0.039389203824216956, -0.7411245628868808, 0.5729191499053539, 0.6566716146852325], "bias": -0.4176039161174938}, {"weights": [-0.41239030642374863, 0.9318767038441609, 0.48567202563816503, -0.21859325993773915, 0.19777509938374083, 0.5560842676788258, 0.9372568343191201, 0.2722589861489084, -0.15512119218765408, 0.0520077608995988], "bias": 0.9899965605783432}], [{"weights": [0.4882893584349486, -0.3556919273027881, -0.34799080094341206, -0.2815071436020127, -0.0691840898185363, -0.42709945637445945, 0.4016371703652881, 0.7365100118770807, -0.08907904332145411, 0.05061357832378577], "bias": -0.9357571227077555}, {"weights": [-0.1444003180835507, 0.21218361639204852, -0.014861635048328603, -0.3931387578247214, -0.20389038191501463, 0.9728301339961998, 0.13595880065099264, -0.1529761884295926, 0.5258218182694163, 0.13806915701696676], "bias": 0.18763523834956986}, {"weights": [0.5634946935976821, -0.6840958610850338, 0.9581559359769798, -0.07214501881485758, 0.17233399821893935, 0.38568290233915903, -0.3226046976383077, -0.03504578033662442, 0.652506956245057, 0.037530541065148304], "bias": 0.08797814057334286}]], "generation": 0}