{"score": 101994, "inputs": [1, 0, 0, 0, 0, 0, 0, 0, 0, 1, 1, 0, 0, 0, 0, 0, 0, 0, 0, 1, 1, 0, 0, 0, 0, 0, 0, 0, 0, 1, 1, 0, 0, 0, 0, 0, 0, 0, 0, 1, 1, 0, 0, 1, 1, 1, 1, 1, 1, 1, 0.24, 0.828], "layers": [[{"weights": [0.4269105647378042, 0.55691840612007, -0.8744501447751223, 1.375669155849022, -0.4902723651799138, -0.3235585643789727, 0.35796993681439837, 0.40342574689682986, 0.9856503848775517, 0.8319959865950444, 0.06535430466947312, 0.22164264519045696, -0.8372025399636949, -0.616887260559756, -0.5582548783987076, 0.02342799387206862, 0.05011005000599178, 0.9610242292315524, -0.5841491432028065, 0.9908113611016977, 1.051129591086674, 0.026342048220504788, 0.12277563027876637, 0.7888435915924887, 0.3758041623286814, -0.07149951060436033, -0.0709312334305725, -0.08771836167419311, 0.9706731522906098, -0.8545473726587349, -0.7760554507791804, 0.9895096004889312, 1.959629442090838, 2.082868354023208, 0.5035409022086628, -0.10809507164927301, -0.7524241993184586, -0.4650952692597897, 0.539423844032311, -0.038236796187469335, 0.8148339321223349, 0.5142818785432334, -1.2793173773410227, -0.08548038164916338, 0.2360849920237843, 1.050677740817287, -1.2366006076320255, 0.4152360660978314, 1.2998083674310346, -1.1820928206135464, -0.35281636544067263, 1.423795468300621], "bias": 0.8522933458131003}, {"weights": [1.514971441631898, 1.3335965130569125, 0.34729183540211916, 1.2055376481523226, 0.6535955390124358, 0.06982042008141598, 1.1790137941600096, -0.20065184658854968, -0.6720381021721774, 1.1366924932026476, 0.3733756462921214, -0.7376914864980486, -1.413997396988624, 0.5679216927980759, 0.30643428363229364, -1.3322174330865055, 1.765309819933181, 1.5266086722068257, -0.018435807004564042, -1.6690644855315317, -1.8870561228892522, -2.5923962200284434, 0.03609125751349329, 0.18601869675178923, 0.44446181201071033, 0.1818598036428174, 0.9219875300538223, 1.3524126506352647, 0.01907684749713623, 0.6174006400384909, 0.40319135695036046, -0.4368688654378464, -0.6743688514045952, -0.27473855885253784, 1.0202587704970183, 0.11836203076518481, 0.11903563408442597, -0.4122510180988129, -1.203144660123214, -0.35540351411521226, 1.8909690523793043, -0.6693192629872539, -0.20682269391781039, -0.7596605341808295, 0.04870927347572451, 0.7764754448779498, -1.5350720904166222, 1.0449696169196017, -0.18902778239521506, 0.47150255456656864, -2.106978858771824, -0.2559386787669238], "bias": -0.11221280830139713}, {"weights": [0.6118366447315342, -0.8957803767441002, 0.4365297570378418, 0.40219742828362925, 1.8114062133805369, 0.32120510752681986, -1.3522768084767731, 0.9110443952797742, 0.02862898554948834, 0.11599946344124001, 0.01825920622376398, 0.7243642723980012, -0.5008666646181517, -2.554226050529202, 1.0625606284515317, 0.3073013762413337, -0.21020076438898194, -0.36567141548215454, 0.18705589587036353, -1.9897216786854206, 0.169666806342741, 0.5928613362110232, -0.7476263140820779, -1.5685853849802895, -0.17906459371364325, -0.9066788764089495, 0.7291860219244138, -0.4464835929430658, -1.8788597898297619, -0.748961597301572, 1.1787231748881997, -1.576516530600406, 1.0275784399781103, 1.2109139155231983, 1.4688711918902366, 0.6456359663327605, 0.427195824887182, 0.05314659273874922, 1.0525021159124544, -1.7623568209217388, -0.3910584490583806, -0.6949762278108939, 1.5547155517931384, -0.5251427549772175, -0.5161535404491546, 0.8097256730922037, -0.6939153718414717, 0.008247962354199334, 0.7339916128619353, 0.19739086497250347, 0.5483795846927, -0.5965737695281008], "bias": 0.8006504499979434}, {"weights": [-0.5459715296435586, -1.3198858333156132, -1.5520246955265091, 0.9212394198244962, 1.2258652168905488, 0.07202386429654029, 0.04610599734363563, 0.9627283051609912, 0.4642479980718004, 0.7971523753705645, -0.26107714663518583, -0.2832098705220273, -1.145255818630286, -1.1923841069897092, -0.006111729599537319, -1.0621798808898386, 0.038777005765897155, -1.0650348081799903, 0.5812574816586724, 0.055444869098661975, -0.30872551124255265, 1.4006594491675461, -2.1072101909800613, 0.7560216355664977, 0.8531188669710146, -1.0499961217746268, 1.1749342937899767, 1.1850447679784826, -0.7498204793945968, 0.45117450672250237, 0.9454408501091202, 0.0311636414137213, -0.8336022630635761, -0.01713092031885477, -0.8133375310807135, -1.102582647868153, -0.8555239777657303, -1.5832572023281821, -1.2775927273733167, -1.1392950894149787, -0.08351521470190426, 0.8881909074353584, -1.6144566668701645, 0.18188053071410926, 0.01508394066606722, -0.35420281744132753, 0.6822354060440388, -1.4964210252732573, -1.046048152159862, 0.07569817664177719, -2.408007941765472, -1.6861367407960954], "bias": -1.1510429427296767}, {"weights": [-0.18136535912468366, 0.481218231258301, 0.3399590210065847, 1.9608699262245086, 0.28356775099923215, 0.22989311649982125, -0.9208198079772202, -0.7956122754356623, 1.3503455170929317, -0.915186292059575, -1.3749821084821252, -1.8885063657177743, 0.8163340803607729, 0.3055654018835121, -0.4883347847112927, -0.9183974075487618, -1.264552522815182, -1.8092337351149688, 1.0258700705334212, 0.009692073137847368, -0.8858560004511522, -0.5894294064647851, 0.8108740091185456, 1.6686659847401129, 0.7345853461047989, 0.4644329643726396, -1.0804349322119307, -0.3078820904115839, -2.156961339107406, 0.5641526720787594, 0.7063385950734681, 0.7649851877190276, -0.26456175824198347, 1.4458854922207243, 0.5761108235091623, 0.832826979026292, 1.2980897984304105, -0.16220504741722297, 1.1493779823129708, -0.9274497553030225, 0.013229033219179842, 1.1023923143643004, -1.1129470286556724, -0.08938772641925291, 0.37347268145607926, -0.04054560102489069, -0.8759548424030118, 2.390496960088015, 0.5071972142425919, -0.3515917343121724, 0.81381025046701, 0.17512166903073212], "bias": 0.179085419243333}, {"weights": [0.1502341387787196, -0.2717365418479403, -1.2493760038747426, -2.3083756612812323, 0.2640920546403879, -2.0388591346319265, -0.5834625429845168, 0.3017058363701707, 1.2897724686863334, -0.14861592127989098, 1.339319341396173, 1.082976266407012, 1.6052474127165266, 0.1345124542847964, -1.720959712535962, 0.9417181299210544, -0.0920608208872935, 0.028094082881964244, -0.29305139238572875, -1.066816607409048, -0.5258035468133906, -0.4923393301378203, -0.9583944173281757, -0.3149615322809942, 1.309939580158288, -1.7823607184864756, -0.006849976240128897, -0.2971140083650026, -1.573377097423011, -0.3814318346605461, -0.8539450959467745, -0.6567802851993993, -0.14778689993671712, 0.016608796689942973, 0.4887380350776771, 0.9521855395211807, 0.9635688903793164, 0.0920192904107926, 0.22044413980324928, -0.07115762010188376, -0.7036908752749711, -1.559210878865858, -0.3089973359097674, -1.2177431762798854, -0.08339149064260237, 1.7279423799199027, 0.7274242071333036, 1.469589834097137, -1.48952142326698, -0.27312880228175485, -0.3594246338035526, 1.585361384556896], "bias": -0.6341443760840573}, {"weights": [1.5296069294202184, -1.7349984388383257, -0.9320612720771445, 0.5424803871182702, -0.687233693698787, -0.5442058821307595, 1.4985040944889456, -0.34198445405657474, -0.9650573152245115, -0.4844181223959041, 0.05160232607332238, 0.668477110236542, 1.2119660778900612, -0.0879867768458299, -0.16581890186622883, 1.0766359337740676, -0.13202667508164578, -1.486306261574332, -0.3280499142912323, -0.7209834257283944, 0.5920962700227684, 0.5896883353094076, 1.0016005986017693, 1.9431238113155471, 0.007597434248230672, 1.4566609257961871, 0.520246083670167, 1.056786055013725, 1.4258102290879826, 1.0003020874990238, -0.6289776927862469, -0.40210332343232874, 0.6855117568906659, 0.29315590483684345, -0.5147780908862618, -1.9094686022180107, 0.9213236175059685, -1.6621683413196184, 0.5067116633578431, -0.5994812178565795, 0.023585727741815776, 0.744141690773467, -0.4422626319514974, 1.19146615434687, 0.8720277610486048, -0.5226673754002515, 0.04833424836684408, -0.6050876845094011, -1.0328018043360165, 0.5211252706214216, -0.5130853041018095, 0.5236925468880809], "bias": 0.6985153445540061}, {"weights": [1.1282788686656557, 1.27128495014674, -0.6669174711275568, 0.3710593807353768, -1.0356399908303624, 0.34217606486561747, -0.1998914294667572, -1.245206012289255, 0.19199848938150205, 0.29815880650483556, 0.7609915351068568, -0.3777530979419501, -0.41083741947626673, 0.26052439017087137, 0.696422763856995, -1.1795223911334658, 1.2245793028399194, -1.3638513254701583, -0.8384663416930005, -1.4682160733852005, -1.320886551854546, -2.313461459505831, 0.4540333115567097, -0.16103724271798603, -0.1602350342363456, -0.01807166195871779, -0.10328048577874072, -0.11986133095773266, -0.9189175532671979, -1.5343798720905313, 1.1927001844583245, 0.09921943338925826, 0.38465707631889734, -0.9807713423311657, -1.1699214158377196, 0.03979925444262533, 0.43080480566428636, 0.14331296069262334, -0.12765498809594766, -0.9605285881498944, 0.6452366257850363, 0.43962494512144423, -0.5024237196790184, 1.3382027567548362, 1.143193170075454, -0.28502744576221906, 0.19266360565050134, -0.4718539389035225, 1.2130837313975733, 0.9654236993667882, -0.7330588204847736, -0.6125684902173084], "bias": 1.117653678714487}, {"weights": [0.06799634944149657, -0.7928287621066905, -0.5935729307552113, -0.11810748604382748, -1.1968082522238292, 0.13656243087524034, 0.021960178776165573, -1.478901091033315, 1.0742466620469004, -0.2300969949259376, 1.1636564489299934, 0.011297098460332111, -0.33826442151650005, 1.0835703888846404, -0.9212070631433527, 0.5053289886350782, -0.06729947323966168, 1.0089358543414089, -1.3396577465542685, 1.0472090211357679, -0.40063434500450534, -1.0294364447152602, -0.8922095523887527, 0.3883320706791866, -0.13101136913319733, -1.0545695429751971, -1.3403850505646815, -1.7726439020396183, -2.322157051397876, 0.31066993813937904, 0.6232838124959815, 0.07357441474455323, 1.0987120482566635, -1.1366468799157834, -0.28317903311535453, 1.5094130537332537, -0.13201374037058133, 0.7171517850474703, -0.5822289440005535, -0.7733555645117365, -0.628651005388622, 0.665124080891043, 1.142642957511815, -0.0807431656751254, 1.025625625161315, 1.169167943053539, 0.06349395052035978, 1.6991261359612515, 1.5020875236649438, -0.8638203873008219, 0.22886779752900205, 1.9534016513859973], "bias": -0.9225813496557039}, {"weights": [0.8101993260699784, -1.5329211882382272, -0.15742357270269253, 0.5354764899434747, -0.46777867067794265, 0.28707423857991915, 0.6274793163930983, 0.18552010281550435, -1.120387440903779, 0.27289709183369226, 0.1974241149107207, -1.9879333623138242, -0.7553631961278129, -1.3253670853400297, -0.06608875822905147, 0.19947404320208095, 0.3017522854793805, -0.012688952494265715, 0.07748758749208373, 0.09268891635201326, 0.3287547781687099, -0.7247115242785729, -0.36006416395196744, 0.991709755603623, -1.284980357787334, 0.8364481962508401, 1.7746980065072084, -0.1423503647988189, -0.8424248567077608, 0.23501465365969237, -0.20018658121496186, -0.6624468680193987, 1.5045475654661216, -0.3057887179329917, -1.5328538363173025, -0.2082974401375876, 0.36805230796717053, 0.0876500527702318, 1.3350891817534718, 0.40204438032581946, 0.8363461286825673, -0.1087362137203145, -0.890416436546093, 0.9476444377746067, 0.6783000117863749, -1.1691168719806546, -0.9000751559080171, 0.8152688938414231, -0.6298086559480625, 0.6331361825804984, -1.8159694044435006, -0.02642472063603285], "bias": -0.6758924737374825}, {"weights": [0.571768100449541, -0.010952730289958135, -1.7146256154731752, -0.8842009251330206, 0.35012472399267347, -0.8967988606914782, 0.07010720542285159, 0.6871099448872536, -0.886003149192818, 1.313015562894955, -1.443662453853751, -0.49156388376579463, -0.24654933371323384, 0.5423360889360389, 0.46351038572562575, -0.5183757525729376, -0.17859947079644078, 1.054293240359529, 0.1932827550542004, 0.27432931602367105, -0.18488491037697685, -0.807629853804177, -1.0705524376254938, -1.1969805184390347, -1.597327969887186, 0.19326454196701937, 0.4729305102161839, 0.6668832311522711, -0.6541992512495008, -0.7021102846965508, -1.2152057155618463, 0.2449735936881683, 1.6441455396102664, -0.36301574528900127, 0.3989056430796543, 0.03826549524851086, -0.3895610122328084, -0.3144534097815589, -0.29830276138211875, -0.28054658564697554, -0.28396412525689785, -0.9679750725180825, 0.663758397331293, 1.4766071669888081, -0.14699345478322656, 0.3704438328831264, -0.06390405492111029, -1.121275071763701, -0.5303129324430801, -0.6935952984013758, 0.225638289631935, -0.03908024250741621], "bias": -0.25760524675745006}, {"weights": [0.6195745619706085, 0.6711064642614242, -0.14849710835213942, 0.34480140090155675, -0.14733969586220952, 1.0342741078433284, -0.4977099938876963, -1.2149855649698396, -0.9043768875115783, 0.05589097651405839, 1.7178808934317473, -0.3448954089281112, 0.5236740848218047, 1.6708208106146265, -2.7356102819657027, -1.08482025180624, 0.3154688705095816, -0.9946475160680711, -1.6456691299349349, 0.06410640539955226, 0.3310427708969259, 0.21647033210401267, 0.06821655672865923, -0.4284527513131089, -0.02162286746964348, 0.45654857020854844, -1.6590368150454426, 0.2674696609683783, -0.7731601623733313, -0.2172488721166922, -1.0059650081009703, -0.9368891507296832, 0.023774225384612713, 0.5697439402085909, -1.1737661154571917, 0.7971131760382997, -2.2419430887877656, -0.4444083751189809, -0.6079044261381515, 1.1381409940104512, -0.48949866604904735, 1.6912844635727429, -0.7632831867662522, -0.33114252108811276, 0.8454420438846918, -0.050657113655780184, 0.4838557768181051, -0.058365767053711215, -0.0695436716072736, -0.8202652110636535, -0.8984955826539227, 1.0200114866902792], "bias": -0.819906623995176}, {"weights": [-0.9099842551416036, 1.534911561492543, 0.5674638727872332, 0.5397379213365061, -0.5907830831452412, 0.3730556377977312, -1.5523860587154963, -0.29581253768162463, -0.4338570688972754, -0.2921337067168014, 0.4267618837922941, 0.9685321217820728, -0.18788543930530843, -0.17710699205780567, 3.0935039602268413, 0.013105549569371155, 1.768655151235255, 0.6594185265665382, 0.16692858985517223, 1.6382250885905387, 1.214390681763712, -0.6986193130489202, 0.06569412972358135, 0.955957270876937, 0.7954808359827402, -1.4652385770856036, 0.5411027737044105, 0.1376131536773909, 1.3681207541696008, 0.03673776146472435, -0.49751403886648726, 0.3962000148528677, 0.0016178009418690298, -0.3189772437671521, 1.0227602731443601, -0.7184341163253584, -1.4855532209572415, -0.19038208882384133, -1.2160612646356372, -0.5684856713348156, 0.38163012144278974, 0.010151463983350095, 1.0371798868306554, -0.1720403987721767, 1.015301796786783, 0.9334673861598721, -0.8648162440082732, -0.16281109869576027, 0.04461819817324597, 1.4485372307544417, 0.6326083930578212, -0.2935892449157611], "bias": 1.6666196446196573}, {"weights": [0.39795197564676693, -0.09114254944841788, -1.211877939650661, -0.8317170403239317, 0.5015029245237166, 1.3742141767447333, 0.5552819272610168, 0.26979467844035354, -2.692063687109801, 0.4556821035216896, -0.3696099887995598, 0.7496005420472125, -0.36552892149691996, -1.3072389083699698, -0.60119765222041, -0.6131901603857094, -0.4171190598598665, 0.3939574128775671, -0.5451913026068861, 0.1540013084453049, 1.2434729128326265, 0.39752571366513534, -2.004808030870563, -2.0188843396592846, -0.8703071113141939, -1.577062806426802, -1.9961114402850586, -0.9434868325878596, 0.30464942810667806, -0.18896664796459484, -0.18851261240238082, -0.272629881197211, -0.35601997037736477, -1.0502808226632938, -0.8303585057982663, 0.5850242415421067, 0.3755033442969241, -0.17119070330897118, 0.554796324145501, -0.0226916640384347, 0.5889112643359455, -0.8756654587299211, -0.1679239483316306, 0.6030639777183219, -0.6925823813675941, -2.0115905988424245, -0.7242113577629572, 1.8796370910658364, -0.04163814491136919, -0.4400081894898069, -0.9984709997769284, -1.4321619505155334], "bias": -1.459235880942306}, {"weights": [0.15588461588141467, -0.42267038024632475, -0.25028652434602816, 1.4115431706382462, 0.28540052371514935, -0.7335404011489994, 1.2827570883875095, -0.02131363145692272, 0.9368474868563849, 0.31513252491872856, -0.009753076240593572, 1.6040541576207523, 0.08919928681058076, 0.10819438729755848, 0.16175393652505698, -0.5592558240609632, -1.1903652005891647, 0.5903203206148374, -0.23905259577018373, -0.7473402976157999, 0.42523563855046165, -0.25247219606076965, 1.609981303748744, 0.07333024664036314, -0.21400527595120372, 0.1485512184650991, 1.5699908717858904, -0.5230401313443422, -0.23917009225142405, -0.8353416518926482, 0.00798010967861773, 0.09447285467406741, -0.5952542410035924, -0.5714946036309841, -1.2802652574283182, -0.4217187841444139, -0.41811307996207003, 0.7561512680026493, -0.37452457847359955, 0.9837940560667227, 2.412035487865768, -1.473559012379901, 0.156688827267065, 0.3243298578271331, -0.08758734973506521, -1.225260978257948, -0.972963992739608, 1.4546313131571382, 1.4452177773865111, 0.6547653105570159, 0.503429312491978, 0.24729148019623537], "bias": -1.0382275514698553}, {"weights": [0.2891165626193408, -0.9090257054409662, 0.36171010150532723, -0.47046402178346136, 1.1726790383142829, -0.07800103350999577, -0.7706382448894666, -0.40830169993062604, -0.8240951427051622, -1.013206419527775, 0.6076290975624732, 1.0687385152594158, -1.0132875034366777, 0.40901448398712315, 1.8543364351146518, 0.521911070231026, 0.760373542448099, -1.2441834298866106, -1.2632225648213253, -0.2606859908954626, 0.13593174414395015, -0.8195365380455892, 1.6005524052238504, -0.002136706576277625, 0.5028127668269657, -0.7076618180805739, -0.5241630840451627, 0.0723850050616191, -0.2732176504110324, 0.7061804660005914, 0.29203193188402965, -0.4012080481437523, 3.52529208475499, 1.2059266978526193, 1.0268459332151634, 0.5195048851781191, -2.317208193527722, 1.9908569547008144, -0.2667962450491841, -0.793856478520816, 0.2876944792126852, -0.41018243047532377, -1.0848368917864089, -0.44512027361405393, 0.7098438596966944, -0.6205891151151429, -0.5333472248982938, 0.5670708158363947, 1.0872969499956189, 0.6463649901948884, -1.2921696309404782, -0.5215333262954283], "bias": -0.2943684241150406}, {"weights": [0.5309891767053967, -2.1749250806962257, -0.5165145936523636, -1.4805854684684174, -0.763236540624457, 0.6837521224634162, 0.8637919145875701, 0.66504272189217, -0.9102412267630791, -0.13207215907711517, 0.6489115087749875, -0.7710428833547522, -0.725216687150055, -0.8108579851342156, -1.8591977027820257, -0.7714874592920936, 0.22116127507016858, -2.1948638466193087, 1.7195210285922553, -1.9822886820119456, 0.7940303448654187, 0.2504646008233453, 0.007558498120914803, 0.7174174333661789, 0.08740375981864312, 0.7656853582028513, -1.173235087920345, -0.6341099873761377, 0.4555595647991171, 0.9169638295930447, 1.9423229368300907, 0.24751461591307083, -0.5473180418965223, -0.19171513006521695, -0.5308832381888262, -0.606110117687946, -1.1322082580157655, 0.09939376909644004, -0.05125310456101745, 0.5354661467986137, -0.414623459582216, 2.111577743832367, 0.3907162581311381, -0.8926645858815501, 0.5633310209673372, 2.340842110486631, 0.30909407262304406, 0.6129631647927053, -0.366639133663051, -1.3896353061587547, -1.0212593028810306, 0.7706872341645105], "bias": 1.0166946059917472}, {"weights": [0.7271653593834541, -0.5031124342803501, 1.088350654716645, -0.3615455728363355, -0.14000647657632292, 0.5783507805392587, 0.061339051021127744, -0.2521106219543886, -0.16231966520771146, 0.32755573540999433, -0.7568272723151495, -0.22384244375728102, -0.403066897675486, -0.8617988266165693, -0.6957663220921502, 0.08340972696390109, -0.6971328802781062, -0.15384818815513313, -1.3176322099733033, -0.11140599275187879, -1.74235064325824, -0.08671750457218685, 0.2576848828771475, -0.15500016217650048, 0.7962207223979838, -0.7226080920336538, -1.0757919012886772, -0.2600031494109503, 0.542080818719308, -0.8676324382827445, -0.4142379798283504, -1.0037905061144228, -0.5139516763982328, 0.005995246481315608, -1.0659796443856346, 1.0587127852716247, 0.10698887622613096, -0.24796799721033297, -0.38975726041709513, -1.14349889485876, 0.03980427093562944, -1.162765712155769, -0.5103187834795965, -0.8661624642022512, 1.4064036919975083, 0.1384146090157904, -0.4515822644306021, -0.15628538177682472, -0.40535623267785953, 1.1172955527092758, 0.7769482492732742, -0.17369863753457682], "bias": -0.7713964607308772}, {"weights": [0.18760688413638105, 1.6074222946329944, 0.19278844999558387, -0.9506592865919635, -1.9005580810957634, -1.645338964020245, -1.8780077715486732, 2.110842981005608, 1.2534208617288216, -0.08897121637983452, 1.3067499602562673, -0.59108542845008, 0.36259528608848074, 0.4972683165124365, 0.5502530163815005, 0.6485369820403989, -1.0047652315883995, 0.33865817940983245, 0.8135214308453056, 0.0033864495613485923, -1.1798160354290559, 0.022593482633292417, 1.3374609272193911, 0.8247330909305253, -0.8449810922083734, 1.963275791613714, -0.20030881117489763, -0.26664529859233455, 0.16614040516279172, 0.1881145915981084, -0.11259311472073619, -0.6209026232054325, 0.14866952350510354, 0.8998067827419047, 0.29569416035287754, -2.1536555079751287, 1.086419093844024, 1.3532604976496052, 0.7605904503236044, -0.18947035492454106, 0.3292433554384846, -0.18604858077619468, -0.2280341480202595, 0.7092060858206906, 0.3576116102125808, 1.2255924549547421, -0.07542026340817665, 0.18514589389561398, -0.9947939934804046, -1.0295651014824376, 1.0015559262161182, -0.11890507456709015], "bias": -0.44658834670440484}, {"weights": [1.6123041270437988, 0.1186852928990959, 0.20638912538201798, -0.5822066760176168, 1.083695150122244, -0.6481778361282474, 1.3907191027255061, -0.1057341071322887, -0.5694562966507908, 1.3287091758273974, 0.1732449688581953, 0.4062610873695285, 0.21386151980548518, -0.683480914505995, -0.5727885745417883, -0.3557477740532749, 0.932227445179719, 0.6413046336916104, -0.4852215373512889, -1.0340284598528917, -0.09988554610095479, -0.2292507341391795, -0.540531603344292, 0.1041225790318337, -0.15781629595852448, 1.3325931970655498, 0.7965670299555188, -0.39780859503985955, 1.025974216792358, -1.5565179785377632, 0.6112177958422842, 0.7510773837040806, -0.2877155613312346, 0.747660427354983, 0.865735957423366, 0.672315048643819, 0.14050738802371, -0.3892194751916428, 0.45927663213671915, -0.6023657201935378, 1.6809949184429358, -0.6648760785011493, 0.6216428475587333, -0.6077107424685118, -0.34413916591469107, 1.1402928356841384, 0.926792362612886, -0.3699752302453642, -0.4475166284254639, -0.3502547843072013, -0.21611783339085, 0.4755506934388999], "bias": -0.6470610198821922}], [{"weights": [-0.9932639392137216, -0.1475736210161972, -0.8329262508383884, 0.20214609362717617, -0.6326076690381203, -0.3735839782313467, -0.7164083427819542, 0.5976598861252954, 0.6485984307737407, 1.846390322945655, -0.7587311198404552, -0.11922330656179037, -0.5540913050315748, 1.1538121992137755, -2.8124353075115414, 0.5590204405799766, 1.8337456305150837, -0.03590952878592901, -0.9066291061190603, -0.5481227245739114], "bias": -0.21133418722188413}, {"weights": [-0.801525061044046, -0.9987284209993532, -0.24777795277362435, 0.36863748649142775, -0.4270628119192693, 0.08373855878413755, -0.9013582893877691, -1.0080504024703285, 0.8742257311166848, 1.0737268687276473, -0.009267090873865957, -0.09510798114353347, -0.5896094351640672, -0.04097945322119245, 0.45518097179058403, -0.5144758132450615, -0.7811928360282466, 0.511375197272633, -1.488958612441602, -1.0109284296309053], "bias": 0.36003227737002264}, {"weights": [-0.25805787119652246, -0.08223605886469842, 1.4701728804372942, -0.9035311207763428, 0.17249009845085056, 1.0322014324330375, -1.5085353811092652, -0.955626628208062, 1.1831863155645093, 0.5581215229763925, 1.003097659218335, -2.170324843278392, -0.12626748094075224, 1.022789737344664, -0.3969894929680664, -1.0012636662619512, -2.049259132185668, -0.24002738193024087, 0.7173811811741424, 0.1145432570735625], "bias": 0.1436571405754778}, {"weights": [0.04400338135888471, -0.8311474134386283, -1.7994248914878104, -0.22669673991555483, -0.7193686466252237, 0.7269965056844334, 0.022490612666837606, -1.8871085253495214, 0.15433924891657735, 0.8959747812393385, -0.8897552493387917, -0.5653663610235609, 0.595625270567117, 0.270627128709263, 0.685222766225893, 0.933696898592248, -0.7134990332971871, -0.11691956408469745, 0.1775634933942798, 0.43973938516507594], "bias": -0.8106879549539974}, {"weights": [-0.9359524170534775, 0.6130827110286168, -0.6015487267796555, -0.19617256444533893, 1.451420580544411, -1.3594449369657493, 1.9072009118072435, -0.352681422308457, 1.3858870024924028, 0.4752219506032812, 0.20345577168082202, 0.2916199460386064, 0.7297917774276945, 0.013648653111263842, -0.08852168386870618, 1.2108469823944878, 0.36459099121337557, -0.009562066830362648, -0.8779912153030252, -0.28726532580343067], "bias": -2.263968371914755}, {"weights": [0.4624647629132893, -0.02564972965592216, 0.21937085033811388, -1.0090493837083612, 0.1724534774896287, -0.60293798158578, -0.30044712877270585, -0.4593569245642224, -0.33913946106014947, -0.561840781999414, 0.07694780643926119, 1.5263737344111377, 0.02658830974038895, 0.45103395715805006, -1.4573170291962942, -0.5502001963336618, -1.7358393249284552, 1.2180773934907938, -0.02380057051141471, -1.2233490148113042], "bias": -0.6166127871646855}, {"weights": [-0.4168821490039589, -1.5306653500295209, 0.23886136461824603, 1.9137135702951928, -1.3783725051339135, 2.0617540662057583, 0.6491593026666649, 1.5781844495348494, -1.2640254904828532, 0.6991055586293556, 1.3166428388309357, -0.4337722272199279, 0.3410934294054685, 0.8255729562305002, 2.050997159872916, 0.06580601074460157, -0.9504344856694533, 0.9950078275762735, -0.504552064681583, -0.011139137254203457], "bias": -0.16056933809951474}, {"weights": [0.26077288870818427, 0.7612535529571922, -0.21969298055794134, 1.5327624397833612, -0.8146517358544685, -1.1425928710413564, 0.44315572702413675, -0.47610580513662265, 0.009452634237927804, 0.67254942201534, 0.6302072045759055, -1.182355878070978, -0.2537964273994876, 0.17596181254376664, 0.6987062265408853, 0.5289158697459502, -0.11509589980293133, -0.19453503678726047, 1.260483982215927, 0.28753704562583804], "bias": -0.41854612147360815}, {"weights": [-0.04362570300449897, -0.17890907069793827, 0.6236460000846198, -0.5212304360680807, -0.6613637258503154, -0.5380563089166818, 1.4291139966173043, -0.060246921031421374, -0.044707303654609676, -0.6325346137653425, 1.0295136133198586, 0.9242172142234272, -2.3620980711437447, 2.2593381504117165, -0.8980863297124879, 1.173944466935969, 0.6121371560629345, -0.5315061295454658, 1.1448379741202432, -0.7799420054374793], "bias": 0.27997734709715455}, {"weights": [0.9351028822765459, 1.1446171862404189, -0.8642309973330345, -1.3262833429101015, 2.2039960711313364, -0.8533141217730491, -0.2435884417270784, 0.033715189503005116, -0.19666901066492748, -1.6389483578732174, 1.145558384606598, -0.3350582031714716, 1.4017693113598058, -0.22721309715538762, -0.5101826448855171, -1.306901371121464, -1.3312910689036717, -1.6442140952239352, -1.3161674649971187, 0.1308653445675687], "bias": -0.23671664069313003}], [{"weights": [-0.6700586339511543, 0.5888481379194295, -0.48231444588905986, 1.5482297161799188, 1.6284872908049473, -0.1954747714645857, 1.6933753124798347, -0.025969297649979073, -0.4285011046896884, 0.9701485082794143], "bias": 0.6671293854411328}, {"weights": [-1.1992627950847377, -0.44709596116794015, 1.2441739279862336, 0.23287822763065325, -0.061410758706298585, 0.5116454047806238, 0.175848608490202, 0.22444862382803943, 0.35574242453649474, -0.39820861966498344], "bias": -0.14451041103672002}, {"weights": [-0.3707982248215488, -0.2201552307678779, 0.22600481692806984, -0.6309153002516761, -0.2894085601181404, -1.5666681276285057, 0.23005166939313043, -0.6332676397888822, 0.041898844590464446, 0.2279354628791856], "bias": 1.0873760131106112}, {"weights": [-0.8959057249067398, 2.1675201197615523, 0.7785323897787334, 1.2613487122105977, 0.11561779574831021, 0.6409429416524535, 0.5397249157454794, -0.6009342145665885, -0.30862543286086785, 0.8506684977280154], "bias": 1.162511523966855}, {"weights": [-0.07707759344187903, -0.6354461231434082, -1.899890229112136, 0.3099821343431661, 0.8548412912635227, 1.256529166444261, 0.24606472538667146, -0.5510266248092235, 0.5047073523231743, 0.06400582907084573], "bias": -0.28321694626051475}, {"weights": [0.27808021817470996, -2.5538358917931174, 0.18981332454823563, -1.2040442674158607, -1.080603290687722, -1.7800425472709227, 0.6023059866144588, -0.6652257558012851, 0.23013090109269213, 0.18894985098828787], "bias": -2.9558623439562943}, {"weights": [0.5008468658186543, -1.8575922737933266, -0.029952067628137957, 2.2186541350413727, -0.5194145740113838, 1.608629854318701, -0.9099136318338631, 0.9501899814337756, -0.31229769445703326, -1.1340894135887503], "bias": 1.2005065061079518}, {"weights": [0.7744895125790044, -0.537505993381231, -0.11880401490103343, 0.3456587521030814, -0.04480981673181894, -0.26694679361575113, 0.44200513593110824, -1.2052710906144817, 0.7808430296405002, 0.6867411402081218], "bias": 0.07948312703504223}, {"weights": [-0.6027382450664339, 0.9022374871289607, 0.10362228609672353, -0.5495770521989678, -0.571267990433409, -0.12919567868816562, -0.4798529432313492, -0.5901600739818699, 0.9579499649104096, -0.5258414845973814], "bias": -1.6257273095644313}, {"weights": [-0.12356203135041133, -1.703212605702268, 0.011658087980177478, -0.9461690608325438, -0.6934603625217076, -0.9971121663233515, -1.077658411233909, 0.3834804124809241, 1.082132984117148, -0.21939880655625488], "bias": -0.9841884878310521}], [{"weights": [0.4687439322845527, -1.0236948758138436, -0.6082624203337801, 0.13302245947944175, 1.209417461371229, -1.4227141322199333, 0.16032085446833777, -1.8467266312095916, -3.3245215501898566, 1.0729088726226461], "bias": 1.8502381637593543}, {"weights": [1.2514136646265923, 0.06799280300262289, -1.0315694254947843, 1.1475813283113305, -0.769963045104769, -1.0106502591725208, -0.9253609213739377, 0.8023644291482377, 0.17600981720201236, -1.1560096522091967], "bias": 0.4043754302203374}, {"weights": [-0.016419286440845893, -1.405746994767786, 0.11863148430740184, -0.7453689352208053, -0.21796285288788597, 0.45299484007741353, 1.3764322416914938, 0.32332498286396827, 1.2631034872284421, -0.5798371123523939], "bias": 0.28072682839649454}]], "generation": 1000}