{"score": 108994, "inputs": [1, 0, 0, 0, 0, 0, 0, 0, 0, 1, 1, 0, 0, 0, 0, 0, 0, 0, 0, 1, 1, 0, 0, 0, 0, 0, 0, 0, 0, 1, 1, 0, 0, 1, 1, 1, 1, 1, 1, 1, 1, 0, 0, 0, 0, 0, 0, 0, 0, 1, 0.08, 0.828], "layers": [[{"weights": [-1.0543781110708124, -0.5167155750457675, 0.04243566172005919, -0.15641156534367218, -0.257083080197813, 0.8635716942202815, 0.7810974023839912, -1.3264246730178342, 0.88979800535835, -0.5762742801938465, -0.36443486582754875, -0.5108270921180368, -0.40162985113164007, -0.44171099144645454, 0.5561627603268182, 0.9765347545252447, -0.18132908051914054, 1.145652183917088, -1.2015877445935577, -1.31556498842073, -0.38336464176796303, -0.8951527363907088, 0.3660302428649522, 1.116181956348583, 0.19880833630096983, -0.48715220489045874, 0.6549684921021452, -0.0646732682484974, -0.7041213029457167, 0.5797079368816316, 1.2452239666666378, 0.43032340357945786, -0.7538891078691747, 0.2584132607674341, 0.9782138545688535, 0.9813715742761149, -0.003901831079351714, -0.15557217926970623, -0.49497796693926505, -0.5224568800606206, -0.592892715599892, 0.21095569810091597, 1.1398559984359604, 0.3357295773710254, 0.29084482804725287, -2.0661710711580006, 0.7024952554147099, 0.22513662683948188, -1.011043410615465, 0.376526413904392, -0.3766699054875142, -1.4054530917274113], "bias": -0.06520341894243264}, {"weights": [-0.33328183492691177, 0.10777633629411709, 0.21785899846829504, -0.473200760865947, 0.5408669929930068, -0.40420710477891575, 0.33173846846444804, 0.5392161251261609, -0.7640132188422705, -0.6403538722202525, 0.0008045974956043533, 0.1602902377227735, -0.6327764716513229, -0.5008371160461873, -0.4642932182374116, 0.1752651824992264, 1.0864350993632093, 0.3422422950148639, 0.36610368112274116, 0.139542880905402, -0.3496906707959462, 1.0968784033323282, 0.18042906926902008, 0.9095644652315825, -0.6976547340988231, -0.6112904610077139, 0.41670594409324857, -0.7176453796191359, -1.0165099817503143, -0.2478589203623791, 0.8169486357683415, 0.9498424844524118, -0.6139613127156329, 1.2097384228701398, -0.43886467362388804, 0.11308079310624675, -0.34402808045853506, -0.4326627701228094, -1.1079195068358847, 0.3195047077508746, -0.4795576168431439, -2.1433251129019646, 0.4334571719101863, -0.46714335591950684, 0.1146166117767562, 0.15204340526170923, -0.25877941654444736, -0.3042466474353962, -1.0221264926199343, 0.9580001539426164, -0.14723315441810092, -0.4587518427095352], "bias": 0.05556447862405767}, {"weights": [0.9834138018474334, -1.3266308820927972, 0.38838804960971995, 0.16186615758046008, 0.683639150736252, 0.5052308658727465, -0.9369402718156586, 0.8736951287149708, 0.7049685860215826, -1.2257911504526984, 1.0659453687540459, 0.13813760771365446, -0.7357159259777348, 0.08450742856340776, 0.3500801844172, 0.8179661285362081, 1.6047127583930136, -0.8849290789402736, 0.3974177769503531, 0.9030255396660903, 1.1779922483643814, 0.5800810143544544, -0.8704245949086247, 0.5259371909731068, 0.08164301684473085, 0.9825564924835692, 0.029558442835247112, -0.41501163787826156, 0.7301991352287345, 0.04821651900619983, 0.7937269090550227, 0.4600415306393102, 1.5265403708025127, -0.13732870751596293, -0.6539085394227415, 0.16199808360475826, 0.514172086430859, -0.7857415080938234, -1.027514910336969, -0.42652478409261596, 0.881210251277126, -0.4735775346029616, -0.2904964283234064, -0.9103572436970704, -0.844008677334932, -1.170751733071728, -0.9062985915087007, 1.3068706491518003, -0.7139457753016876, 0.13918486303943745, 0.4372496221128803, -0.9070861395538308], "bias": -0.4645139957650245}, {"weights": [0.4670708448072809, 0.5987829662347777, 0.6348884469956172, -0.3246259442602937, 0.3432716187204099, 1.1417695958931446, 0.8122364013580221, 1.570229136808519, 0.7026803084655835, -1.358616160872737, -0.08837548714922305, -0.03540827819924097, -0.7701646907136755, -0.9503425058537077, -0.28958143336629893, 0.5122562677313898, 0.049665511147405306, -0.7485106355048592, 0.058313242252911346, -0.3941841182256031, -0.7103666574188094, -0.855015215610072, -1.3333025982064783, -0.0071133189435622635, -0.7536935025559741, -0.8776435419805818, -0.2074318307678541, -0.8792688204874828, -0.061014326148235654, -0.07324395777584747, -0.22999251846410607, -1.4145649622816463, 1.3012084918630102, 0.06337476658281027, 0.6042610326043547, 0.6303896601444652, -0.24173558142646207, -0.5341912412144094, -0.5708300325271451, 0.5394358925444096, 0.8221348591157368, -0.12207729678404045, 0.22661832805956905, 0.695988009021914, -0.9487807007338065, -0.3295482124544311, 0.4155046657770156, 0.4020185242560417, -0.08879412210684523, -0.2690847040119837, 0.017659695963239797, -0.7733078323169301], "bias": 0.9259018312500249}, {"weights": [-0.2749241359263856, -0.060868471688673875, -0.3914855104024696, 0.3363832258232182, -0.1445487038693376, -0.555325311818711, -0.19659068616273156, 0.5091295688804933, -1.1447670440165083, -0.1611830007708681, -0.7938614369443877, -0.7946368256943588, 1.186716454807173, -0.2766232956679505, 0.8395245088149084, -0.03063279593194429, 1.4859685998421857, 0.22056724731605104, -0.9255190482351519, 0.39390018332260346, 0.46775769967150627, 0.6229069632157347, -0.6076486275303588, 0.3920180537266502, -0.23995541398090003, 1.5253524491268764, -1.0211875637769672, -0.29766378376081337, 0.634049349939402, -1.7092904817872197, 0.5935661500019391, 0.6789178122206931, 0.18582380530890885, -0.2213092387822737, 0.09525219421042808, -0.5643587222698965, -0.37785332600315336, 0.29261103165268154, -0.09763972850929437, 0.21335445306372014, -0.02874348481312472, -0.15132230274748038, -0.993870419702177, 0.29198273408655107, 0.6351979059570918, 0.4839796895359556, 0.5420404328299138, 0.49772306554377876, 0.6420033061071189, -1.3053337132904481, 0.6801983122303337, -1.214349125028966], "bias": 0.9145695708134753}, {"weights": [-0.017172886064865778, -1.6099755025018454, -0.1437907741109935, -0.982814984000544, -0.7805109795155294, 0.19872625794033338, 0.2975835558545419, 0.1564794156903111, -1.2186920312677727, -0.29463017069592223, -0.8291561324841589, 0.5994943420968085, 1.4592606354144613, -0.7155704035513102, -0.21523583825857084, -0.8134221584617449, 0.4200747497115144, -0.22754199710923007, -0.5847921493538872, -0.3488546035071073, -0.18573033394379534, -0.16240548043775838, 0.6684393681863801, 0.7476107763132248, -0.8390204247568538, 0.11773625418365774, -0.46541767829580816, 0.7519398069296299, -0.4142143276258127, 0.7603195854387366, -0.3994592124429732, 1.3457863819516422, -0.8026777015098912, -0.06114762225094916, 0.9158657446363436, 1.205940320831265, -0.6828276854790244, -0.574524569012048, 0.6422469336348973, 0.744807543335065, -0.21216299299645658, 0.05593195927320438, 0.26976962875141774, 0.9369256973245284, 0.46895463446030416, 0.6716417470016147, 0.358256478821676, -0.657510528935343, 0.3211709871933045, -0.17069245068437744, 0.036709940492313686, -0.9198555620963351], "bias": 0.2502997752274485}, {"weights": [0.1550355698416298, -1.3644783578543902, 0.6196543436914372, 0.6880118842850291, 0.3466365243970879, 0.8536084912291042, -0.35935290723019764, 0.7687288183538739, -0.683678308174168, 1.0279101243340945, 0.5088841828222954, 0.2789552240366938, -1.6507095686885713, -0.7830918150855654, -0.4403823190625531, -0.311324466055797, 0.34789671939515776, -0.3187428248477273, 0.22910475750234816, -0.8564541805524655, -0.9298727295202118, 0.1791564584590497, 0.052970327483104596, -0.5692940605420352, -0.02642957060333495, -0.8766247142066446, 0.7523128044606833, 0.4936978297470387, -0.4681300518006164, 0.7144550364206552, -0.5381926713816675, -0.4174504988436183, 0.17840804338483396, 0.7009955261743266, 0.7965288301449629, -0.2199520805035713, 0.4332109542476135, 0.4728726054022999, 0.8195528810806629, -0.8464313646599828, -0.927078722451171, 0.09923367743262945, 0.06993639318417832, -0.8639075112827103, -1.5038774347953945, -0.0904985332839423, -0.09682857348270946, 0.17948727435156292, 0.02641566095519504, 0.5584014468855314, -0.7118466424468427, -0.21159197986925804], "bias": -0.28993464771567035}, {"weights": [-1.91605367944991, -0.18146937935899754, -0.22232959438040067, 0.2896240260274332, 0.2969243226405689, -0.2596750443195823, 0.7754934500778119, 0.7288968042871841, -0.591083743667332, 0.5118406525423704, -0.42108707465412576, -0.34797588937696244, -0.9233645610582046, -0.5203207634104192, -0.8368860129513607, -0.790529249292616, 0.4579978498678625, 0.33526733286580823, -0.38541586710364173, 0.5810410527513747, -0.044113304020091615, 0.3404607607807879, -0.051103745280931756, -0.7170048847530439, 0.09046969117752623, -0.023458668035364783, 0.04102773559523687, 0.34041748101489155, -0.9557498135918797, 0.7957929082728536, -2.3908396146369357, 0.47672450898362184, -0.9096075542757985, 1.2380662142666132, 0.09847491571454126, 1.0126817906034937, 0.06471199401281891, -0.02808110924053364, -0.20600825086122798, -0.6969521060766636, 0.9948804229984234, 0.02543035943179417, 0.7593476163215949, -0.0569736636822048, -0.20739120708631598, -0.054087192694649344, 0.6896361609929609, 0.059797992024867686, 1.3301348945007425, -0.8115704145001826, 0.009491333372350308, -0.2066715360917193], "bias": -0.25744471056190066}, {"weights": [-0.6914049935299185, 0.7041870894354483, 1.2391746360322782, 0.8274752007873485, -0.4088764627362593, -0.23063822986766103, -0.3265245303265396, 0.8299166274623102, -0.5383424516490194, -0.31365673020999485, 0.3323122652416939, -0.06061144182843381, 0.6790154562707809, 0.7963086378631128, -0.04602196564243799, -0.12276622857930902, -0.4934878985258969, -0.5975331821837646, 0.8861594750548227, -0.9892799370975847, -1.599540016054633, 0.21819650158802895, -1.5647744678900544, -1.2177696270197151, -0.0517252653792617, -0.9350576386621181, -0.29986979284186455, 0.4736141600000662, 0.8809370595564965, -0.8967539148400114, -0.9414493816640654, 0.37248773376842503, -0.4215063491136446, -1.1108069330382186, -0.9904572814420438, 0.33472827780096037, -0.44582856915025626, 0.43515392792307195, 0.9951949588733758, 0.13974820885744776, 0.19190655205337948, 1.4517967208712266, -1.2327256316097417, -0.5797211478481541, 0.9130171147622697, -0.5461548373347549, -1.2086907105203204, 0.11241094762404114, -0.4641103425510906, -0.053713737702532405, -0.20992026446192757, 0.4183269840425441], "bias": -0.12540473719308154}, {"weights": [0.09628657681862635, -0.07842963541340853, 0.373349437234453, 1.2088148771509102, -0.5725132923282903, -1.2915518697362411, 1.039806921044058, -0.3387332404700145, 0.2673787645776612, -0.23194211065302967, 0.3677023961402337, -0.010717040372629438, 0.7062816941753125, -0.940943336413657, -0.22717418593636096, -0.9319847526771912, -0.39270536384365884, 0.4783753560306869, 0.6969857451319221, -0.2817737137004517, -0.8820254040240909, 0.7771756381809383, -0.9447846312765404, -0.7287599967918651, -0.03048399569498783, 0.20506605831116415, 0.5033150507146109, 0.4183912636035565, 0.9047330157728886, 0.4681592231887486, 0.8441024504884729, -0.20124404138232754, 0.5232014822816298, -0.8000625894493978, -0.18306333819243126, -0.8087649801054266, 1.4493090963305497, 0.4350742097499545, -1.3090999513359622, -0.9967738236576628, 0.7661631402473967, 0.8326517192594396, -0.5484531482496877, -0.6145869268515755, 0.18628814877695743, 0.2479978493376216, 0.18979634905362008, 0.6021673815981166, -0.9905444104275437, 0.19533417833585853, 0.842132481586348, 0.8466620721651152], "bias": 0.70237993709346}, {"weights": [-1.0521652961053554, -0.7348886488596805, -1.2894957858103329, 1.0569579097516364, -0.6687317426742299, -0.7042984339047398, 0.423255728790882, 0.5988696897944625, 0.8344007185496611, -0.10369544344101012, -0.039624463536901744, 0.8744250431732448, 0.24089971583560432, 0.9971910829528132, -1.1560641740387023, 0.5461152093193786, -0.42056956295673276, 0.5181129801784283, 0.06886121948448731, 0.43894151614473054, 0.6010469463080935, 0.5595586431866575, -0.273447105594288, 0.5358069975954827, -0.7652793745189386, -1.3841665981876274, -0.5726505371007964, -0.47377317649872397, -0.628379145112923, -1.8011147269191343, -0.35069804747533895, 0.21988421168492578, 0.6318515548667059, -0.3993228956380501, -1.1276095990751887, -0.40456994326182305, -0.38824772203415203, 0.7757550618913969, -1.4486768733141617, -0.9809216840745558, -0.3895279958317057, 0.07118010845830058, -0.10276945183351738, -0.8860449693266335, 0.727539988851404, 0.04434234239719703, -0.7736093891245752, 0.4021500626750937, -0.6492094493124384, -0.8376610303193033, 0.23686182511662673, 0.9924348437428487], "bias": -0.7444558098033969}, {"weights": [-0.287184084159249, 1.2704532745897072, 0.06324969898915422, -0.45318132816113327, -0.3452915868348233, -1.536402326593422, 0.808212347068864, -0.22025630400288665, -0.5730775536533224, 1.1633763939811594, 0.43240558459565603, 0.5560446416753273, 0.3309704015287518, -0.21069707027342788, 0.5056657581526662, -1.1104941930390493, -0.17120328092182024, -0.24263624014443375, 0.8068732272220092, -0.5151190810935384, 0.2942719630483315, 0.1382424337483208, 0.36206322901001053, 0.1537855731201715, -0.18224061073474362, -0.6302419588914763, 0.031653531840940774, -0.3808098521828738, -0.5072613481107037, -0.5730853886320335, 0.23528126073883915, -0.5331934235026894, -0.3400043714151745, 1.0371755917591177, -0.4467744587759068, -0.57443409547369, 0.5396830932297569, -0.4267521479740897, -0.023273888462504333, 0.1604792045582767, -0.6362870734083481, 0.6732705584173257, 0.5162826336334041, 0.6930378666216381, 0.3474393996617271, -0.7351776863147093, -1.0437034068114168, 0.46744535435698364, -1.596550224638948, 0.9087976440295804, -0.8887550686058716, -0.03693634892410225], "bias": 0.9052781063726945}, {"weights": [0.7086620256461578, -0.4755590040354329, 0.042926404089580705, -1.9584377361459664, 0.9185573736715029, 0.462155394157052, 0.437703476963041, -1.3343328091030933, 0.1346659808313233, -0.2724626134183615, -0.1298437850362837, 0.2341629670099744, 1.2810630824737277, -0.47749097933372686, -0.09447788380246847, 0.5830078036181796, -0.7617364538103094, -0.23887684272690723, -0.7649637638969236, 0.9309825358407001, 0.2269415203957445, -0.279746320820631, -0.4631903069470079, -0.21609422558371727, 0.10615397692553241, -0.702128047373932, 0.5486561577482918, -0.9206912968591754, 0.6071229418112363, 0.10344604540983449, -1.2001371525434752, -0.54879487861715, -0.21146516335881427, 1.0654873205121533, -0.31894044779289255, 0.33620598052423323, -1.1453192431112846, -0.3231287527171649, -0.1574564525405595, -0.9372831560822203, -1.0697191086529338, -0.49863728415057806, 0.16237746356634908, -0.9767209470173936, 0.5439551197571892, -0.5976643383238798, -0.3169962136032575, -0.9374905218934648, -0.4858863036626332, -0.3931568547209878, 0.727623511889131, -0.7172786266587126], "bias": 0.38987918807944766}, {"weights": [0.34230836229404704, 0.36825673297937256, -0.6369483217979561, -0.7509888243191909, -0.06255098069967824, 0.6105610008857612, 0.9570896968615141, 1.0247735531173592, 0.36935521393315207, -0.6193443991605088, 0.18140916470639912, 0.6608285733510895, -1.1329234491193376, 0.37954176607073076, -0.7732397479346518, 1.2340813600596583, 0.23540150442504904, 1.0337990621363589, -0.291882706640628, 0.24539022991506887, -0.75403210286125, 1.6820754344753954, -0.6757242381931764, -0.24482695094650753, 0.5506128574866176, 0.46053363269321135, -0.6952564074333614, -1.027396384532927, 0.6488511052549424, 0.4969592952411933, 0.5197140442764727, 0.132811738149967, -0.42031823819049796, -0.9725803624907143, 0.6462244731990847, -0.32101525640315476, 0.734049683142673, -0.26172486534274886, 0.007859716766931202, 0.07747754583163968, 0.06132767015482121, -0.9217676224106487, -0.1144359902000871, -0.31613747887707877, -0.2042202960869357, 0.17373786477417297, -1.4089713415060694, 0.966935696158806, -0.9614878793943844, -1.1130661137656714, 0.6055506001217874, 0.028359804266953392], "bias": 0.17750531866525704}, {"weights": [0.739761781982154, -0.8557247902149331, 0.5811803478001003, -0.10001545819168789, 0.059123802170889306, -0.8806252744372404, 0.19354786191031603, 0.23305551628878818, -0.16273635851262236, -1.1504384394762548, 0.25861946891167786, -0.5058486934375721, -0.9199329632584271, 0.6161534374137059, 0.5345718549593077, -0.34349399472642794, 0.8060763773660315, -0.6470713887232411, -1.1578140487815916, 0.1124808467958035, 0.11582481264147182, -0.6783882674829174, 0.3820817738353482, -0.9737072799524057, 0.7883573494306126, -0.052448660950168646, 0.47133059264022037, 0.8009185717554559, 0.5778608849328348, 0.20734338234862676, -0.74072449704142, 0.8467298747341633, 0.9461716652591534, 0.14814642446382353, -0.920422907044893, -0.20897731886154436, -0.0917415155295056, -0.007613196422288082, 0.1332437308870933, -0.6337259347873121, -0.5913813037361961, 1.0284949997577897, -0.5738345334779931, 0.6280546868942312, 0.14276374056868002, 0.6818231284362328, 0.913662887277721, 0.19335333273054067, 1.515628438147526, -0.8529639142241259, 0.8692406930542632, -0.7996757516620521], "bias": 0.3713312721926483}, {"weights": [0.9282335295182356, 1.13900254268735, 0.9436411477565174, 0.3630277230178265, 0.5931724483807033, 0.7460929925860174, -0.19639111888873123, 0.7801550382199003, 0.24078929664763504, -0.5008948703153355, 0.46028592704531035, -0.792766173488404, 0.7839115137933341, -0.10185384011084564, 0.46377381248259, -0.5109609615621555, -0.9843120557712957, -0.4560530448082014, 0.1206602581357552, -1.4899536612783462, -0.5716931947648834, -0.3502773360653104, 0.8938719289837358, -0.9039380392656546, -1.1622252068205785, -0.5039198830623375, -0.9536807782241181, 1.4074794242256667, -0.6852469980553701, -0.10063069998861407, 0.7019555258577385, 0.46335474113615716, -0.2674403611665179, 0.28173061743473937, -0.25656519596493443, 1.3222551674611538, 1.7682282021334963, -0.6321949792938494, 0.16205982117702544, 0.05092422662402557, 1.5963899362930873, 0.6605968661327801, 0.41843766492112067, -0.7568253693598519, -0.23216131363706227, 0.3896523639785383, -0.5485310113990551, -0.042105901344461016, 0.6735585601085683, 0.1299286389521601, 0.9524526463221592, -0.3145756651146965], "bias": 0.16727167403596044}, {"weights": [0.19992748659566617, 0.20862468004164902, 0.11848957698455043, 0.3248732011346114, -0.1244649171111869, 0.7193639348990357, 0.2838085664903427, 0.725478978092067, -0.03990184961246657, -0.7627261821317719, 1.1274480027333031, -0.40466286335649204, 1.4265739140249187, 0.6318625142980929, -0.08738987585027136, 0.5676990333604017, 0.06291951344137692, 0.345663066972308, -0.7131512177652998, 0.14950109563251135, 1.7465112569908436, 0.7650940660014358, -0.12734991008354635, 0.6815276008561202, -0.22284000407299498, -0.7764332288004473, 0.8619543097404314, 0.6514470592000208, 0.02919569700517144, 0.25396415740968914, 0.5024416483956651, -0.158244018729089, -0.15639828438699888, 0.9069310692968506, 1.228510506101592, 0.5897929045487309, 0.2083264040881394, 0.43236645334532975, 0.5214547906794882, 0.33640934518200116, 0.49356161108348107, 0.18931681246351184, -0.9511163025692255, 0.38047910995581713, -0.567787786687292, 0.6452916687505756, 0.9727425837748418, -0.24471240865249222, 0.6645975088234399, 0.35276218214022614, 0.5818571142740958, 0.619280037828065], "bias": -1.1498699655651847}, {"weights": [-0.4503802523153888, 0.564920129650506, 0.23674170705418163, 0.7734623476472327, 0.4755960833232955, 0.8775565745230527, 0.596010832939096, -0.024023863676015278, -0.05632653405622556, 0.37987577351791946, -0.745506252436239, -1.1937015599821246, 1.2900034180634372, -0.06943972087360128, 0.9122534285116313, 0.24441361345534596, -0.039078486888704855, 0.31811733464827874, -0.11387660517241693, 0.4785074258526971, 0.1367156148452653, 0.9247665380774985, 0.26241517381672574, 0.8312645475540319, -0.7483500646191459, 1.2283806468714453, 0.7140257554633422, 0.5157170992799692, 0.2610084226434217, 0.20415922871284775, -0.25827816803457493, -0.1580031040590968, -1.1619589746435035, -0.45362626787898597, 0.23724780076473406, 1.218889402885104, 0.48150208602750233, 0.39640670531054967, -0.485269028130756, -0.43519060152229594, 1.2739792342174892, -0.45398423515994923, -0.7551084125942074, -0.15225085618552692, -0.29657873151578973, 0.5297638771743047, 0.2032185023023494, 0.022114510741025217, -1.2402194971964668, -1.1707375375736162, 0.7675293876408085, -0.7731588908327373], "bias": 0.21863029615700502}, {"weights": [0.11932142263497814, 0.2838049736787514, -0.08888012933877071, -0.17993616514079014, -0.09045767446205966, 0.04509595382757592, -0.8312624764434329, -0.04570700039835529, -0.6770283149633025, 1.4056134607700814, -1.6847851272878915, -0.20039061777071376, -0.2942294524385022, -0.21405664185064094, 0.45057854248907225, 0.8423932554650335, 0.025707928776601552, -0.46305353907554525, -0.03380457269098058, 0.4229218771375986, 0.4921106334182279, -0.6406863180576201, -0.3887229966436947, -1.095172692633601, -0.1682409847934584, 0.11741415107707565, 0.22255929396707586, 0.7891963076050112, 1.4249705986623633, -0.4092703062330214, 0.9448718863686738, -0.78845560853181, 0.7215016400554766, -0.8773019123665324, 0.010348482524603186, -0.01677040515909256, 0.611464135271434, -1.5253430198823152, -0.6942335369606323, 0.21506745706281372, -0.3277337871192899, 0.28470403576427805, -0.7109753052491123, -0.4011482691590487, -0.8328857240985283, 0.29031486461488454, -1.3418817309568685, -0.8168475854020414, 1.3018766303819231, -0.4453068874800401, -0.6919599338526994, 1.3526149849583853], "bias": 1.2934022079451022}, {"weights": [-0.21261067418190094, -0.026330820953589518, -0.940358458427329, 1.162787652847202, 1.0659698508406783, 0.9103970115073079, -1.3069872216852154, -0.6759651216853428, -1.1732902142909318, 0.4624910711933134, -0.29485914948346115, -0.2657472575040253, -0.6656177983019242, 0.5882095895498001, 0.3382403235564646, -0.5052922734557763, 0.41029467932648483, 1.1275503100100097, -0.8367122558817572, 0.04249876481053816, 0.8411641027062273, 0.03007393927568569, -0.0642188059876696, -0.6083975812680575, 0.8545595816268469, -0.8760518161437856, -0.2331161405933324, 0.9773363385065947, 0.6552828887031981, 0.2088139912503062, 0.6158420404861173, -0.7581298806229495, 0.13662966498706242, 1.3910663447798741, 1.0009936033682871, 0.7332220180495568, -0.8368054844534294, -0.1640928504783965, 0.6024013859456823, 0.8401537902374769, -1.6018433710824715, 0.9189652797180148, -1.0531315248168018, 0.00066052405616146, 0.3513373939711467, 0.09747332021987065, -0.8138664501027246, -0.5740065502309137, -1.0063300698336424, -1.1149669005924139, 0.817574378003258, 0.43678954556720173], "bias": -1.366711839815692}], [{"weights": [0.3414356532358884, -0.5460402910605463, 0.7106762079005488, 0.456680189435278, 1.3945160246210584, 0.35674491190385327, -0.7490711033495843, 0.14892719711241154, -0.5592321701978825, 0.656357606891905, -0.25094719679053046, 0.5531227663101086, 0.5849742768049953, -1.6165548633740117, 0.8259763330879737, -0.2092613395731966, 0.030492947114266977, 0.6440746054071897, -0.35845074847112524, 0.8379019698927791], "bias": 0.6268294514511377}, {"weights": [1.0803507731208106, 0.8800230167588979, -0.6566664432153477, 0.04945262549693619, 0.5739425132587286, -0.18103099036428305, 0.601670863071258, -1.0947244703708274, -0.6599075449029087, -0.2656866178384032, -0.31679748338086755, -0.9137710897921998, 0.674922856934131, 0.5529939076006645, 0.913955183586806, 0.13014142918899774, -0.6594231982554069, -1.4151430906030833, 0.44330718800711666, -0.2042049067831655], "bias": -0.24801202267386036}, {"weights": [-0.8778808575940782, -0.17943228504703534, 0.4575598035752517, -0.6876396456365252, -0.5907979476354519, -1.150991880744392, 0.18581655748466974, 0.09228223266823132, -0.7464833861648434, -0.7946673534264728, 1.297571463285166, -0.291011465623064, -0.7940886450236315, -0.16655822659481034, -0.2848842279656183, -0.07188262505091558, -1.2968000512415618, 0.34704355467210757, -0.5844436737852596, -0.5268369943323272], "bias": 0.45769140235264816}, {"weights": [-0.29812135695777, 0.9426453773197792, 0.729952665217942, 0.13195018255233193, -0.12024277226565028, 1.6032172219635932, 0.07994400062842177, -0.5075113422567255, 0.09419859907196071, -0.12570132191327865, 0.36381353041662434, -0.7118115903900228, 0.5008214793712993, 0.09415946131261488, 0.1450638128184646, -0.5210184105487039, -0.3145389571164526, -0.7773071591644729, -0.9468577625828487, 0.33320343811920294], "bias": -0.4729169643388491}, {"weights": [-0.44117939065587364, -0.14291951603896602, -0.29448024067329426, 0.9056492177950672, -0.2666831555256397, -0.47375669570829326, -0.2941370634412126, -0.5576488580664187, -0.16862985562306843, 0.5062048685752395, 0.17168515087714908, -0.9762984440240816, -0.6625416172391256, 0.6455721616313339, -0.5153042203041902, 0.18496887775013415, -0.8585805930464828, 0.05510495532934401, -0.8336462043105564, 1.172233023018833], "bias": -0.6197596318590373}, {"weights": [0.377046635054549, 0.8594539981162785, 0.2636490842192982, 0.6227379763090055, 0.9943769275796144, -0.1513839922190301, 0.3298880453437727, -0.001799520608044114, -0.315750588401148, 0.121012301257586, -1.3456457737287826, 0.36440538033169334, -0.27913141522567875, -0.09738314350221566, -1.7609413273440948, 0.75195925099519, -0.17533139952102372, 0.40375694851172184, 0.16254244631497183, -0.3334207689978934], "bias": 1.4858834759390582}, {"weights": [0.9233601305913421, 0.9407749564263435, 0.8841407934599544, 0.7321784726943872, -1.3236028507907844, 0.7746406106643968, -0.21266512837889606, -0.3355821672878978, -0.14390946843838837, 0.6248103582221711, -0.6717366365174984, -0.7379371580902472, -0.7496477929530723, 0.07150162414712113, -0.5002553931019962, 1.088538155254557, 0.2771881168390582, 0.2690967660902338, -0.8272732919535717, -1.2361099148500982], "bias": 0.5698731297227674}, {"weights": [1.3749247301189298, 0.3621534251691478, 0.5514403103073386, 0.15040518565308192, -0.45941362453912604, 0.28831427226761797, -1.098357644485392, -0.8953286789056099, -0.35842324729353364, -1.0457053308928548, 0.5963222631331646, -1.244063501902314, 1.193553510798981, 0.06532283725462773, -0.7860170182623202, 0.9742353692291201, 1.1070655073070936, -0.06441300516543058, 0.6223123427207558, -0.2934750729016792], "bias": 0.00850634159497271}, {"weights": [0.21232307220550495, 0.1558944251614911, -0.05650130287540012, -0.9274915342422381, 0.3160641488717744, 1.2476943066904935, 1.4228637654086103, -0.8995136683824805, -1.1021942204694373, -1.3090930000617247, 0.15253550529553572, -0.8245337727996696, -0.08625137702855956, -0.316277661301658, 0.8951067889308515, -0.8457343053589443, 0.33404092575101174, -1.167967829318835, -0.06965700825728666, -0.3623194487233052], "bias": -1.0061769862875263}, {"weights": [-0.031605327998719956, -0.6541971195792262, 0.002819820176150456, 0.2953619147297726, -0.1304797284030168, -0.5310224117920508, 6.420891124858663e-05, -1.4614912887605835, 0.4480455282095214, 0.5122282389188977, -1.4032951807435867, 0.8218367270476533, -0.9988897120098321, 0.20548279623903976, 0.0854685832869253, -0.033359908074463984, -0.8870281044966395, 0.2176704596426231, 0.9031868706200998, 0.41107672072411816], "bias": -0.4497557385528139}], [{"weights": [0.293471772652123, -0.74117627617026, -0.45731491385697276, -0.7331669180805109, -0.8046606692049869, -1.0585604748292985, 0.8335047730568139, 0.6420301682665186, 0.12518592084657487, 0.5776287701338987], "bias": -0.05142126919608758}, {"weights": [0.17283768095801944, 0.5707019386124392, -0.2820753937638262, 0.7257364739391693, -0.4984188766709037, -0.2896185417853374, -0.5128646798748449, 0.3276785109098106, 0.05108780860122475, -0.32147004572834953], "bias": 0.8750624153605474}, {"weights": [0.2253774482303732, 0.45666744050996155, -0.9622844883758725, -0.12782619042170906, 0.23290607174334188, -0.8268947262233988, 0.6672756027656044, -0.8147033357425149, 0.5516432910386084, 0.7838791255970572], "bias": -0.745923062461059}, {"weights": [-0.3954739610273921, 0.4348657712653474, -0.8867697039315017, 0.8825486693261888, 0.15724195836504284, 0.18467913123776647, 0.8422501902331037, 0.18584423421391527, -0.8487999767018756, 0.0674671896515946], "bias": -1.7752363327880505}, {"weights": [0.011583351623285942, 0.4610400408529072, 0.09920402019616226, 0.2117360675745481, -0.3935947699611554, 1.4405758194038272, -0.7740292250881555, -1.1395149574693935, 1.1990874892555856, -0.897122374496621], "bias": -0.8054332795839168}, {"weights": [-0.05147744464004389, 0.054762221272866896, -0.05558279992201565, -0.35386708031566094, -0.018611754874203634, 0.3884469261440493, 0.5490275413960166, -0.11319899221476781, -0.641233177794391, 0.8961489237992838], "bias": 0.4199083562267869}, {"weights": [-0.2624051912143728, 0.16181672275530445, 0.5103406404199782, -0.39240757047573593, -0.12521472215619533, -0.18898953095468696, -1.0990567350492744, 0.9124967773532191, -1.3674958967501543, 0.9122515410553467], "bias": 0.9580445000143283}, {"weights": [0.8698514862145751, -0.13336899474592845, -0.6953372112477688, 0.6114540673479797, -0.40428020169488954, -0.918620628874143, -1.0061300020050117, -0.09489245153711501, -0.7455424248002382, -0.3663137056231197], "bias": 1.387670230756897}, {"weights": [-0.6762528300391673, -0.0750919486221866, 0.582252614331443, -0.9327157427070829, 0.3169615255312608, 0.24715643485259775, 0.4698713613166361, -0.05220686040824718, -0.5183878498664259, 1.2798244085228951], "bias": 0.9474955840543864}, {"weights": [-0.11501358109464688, -0.01458208915471837, 0.8696728703421139, 0.9923825602057175, -0.40239100528346594, 0.29650008318053767, 1.0011774364640784, -1.2792261528947813, -1.1734419200778952, -1.064707198334673], "bias": -0.9702924403182461}], [{"weights": [0.6719217735317418, -0.20967768644353346, -1.1418873075311915, -0.3351099526315596, -1.2208588092062445, -0.09249660216813482, -0.2853224977774578, -0.38077291042459305, -1.1538005590830953, -1.0009442993764355], "bias": -0.22447905424216974}, {"weights": [-1.0608102032646085, 0.7340102858180425, -0.642309355817261, 0.6722009225676169, -0.7010738464919279, 0.1430298224040829, 0.6802808474198182, -1.2549603993035456, 0.09036432045933962, -0.2738855494775274], "bias": -0.7188602530408175}, {"weights": [1.0904355603280362, 0.08054473373035154, 0.3890032319924923, 0.0390896678711663, -0.00023429771429539503, -0.36480241287087806, -0.7043356083520316, 0.48216961471317155, -0.4347240713901701, -0.28429432628156137], "bias": 0.20206202517396066}]], "generation": 1000}