{"score": 124994, "inputs": [1, 0, 0, 0, 0, 0, 0, 0, 0, 1, 1, 0, 0, 1, 1, 1, 1, 1, 1, 1, 1, 0, 0, 0, 0, 0, 0, 0, 0, 1, 1, 0, 0, 0, 0, 0, 0, 0, 0, 1, 1, 1, 1, 0, 0, 0, 0, 0, 0, 1, 0.0, 0.828], "layers": [[{"weights": [1.540626494984087, 0.4431154822908355, -0.17807398124259594, -1.3816961684431845, 0.5956277041297817, -0.19656512253900427, -0.5826484871710294, -0.9167414477653407, -0.33311090834409285, -0.4472074814273055, 0.6913430006970804, 1.7592538789472472, 1.389036453864346, 0.5304999954593923, -0.30184222013609885, 1.272240154470511, -1.2438360381023386, 2.4138641464237134, -0.20739564758840423, -0.015260680802554827, 0.9865383441363103, 0.043140771196452876, 0.31188190280441097, -0.32117089968780854, 0.660865311058274, 0.23647850276205773, 0.43894191797563065, -0.14079443604471908, -0.8530185147437139, 0.8185112309313007, -0.23535500956090627, -0.7049983021770208, -0.6935402747616113, 0.1643556626965016, 0.5107299620442323, 0.7286486540878487, 0.6763779010139588, 0.6029326819960581, 0.846179794210457, 0.1720790068539435, 0.8574248754955076, 0.026243199805961015, 1.6050390657162001, 0.004605953015565267, 0.25766732761057043, 0.6948078332228663, -0.29488662057809456, -1.805289116433539, 0.893064954103459, -0.007922794578712533, -0.7226550144922672, 0.3005150088356173], "bias": -0.1214092826216156}, {"weights": [-0.40268411614091226, -0.14635374912040544, -0.024608712007050393, 0.778153154676882, 1.8457278959457786, 0.2961874380460938, 0.024114687502928, 0.7456177795648696, -1.6014660654332848, -2.0813832034195254, 0.8852133996376675, 1.0891757746190944, 1.384004533543862, -0.18122680569507726, -0.9234658499149343, -0.4614556701843018, 0.24595671542065212, -0.31018811768027554, 0.9685548966022208, 0.2674151797871501, -0.453919456855685, -0.9460377008286298, -0.20593997017342525, 0.5790716905600665, -0.1611562260455438, -1.3784748791775017, 0.3496147810517197, 0.52862642498313, -0.6274523477104594, 0.4750187432406248, 1.817848721656105, -0.20822505169777838, -1.0003992134250967, -0.20009051293172886, -0.42992385796087096, -0.08021250499019372, -1.287795724291572, 0.17816261669392164, 0.35944561377873485, -0.49973325904057964, 0.8378178633332861, -0.10678977283256308, 0.8542944594207075, -0.7115143238617506, -0.18456183196285358, 0.3748281573927531, -1.9868440753842116, -0.8058463311244777, 1.285266726331407, -0.9082214310675877, -0.8643105534783906, 1.199822006115834], "bias": -1.4651335621896708}, {"weights": [-0.46700395287271923, 1.3302920010304153, 1.5113407367333755, -0.12179558522344147, -0.48493831946992494, 0.4461373121740855, 0.40156982975191724, 1.7216624740218798, 0.9696838393371137, -0.6346725769191826, 0.8219129732144258, 1.0855462198629346, 0.6091458335499973, 0.6477288446501683, 0.7956234538426518, 0.022339655359052468, 0.008891177251335813, 1.2711806495220794, -1.54891106661677, -1.5840046152318834, 0.0969650390820948, -1.5652491754159104, 0.964589929263648, 0.940726380193092, 0.3794355712829114, 0.32510153961265853, 0.21713491202203983, -0.7820655394477604, -1.4637579297334056, 0.4264332023230386, 0.3852039176589217, 0.8545364880224132, 1.4772374920601477, -0.29984436578063467, -0.9264193129971074, -0.17892598944907534, 0.3825665446148787, -0.4821791806731712, 0.9006642832481732, -1.0955642808892345, 1.2919073646265653, 0.6100022714096175, 0.5256998854326926, -0.486610768290066, -2.3810607767698113, 0.43226143480910484, -0.9576296137945385, 0.5818314777727918, 1.025267283174341, 0.5386326392543503, 0.6077735545053496, 1.1274760496115235], "bias": 0.7273161777775459}, {"weights": [0.758963504329293, -0.7892528369420259, -1.1759435126847215, -1.6623044204747917, -0.7505945237654437, 0.7004364618508223, 2.29444909682549, -1.9990937173648131, -0.6512250512909379, -0.04673844429165913, 0.4905605933332077, 3.101643244736774, -0.44253977485764207, 0.31296676962199266, -0.8210228111350318, -0.053718822807794164, 0.6939313446744138, -1.8398745491125645, 0.2787241965269582, -0.8471847606076011, -1.9196242864861295, -0.11572434630704742, -0.39819458923207746, -1.3281638956646142, -0.6555422510078219, -1.3302276027985034, -1.3602133377048928, -0.6643409256975226, -0.46515287218781665, -1.1455333227310305, 0.18859423561269606, 0.8367829387837552, 1.0411452088598008, 0.08313280630097708, -0.35810765689214064, -0.4327666828950808, -0.9510842606230794, 1.2472344225055778, -1.151808811165684, 1.6247759984763788, 0.9871258368416929, 0.0010816154948902756, -0.6164612926346276, -0.765436030198821, -0.22646621860558436, -0.5154948530892969, -0.48070597146245364, -0.14366677543395806, 0.8919268330778463, 0.39786285385398196, 0.31741674687199617, -1.2787789715437015], "bias": 1.8362274385278945}, {"weights": [-2.44382682958658, 0.613401130876436, 0.939224531233775, 0.04124884105402904, 0.3013658568776998, -0.5135455322627703, -0.4232206931805691, 0.9264403348601263, -0.9908012050664465, 0.07247752295793619, -0.08464971041324598, 0.6471109533289222, 0.23315471132838628, -0.7482449742560415, -1.3006274937369557, -0.8389444005719636, 1.0661153199402247, -0.03160098993195326, -1.1954730636542727, -2.4948069963290127, 0.6107116573610678, 1.6404436016610153, -0.900819050370931, -0.6198023720708281, 1.2071345378939293, -0.5259142257103849, -0.23937349550440468, -0.9344080658019029, -1.2333745878106819, 1.1065183095957913, -1.8216858188927978, -0.2911243285928947, 0.8177740555609396, 0.07750374107196278, 0.5331960908156964, -0.49889191390990417, 1.4184968594589111, -0.03885293046540039, 1.4302323758230517, 0.30990599454450984, -0.32809170395848597, -0.43764045039909094, 1.3901685941298616, -2.390305986909117, -0.1788992037728297, 0.9135656258070031, 1.1812824974278384, -0.6901057035234082, -1.2094795650121153, -0.4527288887209817, -0.05094173319483075, 0.2845057982489583], "bias": 2.405829801635889}, {"weights": [-1.0284359929188143, -0.20796380281807314, 0.5010515243039106, 0.07057788931158515, 0.4530389255125856, 0.261937398130195, -0.2650348203813896, 0.3457487307573198, 0.09363273141540929, -1.633824706884591, 0.7978074576640622, -0.8165200272577227, 0.3849543250248766, -0.3000970372284838, -1.1100788510817254, 0.7304074919553425, 0.5352745088669735, -1.2394053435216792, -0.3208091222061973, -0.5146214794570771, -1.7940677172550483, 0.524124459905232, -0.21504950263302286, 0.4855270173835649, -1.4484075316811666, -1.19610606071078, -0.3418072929066185, -0.5012810161279734, -0.13994173079860206, -0.8904286331618259, -0.6660936576103809, 1.0129745899627625, -1.0299435585078258, 1.39698162256257, -1.2399806342704554, -1.0230627177311213, -0.13023233715200144, -0.23563660312571655, -0.42767346558662167, 0.6833000068783082, -0.20616501868330706, -0.9215351790785101, 0.5472785558112079, -0.08235658400668855, -0.5498603925794153, 1.0779590778449482, 0.0948539639571554, -1.7790891255804924, 1.8775529066302183, -1.1600879314727521, 1.5205130189271896, 0.9262434835475528], "bias": 1.090334919743027}, {"weights": [0.4176928835227711, 0.30296350053677545, -0.5300985757619946, 1.1110113597532512, -0.4352339162859704, -0.4077238270281147, -0.9575887596655572, 0.957053185920415, -0.794459740519984, 0.12312426632856699, 0.006464840392779503, -1.209623180425091, -0.1495994379772858, 0.7451926698821802, -0.8241837689048575, 0.005561499770060263, 0.13477870881338394, -0.9242068653638448, -2.10635969992515, -0.8744937731443316, -1.1729250967378348, -0.3855013748044711, 0.4017678270192404, 1.196985468805672, 0.30155780464978654, -1.5389810195862765, 0.5284602183247527, -1.2949338156409225, -1.3814587906334819, -0.47775736223922227, -1.157425641074357, -0.4087469762423517, 0.7592872822826285, -0.3848996910161837, 1.5607088685967958, 1.6680253112179368, -0.7696376056518242, 0.15755237770074676, -0.36198537591681457, 1.6061441139210173, 0.305069289481741, -0.2709928380014339, 0.8804316321131964, -2.016284416114246, -0.49338015318010653, -0.41991694597997553, -0.40937921083732787, 0.5796004789012748, 1.2972928054159705, 0.47270098245071523, -1.9832598212447539, 0.7692882383477623], "bias": 0.6313449477709453}, {"weights": [-1.1409491020685527, -0.2248020623546848, 0.7462382020916587, 0.6168526923294909, 0.33954712718899316, -0.5145523900856737, 0.42115909084205494, -0.07202598816667405, -0.6570375623565932, 0.1574008083505436, 0.4206397720449583, -1.0402825327537677, -1.5804588779397823, 0.10925588944927278, 1.0860143091905308, -0.3558559149257706, 0.6548312199075583, 1.4278173507781398, -0.7052067224941132, 0.338827984842311, 0.327125914215846, -0.7398113971153526, -0.07586983249900836, 0.6320372854835902, 0.33150357288507554, -1.5275209177409492, 0.316316248708976, 0.24558314351802146, 0.36235684767513776, -0.5792135171086523, -1.2872304430899784, -0.006641963192001943, 0.035029468275411646, -1.6521045498683555, -0.48737097633490845, -1.1263287722122368, 1.3081709420782732, -0.15287074813793033, 0.9155798132065137, 1.3319104817511689, -0.09334754226811615, -1.0567592961753074, 0.6903733414169586, 0.884629689715039, 1.2834195228770318, 0.21525010836925806, -0.9581849968236541, 0.83437705232052, 0.9875389590824, 1.4599570135999702, 0.8421366886674639, 0.14833149221676578], "bias": -1.8282221362123916}, {"weights": [0.17963000095912984, -1.5334339386105802, 0.9757397119457244, 0.19080885768496947, 1.2316285713357995, -1.8555270019568502, 0.1450065044252803, -0.6552104875679721, -0.617412279487825, 0.9512107278933474, -0.5671208770092092, 1.8451498223896285, 0.41615043221697545, -0.2979633452221627, -0.3192288886379805, -1.160294593516323, 0.4707188596929322, 1.9691298706337204, 0.12342975341546913, 0.5154056808510517, 0.16182597250153485, 0.9806527443921014, -0.3623664150644208, 0.04378724061772976, -0.1646314829087957, -1.248428950735282, 0.3047032405714898, 0.10927168870019838, 0.022608936075721786, -0.273207056967134, -1.2305043883934788, 1.7674502578972424, -1.3759948349568036, -1.3700890774446477, -0.7269060876301192, -0.3709490290760582, -0.5647591788506117, -0.9788344943762646, -0.42322732628132076, -0.5780862905517967, 0.7475822016487618, 0.7414101865784146, 1.0111632669711266, -0.3840195201513177, -0.22182813707037774, 0.9503585277483735, -1.0595264395722968, 0.2127054026807782, 0.25183174033046624, -1.054887837943184, -1.5482106301055951, -0.4398883384747635], "bias": 0.5584770125733574}, {"weights": [1.2137555716480268, 0.5081452317215445, -0.9621238265194744, -0.5050784082333072, -1.1132866592392083, 0.07138795000397447, -0.023497048639032347, -0.1302799031201527, -0.6076891059914719, -0.48078110720824685, -0.7355718379491565, 0.38460418246943107, -2.4472611093453036, 1.0966484119139581, -0.42968252722782435, 0.77190531168093, -0.5284733771900056, -0.2702494228201623, 1.2302542765118238, -1.8780324643172244, -1.449946017276747, 0.1534305923098802, 0.7722299547944214, 0.7804607461404193, -0.557288193598067, 1.327636491880523, -0.1653048618661192, 0.7809343977557627, -0.23113007680872943, 0.44716120986962493, 1.7702411894185754, 0.024615575641371845, -0.19271694599539202, 0.28016554267846155, -0.18944590131783012, 0.21085460022634794, -0.6579168466369434, -1.2321228335407342, 0.5326738207576809, -0.9238816937632115, -1.242557509433057, -0.7220774106465488, -0.026884066527138817, -1.028235796987682, -0.15605675980074385, 1.0393732372828328, 0.4688024370996181, -1.0723272687363188, 0.9971840452940695, -0.05360855817816801, -0.955051520923994, 0.2670355762203225], "bias": -1.5997715533871109}, {"weights": [0.27452572084408855, -0.8905571361449404, 0.7826728340851664, 0.7307503509761265, -0.9841796162470052, 0.8383908375407867, 1.4141663995374647, -0.8661148207492935, -0.9990418094607182, 0.6889974058486155, 0.24656711480558868, -0.8286436290482472, -0.729907694763013, 0.30068126017657726, -1.0937816458390994, -1.4774984371487165, 0.7012939874374882, 0.45457007604996424, 1.1044226998460216, 1.2669234981446327, 0.25131264023085664, -0.40215869673903687, 0.37708676212657255, -0.3693989334604387, 0.40391051475655804, -1.122917647244014, -0.21847421779470322, -0.32664108262120406, 0.3398292756636909, 1.4395152409816072, -1.25032707300912, 0.4422592756483963, -0.12564206822178314, 1.2061010226435571, -1.4558332458006735, -0.4650489002053213, 0.9471037979576304, 0.06422804240776181, -0.40927417366234187, -1.2190441514019843, -0.656388539197984, -0.7607573565080721, -0.9743038979058098, 2.0853847356338946, 0.530927294708041, -0.3321609310337749, -0.7662536995612932, 0.4118185717010844, -0.33113373286391334, 0.40197300535364855, -0.46338210032791, 0.7085869282521102], "bias": -0.04694092125194804}, {"weights": [-0.8748286797990227, 1.2100593277857703, 1.0928247757400156, -0.651792002653335, 1.6937384318127346, -0.8371890276318694, -0.1837048098044004, 1.7168399108263965, 0.5784807997563955, 0.005613214681231549, -0.6704639222564653, -0.07807147577598905, -0.4152275263478774, 0.4121598633662802, -0.23320071777347628, 0.2797978887147552, 1.4744833905193862, -0.8662738112712629, 0.8559786930713358, 0.28005209550718857, 2.1871294146521416, -0.256029937641451, -0.005843892211494117, -1.4587092255644682, 0.22950864283154704, -1.5574246264325147, 0.8217313895874566, 1.8430873187901389, 1.2733774087346004, -0.10637930287411967, -1.07619928983556, -0.4050398492378169, 1.1575014538838921, -0.15354409670544983, -0.057099988051643846, 0.8661798406321559, -0.46144465508548105, -1.110601712334272, 0.12771199081489726, 1.0510634715530331, -0.7838070129344463, -0.03111202415919817, -2.209900140301087, -1.3506480452566034, 1.1994710305762566, 1.4569079564155873, 0.21400426051256005, 1.37974047377763, -0.8744370374905373, 1.469731631980615, 0.30232504463692983, -1.163573795427423], "bias": -0.062210607973078536}, {"weights": [-0.07243279993903229, -1.0906940955370552, 1.3070177216363361, 0.7002815861688297, -0.282305547609795, -0.04937268584121479, 0.09222786895334634, 0.41533517101345274, -0.7734648073182719, -0.21159669236970652, -1.0147048001942889, -0.640530625632889, -0.47129221451141645, 0.23343059960362095, -0.8526491468900097, -1.0678182713345423, 0.014761064339401109, -1.0036204055946714, 0.25656851391520996, 1.6088007508001634, -0.394120286861127, 0.9871965749504354, 0.41262753739621555, 1.9263518812186071, -0.5396354809339502, 0.9559746633305384, 1.052919075030856, -0.04857346738118806, 1.2083601324182147, 0.10032485458706208, -0.6741570234370658, -0.4395853275063929, -0.7112244796068146, -0.466009812327179, 0.46301325883874067, -1.1847344579120764, 0.0673071358975279, 0.6981204368440592, 0.5379980801615343, 1.92904412970466, -0.32495543259177906, 0.4303429558055642, -1.4180980710933893, 0.6121950424561099, 0.03933626523844863, -0.10567630170687636, 1.0903841363506306, 0.4281415950685691, 2.226519000128815, -1.0446848666998956, 1.393175065490185, 0.222492428350066], "bias": -0.5882776676362275}, {"weights": [1.1472187304879502, 1.317642601143533, -0.0916653491510917, 0.32931896908141367, -0.08683142390149723, 1.4337185459285462, 0.6597723384109694, 0.38624052210759696, -0.3850910782786534, -0.4282384384721323, -0.21480458370438738, 0.8693047032286928, 1.70773822957113, 0.4265387763493264, -0.6111329877638794, -0.18586785253809956, 0.2948221475834448, 0.7981388762620248, -0.36988426791842766, 0.18847080354309376, 0.5367384473778077, 0.034800801457245956, 0.13676276902331164, -0.5640493833943783, -0.2806641130044326, 0.21849276295318865, -1.067984608462964, -0.4833484216598031, -0.7811135600625376, 0.7592619534316634, 0.5842226326892764, 0.6955691051440284, 0.8290473746295848, -1.3853630375714228, 0.9732339711347322, -0.28766143147256107, 0.07991004150682202, 0.27812199709439467, 1.6453656530539134, 0.24163305532297524, -0.3303605519894752, -0.8235496955543948, 0.6691882910336253, -0.11871024887060477, -0.995891587532045, -0.14522345164476497, -0.23124409846112415, 0.7090475709785901, 0.21889301780633685, 0.9596852786253383, -0.9087398755973809, -1.0388740759838901], "bias": -0.8176763051452353}, {"weights": [0.5366319380664, -0.6079707431478122, -1.5186259315113264, 1.4312870816476306, -0.4813423166887887, -0.17816824628969224, -0.9998129573711607, -0.3561582066506982, 0.2650144460977869, -1.1098028111874747, -0.6842996324988291, 0.8769772809400816, 0.519784191706618, -0.15021528590519884, -0.43484655206425393, -0.7421203585681181, -0.3872917327663272, -0.7958369515675964, 0.09987591583554867, -0.033730826698548544, -1.3829425112988165, -0.27387365283564535, -1.7817826265678258, 0.3553923557159556, 1.737259060381835, 1.4087813975767824, 1.2214436718287596, 0.5323561984358773, -0.24838095381142467, 0.33874529820080795, 0.5158128916899349, -0.5572640381316922, -1.189142886632612, -0.1292497725589335, -0.6179283833884514, 1.5999777401294089, -0.8060543061258978, 1.5176447078094641, -0.6813173743426274, 0.06613409080499255, 0.016768393638568413, -0.8575399406176466, -1.1248144704450351, -0.6367930728162333, -0.04993911762185155, 1.033839451895533, -0.8653309831108276, 0.13592680256150713, 1.0608691594664736, -1.9721387875992358, 0.10749779252457753, -1.0517268079516617], "bias": -0.42924927977314675}, {"weights": [0.7555666345549866, 0.03939349911411705, -0.25406562600621285, -0.7194733926367292, 1.6791348361962972, 1.4361853143848053, -0.47115431261342267, 0.9663946379585323, 0.9128334612609108, 0.5733787154372542, 0.08133882432926354, 0.23475191675928664, 0.3517200774607855, 0.7247972182992726, -0.3761050943553223, -1.455368833297566, -0.09489274560123606, 0.6718325266631366, -0.2884565141966494, 0.41975391457443745, 1.2757257716821973, 0.7012474180936853, 0.6204012851702039, 1.0193520325859757, 1.946328923095019, -2.1090949353993977, 0.33814744427425847, -0.538454686511839, 0.4882337194334201, -0.29645917543027434, -1.0169401020460513, 0.3589773685454054, 0.38234242756438197, -1.2995967543919305, 0.49582977529774974, 1.0195787334497073, -0.4265849767340055, -1.1383796964148298, 0.2243806946904805, 0.7056734388482019, 0.3800457547814957, 1.0258522739166542, -0.9780141553151082, -0.29975409035900324, -1.2961535606086079, -2.6451331493297037, -0.8846028112173465, 0.435328378664506, -0.7049572517150566, 0.46512590328871134, -0.4569411396831145, -0.8932108047268451], "bias": 0.7114631574168935}, {"weights": [0.37941725162254486, -1.9137488640349765, -1.486269741172449, 0.5208519901383768, 2.5198232362979476, 0.9234689363536961, -0.7139706704352288, 0.0749307697647803, 0.13510496277945272, -1.3709017147226978, -0.04216855191687785, 0.6120016285361669, 1.1819699032242235, 1.5212496547425567, 1.0121762815940205, -0.3053748283420219, -0.8977459837003285, -0.0765706073728078, 0.9595089991838166, -0.2825165678676864, -0.6187293548330246, -0.3780918885644695, 1.3737430794819818, -0.8371709758977545, -1.3103657131424533, -0.29639698637112455, 0.1599537268354565, 0.4867099176094015, -0.916706271658266, 1.1076944762509593, -1.7585362501551378, 0.270993846980332, -0.24676025036527782, 1.07355242439333, -0.0566979342425008, -0.39617467665484896, 0.9400318111917305, -0.49175776487503653, -1.4042093051567397, 0.7922037872855204, 0.527977493463329, 0.8229369579168498, 0.3457393555470403, 1.6313038018925017, 2.3282172412786983, 0.3558762381043662, 0.49801185523849534, -0.737686978909323, 0.21802441075653745, -0.9615388786914301, 0.5709273019294165, 0.19120223759333926], "bias": 0.3123739880814017}, {"weights": [0.042625473902845934, 0.7923327778166067, 1.9474567358836732, 0.20563535583520265, -2.4046909359795667, 0.1777822526504405, 0.925270850455892, 0.20445358496107863, -1.0812025177690971, -0.06325597231361257, -0.8987761936100991, 0.5204443346498302, -1.4242199326000127, 0.44743585435682354, 1.5156635884451024, -0.34509816772088, 0.37079058083021144, 1.338103167905171, 0.6841041540938053, 0.3642345647080132, 1.672211412351839, -1.66124082912317, -0.3331882291040891, 0.010447475771956705, -0.267715613876107, -0.44389447092999035, 1.1810673727478487, 0.08840518842622902, 0.1765286123365547, -0.4737429681823194, 0.49244655446223895, 0.6178696548467815, 1.050088148679014, -0.12618062655849854, -0.33977933320424225, 0.017218933369892442, 0.48934202100916835, -0.3536901955374433, 0.7051234741401455, 0.11061673636923364, -2.0086777963240388, 0.36264914065303977, -1.744289193190186, -0.12736138354027304, 1.5122023727177218, -0.2688071731503032, 0.10699397824881052, 0.3093732102210136, 0.5705101787764693, -0.7237956365103317, -0.9773839238339003, 1.1035139195747945], "bias": 0.9322798606983322}, {"weights": [0.6317308107615935, 1.2364365904806216, -0.28675504421393566, 0.9569488298766207, 0.29682061012744276, -0.48511467303535316, 0.9139027942236833, 0.27005157984853834, 0.6402532714956318, 1.4691805568147291, -0.7947019156664056, -0.18115606215175117, -2.21003595924881, -1.3301057188517569, 0.6631058728073107, 1.1842046515326266, -0.35123500135951136, -1.338221533351712, 0.8642566712508587, -0.900739810828477, 0.08802028005701135, -1.517825617412733, 0.8123774697222255, 0.47527933775226006, 0.6507261844906835, 0.9715114087313587, 0.7765029392674381, -0.2885795015566769, 0.40816246899626796, 0.6542137072849988, 0.31227618495598164, 0.6916622919813022, -0.23826138963238264, -0.713154522653815, -1.763256755236067, -0.9205268217202808, -1.2268248539196174, 1.0271406497942257, 0.6632657466769307, -0.04422509987637302, -0.7218034809382443, -0.7775721930856327, 0.7760360866186659, -0.34163003689398147, 0.16454238538346877, -0.20351310898331132, -1.2029548920731603, -0.4995182401105077, -0.8017670583633064, -1.0837892162958023, -0.21235694549067413, -1.3864889876576423], "bias": 0.5021955013610945}, {"weights": [1.1830601971856263, 0.4725762932534572, -1.0168854320636296, 1.6519571379287468, -0.8618145417741603, 0.9139601375120725, -0.8263305695996395, 0.9040495878263032, -0.42844883743495876, -0.2589004820019597, 0.21102801854040554, 1.209048900290631, -1.440736983510179, 0.6400868794448232, -0.14897753070193342, 0.4823039127410562, -1.1456200480841998, 1.2675123266796238, 0.28864760020474883, -0.6281682847750011, 0.19231138108521678, -0.24723593497660695, -1.1149218214227956, 1.0440458245198139, 0.2781551604899908, 0.9497091376629743, -0.7544461700273329, 0.02485464838884288, 0.5729447219028857, 0.36362831450712074, -0.29273434258481246, -0.45310599497178206, 0.001273723937039617, 0.027781177367290133, 1.1083320258127416, -0.6846849350128787, -2.094664771229397, 1.2675875872958953, 0.15209992786739057, 0.8611724278638462, 1.4752289524616353, 1.0311414735822826, 0.21494668357070124, 0.8109820877558966, -0.011179811114492733, 0.7588506197836338, 0.3890008586359428, 0.21984164714632914, 1.0224371001926702, -0.7514007755122669, 0.9518613675564003, -0.2613282451039193], "bias": -1.2620138063077664}], [{"weights": [-0.41856467715322376, -0.010865341243128601, 1.0925840632374575, 0.2983729696211771, 0.06071306359875184, 0.406964718359216, -0.8969445796896042, -1.3861221721341002, -0.297832325534214, -0.36427499957941556, 1.3783285677261974, 1.3269413402680907, 0.28925896204830526, 0.4192970812237633, -1.3411242930295528, 0.6008818192852519, -0.14737685837368036, -1.134053711842177, 0.5301746031820989, 0.248561932350719], "bias": 1.282857406231547}, {"weights": [-0.24015272750609895, 0.13966142343695104, 0.6215366512167277, 0.07408006950798973, -1.024439238089366, -0.40723228808280965, -0.598988948805443, -0.7273085072854201, -1.5254849751882833, 1.2276338023384867, 1.603556028006121, -0.8819387645122644, 0.07834528092710447, 0.20450315111067519, 0.9780139460571005, -1.0338372318747542, -0.4250845658567653, -1.1184675603521441, -0.38827717593375777, 0.18008616916084397], "bias": 0.4007369947531525}, {"weights": [0.64733802527953, -0.09086967468532992, -0.6862869165296746, 1.2082480424235498, -2.221546138089231, -1.2033468621165433, -0.3018244828366191, -1.0139706733102405, 1.4365344756976686, 0.70994683362542, -0.08269830821381896, 0.08518498077123349, 0.2428138127918319, 0.9593914134763823, -0.1765558065264381, -0.362750335604355, 0.765968029962173, -0.2569107224990952, 0.5891083291173638, -0.7657756821255817], "bias": 0.5379065289154201}, {"weights": [-1.0261738742792859, 0.6586858320211785, 0.3700162331622361, -0.39005324575121714, -0.47710834862074825, 0.6804687644623503, 0.03391959025627933, 2.7115879767398643, -1.446895753994533, 0.6405304161513252, 0.572269102693153, 0.6075311882735372, 0.7080330049758151, 0.575284947214785, -0.8711309583090227, -0.02007507874569625, 0.16725898939470096, 0.0683572990210044, 0.06972020758231712, -1.826646451697434], "bias": 0.11457023024554525}, {"weights": [-0.7149308402134296, -1.142065439494036, 0.7338626232767362, 0.7127048022780202, -0.21825841523882467, 1.19606037589833, -0.37922743094273625, 0.4185002363765611, -0.7457770688946899, 0.44663951981680816, 0.3244375806826437, -1.4262027273571005, -0.5104373570870565, -0.8812054571021644, 0.7767641143571875, -0.3406268388225616, 0.39798782802926436, -0.07486332970299442, 0.6822490403924006, -0.939703006635475], "bias": 0.8442459148350133}, {"weights": [1.3644033328435978, 1.7542076178914299, 0.2660695074558023, 0.5316920375357923, -1.2673323041059124, 0.38946963681790037, -0.12383529397872312, 1.0207161592851905, 0.5119571273926316, 0.029201889872741638, 0.8104143225006443, -0.426548192038264, -0.38941028582892656, -0.7332944832930772, 1.7663182352019495, 1.289528654622932, 1.6930667581849752, 0.35278591704386275, 0.7036896716266448, 0.48498021559205484], "bias": -1.6394938623441895}, {"weights": [0.09654750460935324, -1.359958740015618, -1.2365873894761474, -0.5769156882153782, 1.9604328908751922, 1.2309077993871433, -0.4715127923506114, 0.8114823528744316, -0.41753902414297406, -0.9878380886647782, 0.9331163078608358, 1.7062457114085798, 0.8463109750018308, 0.8153307954768754, -0.0730936466673403, -0.9904004780453115, -0.5909812045252124, -0.3092355226714231, -1.02138570396559, 0.8716820437658827], "bias": 0.6250380196726938}, {"weights": [0.7315442086581099, -0.7468402108921175, -1.7281803553608284, 0.4209349425995934, 0.27266002487485264, 0.7174968329781201, 0.1325829901406388, -0.9566756182774959, -0.3234132162696022, -1.4925539563271815, 0.13568092179241398, 0.39190773178014493, -0.640226870622286, 0.7211353044895717, -0.763362246687344, -0.791711537465088, -0.7141414712518338, -0.7294160510809822, -0.25110266098678524, -1.6094962037831886], "bias": -1.4570289038472348}, {"weights": [-0.6572568548448764, -1.1885637880369588, 1.261076249382428, 0.9705604831940972, 0.03298855303955278, -0.7658671356845953, 0.9696462715045935, 1.1492961921905, 0.2121823275736825, -1.238970089242186, 1.0400347665852956, -0.9472092084179179, -0.2642516405962029, -2.2831291220787118, -1.1461405159844944, 0.9758807090242686, -0.049350038724289336, -1.8694950087161009, -1.6528336511058686, -0.20398562512050522], "bias": -0.1601493315861558}, {"weights": [-0.3493223084638457, -0.03130678972121714, -1.386995053424226, -0.20092987930203177, 0.11797898146766428, 0.6401987045414749, 0.1531392432789469, 0.06374421135685959, 0.7075849033287587, 0.36486149630786435, 1.8679795410191038, 1.0700759125448753, 1.898890978249814, -1.0126265093175222, -0.15452407889749187, -0.3968638845512381, -0.6953711379951036, 0.2196012906363794, -0.09112652033409208, -1.7005616782621322], "bias": 0.6087448144273523}], [{"weights": [-1.086624550468537, 0.306878756374642, -0.16650218122313687, 0.15216483490664218, -2.3905402154524458, 0.5185845900411739, 0.6903276049546898, -0.0004888489009915453, 0.6556326549790152, -1.90717797387738], "bias": -0.6788178549551568}, {"weights": [-0.5429727490770682, -1.2571564163065045, 0.7583181930857763, 1.4988693906684596, -0.28918749420674283, 1.4544578302682867, 0.06034708633131114, -0.08632429582074219, -0.05128001557636919, 1.5556587543083826], "bias": -0.13288563185579422}, {"weights": [0.755060742061344, 0.5318193916792915, 0.28525586537441394, -0.2685090392291206, 0.7286014365020963, 1.6874742761685546e-05, 0.4090963003117576, -0.9491619903510339, -0.2906427282575963, -1.1191856043761872], "bias": -0.3591421554478973}, {"weights": [-0.6301820313496167, -0.07713615916219518, -0.12321931516102247, 0.6258000258210503, 1.5172883700706743, -1.4531988754584475, 0.9875549284724052, 0.537711105090392, -0.5693808452428808, 1.1122609879072005], "bias": 0.1789141556524687}, {"weights": [-1.651675298824292, 0.7622722878836292, -0.7780985877373121, -0.23913539089115549, -0.2611210058129595, 0.3500922923766474, 0.01358246635834437, 0.846266275489234, 0.47516233636843974, 0.055571512370502896], "bias": 1.556799336594709}, {"weights": [-2.1465022394925155, 0.0813693726378506, 0.5746138994879267, -0.2589162188422254, 0.2897044480102675, -2.084576121427367, -1.1927473377835238, 0.7733731699167538, -1.6884957246824261, 0.5761693316571538], "bias": -0.8239897254864211}, {"weights": [-0.454345886939559, 1.0164062747959823, 2.774637086444157, -0.8046504975326647, 1.2205062848447554, -0.7085691786846654, -1.0180873588292412, -0.6014617899935091, 1.5213824413851804, 0.22685924706473148], "bias": -1.1182968823908324}, {"weights": [0.40531529976345215, -1.5306997182696744, -1.3081496918728275, 1.401617977768638, -1.1248463636740849, -0.28581852068835356, 2.0379467502326127, -0.31095783587795556, 0.1581995525143236, 2.246687836512363], "bias": 0.6655475776953736}, {"weights": [0.6198650108246255, 1.5937140012397462, 0.05992162741128726, 1.6333698264501906, 1.9765498571367617, -0.29520551939802564, -0.04471577281020522, 1.2268910693230344, -0.7631765551841583, 1.9886960412708927], "bias": 1.3574607993270549}, {"weights": [1.3574887394404729, 0.7348405618815655, 0.7538756797288348, -0.6143293255052421, 1.557169349421973, 0.504854907232315, -0.3655527060999654, 1.9465885081589054, 0.8671806416499841, -0.653865484073938], "bias": 0.7710392972515496}], [{"weights": [0.04326289416128093, -1.0035213428029863, -1.2444537561578883, 1.2326439122492368, -0.6781256005855463, 0.40037969933362916, -1.0491354412752978, 1.187071637297756, -0.7715975132283966, -0.8782632883091441], "bias": -0.6904550349970664}, {"weights": [-1.1392963208565112, 0.364426004815443, 0.7873428616698388, -0.040841880710996925, 1.0112984748575238, -0.8541018845139264, -1.9056792581923565, 0.7434215442687879, 1.703770263065002, 0.4851635742661805], "bias": 0.6302972539108869}, {"weights": [0.8698606062049808, -1.0691854003747352, 0.5009546021615078, -0.8780433048829861, -0.8584597789912051, 1.4322493601897106, 0.39008292110300413, 0.3485533907879196, 0.4922952122326304, -0.5129651263788484], "bias": -0.576225474893471}]], "generation": 1000}