{"score": 125994, "inputs": [1, 0, 0, 0, 0, 0, 0, 0, 0, 1, 1, 0, 0, 1, 1, 1, 1, 1, 1, 1, 1, 0, 0, 0, 0, 0, 0, 0, 0, 1, 1, 0, 0, 0, 0, 0, 0, 0, 0, 1, 1, 1, 1, 0, 0, 0, 0, 0, 0, 1, 0.12, 0.828], "layers": [[{"weights": [1.5973177700362542, 0.4431154822908355, -0.608052694204269, -1.3816961684431845, 0.8297230369957742, -0.19656512253900427, -0.5826484871710294, -0.9167414477653407, -0.33311090834409285, -0.4472074814273055, 0.6913430006970804, 1.7239309622380818, 2.0174049781728964, 0.7208257763556758, -0.30184222013609885, 1.272240154470511, -1.2438360381023386, 2.0709044775038965, -0.20739564758840423, -0.015260680802554827, 0.30253975077103545, 0.043140771196452876, 0.31188190280441097, -0.32117089968780854, 0.660865311058274, 0.26918235436919535, 0.12469626578094928, -0.5902723642430537, -0.8530185147437139, 0.8185112309313007, -0.23535500956090627, -1.1628191695969017, -0.6935402747616113, 0.1643556626965016, 0.5107299620442323, 0.7286486540878487, 0.9874293731282893, 0.8392120507266356, 0.846179794210457, -0.44043373407719977, 0.8574248754955076, 0.026243199805961015, 1.8274378860100366, 0.004605953015565267, 0.848302389613994, 0.6948078332228663, -0.29488662057809456, -1.805289116433539, 1.0031580496601307, -0.007922794578712533, -0.7226550144922672, 0.0926121822672073], "bias": 0.18470932170233606}, {"weights": [-0.40268411614091226, -0.14635374912040544, -0.024608712007050393, 0.778153154676882, 1.8457278959457786, 0.2961874380460938, 0.21771358496765747, 0.17169268381432123, -1.6014660654332848, -2.0813832034195254, 0.6963638407746106, 1.0891757746190944, 1.9771506709822408, -0.18122680569507726, -0.9234658499149343, -0.4614556701843018, 0.24595671542065212, 0.127472564173417, 0.9685548966022208, 0.2674151797871501, -0.453919456855685, -0.9460377008286298, -0.20593997017342525, 0.26382216164417344, -0.1611562260455438, -1.3784748791775017, 0.3496147810517197, -0.1439784613308589, -0.38827653224030323, 0.4750187432406248, 1.817848721656105, -0.20822505169777838, -1.4553414438337173, -0.8189549534576693, -0.5415693170758591, -0.4902175883982207, -1.287795724291572, 0.17816261669392164, 0.12283275417172457, -0.3309256803380355, 0.8378178633332861, -0.10678977283256308, 0.8542944594207075, -0.7115143238617506, -0.027619712805272423, 0.3748281573927531, -1.9868440753842116, -0.8058463311244777, 1.285266726331407, -0.9082214310675877, -0.8643105534783906, 1.4305384115225452], "bias": -1.4651335621896708}, {"weights": [-0.46700395287271923, 1.3302920010304153, 1.5113407367333755, -0.05335765006042059, -0.48493831946992494, 0.022975268055952403, 0.40156982975191724, 1.8757367045889848, 0.9696838393371137, -0.6346725769191826, 0.9403777594928118, 1.0855462198629346, 0.6091458335499973, 0.014450359045369288, 0.550087679066675, 0.022339655359052468, 0.008891177251335813, 1.2711806495220794, -1.432573575482372, -1.5840046152318834, -0.009069821756908458, -1.5652491754159104, 0.964589929263648, 1.430432206806128, 0.3794355712829114, -0.02661162624695801, 0.799681292852193, -0.40833607421140805, -1.5689303239926429, 0.5642227499492345, 0.4181399292122874, 0.8545364880224132, 1.0713081224211893, -0.29984436578063467, -0.7526077322244425, 0.12350613220710516, 0.508557882417075, -0.4821791806731712, 1.2444015975784528, -1.0955642808892345, 1.2919073646265653, 0.6100022714096175, 0.5256998854326926, -0.486610768290066, -2.3810607767698113, 0.43226143480910484, -0.9576296137945385, 0.5818314777727918, 1.025267283174341, 0.5386326392543503, 0.6077735545053496, 1.1274760496115235], "bias": 0.9934321657631078}, {"weights": [0.758963504329293, -0.7892528369420259, -1.1759435126847215, -1.6623044204747917, -0.7505945237654437, 0.7004364618508223, 2.29444909682549, -1.9990937173648131, -0.6512250512909379, -0.04673844429165913, 0.4905605933332077, 3.101643244736774, -0.44253977485764207, 0.31296676962199266, -0.8210228111350318, -0.053718822807794164, 1.2860202002082304, -1.8398745491125645, 0.2787241965269582, -0.8471847606076011, -1.7933928059092552, -0.11572434630704742, -0.39819458923207746, -1.3281638956646142, -0.6555422510078219, -1.9964728635972362, -1.3602133377048928, -0.6643409256975226, -0.46515287218781665, -1.7319715731472671, 0.18859423561269606, 0.8367829387837552, 0.6868296058198902, 0.08313280630097708, -0.35810765689214064, -0.9043158076279765, -0.43636298513469485, 1.2472344225055778, -1.151808811165684, 1.3242085571444147, 0.9871258368416929, 0.0010816154948902756, -0.6164612926346276, -0.765436030198821, -0.6801737521196901, -0.5154948530892969, -0.4462847719240508, -0.14366677543395806, 0.3976213731228867, 0.39786285385398196, 0.31741674687199617, -1.699346609044427], "bias": 1.8362274385278945}, {"weights": [-2.44382682958658, 1.2234078521126366, 0.939224531233775, 0.04124884105402904, 0.3013658568776998, -0.5135455322627703, -0.9785513108936075, 0.9264403348601263, -0.9908012050664465, 0.07247752295793619, -0.08464971041324598, 0.6447672545147272, -0.21209768820839991, -1.093357866619315, -1.3006274937369557, -0.8389444005719636, 1.5106612364630905, -0.03160098993195326, -1.1954730636542727, -2.4948069963290127, 0.6107116573610678, 1.7397179272255916, -0.900819050370931, -0.6198023720708281, 1.2071345378939293, -0.5259142257103849, -0.23937349550440468, -0.9344080658019029, -1.192712388665142, 1.325906216031917, -1.8216858188927978, -0.05232598760514662, 1.2165799666942383, 0.07750374107196278, 0.5331960908156964, -0.49889191390990417, 1.4184968594589111, -0.03885293046540039, 1.4302323758230517, 0.30990599454450984, -0.8038036710152883, -0.28185898645285723, 1.3901685941298616, -2.390305986909117, -0.1788992037728297, 0.9135656258070031, 1.4048275868869484, -0.6901057035234082, -1.2094795650121153, -0.28545151338163555, -0.05094173319483075, 0.2845057982489583], "bias": 2.9117962619945765}, {"weights": [-1.0284359929188143, -0.20796380281807314, 0.8619041918143924, 0.07057788931158515, 0.4530389255125856, 0.261937398130195, -0.2650348203813896, 0.3457487307573198, -0.05990064918909044, -1.633824706884591, 0.7978074576640622, -1.2727010172737918, 0.7210712040195981, -0.3000970372284838, -1.028200415937467, 0.7304074919553425, 0.5352745088669735, -1.2394053435216792, -0.3208091222061973, -0.5146214794570771, -1.7940677172550483, 0.524124459905232, 0.37654470106822185, 0.4855270173835649, -1.4484075316811666, -1.2156225885591636, -0.3418072929066185, -0.5012810161279734, -0.13994173079860206, -0.8904286331618259, -0.6660936576103809, 1.0974047644868978, -1.0299435585078258, 1.39698162256257, -1.2399806342704554, -1.0230627177311213, -0.13023233715200144, -0.23563660312571655, -0.8250703679110039, 0.6833000068783082, -0.20616501868330706, -0.8931498639627898, 0.5472785558112079, -0.037046375094155204, -0.5498603925794153, 1.0779590778449482, 0.4229905073370198, -1.7790891255804924, 1.3682866753164096, -1.1600879314727521, 1.9491759775275954, 0.9262434835475528], "bias": 0.6867081568041904}, {"weights": [0.4176928835227711, -0.33103541111751444, -0.5300985757619946, 1.1110113597532512, -0.4352339162859704, -0.4077238270281147, -0.8311761896209853, 0.957053185920415, -0.794459740519984, 0.12312426632856699, 0.006464840392779503, -1.6906732117214887, -0.1495994379772858, 0.7451926698821802, -0.8241837689048575, -0.2746221819875183, -0.4094512064039538, -0.9242068653638448, -2.10635969992515, -1.1438887203218533, -1.173662824740723, -0.3855013748044711, 0.08083937485353093, 1.196985468805672, 0.862176125594683, -1.5389810195862765, 0.17660895841621727, -0.595645873610507, -1.3814587906334819, -0.47775736223922227, -1.157425641074357, -0.4087469762423517, 0.7592872822826285, -0.3848996910161837, 1.5607088685967958, 1.0998450432121545, -0.25397615292623743, -0.1838291135888369, -0.36198537591681457, 1.6061441139210173, 0.11998102396410354, -0.2709928380014339, 0.8804316321131964, -1.5997557193218728, -0.49338015318010653, -0.41991694597997553, -0.7814390852220297, 1.192725900093952, 0.8674530447019226, 0.47270098245071523, -1.9832598212447539, 0.2709650721505057], "bias": 0.6313449477709453}, {"weights": [-0.4653398132721218, -0.2248020623546848, 0.34263921869247466, 0.16969685297384224, 0.49720719560320836, -0.46686659272808717, -0.006936084077008964, -0.07202598816667405, -0.8852182192288909, -0.2986443353615378, 0.4206397720449583, -0.5300770828332755, -1.5804588779397823, 0.10925588944927278, 1.0860143091905308, -0.42052585357918726, 0.6548312199075583, 1.4278173507781398, -0.7052067224941132, 0.338827984842311, 0.09956252975597818, -0.7398113971153526, -0.07586983249900836, 0.6320372854835902, 0.33150357288507554, -1.5275209177409492, 0.316316248708976, 0.28041141887656806, 0.4123152107692254, -1.2122202121743966, -1.2872304430899784, 0.12252192304997911, 0.035029468275411646, -1.6521045498683555, -0.48737097633490845, -1.1263287722122368, 1.3081709420782732, -0.2919638761286818, 0.9155798132065137, 1.9877314185215553, -0.09334754226811615, -1.6540852201226866, 0.2815717553580268, 1.2961730523034058, 1.2834195228770318, 0.21525010836925806, -1.5333037258132938, 0.83437705232052, 0.9875389590824, 1.7717038231818485, 1.3478921101932404, 0.14833149221676578], "bias": -1.8282221362123916}, {"weights": [0.17963000095912984, -1.5334339386105802, 0.29627161322564843, 0.19080885768496947, 1.2316285713357995, -1.223951176961718, 0.7990064420527495, -0.6552104875679721, -0.617412279487825, 0.9512107278933474, -0.8479869565733932, 1.705785902244573, 0.41615043221697545, 0.10146187315088373, -0.3192288886379805, -1.5764437762568977, 0.4707188596929322, 1.4301418567748154, 0.12342975341546913, 0.5154056808510517, 0.16182597250153485, 0.7152395856722782, -0.3623664150644208, 0.04378724061772976, -0.05042012896532966, -1.248428950735282, 0.3047032405714898, 0.37923903101335527, 0.022608936075721786, -0.273207056967134, -1.2305043883934788, 2.079963912762627, -1.3759948349568036, -1.3700890774446477, -0.6319331587051222, -0.3709490290760582, -0.5647591788506117, -0.9788344943762646, -0.23992457453769134, -0.5780862905517967, 1.4231399431721141, 0.8104575744774036, 1.0111632669711266, -0.3840195201513177, -0.22182813707037774, 0.9503585277483735, -1.0595264395722968, 0.2127054026807782, 0.25183174033046624, -1.1227786108434112, -1.9130844869019892, -0.8030676072479633], "bias": 0.5584770125733574}, {"weights": [0.7792927981270514, 0.5081452317215445, -0.9621238265194744, -0.5050784082333072, -1.1132866592392083, 0.739188796671681, 0.43145730862777654, -0.1302799031201527, -0.7154564868319591, -0.48078110720824685, -0.7355718379491565, 0.4072246173703098, -2.4472611093453036, 0.49259208695634715, -0.42968252722782435, 0.77190531168093, -0.4938130534501687, -0.2702494228201623, 1.2302542765118238, -1.8780324643172244, -1.449946017276747, -0.2909894422800219, 0.8212226771176226, 0.7804607461404193, -0.557288193598067, 1.327636491880523, -0.1653048618661192, 0.7809343977557627, -0.23113007680872943, 0.44716120986962493, 1.7702411894185754, 0.024615575641371845, -0.19271694599539202, 0.28016554267846155, -0.18944590131783012, -0.0839489190128368, -0.6579168466369434, -1.2321228335407342, 0.5326738207576809, -1.5021527509806893, -0.8292173528990952, -0.7220774106465488, -0.026884066527138817, -1.028235796987682, 0.3111391252021223, 1.0393732372828328, 0.4688024370996181, -1.377162771520385, 0.9971840452940695, -0.05360855817816801, -0.955051520923994, 0.696183877405264], "bias": -1.5997715533871109}, {"weights": [0.27452572084408855, -0.8905571361449404, 0.4551008429587997, 0.7307503509761265, -0.9841796162470052, 0.8383908375407867, 1.4141663995374647, -0.2991576178185782, -0.9990418094607182, 0.6126878531255108, -0.44367778282958736, -0.8286436290482472, -0.729907694763013, 0.30068126017657726, -1.0937816458390994, -1.4774984371487165, 0.7012939874374882, 0.45457007604996424, 1.1044226998460216, 0.5994410847746159, -0.23619822160018222, -0.40215869673903687, 0.37708676212657255, -0.3693989334604387, 0.40391051475655804, -1.0563781194338642, -0.6360972340470004, -0.32664108262120406, 0.3398292756636909, 1.4395152409816072, -1.25032707300912, 0.6960628660793231, -0.12564206822178314, 1.2061010226435571, -1.1610211980273966, -0.608817249880484, 0.9471037979576304, 0.06422804240776181, -0.40927417366234187, -1.2190441514019843, -0.7129061885846754, -0.7607573565080721, -0.9743038979058098, 2.0853847356338946, 0.530927294708041, 0.3349327926324677, -0.7662536995612932, -0.13983165337989145, 0.361523767862976, 0.40197300535364855, -0.7928444182568475, 0.7085869282521102], "bias": -0.04694092125194804}, {"weights": [-0.8748286797990227, 1.8431967222777463, 1.0928247757400156, -0.651792002653335, 1.6937384318127346, -1.2759301606050077, -0.1837048098044004, 1.7168399108263965, 0.5784807997563955, 0.45942550037714147, -0.6871108976476706, -0.07807147577598905, -0.05487660427742058, 0.4121598633662802, -0.23320071777347628, 0.4090338558987793, 1.2635799769866651, -0.8662738112712629, 0.8559786930713358, 0.28005209550718857, 2.1871294146521416, -0.256029937641451, 0.33844288694092745, -1.4587092255644682, 0.46061881407868344, -1.5574246264325147, 0.7643454526334066, 1.8430873187901389, 1.2733774087346004, -0.02293278616963157, -1.07619928983556, -0.6183138067811045, 0.7917234932795272, -0.15354409670544983, -0.057099988051643846, 0.8661798406321559, -0.46144465508548105, -0.5041505560911415, 0.12771199081489726, 1.0510634715530331, -0.7838070129344463, -0.03111202415919817, -2.287995470083426, -1.3506480452566034, 1.1994710305762566, 1.4569079564155873, -0.42611292927571087, 1.1188163983347907, -0.8744370374905373, 1.469731631980615, 0.30232504463692983, -1.163573795427423], "bias": 0.3685498835146671}, {"weights": [-0.4379243130194593, -1.0906940955370552, 1.3070177216363361, 0.7002815861688297, -0.282305547609795, -0.04937268584121479, 0.09222786895334634, 0.41533517101345274, -0.2659088118997128, -0.21159669236970652, -1.0147048001942889, -0.640530625632889, -0.47129221451141645, 0.23343059960362095, -1.245098097353926, -1.0678182713345423, 0.014761064339401109, -1.0036204055946714, 0.25656851391520996, 1.6088007508001634, -0.922975245920555, 0.9871965749504354, 0.41262753739621555, 1.9263518812186071, -0.40055201535762197, 0.9559746633305384, 0.8528942527117098, -0.04857346738118806, 1.2083601324182147, 0.10032485458706208, -0.6741570234370658, -0.6317127961831456, -0.7112244796068146, -0.466009812327179, 0.46301325883874067, -1.1847344579120764, 0.0673071358975279, 0.6981204368440592, 0.5379980801615343, 1.92904412970466, -0.32495543259177906, 0.15991452588227845, -1.4180980710933893, 0.6121950424561099, -0.5086080426291357, -0.10567630170687636, 0.7898180024165782, 0.4281415950685691, 2.226519000128815, -1.0446848666998956, 0.9351611572848136, 0.222492428350066], "bias": -0.4214145727344122}, {"weights": [1.1472187304879502, 0.9606713737675691, -0.0916653491510917, 0.876150471997751, 0.5379447422883158, 1.4337185459285462, 0.6597723384109694, 0.38624052210759696, -0.3850910782786534, -0.4282384384721323, -0.21480458370438738, 1.0063225076743771, 1.70773822957113, 1.0343839494404896, -0.6111329877638794, -0.18586785253809956, 0.2948221475834448, 0.5804295613643323, -0.36988426791842766, 0.18847080354309376, 0.5367384473778077, 0.034800801457245956, 0.13676276902331164, -0.5640493833943783, -0.2806641130044326, 0.21849276295318865, -0.8495449884159982, -0.4833484216598031, -0.7811135600625376, 0.7592619534316634, 0.5842226326892764, 0.6955691051440284, 0.8290473746295848, -1.3853630375714228, 0.9732339711347322, -0.9609504340875599, 0.2079473148751062, 0.27812199709439467, 1.6453656530539134, 0.24163305532297524, -0.46050379276021813, -0.5397049167428395, 0.6691882910336253, -0.11871024887060477, -0.995891587532045, -0.14522345164476497, -0.23124409846112415, 0.7090475709785901, 0.21889301780633685, 0.9596852786253383, -0.9087398755973809, -1.0388740759838901], "bias": -0.7007341179906451}, {"weights": [0.5366319380664, -0.6079707431478122, -1.5186259315113264, 1.4312870816476306, -0.19735464061927244, 0.17063585971775025, -0.6234521437772935, -0.3561582066506982, 0.6286757102095445, -1.1098028111874747, -0.6842996324988291, 0.22354476388746336, 0.2914291160753553, -0.06577041647943882, -0.43484655206425393, -0.7421203585681181, -0.3872917327663272, -0.7958369515675964, -0.26411558527795775, 0.21587401608888435, -1.1703245830695668, -0.27387365283564535, -1.7817826265678258, 0.5442054140150007, 1.737259060381835, 1.4087813975767824, 1.3389477721023693, 0.5323561984358773, -0.24838095381142467, 0.33874529820080795, -0.05750841154461439, -0.023573800275550783, -1.189142886632612, -0.1292497725589335, -0.6179283833884514, 1.5999777401294089, -0.8060543061258978, 2.1045666955464526, -0.6813173743426274, 0.06613409080499255, 0.016768393638568413, -0.8575399406176466, -1.1248144704450351, -0.4703504679726739, -0.04993911762185155, 0.3633102397646846, -1.0570274026560105, -0.12311709176216756, 0.5494919176314595, -2.3601957991319558, 0.7299045371232789, -1.0524401094932763], "bias": -0.42924927977314675}, {"weights": [1.1038427835159887, 0.03939349911411705, -0.25406562600621285, -0.7194733926367292, 1.6791348361962972, 1.2738895095615796, -0.12553700069163798, 1.6046713249130722, 0.9128334612609108, 0.5733787154372542, 0.08133882432926354, 0.23475191675928664, 0.06557624403221773, 0.2977724363534643, -0.3761050943553223, -1.8168584510385277, -0.23247012416057244, 0.6718325266631366, -0.7901163973328549, -0.0772433364675238, 1.2757257716821973, 0.7012474180936853, 0.8287271480669082, 1.3339632217863877, 1.946328923095019, -2.1090949353993977, 0.14447573460567975, -0.538454686511839, 0.4882337194334201, -0.29645917543027434, -1.0169401020460513, 0.9566827359307863, 0.38234242756438197, -1.0530361312298684, 0.49582977529774974, 0.5971927995373332, -0.4265849767340055, -1.1383796964148298, 0.2243806946904805, 0.45513248025430075, 0.3800457547814957, 1.0258522739166542, -0.9780141553151082, -0.29975409035900324, -1.2961535606086079, -2.6451331493297037, -0.8846028112173465, 0.435328378664506, -0.7049572517150566, 0.46512590328871134, -0.4569411396831145, -0.8786387797284818], "bias": 0.7114631574168935}, {"weights": [0.8129732668711054, -2.445828225054521, -1.7637220421368762, 0.8123579754614744, 2.5198232362979476, 0.5109802653399451, -0.8706061007956208, 0.1805045769005309, 0.13510496277945272, -1.0357900059880811, -0.04216855191687785, 0.6120016285361669, 1.1819699032242235, 1.5212496547425567, 1.0121762815940205, -0.3053748283420219, -0.8977459837003285, -0.0765706073728078, 1.3978227575883397, -0.2825165678676864, -0.6187293548330246, -0.3780918885644695, 1.3737430794819818, -0.8371709758977545, -1.9341482528431442, -0.119965992118794, 0.03884445441494, 0.7943160459552262, -0.4219898781724488, 0.4319725491302745, -1.7585362501551378, 0.270993846980332, 0.24927946642947185, 1.07355242439333, -0.0566979342425008, -0.39617467665484896, 1.0852116073401583, -0.49175776487503653, -1.4042093051567397, 0.7922037872855204, 0.36194591316832536, 0.8229369579168498, -0.3406115597204942, 1.66211889269784, 2.3282172412786983, 0.3558762381043662, 0.49801185523849534, -0.737686978909323, 0.21802441075653745, -0.9615388786914301, 0.5709273019294165, -0.46012762754183195], "bias": 0.3123739880814017}, {"weights": [0.042625473902845934, 1.1698415029800013, 1.9474567358836732, 0.20563535583520265, -2.4046909359795667, -0.5103392863874989, 0.925270850455892, 0.20445358496107863, -0.665856911906914, -0.06325597231361257, -1.4694262787776742, 0.24272221029996488, -1.4242199326000127, 0.9407952565715907, 1.5156635884451024, -0.34509816772088, -0.04565903366261992, 1.338103167905171, 0.009691053672948757, 0.3642345647080132, 1.672211412351839, -1.66124082912317, -0.3331882291040891, 0.010447475771956705, -0.5532220841026345, -0.3941735454468377, 1.1810673727478487, -0.06105368000759337, 0.1765286123365547, -0.4737429681823194, 0.49244655446223895, 0.37541019163119643, 1.274098997110622, -0.12618062655849854, -0.33977933320424225, -0.6442263989013735, 0.48934202100916835, -0.3536901955374433, 0.7051234741401455, 0.11061673636923364, -2.0086777963240388, 0.36264914065303977, -1.744289193190186, -0.12736138354027304, 1.47973233895187, 0.26952960620189415, 0.10699397824881052, 0.4139044352807927, 0.5705101787764693, -0.7237956365103317, -0.978342045955237, 1.1035139195747945], "bias": 0.9322798606983322}, {"weights": [0.6317308107615935, 1.2364365904806216, -0.28675504421393566, 0.9569488298766207, -0.14703028452329825, -0.48511467303535316, 1.4202677956711294, 0.27005157984853834, 0.6402532714956318, 1.4691805568147291, -0.7947019156664056, -0.18115606215175117, -2.21003595924881, -1.3301057188517569, 0.18873698551713586, 0.9525817446078567, -0.8889875820968495, -1.338221533351712, 0.8642566712508587, -0.5262349849649737, 0.08802028005701135, -1.517825617412733, 0.9736850308977296, 0.47527933775226006, 0.6507261844906835, 0.9715114087313587, 0.8774784880614898, -0.7312332575840237, 0.40816246899626796, 0.43425641776435, 0.31227618495598164, 0.6916622919813022, -0.23826138963238264, -0.713154522653815, -1.763256755236067, -0.9205268217202808, -1.2268248539196174, 1.0271406497942257, 0.6632657466769307, -0.04422509987637302, -0.0733819688604409, -0.5704679060560917, 0.7760360866186659, -0.34163003689398147, -0.4047571101273214, -0.20351310898331132, -0.5484734404232392, -0.4995182401105077, -0.8017670583633064, -1.0837892162958023, -0.21235694549067413, -1.3864889876576423], "bias": 0.5021955013610945}, {"weights": [1.1830601971856263, 0.4725762932534572, -1.0168854320636296, 1.797197348653651, -0.8618145417741603, 0.9139601375120725, -0.8263305695996395, 0.9040495878263032, -0.42844883743495876, -0.2589004820019597, 0.21102801854040554, 1.209048900290631, -1.440736983510179, 0.7817982688854165, 0.2093658225609294, 0.4823039127410562, -1.1456200480841998, 1.2675123266796238, 0.28864760020474883, -0.6281682847750011, 0.19231138108521678, -0.8841617027173474, -1.2345014922057258, 0.9284593864047206, 0.2781551604899908, 1.177825823839291, -0.7544461700273329, 0.02485464838884288, 0.5729447219028857, 0.36362831450712074, -0.29273434258481246, -0.8322802389723363, 0.001273723937039617, 0.3346989590736772, 1.1083320258127416, -0.6846849350128787, -2.094664771229397, 1.2675875872958953, 0.15209992786739057, 0.8611724278638462, 1.4752289524616353, 1.0311414735822826, 0.05753154550841788, 0.1543440074077166, -0.011179811114492733, 1.0147916826858967, 0.3890008586359428, 0.17407179323264266, 1.0224371001926702, -0.7514007755122669, 0.8685040453917606, -0.2613282451039193], "bias": -1.2620138063077664}], [{"weights": [-0.10209041111329842, 0.5193296179559459, 1.0925840632374575, 0.2983729696211771, 0.7441947701013025, 0.406964718359216, -0.8969445796896042, -1.3861221721341002, -0.15265305487212033, -0.36427499957941556, 1.3783285677261974, 1.3269413402680907, 0.28925896204830526, 0.4192970812237633, -1.5332112793816046, 0.6008818192852519, -0.14737685837368036, -1.134053711842177, 0.14296176049746195, 0.248561932350719], "bias": 1.282857406231547}, {"weights": [0.29758653831046067, 0.13966142343695104, 0.6215366512167277, 0.07408006950798973, -1.6414749801732433, -0.40723228808280965, -0.598988948805443, -0.7273085072854201, -2.0411544208930863, 1.776130209024441, 1.603556028006121, -0.8819387645122644, 0.07834528092710447, 0.20450315111067519, 0.9780139460571005, -0.7883052698100101, -0.4250845658567653, -0.9132992108844633, -0.38827717593375777, 0.2535378345959206], "bias": 0.4007369947531525}, {"weights": [0.64733802527953, -0.09086967468532992, -0.6862869165296746, 1.2082480424235498, -2.221546138089231, -1.2207536397748386, 0.3792431696281767, -1.1929892500645303, 1.4365344756976686, 0.46104181291004587, 0.4809187474027611, 0.08518498077123349, 0.2428138127918319, 0.9593914134763823, -0.1765558065264381, -1.021196184616298, 0.765968029962173, -0.2569107224990952, 0.779139016917986, -0.7657756821255817], "bias": 0.5379065289154201}, {"weights": [-1.0261738742792859, 0.393653046053582, 0.3700162331622361, -0.39005324575121714, -0.7467455067595444, 0.9180092599308349, 0.03391959025627933, 2.7115879767398643, -1.446895753994533, 0.8346982976934404, 0.572269102693153, 0.6075311882735372, 0.7080330049758151, 0.04304586734628546, -0.8711309583090227, -0.02007507874569625, 0.16725898939470096, 0.0683572990210044, 0.06972020758231712, -1.5440643023114404], "bias": 0.11457023024554525}, {"weights": [-0.7149308402134296, -1.142065439494036, 0.34445887287603133, 0.7127048022780202, 0.19089286785420218, 1.19606037589833, -0.37922743094273625, 0.0609244772172402, -0.7457770688946899, 0.44663951981680816, 0.02225030955724261, -1.2419063182394878, -0.4608260387869534, -0.8384314112399062, 0.7767641143571875, -0.3406268388225616, 0.39798782802926436, 0.3860977549582318, 0.6822490403924006, -0.939703006635475], "bias": 0.8442459148350133}, {"weights": [1.393665338034395, 1.8295014595235637, 0.2660695074558023, 0.5316920375357923, -1.2673323041059124, 0.38946963681790037, -0.12383529397872312, 1.0207161592851905, 0.5119571273926316, -0.48458391114041455, 0.768865131050551, -0.426548192038264, 0.22156691759110037, -0.7332944832930772, 2.4002643243791124, 1.289528654622932, 1.6930667581849752, 0.35278591704386275, 0.7036896716266448, 0.4841663793837535], "bias": -1.6394938623441895}, {"weights": [-0.15645755925878885, -1.359958740015618, -1.2365873894761474, -0.5769156882153782, 1.9604328908751922, 1.2309077993871433, -0.4715127923506114, 0.8114823528744316, -0.41753902414297406, -0.9005775499930049, 0.9331163078608358, 1.7062457114085798, 0.8463109750018308, 0.8153307954768754, -0.0730936466673403, -0.9904004780453115, -0.5909812045252124, -0.3092355226714231, -1.02138570396559, 0.8716820437658827], "bias": 0.6250380196726938}, {"weights": [0.09933653757403338, -0.7468402108921175, -2.2333485491184235, 0.4209349425995934, 0.27266002487485264, 0.7174968329781201, 0.1325829901406388, -0.9566756182774959, -0.4016667080096782, -1.4925539563271815, 0.13568092179241398, 0.5556965674914962, -0.9269689598951585, 0.18209049134691957, -0.763362246687344, -0.19401146486859755, -0.7141414712518338, -0.7294160510809822, -0.25110266098678524, -1.6094962037831886], "bias": -1.9235788366510282}, {"weights": [-0.6572568548448764, -1.1885637880369588, 1.4274813303638856, 0.9705604831940972, 0.03298855303955278, -0.7658671356845953, 0.9696462715045935, 1.1492961921905, 0.2121823275736825, -1.238970089242186, 1.0400347665852956, -0.9472092084179179, 0.3621350604034598, -2.2831291220787118, -1.1461405159844944, 0.9758807090242686, -0.18250791874845584, -1.8694950087161009, -1.6528336511058686, -0.20398562512050522], "bias": -0.1601493315861558}, {"weights": [-0.51658704222122, -0.03130678972121714, -1.386995053424226, -0.4297938246716822, -0.22350827384923205, 0.6401987045414749, 0.1531392432789469, 0.06374421135685959, 0.2837911489456251, 0.36486149630786435, 2.131693928069964, 1.0700759125448753, 1.898890978249814, -1.0126265093175222, -0.15452407889749187, -0.3968638845512381, -0.6953711379951036, 0.2196012906363794, -0.7619497885749144, -1.7005616782621322], "bias": 0.6087448144273523}], [{"weights": [-1.086624550468537, 0.306878756374642, 0.4409794641314255, 0.15216483490664218, -2.3905402154524458, 0.5185845900411739, 0.6903276049546898, -0.0004888489009915453, 0.8228044291442511, -1.90717797387738], "bias": -0.6788178549551568}, {"weights": [-0.5429727490770682, -1.2571564163065045, 0.5433742245093296, 1.4988693906684596, -0.28918749420674283, 1.4544578302682867, 0.7086046756497677, -0.5075617444480767, -0.05128001557636919, 1.5556587543083826], "bias": -0.13288563185579422}, {"weights": [0.09612055541578757, 0.6137807919541147, 0.28525586537441394, -0.2685090392291206, 0.7286014365020963, 0.18522122591213985, 0.4090963003117576, -0.35038966318394793, -0.2906427282575963, -1.1191856043761872], "bias": -0.983045161946721}, {"weights": [-0.6301820313496167, -0.07713615916219518, -0.27088011429486103, 0.665947441352664, 1.5172883700706743, -1.3649261390791785, 0.9875549284724052, 0.537711105090392, -0.5693808452428808, 1.1122609879072005], "bias": 0.14759600723951316}, {"weights": [-1.531310865104667, 1.190465993559478, -0.5064333491517554, -0.50937162234677, -0.2611210058129595, 0.3500922923766474, 0.0007760083728687306, 0.846266275489234, 0.47516233636843974, 0.055571512370502896], "bias": 1.556799336594709}, {"weights": [-2.0096631815155006, 0.0813693726378506, 0.5746138994879267, 0.09984059028177783, -0.3174220749009776, -2.084576121427367, -1.85214804964571, 0.5231199045937647, -1.6884957246824261, 0.5761693316571538], "bias": -0.6816719182708748}, {"weights": [-0.454345886939559, 0.38143766531412726, 2.774637086444157, -0.3368095671252449, 1.2205062848447554, -0.7085691786846654, -1.0180873588292412, -0.8407975061827302, 1.5213824413851804, 0.16822985543776436], "bias": -1.1182968823908324}, {"weights": [0.40531529976345215, -1.5306997182696744, -1.3081496918728275, 1.75133146000635, -1.1248463636740849, -0.28581852068835356, 2.0379467502326127, -0.31095783587795556, 0.1581995525143236, 2.569736503334889], "bias": 0.6655475776953736}, {"weights": [0.6198650108246255, 1.5937140012397462, 0.05992162741128726, 1.6333698264501906, 1.9765498571367617, -0.29520551939802564, -0.34921678656830796, 1.2268910693230344, -0.7631765551841583, 1.9886960412708927], "bias": 1.3574607993270549}, {"weights": [1.3574887394404729, 0.7348405618815655, 0.45969195203596985, -0.6143293255052421, 1.0476457597196984, 0.504854907232315, -0.40013107428558714, 1.9465885081589054, 0.8671806416499841, -0.653865484073938], "bias": 0.507677825025945}], [{"weights": [0.04326289416128093, -0.9022702505213305, -1.2444537561578883, 1.2326439122492368, -0.6781256005855463, 0.34296721346508063, -1.0491354412752978, 1.635752297537665, -0.7715975132283966, -0.8782632883091441], "bias": -1.068859911642674}, {"weights": [-1.1392963208565112, 0.364426004815443, 0.30700106209632916, -0.040841880710996925, 1.0112984748575238, -0.4342719472974893, -2.102208780747503, 1.2051512700237772, 1.703770263065002, 0.4851635742661805], "bias": 0.6302972539108869}, {"weights": [0.8698606062049808, -1.0691854003747352, 0.9081687521033036, -0.8780433048829861, -0.8584597789912051, 1.4322493601897106, 0.39008292110300413, -0.19859325537803907, -0.1670066715411591, -0.5129651263788484], "bias": -0.576225474893471}]], "generation": 700}