{"score": 128718, "inputs": [1, 0, 0, 0, 0, 0, 0, 0, 0, 1, 1, 0, 0, 1, 1, 1, 1, 1, 1, 1, 1, 0, 0, 0, 0, 0, 0, 0, 0, 1, 1, 0, 0, 0, 0, 0, 0, 0, 0, 1, 1, 1, 1, 0, 0, 0, 0, 0, 0, 1, 0.48, 0.78], "layers": [[{"weights": [2.5628690090443382, 0.9912921897701722, -0.608052694204269, -1.493710702718495, -0.11179261594275502, 0.4422192311836344, -0.948588431845648, -0.990334304730678, -0.7659658353202432, 0.18751356675419117, 0.6913430006970804, 1.5909669032234732, 1.143664893677266, 1.9496346703587033, -0.5015376077249273, 1.3602612737031894, -0.9534496883971537, 1.8285362032886276, -0.20739564758840423, -0.07407552117154093, 0.3203142527618522, 0.0050020706657165626, 0.8700802381831841, -0.32117089968780854, 0.6534716554652129, 1.5352351460220721, 0.09553342099810214, -0.5902723642430537, -1.4967798889891295, 0.9137399710310798, 0.5793189865060118, -1.1628191695969017, -0.526880397885202, 0.1643556626965016, 1.1312866012105003, 0.7286486540878487, 0.6503352476981298, 1.5181614899928944, 0.846179794210457, -1.2054683530348065, 1.32698353005495, 0.9913230624618896, 1.7918216199253627, -0.16314413479480855, 0.9802668948714558, 1.752895456914883, 0.35489477687200177, -2.2069004300540502, 0.45685346348368516, 0.6746034572955835, -1.5427838843695838, 0.23843367342207528], "bias": 0.9274354280394597}, {"weights": [-0.685778244734734, -0.05888005924430195, -0.024608712007050393, 0.778153154676882, 2.8172781962060474, 0.2961874380460938, 0.2328222603035357, 0.2702524462192585, -1.9856605765055213, -2.0813832034195254, -0.01457874421391625, 1.0891757746190944, 1.59896607812076, 0.13497813505977668, -0.9234658499149343, -0.2516503598141252, 0.5344989416067473, -0.4015128208052213, 0.29036488984352904, 0.2674151797871501, -0.676108101541053, -0.9906081807781397, -0.5621251991027177, 0.26382216164417344, -0.16956269489960796, -1.554233079969498, 0.10380474633354386, -0.763509986203621, 0.05747578511698337, 0.23041354037123152, 1.5133803182624612, -0.20822505169777838, -2.0323725674220547, -0.7251730811447784, 0.45523945672856336, -0.8922310623811128, -1.287795724291572, -0.2484242826315335, -0.05087664870313402, -0.3309256803380355, 0.6109744726578705, -0.10678977283256308, 0.4203176906176817, -0.3265637625248047, -0.7458677080259526, 0.10415949076606484, -1.9868440753842116, -0.8058463311244777, 1.285266726331407, -0.9082214310675877, -0.8643105534783906, 1.4305384115225452], "bias": -2.046359103260733}, {"weights": [-0.7726412830168814, 1.2044523342756506, 1.7581308358092833, 0.19875188158368284, -0.48493831946992494, 0.9864773552079237, -0.1396643566724859, 1.3463199554462788, 1.0548689667538005, -0.8434817683448084, 1.0232857152058228, 0.9872321104637211, 0.8430707885716404, 0.014450359045369288, 0.550087679066675, 0.022339655359052468, -0.5856046129041524, 1.2711806495220794, -2.3434057967086397, -2.252891950648487, -0.009069821756908458, -1.5652491754159104, 0.5819372471167831, 2.2623679666096335, 0.6492606999015418, -0.02661162624695801, 0.28038842343681847, -1.0719087681300694, -1.5689303239926429, 0.7378936111388167, 0.4181399292122874, 0.8545364880224132, 0.9458266800034206, -0.33339109813022394, -0.36105054588170116, 0.30449071988486287, 0.508557882417075, -1.1175500082724388, 1.2444015975784528, -1.0955642808892345, 1.2919073646265653, 0.6100022714096175, -0.12497533741668398, 0.10116795397033995, -1.0362925394097975, 0.43226143480910484, -0.9523047318713467, 0.10667872987506943, 1.2789336878018438, -0.08208879399575242, 0.7769067675713417, 1.6468875805999397], "bias": 1.3935560584760451}, {"weights": [1.1790907132695332, -0.819107320319384, -1.519584212524436, -1.5491656871572248, -0.7505945237654437, 0.6668183978127677, 1.9292486675381015, -1.3737731280091086, -0.5230285297245955, -0.13853083496254687, 1.1258151415945616, 2.6305698021394885, -0.10984914367196597, -0.0984592537917987, -0.7525255705528203, -0.6022301111879765, 1.2860202002082304, -1.8398745491125645, 0.7272729402930738, -1.2176528188099198, -0.7711591023157995, -0.34063950260566456, -0.9939402911425823, -0.5865392387966455, -0.07084417656185193, -1.9964728635972362, -1.6315300451454415, -0.7587904140401998, -0.9025638035035064, -1.7319715731472671, -0.09686686260108518, 0.9162430554856088, 0.6513414094485651, -0.12172440370512816, -0.35810765689214064, -0.5360091990001025, -0.6688131536058254, 1.873611235125341, -2.0511276492642048, 1.383225941522566, 1.002088112546628, 1.1481551087967525, -0.6164612926346276, -0.16147071309822203, -0.557438233740765, -0.09113499341068243, -0.9763539673632741, -0.14366677543395806, 0.3976213731228867, 0.3981924026628055, -0.6785088292125124, -1.4162144627197726], "bias": 0.8678648403105038}, {"weights": [-2.44382682958658, 1.7466959403588498, 0.3298526501857121, 0.04124884105402904, 0.12998783631301059, -0.7944107680479195, -0.8300003662703876, 1.059485846337676, -1.1785501111882284, 0.10131951914802728, -0.9305560188521371, 0.6447672545147272, -0.21209768820839991, -1.093357866619315, -1.4661264834248022, -1.5133894755790949, 2.2840541642188845, 0.40828128593724367, -1.7430588752508196, -2.4948069963290127, 0.18239732661527552, 0.9324531865715799, -0.900819050370931, -1.0714282470956134, 1.0152063047933164, -0.4712500432820581, 0.6059307484363791, -0.8336859421557716, -1.251780957994181, 1.4629046271247195, -2.3418443313443964, -0.7572237837608409, 1.7652617853609363, -0.19741371552502807, 0.5331960908156964, -0.1728616976732391, 1.4184968594589111, -0.4914913764906698, 1.111692811687528, -0.17584956289818487, -0.0955668223678734, -0.5490396774975624, 1.3901685941298616, -2.390305986909117, 0.3363451666642198, 1.3973216662085193, 1.4048275868869484, -0.6637812527654876, -0.2656659627911488, 0.08803446274100046, 0.09062553504011661, 0.3171018241895289], "bias": 3.014861405473681}, {"weights": [-1.0284359929188143, -0.13703456292921634, 0.4421629737374506, 0.1159254819213435, 0.6389537862545241, 0.869931881933031, 0.5673424916187083, 0.3457487307573198, -0.05990064918909044, -1.1497844265633619, 0.976849490583942, -1.372027922346319, 0.6883243032478386, -0.31641937282859844, -0.6055534265769291, 0.635146401074077, -0.09168230357554663, -0.5637940682797342, -0.2569296476240033, -0.35714670722048125, -1.7940677172550483, 0.19777994518216568, 0.37654470106822185, 0.4855270173835649, -1.720322750919685, -1.0809873499797646, -0.34292519883620565, -0.8845025759441707, -0.3408637948435675, -1.5592765109703155, -0.03679416228431709, 0.8498337889867713, -1.0299435585078258, 0.9461377441457881, -1.2399806342704554, -1.0230627177311213, 0.7888777629568875, -0.23563660312571655, -0.6491611264049864, 0.7509234230121101, -0.20616501868330706, -1.3008547125376602, 0.6440233949506101, 0.3585341255818024, -0.5498603925794153, 1.5379088245469932, 1.0101267631423356, -1.3045251424033324, 1.352831478087486, -2.299942258044529, 2.2070642734672408, 1.1896039457041625], "bias": 0.6867081568041904}, {"weights": [0.4176928835227711, 0.1887664883911433, -0.5300985757619946, 1.1313445327924603, -0.4352339162859704, 0.008746399353437795, -0.6599028204415169, 0.6225863060641191, -0.794459740519984, 0.12312426632856699, -0.5078585457134698, -1.348855103627164, -0.6021471978522647, -0.1112852798985089, -0.8241837689048575, -0.40129837344761987, -0.3997013458450077, -0.7500442320998189, -2.10635969992515, -0.7642895123309454, -1.173662824740723, -0.9040979045899384, -0.6110116656569025, 1.196985468805672, 0.862176125594683, -1.5389810195862765, 1.2452230357314527, -0.48708192755154367, -1.7886071261559993, -1.1554559382467249, -0.685108648273475, -0.8763900258109882, 1.2292491743491372, -0.3848996910161837, 1.5607088685967958, 1.7128222503649737, -0.25397615292623743, -0.1724055864580809, -0.6331310370502019, 2.2282244617416063, 0.11998102396410354, -0.44560693963929415, 1.1813463458659919, -1.5997557193218728, 0.4153847242592017, 0.7231066164088628, -0.7555232244120098, 1.192725900093952, 0.4054410494974203, 0.9346632298849699, -1.290018488983607, 0.6496326233818872], "bias": 0.12336063177682521}, {"weights": [-0.7059685637974482, -0.36766940259106384, 1.2159091041350976, 0.16969685297384224, 0.41666800311649166, -0.1230385954190717, 0.3310110996329487, 0.7868686840654164, -0.3368030975632521, -0.2986443353615378, 0.32123138300340726, 0.15621225470421674, -2.1034671782270875, 0.10925588944927278, 0.35415987833579043, -0.551961664005022, 0.6548312199075583, 0.9136909444800803, 0.40483186023633655, 0.614293353767221, 0.293464949133708, -0.7398113971153526, -0.9334321874325651, 0.09590178941430871, -0.11674504680706249, -1.492391808910647, 0.316316248708976, 0.36817272486270197, 0.4123152107692254, -0.9267101978903836, -1.957112110590307, -0.6024041948649632, -0.08596529374145956, -1.849406810593429, -0.48737097633490845, -1.1263287722122368, 1.3081709420782732, -0.2919638761286818, 0.9155798132065137, 1.9877314185215553, 0.4907172539507739, -2.2181267906903477, 0.5444427623600214, 0.9989622086134557, 0.9678814367830728, 0.21525010836925806, -2.1326791608868647, -0.18508924079881117, 1.593659203902114, 2.244988377400558, 1.3478921101932404, -0.018539794163113466], "bias": -2.5106030586939494}, {"weights": [0.6536692244152129, -0.9918259618951661, 0.29627161322564843, 0.8810741415246223, 0.4433385700421481, -1.6100273498463071, -0.41388837646194165, -0.6552104875679721, -0.7223001872958448, 1.4769905874099838, -0.9719739192139799, 1.705785902244573, 0.4504807801356193, 0.3266098778061829, 0.8468268687589925, -1.0535510549493015, 0.44330072233301704, 1.4271344410411215, -0.5186035762358951, 0.5681272381933611, 0.8124744076118219, 0.7642797943387583, -0.3623664150644208, 0.49806779487851593, 0.011528273592230298, -2.230471933160093, 0.3295871824736948, 0.18511169163143043, 0.581228356742109, -0.273207056967134, -1.8681635758699806, 1.0655396796909713, -0.904090723837943, -1.5993663683767858, -1.2160006177895433, -0.6814210650056318, -1.3071275427042153, -1.171845148067897, -0.23992457453769134, -0.791530387520853, 1.4936286269403631, 0.649043065108367, 0.5538286906897626, -0.3840195201513177, -0.22182813707037774, 0.9503585277483735, -1.0595264395722968, -0.41595628488014313, 0.4671028863019014, -0.3130744854466244, -2.858951545581789, -1.2511883629702578], "bias": 0.6837866460038053}, {"weights": [0.7792927981270514, 0.20700378158872412, -0.9621238265194744, -0.5050784082333072, -1.7506926357821166, -0.6451440186097956, 0.755349979428885, -0.6548221337596265, -0.9680244983792294, -0.48078110720824685, -1.1197145690793073, 1.0950792968636238, -1.5134634651612375, -0.2513810292535935, -0.42968252722782435, 0.7547860581968382, -0.4938130534501687, -0.5043159018503017, 1.2302542765118238, -1.8780324643172244, -0.6539728553120969, -0.026307012204191516, 1.2025305759078566, 0.7804607461404193, -0.374617759938893, 1.2759327138672791, -0.19995831116584656, 0.7809343977557627, 0.018043444248068474, 0.3875075352720475, 2.4106751225420533, -0.6905187229770271, 0.09474952335510856, 0.28016554267846155, 0.7356181305067275, -0.1126849869156164, -1.479035181785123, -1.2321228335407342, 0.6768591949079656, -2.0533524183818876, -1.2763997388200197, -1.9009401685022245, 0.6187361291758813, -0.8801983019449858, 0.3111391252021223, 1.210451070990404, 0.029498266422494923, -1.5485864797618771, 2.1675004434170573, 0.14247145770773517, -0.5027252129244885, 0.43119541364888553], "bias": -2.1022925031954225}, {"weights": [0.5695528616838381, -0.8905571361449404, 0.4551008429587997, 0.5274929100089666, -0.8999140632343935, 0.8383908375407867, 0.3438820281190552, -0.7178286653663002, -0.6717486761678427, 0.3560333358176667, 0.8161608599513911, -0.07141268236754117, -0.729907694763013, 0.3816247272668467, -1.6400862280554995, -1.1991881330295877, 0.28412284544441474, 1.3674468063065848, 0.4082652188892941, 0.37112390257175787, -0.654821292205387, 0.21057996256589978, 0.04133990320781433, 0.7006502152991532, 0.3176211171790282, -1.5791506744617134, -0.8441597380715282, -0.24818965301443296, 0.13492120007145364, 1.6106077020682035, -1.7430226942553997, 0.6960628660793231, -0.12564206822178314, 1.3891232960164006, -0.7886807801065943, -0.9776654725180803, -0.28982714121740805, -0.36425873600652253, -0.029635406553972676, -1.4215691142154474, -0.7129061885846754, -0.8956867346964427, -1.0373399347073167, 2.0853847356338946, 0.7736848868367172, 1.6831164448743121, 0.11343453772360412, 1.0533989371159418, 0.3748225540978598, 0.540146960462901, -0.7928444182568475, 0.17915571120862528], "bias": 0.0931653722497423}, {"weights": [-1.0559502294551169, 2.030784745841365, 0.9596575647102465, -0.8137076451353907, 1.7127837567362243, -1.5098951883286298, -0.1837048098044004, 1.7168399108263965, 0.17054138346978687, 0.45942550037714147, -0.8619709722762668, 0.37291764649199705, 0.4063137540265428, 0.4121598633662802, 0.029275988929765795, 0.4090338558987793, 1.2635799769866651, -1.706266021354197, 1.4379768077407318, -0.14622547127665064, 2.1636906510469944, -0.5134041064982976, 0.5214034930960079, -2.581270756476429, 0.46061881407868344, -0.86071582181712, 0.7643454526334066, 2.3587733109138664, 0.16145718915688034, -0.02293278616963157, -0.7568677112295856, -1.1668206022140644, 0.7917234932795272, -0.03521718124648504, 0.08516002928682265, 0.20176444721239672, -0.46144465508548105, -0.5041505560911415, 0.45149942179169217, 1.0510634715530331, -1.0111762204413468, -0.25606993519435733, -2.9537293492549948, -2.3557666949825338, 1.4499494374115147, 2.0862960868511156, 0.04862277813655891, 0.6781851947520792, -0.3094282579795422, 1.6706265465195695, -0.44846191223133464, -1.3719540367838876], "bias": 0.3685498835146671}, {"weights": [-0.4379243130194593, -1.19270543127285, 1.7069820283817967, 0.4585276361880623, -0.6190112149980594, -0.09981596970864115, 0.09222786895334634, 1.0353527878015811, -0.8282355592046674, -0.21159669236970652, -1.0147048001942889, -0.640530625632889, -0.21395181183914924, 0.23343059960362095, -1.3461621627758555, -0.5934882797701744, -0.028369956113826755, -0.8059716084606864, 0.4477843882516377, 0.6288564832622123, -1.56141921267128, 0.9871965749504354, 0.345521043920419, 1.89612365020728, -0.48539328883511346, 0.9559746633305384, 0.6741515071786467, -0.18444069908495542, 1.5320094916328446, 0.10032485458706208, -0.9449594244138853, -0.5028350328096186, -0.7112244796068146, -0.23449701708655635, 0.5162247253702535, -0.9149693673271322, 0.0673071358975279, 0.7824177940069504, 1.2474222483901571, 2.529185028254038, -0.32495543259177906, -0.21117222130899643, -1.2973057112145594, 0.12115337917282237, -1.2024462425573794, 0.3423362228873531, 0.7314247261171679, 0.4281415950685691, 2.226519000128815, -0.9770030706603662, 0.42410694596925014, 0.4535457543288608], "bias": -0.2732190747877682}, {"weights": [2.3339703752414547, 1.3629439651764614, -0.08384098774355347, -0.38515571293597295, 0.5864949557914998, 1.4337185459285462, -0.13843947807899692, 0.9192486083704903, -1.5838846927513224, -0.4282384384721323, 0.4040267786466645, 1.0063225076743771, 1.6511964571240978, 1.0343839494404896, -1.281153349530422, 0.597542639232652, 0.7968226692995756, 1.1170394562342478, -0.36988426791842766, 0.6606085845754979, 0.5367384473778077, 0.034800801457245956, -0.5935719422637531, 0.49386929325330664, -0.5860797476255616, 0.23203915121663288, 0.031136781055898233, -0.721558465083605, -0.7811135600625376, 0.5045218872359732, 0.5842226326892764, 1.008251731537499, 0.8129372575709436, -0.7154966227916417, 0.9732339711347322, -0.9243334318144026, 0.2079473148751062, 0.9434498781637521, 1.1758765833155496, 0.13940309072440232, -0.2523259320331619, -0.5397049167428395, 1.695222018386228, -0.11871024887060477, -0.14879757337752142, -0.14522345164476497, -0.38153134153219903, 2.5244471326540925, 0.15382512657054748, 0.9144963514746993, -1.4150987592336786, -1.5223418170799876], "bias": -0.7007341179906451}, {"weights": [0.32777108006801936, -0.6079707431478122, -1.5186259315113264, 1.4312870816476306, -0.19735464061927244, 0.14651655380125977, -0.6234521437772935, -0.6639059512388426, 1.1391151086527107, -1.154980093624645, -0.8839641878426855, 0.7359796400817883, 1.4137391286981225, -0.2099171050397619, -1.1336601934534944, -0.28200949175437495, -0.24719649093069174, -0.7958369515675964, -0.26411558527795775, -0.34286711882566995, -0.8899327256657404, -0.29835035103480356, -1.1423140821492084, 0.11253806791892113, 2.595945692949207, 2.023723896937917, 1.3389477721023693, -0.45643991832010217, -0.33979613340200543, -0.06019496102523353, -0.20966974802391425, -0.7139258092435149, -0.7347752346058136, 0.7697976555225585, -0.6179283833884514, 0.9905624192383504, -0.723258406420818, 2.8345938014240413, -1.3740723271536752, -0.9499079500608594, -0.6381537053442979, -0.9246012059198989, -0.5844560310734381, -0.9121131647278906, 0.19193985119119827, 0.7995157838014373, -1.0570274026560105, -0.5730346971549043, 0.19504171964758849, -2.994826650992164, 0.45466441247255945, -1.1449674096653726], "bias": -0.3552216427143211}, {"weights": [0.8947959992147138, 0.24458526413944126, -0.40050949494156196, -0.45077893685907533, 0.8223132545021676, 1.2738895095615796, -0.12553700069163798, 1.9599794465220621, 0.9547145932518023, 0.9645259018927284, -1.2155542927658696, 0.23475191675928664, -0.4811084827449197, 0.2977724363534643, -0.3761050943553223, -1.8168584510385277, -0.23247012416057244, 0.9550201638628866, -0.7901163973328549, -0.6861899821395278, 1.2757257716821973, 0.7012474180936853, 0.846879976543598, 1.3339632217863877, 1.946328923095019, -3.0622255908947853, 0.14447573460567975, -0.08072887840985865, 0.0950639829248362, -0.5890041326053295, -1.5487221837827183, 1.614364568863298, 1.0400034666334226, -1.0890263781580518, 0.7903941717356711, 1.2419303788495002, -0.4265849767340055, -1.1383796964148298, -0.011448851006453487, -0.011524227016433963, 0.22377024238775467, 1.0258522739166542, -0.5519128733774702, 0.21800793132683283, -1.6033489375742866, -2.3131286491121963, -1.538370887285015, -0.16639752563824806, -0.6207005743918549, 0.47210693454900526, -1.390500316140697, -0.8786387797284818], "bias": 0.7193926501793128}, {"weights": [1.4311204845157155, -3.0445584232095566, -1.5329039987591575, 0.8123579754614744, 2.2603295483985786, 1.0225017556434206, -0.8706061007956208, 0.1805045769005309, -0.6855958548881993, -1.0357900059880811, -0.04216855191687785, 0.6120016285361669, 1.1819699032242235, 1.6929280686416295, 0.6133495544596121, -0.5590201196126424, -0.6049827467470709, -0.0765706073728078, 1.3978227575883397, -0.33694405637996117, -0.535162325542078, -0.3780918885644695, 1.1697123596610755, -1.221534992531757, -1.8223073446842635, -0.34245248162308306, -0.26433343540423315, 0.9999935928666961, -0.4219898781724488, 0.5137405136471181, -2.3303837552257765, 0.3720601133985819, 1.632146435561744, 1.7639535476504489, 0.7578379830267409, 0.20717398655638164, 0.45999979350121734, -0.2473661750494459, -2.0201046562240728, 0.6560123613556335, 0.3316333189810896, 0.7260037928967299, -0.3406115597204942, 1.7947036751514178, 2.6892771390386505, 0.3558762381043662, 0.33062209258341296, -0.737686978909323, 0.21802441075653745, -0.9615388786914301, 1.2516292107532077, 0.06205250064774387], "bias": 0.8189116823155064}, {"weights": [0.042625473902845934, 1.1698415029800013, 2.569731377220479, 0.014910444893021846, -1.9355206320455594, 0.08277684971929244, 0.925270850455892, -0.233291449615469, -0.665856911906914, 0.4369823060506639, -0.8842959900015155, 0.27632957704352923, -1.3493814154156398, 0.6383137664409317, 1.7247972078582785, -0.34509816772088, -0.04565903366261992, 1.255345297331497, 0.10837103467774012, 0.6635960384173842, 1.672211412351839, -1.3319258094417856, -0.2924151314846479, 0.010447475771956705, 0.09384926157749773, -0.9875641147122785, 2.068884500170804, 0.6143556509680217, 0.37882759135780864, -0.25436494224737916, 1.0271026130745473, 0.46912696927848574, 1.2143820062705193, 0.4416071611496913, 0.1570492964107768, -0.6442263989013735, 0.7604538453909456, -0.3659241799246473, 0.7051234741401455, 0.11061673636923364, -1.6173727497612618, 0.36264914065303977, -1.744289193190186, -0.018498621441735086, 2.5406760312951016, 0.5837768068241187, 0.10699397824881052, 1.6430878008675558, -0.03181046509415231, -0.40781592077017303, -0.9940569573387197, 1.1217355478017312], "bias": 1.0030380548044284}, {"weights": [0.8378844299254189, 2.000221909166525, -0.28675504421393566, 0.286604609056177, 0.10098356236335859, 0.03935424301065582, 1.4075309165815595, -0.13932921742879584, 0.7678094682233914, 1.3844274275467154, -1.793479277105885, 0.6514864513117768, -2.21003595924881, -1.3301057188517569, 0.24651591006894308, 0.9893302856772372, -0.29758327080883384, -1.1313666245288678, 0.8642566712508587, -0.718368600710276, 0.22290568541999878, -2.1760224622397715, 1.4284415201367464, 0.47527933775226006, 1.1072624666157387, 1.213006532910776, 1.2681217666989437, -0.725718631848028, 0.4465819796237709, 0.7648460436660245, -0.41421796589291565, 1.3903458110075386, -0.23826138963238264, -0.6340227254233981, -1.763256755236067, -0.6603856594635761, -0.3404392877917539, 1.105176918420929, 1.3553347911355182, -0.5253960393265981, 0.22552105813033407, -0.08204818310030515, 0.6370017362481317, -1.1902491528278072, -0.4047571101273214, 0.3484534010653344, -0.20218061775817908, -0.4995182401105077, -1.9621090430407648, -1.314046320308111, -0.5844204956323888, -1.3864889876576423], "bias": -0.6394463951282161}, {"weights": [1.663419857527108, 0.5113729909984777, -1.3487683745754266, 1.9828019918198954, -0.8618145417741603, 0.9139601375120725, -1.4184139072483275, 0.8723050004906983, -0.9048434513928296, -0.2589004820019597, -0.35607497550144573, 1.8663877375492453, -1.6649659577903408, 0.31004884279120526, 0.2093658225609294, 0.31147848250184484, -0.9560476347470832, 1.6458759964555527, 0.6212788045721405, -0.4335163644438663, 0.19231138108521678, -0.11225289531954907, -1.8965227546798178, 1.3696377012103058, -0.06539491867937591, 0.8703916614531317, -0.7544461700273329, 0.3901598334210399, 0.5729447219028857, 0.3598503138175996, 0.7053462231131508, -0.7825180118961506, 0.001273723937039617, 0.3346989590736772, 0.611504844373357, -0.12380722842225955, -2.094664771229397, 1.9165942987262725, 0.14752377960994534, 0.9526485748722928, 2.0141976757584734, 1.0311414735822826, 0.05753154550841788, 0.8142125450151453, -0.011179811114492733, 0.5315791962106036, -0.266570895102188, 0.3520211036306359, 0.8577783173655614, -0.104886515996095, 1.1733304505636326, -0.811734974024321], "bias": -0.7171136878590252}], [{"weights": [-0.05326428610020795, 0.8854357924500589, 0.4747453073457709, 0.9395300560464541, 1.7540222355488602, 0.43939224943137567, -0.8969445796896042, -1.3667303319205957, -0.3628239008571199, -0.07680237847584848, 1.10205539906875, 1.3269413402680907, 0.6548426508515108, 0.7053826765396123, -1.5332112793816046, 0.21112666164700333, 0.41083944522285937, -2.0806567909544116, 0.6441907626157533, -0.4730036635612317], "bias": 1.191810241148402}, {"weights": [0.29758653831046067, 0.13966142343695104, 0.6215366512167277, 0.07408006950798973, -1.564487232392988, -0.40723228808280965, -0.9590812363021437, -0.39625690853935824, -1.3469679615620909, 1.7699589184875266, 2.1974605107230687, 0.516125570811512, 0.9293399614364696, 0.2526749824646273, 0.9780139460571005, -0.3469347621329354, -0.6968676315954915, -1.15139705829032, -0.7048897720177547, 0.2817964502690112], "bias": -0.13138709433472118}, {"weights": [0.03372633981549211, 0.18878442940016527, -0.48957547374269594, 0.9977932672734592, -2.0402431505745073, -1.8175990287698094, 0.4978719095667469, -1.0856945860800662, 1.013677151859587, 0.3933623988715499, 0.3866329099893181, 0.5326610867703525, 0.5936688239771751, -0.37650903063489943, -0.2632852580782261, -1.021196184616298, 0.8160586995411415, -0.861520914480897, 0.779139016917986, -0.6011445594950323], "bias": 1.2153553203145675}, {"weights": [-1.7000222100112072, 0.12169948099452055, 0.3700162331622361, -1.3608803140345471, -0.6820776201763714, 0.7302166538263535, -0.12375800202706244, 3.262357582722514, -1.446895753994533, 0.7479151415238283, 0.1342747570812683, 0.5397440589745114, 0.7080330049758151, 1.2063120562485055, -0.5810968119823186, -0.031380539533210905, -0.0863001815885251, -0.38402431213802557, -1.0270077631085721, -1.8196946730406984], "bias": 0.11457023024554525}, {"weights": [-1.570642036748202, -1.682629598922878, 0.34445887287603133, 0.7127048022780202, -0.8144182991655056, 0.6027336126666032, -0.26861830276777887, -0.3321726685846808, -0.6732795679845278, 0.44663951981680816, 1.0542838049855878, -1.2419063182394878, -0.2096735353491067, -0.06363872605891197, 0.24731034946693675, -0.145064983410235, -0.2469217748795945, 0.3860977549582318, 0.6822490403924006, -0.939703006635475], "bias": 0.5525988798830891}, {"weights": [0.8648909256954931, 1.8295014595235637, 0.47689687826898003, 1.035512806212589, -0.9701483850263345, -0.08787509743619037, 0.5524989785964343, 1.1121286811854767, 0.3606046888894393, -0.8967000654696426, 1.0404982978985557, -0.27317103449995506, 0.40239623815796643, -1.223594845927942, 2.8703120576012644, 1.609350725799715, 1.6291522104522187, 0.05051501256696633, 0.7271053255248512, 0.02112177799451065], "bias": -1.5797967249233436}, {"weights": [0.23376269239652941, -1.9680138604911481, -0.48075747942141056, 0.42209473560047106, 1.9258421486905541, 1.1297390929524638, -0.5468371618768211, 0.719226897374724, -0.41753902414297406, -0.9005775499930049, 0.27872414961687486, 2.8401469273666358, 0.5233140089629337, 0.8153307954768754, 0.4798395601226936, -1.26981430419737, -1.186626021303303, -0.07520012747742638, -1.8275923287655673, 1.863660340712305], "bias": 0.8682888922098297}, {"weights": [0.05960902163338577, -0.556867090718693, -2.534788179735169, -0.083434414552502, 0.399175599485013, 0.9917183153016693, 0.5797656550584709, -0.39392760798842275, -0.9349065603933131, -1.4925539563271815, 0.13568092179241398, 0.9642669204760399, -0.9926796374865665, 0.548682130476391, -1.4665921169145861, -0.19401146486859755, -0.5395100724368683, -1.1017894957644203, -0.2680443910313235, -1.6036668957777513], "bias": -1.3577748823138496}, {"weights": [-0.6184932527384639, -1.1885637880369588, 1.8414112623926857, 1.5488736249290302, 0.6142161261819941, -0.3815941025965306, 1.5777304143990358, 1.1492961921905, -0.4100206522533565, -2.2806414320336, 1.3223634935709159, -0.9472092084179179, 1.0762815428126218, -2.0001633206279514, -1.3144520601823508, 0.9758807090242686, -0.18250791874845584, -1.8964648019973063, -1.6528336511058686, -0.20398562512050522], "bias": 0.15163386845159527}, {"weights": [-1.2587140865566186, 1.3836606810440861, -1.386995053424226, -0.777055271622362, -0.5735328031729995, 0.6401987045414749, 0.9895881246407277, -0.4865139027453478, -1.2621175353829381, -0.2119771162065608, 2.131693928069964, 1.0700759125448753, 1.6489456429063465, -1.0126265093175222, -0.7117397828939173, -0.23756959815548218, -0.6953711379951036, 0.9556049435006013, -0.4348106652838024, -1.9327322832611031], "bias": 0.4938593295980822}], [{"weights": [-1.086624550468537, 0.7174955663984408, 0.4409794641314255, -0.27010535115469625, -2.3496688738025213, -0.1789857737524687, 1.0830111832425933, 1.6888893300308805, 0.6121198034332191, -1.7031347086999742], "bias": -0.6788178549551568}, {"weights": [-0.5429727490770682, -1.0418329204245698, -0.0780160241977439, 1.3988747958895749, -0.28918749420674283, 1.682489852738006, 0.7678046690409814, -0.5075617444480767, 0.1392971355445044, 1.1282277951413815], "bias": -0.3905935155289508}, {"weights": [0.09612055541578757, 0.6137807919541147, -0.06054999459693011, 0.06933568571273152, 0.9420954424777768, -0.4411333600693198, 0.5889567458093815, -0.35038966318394793, -0.7836879980755378, -1.356700731082404], "bias": -0.983045161946721}, {"weights": [-1.4416985054666818, 0.15607870290065595, 0.2608060887571183, 1.0636776709409523, 1.3986973488127057, -0.7908351009587329, 1.0524208908740613, 1.1292159248992728, -0.6443486768613449, 1.6498368377710988], "bias": 0.36178665773559016}, {"weights": [-1.531310865104667, 1.702123659402773, -0.5064333491517554, -0.50937162234677, 0.557704327109099, -0.14617818232708946, 0.6088241700007471, 0.846266275489234, 0.5349296419692768, -0.6383789427688253], "bias": 1.556799336594709}, {"weights": [-2.0096631815155006, 0.0813693726378506, 0.5746138994879267, 0.09984059028177783, -0.8014688734598272, -2.3906476570682047, -1.43463186134605, 0.15543558004094737, -1.9458517309494647, 0.5761693316571538], "bias": -1.2648548783999325}, {"weights": [-0.7486109012050666, 0.8293654327054977, 2.3083636125202833, -0.3893012637655946, 1.2205062848447554, -0.6476998304670917, -1.0180873588292412, -0.8708518499818789, 1.5213824413851804, 0.643930201962889], "bias": -0.9855714583918922}, {"weights": [0.6363496508881615, -1.5306997182696744, -1.2870271616329134, 0.9928833368892483, -1.6103699530218756, -0.3516984628290247, 2.454173670888181, -0.83511467998029, 0.1581995525143236, 2.569736503334889], "bias": 2.2035686529028338}, {"weights": [0.6198650108246255, 1.0880798355321255, -0.18863659571130453, 1.6333698264501906, 1.8757774528703308, 0.7789686146857655, -0.34921678656830796, 0.606309331572723, -0.6424523945439649, 1.9886960412708927], "bias": 1.2375572177629004}, {"weights": [-0.1509003628229586, 0.7348405618815655, -0.49286712270555516, -0.40176064666396083, 1.0476457597196984, 0.504854907232315, -0.40013107428558714, 2.3419558623226244, 0.8322214831370655, -0.516288349531995], "bias": 0.507677825025945}], [{"weights": [0.04326289416128093, -1.0447778325817891, -1.2444537561578883, 1.7787200656746012, -0.6781256005855463, 0.5126839726945622, -1.7195776569291743, 1.6633044750676316, -0.9084458053826083, -0.787793711989514], "bias": -1.584894270223168}, {"weights": [-1.0995976556322824, 0.2068333740032301, 0.12101136990612726, 0.48075661249890334, 0.5038607581881461, -0.4342719472974893, -2.102208780747503, 1.203262098772218, 1.703770263065002, 0.4851635742661805], "bias": -0.39412274595499464}, {"weights": [1.6771195298654444, -1.041298620618761, 1.164699908649229, -0.45335874947827914, -0.34245416769830006, 1.2914530129148614, 0.9487293513643487, -0.21903690100269624, -0.1670066715411591, -0.6504484007810913], "bias": 0.04826484235610762}]], "generation": 1000}