{"score": 128760, "inputs": [1, 0, 0, 0, 0, 0, 0, 0, 0, 1, 1, 0, 0, 1, 1, 1, 1, 1, 1, 1, 1, 0, 0, 0, 0, 0, 0, 0, 0, 1, 1, 0, 0, 0, 0, 0, 0, 0, 0, 1, 1, 1, 1, 0, 0, 0, 0, 0, 0, 1, 0.48, 0.708], "layers": [[{"weights": [2.5628690090443382, 0.9912921897701722, -1.2486717684794981, -1.493710702718495, -0.11179261594275502, 0.9909552494199951, -0.948588431845648, -0.5660387929195826, -0.19136386983248754, 0.18751356675419117, 0.4238060542135889, 1.5909669032234732, 1.143664893677266, 1.9496346703587033, -0.3831447934672776, 1.3602612737031894, -0.9534496883971537, 1.5591137558866945, 0.11536889389135707, -0.07407552117154093, 0.3203142527618522, 0.5455574436703667, 1.3581973529956395, -0.6065168380603425, 0.6534716554652129, 1.5352351460220721, 0.09553342099810214, -0.5902723642430537, -1.4967798889891295, 1.5502846573532747, 0.19552749037342404, -1.1628191695969017, -0.09445638071321383, 0.1643556626965016, 1.4008541624969975, 0.7286486540878487, 0.6503352476981298, 1.5181614899928944, 0.18685609857958718, -1.2054683530348065, 0.5622473622977749, 0.9913230624618896, 1.7918216199253627, -0.16314413479480855, 1.3085540367278887, 1.752895456914883, -0.1129178394108401, -2.2069004300540502, 0.987509280276532, 0.4161283158685012, -1.5427838843695838, 0.23843367342207528], "bias": 0.9274354280394597}, {"weights": [-0.059371396957553335, -0.05888005924430195, 0.5520034696680205, 0.50527369724606, 2.8172781962060474, -0.19007150077333246, 0.21967778747018973, 0.9459403109685515, -1.9856605765055213, -2.058164421260449, 0.5846567350608022, 1.0891757746190944, 1.59896607812076, 0.46080817967181714, -0.596842740799283, -0.2516503598141252, 0.11097700597875726, -0.7305691637192119, 0.29036488984352904, 0.2674151797871501, -0.676108101541053, -0.6665524696561709, 0.11773780702264103, 0.26382216164417344, 0.2348635082992826, -0.9515862969449616, 0.6506819848794676, -0.763509986203621, 0.05747578511698337, 0.45317384798242133, 1.5133803182624612, -0.1338184696730481, -2.0323725674220547, -1.165420347352443, 0.45523945672856336, -0.8922310623811128, -1.287795724291572, -0.3927888915276996, 0.6151062016622988, 0.09902752579786689, 0.6109744726578705, -0.40315546266733904, 0.423848887227574, -0.3265637625248047, -1.2215670295285455, -0.32368212466594554, -1.9868440753842116, -0.8058463311244777, 1.9908735159600026, -1.0709251535552586, -0.5594890714834824, 0.9871089523778114], "bias": -2.046359103260733}, {"weights": [-0.2986980602494479, 1.2044523342756506, 2.271757937155748, 0.41775041541066116, -0.48493831946992494, 0.9864773552079237, 0.36231266346831925, 1.3463199554462788, 1.0548689667538005, -0.8434817683448084, 1.509020835794165, 1.4527525762925628, 0.8430707885716404, 0.014450359045369288, 0.550087679066675, -0.05720996835247283, -0.5856046129041524, 1.2711806495220794, -2.3434057967086397, -2.252891950648487, 0.009205575269245203, -2.207572984131165, 1.0795935526944715, 2.6608195169132847, 0.6492606999015418, -0.48487628380516234, 0.28038842343681847, -1.0719087681300694, -1.5926052647356705, 0.7378936111388167, 0.40581807150501803, 1.2196321950276543, 0.47642634078917434, -0.33339109813022394, -0.36105054588170116, 0.30449071988486287, 0.508557882417075, -1.1175500082724388, 1.2444015975784528, -1.578033852352886, 1.321000939031141, 0.6100022714096175, -0.7468006762522367, 0.10116795397033995, -1.0362925394097975, 0.43226143480910484, -1.6084712807676231, 0.750589563567719, 1.9768550335719517, 0.17923974080494398, 1.2731088926272713, 1.6468875805999397], "bias": 1.9701115164311327}, {"weights": [2.0054380793357174, -1.0055758362534102, -0.9281055897325743, -1.5491656871572248, -0.7505945237654437, 0.550649180705449, 1.9292486675381015, -1.1837375097630893, -0.5230285297245955, -0.13853083496254687, 1.7909679062114376, 2.6305698021394885, -0.18446609522225926, 0.12262892257244767, -0.7525255705528203, -0.6022301111879765, 2.400085445691883, -1.6052808572776702, 0.7272729402930738, -0.5537282034791375, -0.7711591023157995, 0.19664235220596704, -0.33804964202573595, -0.5865392387966455, -0.7109765390962633, -1.9964728635972362, -1.6315300451454415, -0.7587904140401998, -0.8862905680845461, -1.7319715731472671, 0.4080728928112682, 0.9162430554856088, -0.49975380899588184, -0.12172440370512816, -0.3592533171950645, -0.5360091990001025, -0.6688131536058254, 1.873611235125341, -2.167538915678919, 1.383225941522566, 1.002088112546628, 1.1481551087967525, -0.48056821432138297, -0.16147071309822203, -0.4474753896140382, -0.39411248895293155, -0.9763539673632741, -0.14366677543395806, 0.3976213731228867, 0.4553685620495423, -0.6785088292125124, -1.4162144627197726], "bias": 0.8678648403105038}, {"weights": [-2.4600337243082144, 1.9423067253983723, -0.2791319761707529, -0.4049238243544392, 0.12998783631301059, -0.803498637013285, -0.8300003662703876, 1.059485846337676, -0.9274036116978691, 0.10131951914802728, -0.9305560188521371, 0.4966706423666696, -0.21209768820839991, -1.1236966522911382, -1.4661264834248022, -1.5133894755790949, 2.2840541642188845, 0.40828128593724367, -1.2326068902993619, -2.4948069963290127, 0.18239732661527552, 0.9324531865715799, -0.900819050370931, -1.0714282470956134, 1.6370841931932396, -0.2527340740333942, 0.6059307484363791, 0.47953509636301916, -1.251780957994181, 1.4629046271247195, -2.6578745774243466, -0.7572237837608409, 1.7652617853609363, -0.19741371552502807, 0.5331960908156964, -0.11317796620148779, 1.5901467278757178, -0.4914913764906698, 1.6126152441339274, -0.5641572071583714, -0.0955668223678734, -0.5490396774975624, 0.7864468724990827, -2.390305986909117, -0.26624871693907065, 1.7125413512857868, 1.4048275868869484, -0.78599417859932, -0.2656659627911488, 0.5260739202059065, 0.09062553504011661, 0.5759826365282092], "bias": 3.014861405473681}, {"weights": [-1.0284359929188143, -0.13703456292921634, 0.4421629737374506, 0.06491539277345687, 0.6389537862545241, 0.869931881933031, 0.23872342137200225, 0.3457487307573198, 0.08303495189259957, -0.7503166281407156, 0.7445681033827656, -0.8607865920908033, 0.6883243032478386, -0.3123464148343579, -0.6055534265769291, 0.3251844594227405, -0.09168230357554663, -0.5637940682797342, -0.7979482307633168, 0.05125724434907508, -1.7940677172550483, 0.19777994518216568, 0.45486478970958694, 0.7257579633628428, -1.2139508713994744, -0.884484692364755, -0.4242915927697275, -0.6831463767682363, -0.3408637948435675, -1.5592765109703155, -0.7250474614360778, 0.6819774062015937, -1.0299435585078258, 0.4625333445747132, -1.8626246399626587, -1.0230627177311213, 0.21062738602041908, -0.021911636103714605, -1.1073324468479333, 0.38703541474810704, -0.20616501868330706, -1.3008547125376602, 0.6440233949506101, -0.06885397235053348, -0.5498603925794153, 1.5379088245469932, 1.0101267631423356, -1.0945078393803076, 0.8187819694949774, -2.299942258044529, 2.0472967705779967, 0.7166437993282956], "bias": 0.19873910855943638}, {"weights": [0.4176928835227711, 0.1887664883911433, 0.04178187969090952, 1.1313445327924603, -0.3701775036894317, 0.008746399353437795, -1.2921600181638286, 1.1519093463943442, -0.794459740519984, 0.12312426632856699, -0.5078585457134698, -1.348855103627164, -0.6021471978522647, -0.1112852798985089, -0.8241837689048575, -0.40129837344761987, -0.3997013458450077, -0.7500442320998189, -2.10635969992515, -1.0898916910260992, -1.2000522665174636, -0.9040979045899384, -0.6110116656569025, 1.196985468805672, 0.862176125594683, -1.8636664005194281, 1.3147207260342666, -0.5406433089191354, -2.4445875175208167, -1.0183485235113503, -0.685108648273475, -0.8763900258109882, 1.1504485868891463, -0.3848996910161837, 1.089708251950472, 1.7128222503649737, -0.25397615292623743, -0.1724055864580809, -0.41750804359936655, 2.2282244617416063, 0.11998102396410354, -0.829286184375826, 1.412707918427814, -1.9997715872649102, 0.698145828210939, 0.7231066164088628, -0.7555232244120098, 1.192725900093952, 0.4054410494974203, 0.9346632298849699, -1.8500063688582937, 0.7081559800653462], "bias": 0.12336063177682521}, {"weights": [0.19453003133108315, -0.9317853317240912, 0.7049370821341872, 0.19965779032725767, 0.41666800311649166, -0.1230385954190717, 0.3310110996329487, 0.7868686840654164, -0.3368030975632521, -0.2986443353615378, 0.01510001488921292, 0.15621225470421674, -2.1034671782270875, 0.5461602057731334, 0.23482787033516506, -0.551961664005022, 0.7662841600516046, 0.9136909444800803, 1.1016905754150286, 0.614293353767221, 0.293464949133708, -0.7588850357303301, -0.981727233819845, -0.010892848230044883, 0.516186271507481, -1.492391808910647, 0.025932641293594516, -0.28180097176868363, 0.4123152107692254, -1.6167209374833957, -2.4435396384928754, -0.907078277681412, -0.759278106129347, -1.849406810593429, 0.18293230884673328, -1.1263287722122368, 1.6244757156058058, -0.2919638761286818, 0.9273147345348507, 1.638097869914564, -0.18260223064030634, -1.7819522708660265, 1.2206690396485875, 0.9989622086134557, 0.5663704786116273, 0.6714984959604252, -2.58807981915805, -0.18508924079881117, 0.9782892838100172, 2.244988377400558, 1.3478921101932404, -0.018539794163113466], "bias": -2.5106030586939494}, {"weights": [0.6536692244152129, -0.9918259618951661, 0.29627161322564843, 1.4063120247806928, 0.4433385700421481, -1.4432219431951268, -0.41388837646194165, -0.6552104875679721, -0.7223001872958448, 1.4865782964353025, -0.41077643343924886, 1.705785902244573, 0.4504807801356193, 0.3266098778061829, 0.8420410902964033, -0.9949653385393105, 0.494774776943214, 1.83002502788287, -1.109414404265932, 0.5681272381933611, 0.8124744076118219, 0.7642797943387583, -0.3623664150644208, 0.49806779487851593, -0.5746885947418169, -2.2651869079286215, 0.3295871824736948, 0.6001399222381032, 1.0789786774774297, -0.273207056967134, -1.8681635758699806, 1.0655396796909713, -0.5976736995296361, -1.5993663683767858, -1.2160006177895433, -0.6814210650056318, -1.4367162510792117, -1.171845148067897, 0.3500485232853855, -0.1184882302642909, 1.1376370347529825, 0.649043065108367, 0.842834853916936, -0.3840195201513177, -0.559946057384616, 1.979783400521619, -0.4957235234623397, -0.41595628488014313, 0.4671028863019014, -0.3130744854466244, -2.858951545581789, -1.2511883629702578], "bias": 0.8557580897835848}, {"weights": [0.148437762017681, 0.20700378158872412, -0.7594594658037193, 0.44613344735957317, -1.7506926357821166, -0.6173950479081733, 0.755349979428885, -1.0349740719282539, -0.777068123345036, -0.48078110720824685, -1.8114066775097286, 1.0950792968636238, -2.134127741652943, -0.2513810292535935, -0.42968252722782435, 0.7547860581968382, -0.4938130534501687, -0.5043159018503017, 1.3869641980767153, -1.8780324643172244, -0.0370596200868516, -0.5552845922805449, 1.8869930293504205, 0.7804607461404193, -0.12441042451750195, 1.584501886446618, 0.8238611219991039, 0.7809343977557627, -0.277269333241345, 0.3875075352720475, 2.0700781792367007, -0.6905187229770271, -0.20965826628325207, -0.2710140559243906, 1.1518735869023813, -0.1126849869156164, -0.9721769617864571, -1.2321228335407342, 0.7165694606861449, -2.0533524183818876, -1.2763997388200197, -2.571669506555365, 0.9553749872539683, -0.23402309900583662, 0.12305461479606183, 1.4576293441880215, 0.8187192452185723, -1.5485864797618771, 2.1675004434170573, 0.14247145770773517, -0.5027252129244885, 0.43119541364888553], "bias": -1.6148181739396423}, {"weights": [0.9627101599899939, -1.5885037295880422, 0.4551008429587997, 1.0117246719962445, -0.8999140632343935, 0.5213280069930181, -0.031098219285167872, -0.08417519648885352, -0.9373904992414515, 0.3560333358176667, 0.8161608599513911, 0.35845368022830715, -0.729907694763013, 0.8648013672140811, -1.6400862280554995, -1.5520130634320155, 0.5978292190636307, 1.3674468063065848, 0.21717485731328035, 0.37112390257175787, -0.6295504246729304, 0.21057996256589978, 0.04133990320781433, 0.7006502152991532, 0.9275722639453343, -1.8350830153698645, -0.8441597380715282, -0.24818965301443296, 0.49073601527569205, 1.5392372606158817, -1.6941035105851454, 0.6960628660793231, 0.07347631389536236, 1.0257983877176062, -0.5193613836070615, -1.5327472140101652, -0.28982714121740805, -0.24320473620092825, -0.6132002345557949, -1.4215691142154474, -0.7129061885846754, -0.8443405075148815, -1.733480259400409, 2.7443820566978303, 0.7736848868367172, 1.6831164448743121, 0.11343453772360412, 1.0533989371159418, 0.3748225540978598, 0.4884225631653476, -0.22378815843574862, -0.10093212147287367], "bias": 0.0931653722497423}, {"weights": [-1.0559502294551169, 2.030784745841365, 0.9596575647102465, -1.2346532697477905, 2.2810044569127363, -1.1599353354190387, -0.1837048098044004, 1.7168399108263965, 0.17054138346978687, 0.9427709749895548, -0.8619709722762668, 1.018858136498139, 0.25573029298551886, 0.4121598633662802, 0.029275988929765795, 0.4090338558987793, 1.7812454865960943, -1.706266021354197, 1.2679603787361486, -0.14622547127665064, 2.1636906510469944, -0.5134041064982976, 0.5787045803495404, -2.581270756476429, 0.3710259168289727, -1.1888319895454957, 0.7643454526334066, 2.3587733109138664, 0.16145718915688034, -0.02293278616963157, -0.9531559787079539, -1.1668206022140644, 0.7917234932795272, -0.03521718124648504, 0.08516002928682265, 0.7391169020209369, 0.1737150718056223, -1.1492152152912491, 0.015965374320884462, 1.3866097435255567, -1.0111762204413468, 0.2666467887066795, -2.9537293492549948, -2.352460510509056, 1.1697464949540337, 2.0862960868511156, 0.6670802903270763, 0.6781851947520792, -0.40101869200245555, 1.4184893309541642, -0.44846191223133464, -1.0131567603130855], "bias": 0.3685498835146671}, {"weights": [-0.4379243130194593, -1.19270543127285, 1.1342981615487178, 0.4794061646720856, -0.6190112149980594, -0.09981596970864115, 0.09222786895334634, 1.0353527878015811, -0.8282355592046674, -0.33961368004901077, -1.0147048001942889, -0.640530625632889, -0.21395181183914924, 0.23343059960362095, -1.2423608839743394, -0.04479970357692653, 0.5914398563818922, -0.6882702702703417, 0.6062349094428218, 0.6288564832622123, -1.3422027746830345, 0.9871965749504354, -0.25874039730625603, 1.9835878608929014, -0.48539328883511346, 1.408995754884787, 0.9229743248581322, -0.18444069908495542, 1.5320094916328446, 0.7609252220094158, -0.9449594244138853, 0.06842141676396529, -1.1200515807013447, -0.25069079851284437, 0.5162247253702535, -1.365879894788224, 0.0673071358975279, 0.7824177940069504, 1.2474222483901571, 2.0504645496170557, -0.32495543259177906, -0.48380118333219335, -1.2973057112145594, 0.12115337917282237, -0.7104225350094635, 0.3423362228873531, 0.7314247261171679, 0.4281415950685691, 1.702903726664191, -0.8949609020131959, 0.8380257323220432, 0.4535457543288608], "bias": 0.009886260638225286}, {"weights": [1.8333901158522625, 1.3629439651764614, -0.08384098774355347, -1.0498906898021039, 0.5864949557914998, 0.9020039017550052, -0.13843947807899692, 0.9192486083704903, -2.102245318050702, -0.4282384384721323, 0.4040267786466645, 1.0063225076743771, 1.6511964571240978, 1.0343839494404896, -1.281153349530422, 0.597542639232652, 0.7968226692995756, 0.9809684880685191, -0.8446600199800083, 0.6606085845754979, 0.5367384473778077, 0.43409779348985567, -0.5935719422637531, 0.49386929325330664, -0.5860797476255616, 0.23203915121663288, 0.031136781055898233, -0.721558465083605, -0.7347592562531563, 0.16694620713757208, 0.5842226326892764, 0.4547265831897297, 0.8129372575709436, -0.5600232487358492, 1.3094374942313933, -0.9243334318144026, 0.2079473148751062, 1.5941087451854665, 1.1758765833155496, 0.7239232816544996, -0.2523259320331619, -0.5397049167428395, 1.9008895925533953, 0.521364233091571, 0.058961369508182204, -0.5087368687733765, -0.754702319326702, 2.5244471326540925, 0.2007850916282109, 0.813492645418308, -1.1697298606715238, -1.5223418170799876], "bias": -0.7007341179906451}, {"weights": [0.32777108006801936, -0.022582819927892017, -1.641873817095471, 1.4312870816476306, -0.19735464061927244, 0.25700178630057574, -0.6234521437772935, -0.6639059512388426, 0.2150250949546061, -0.8975898053213163, -0.5745633050398616, 0.7359796400817883, 0.858698631943144, -0.18540751542282496, -1.1336601934534944, -0.0777741667487718, -0.43787613445304663, -0.13561732401709514, -0.26411558527795775, -0.4639819180390276, -0.8899327256657404, 0.06436046671451101, -1.1423140821492084, 0.11253806791892113, 2.595945692949207, 2.023723896937917, 1.3389477721023693, -0.45643991832010217, -0.1490157469165584, -0.03429557003949474, -0.3161560759145865, -1.2759927746048798, -0.6432583617074353, 0.7697976555225585, -0.3548956582440691, 0.9905624192383504, -0.723258406420818, 2.8345938014240413, -0.8999319349527812, -0.9499079500608594, -0.8257074224888264, -0.9246012059198989, -0.5844560310734381, -0.9121131647278906, -0.3486513837973233, 0.4912658271148281, -1.0570274026560105, -0.5730346971549043, 0.2931747174651835, -2.994826650992164, 0.6791514749505381, -1.1449674096653726], "bias": -0.3552216427143211}, {"weights": [0.42357557718461536, 0.74290091841997, -0.40050949494156196, -0.45077893685907533, 0.9101770535677242, 1.2738895095615796, -0.3682817021931068, 2.318324129131735, 1.5546024363579547, 0.9645259018927284, -0.7401964633277425, 0.23475191675928664, -0.6778524908439424, -0.05537059567567204, -0.8379596890501628, -1.8168584510385277, -0.606924420909564, 1.2203552833661366, -0.7901163973328549, -0.562593228609702, 1.2757257716821973, 0.7012474180936853, 0.846879976543598, 1.2631879835419948, 2.1408304029019467, -2.4730574192573243, -0.25534833214267305, -0.08072887840985865, -0.07955932099802665, -0.2276650252139364, -1.5487221837827183, 1.614364568863298, 0.8555564503578228, -0.24483996341917913, 0.3777556875170803, 1.2419303788495002, -0.4265849767340055, -0.9774045499943358, -0.011448851006453487, -0.011524227016433963, -0.17318809649903544, 1.0358320726667682, -0.5519128733774702, 0.21800793132683283, -1.4818167627890655, -1.8895810643282793, -1.538370887285015, -0.16639752563824806, -0.9045969079058864, 0.20273074171224092, -1.390500316140697, -0.8786387797284818], "bias": 0.7193926501793128}, {"weights": [1.6623116343491633, -3.0445584232095566, -1.8251530196061125, 1.3164401003798432, 1.6164548241980476, 1.0225017556434206, -1.0434495242914141, 0.29791137949265123, -1.4522159600549855, -1.0357900059880811, -0.49226286401288516, 1.1836428624375657, 0.7904077881715414, 1.6929280686416295, 0.6133495544596121, -0.5590201196126424, -0.2780452534776502, -0.0765706073728078, 1.0768703081897257, -0.32701438057519927, -0.535162325542078, -0.34253214454916925, 1.1697123596610755, -1.8405949653031974, -1.8223073446842635, -0.34245248162308306, 0.4191580139340544, 0.4457485771485574, -0.2808571222896865, 0.5137405136471181, -1.9189782853610282, 0.5158692341900184, 0.9587537200859286, 1.7639535476504489, 0.7578379830267409, -0.2566810652237439, 0.9161168260243903, -0.3248627843179499, -2.3162620240369707, 1.0522609767963835, -0.03891171697387247, 0.7260037928967299, -0.7163583513358625, 1.4848859360678421, 2.6892771390386505, 0.3558762381043662, -0.2217247133674311, -0.5626456144535821, -0.27756605114261573, -1.7474177550070897, 1.2516292107532077, 0.06205250064774387], "bias": 0.8189116823155064}, {"weights": [0.2511118859151878, 1.1698415029800013, 1.5937179450410666, 0.3453560435418027, -2.581000800904024, -0.27647479635392536, 0.925270850455892, -0.7158540701770536, -0.665856911906914, 0.470552363459653, -0.8842959900015155, 0.906984080619188, -0.6931311090572287, 1.1565625566697564, 1.7247972078582785, 0.2841643331500079, -0.5070727361749903, 1.255345297331497, 0.10837103467774012, 1.3499105061404044, 2.007454137187274, -1.3319258094417856, -0.2924151314846479, 0.6148488435607838, 0.09384926157749773, -0.5405298514096959, 1.6363464960222867, 0.6143556509680217, -0.6053716903747429, 0.09656814468118513, 1.0271026130745473, 0.46912696927848574, 1.2143820062705193, 0.4416071611496913, 0.1570492964107768, -0.7054337224596892, 0.7604538453909456, -0.6161031861080712, 1.534264433247299, 0.11061673636923364, -1.4146521970443737, 0.36264914065303977, -1.744289193190186, -0.018498621441735086, 3.1458130482632294, 0.5837768068241187, 0.10699397824881052, 2.366086038445662, -0.03181046509415231, -0.40781592077017303, -1.6345788504418983, 1.165218936611067], "bias": 1.0030380548044284}, {"weights": [1.0571182826647259, 1.7166282126095853, -0.13849590636856562, 0.286604609056177, 0.10098356236335859, 0.03935424301065582, 1.4075309165815595, -0.13932921742879584, 0.10259661430607603, 1.5865440706454002, -1.6502547160106718, 1.1891578669052258, -2.21003595924881, -1.6196422584304353, -0.5959164200616951, 0.9893302856772372, -0.29758327080883384, -1.1313666245288678, 0.8642566712508587, -0.718368600710276, 0.22290568541999878, -2.1760224622397715, 1.1693812655161788, 0.47527933775226006, 1.1072624666157387, 1.3770105906937218, 1.6527519320399904, -0.13639152091715534, 0.4465819796237709, 0.7648460436660245, -0.42021815590799033, 1.3903458110075386, -0.23826138963238264, -1.1973217033976957, -1.763256755236067, -1.1827802054064591, -1.1093574238591124, 1.105176918420929, 1.3553347911355182, -0.5253960393265981, -0.34430242123276544, -0.6107245668190355, 0.6660837423604695, -0.6369958611581545, -0.4047571101273214, 0.9961940859740976, 0.4491943791510742, -0.4995182401105077, -2.5402469304957402, -1.314046320308111, -0.2835564159533275, -0.9217090761118558], "bias": -0.6394463951282161}, {"weights": [1.663419857527108, 0.4596963511108386, -0.8285749115268695, 2.010235178115143, -1.1960616142879863, 0.9139601375120725, -1.4184139072483275, 0.8723050004906983, -0.9048434513928296, -0.2551774784845502, -0.35607497550144573, 2.292294266968205, -1.6649659577903408, 0.07808344578175269, -0.3493359896924564, 0.07020782158646727, -0.8357578864204692, 1.279679851551967, 0.6212788045721405, -0.2804289414187541, 0.3967849164858224, -0.11225289531954907, -1.9744937336523667, 1.2815638358202475, -0.024682237968371268, 0.8964586248787689, -1.9262471313529057, 0.3901598334210399, 0.5729447219028857, 0.3598503138175996, 1.2663657881620454, -0.7825180118961506, -0.5436697513591047, 0.3346989590736772, 0.9029325004075569, -0.12380722842225955, -1.785300942742, 1.9165942987262725, 0.7353476136951009, 0.3768685125040495, 2.0141976757584734, 1.0311414735822826, -0.059484204072396074, 0.8142125450151453, 0.4270010240742672, 0.5315791962106036, -0.266570895102188, 1.0312075696460536, 0.6971608832922909, -0.22704621393992697, 1.298310997950839, -1.1882829326064965], "bias": -0.7171136878590252}], [{"weights": [-0.05326428610020795, 0.24253638991227489, 0.352437658611362, 0.9395300560464541, 1.8084735233227736, 0.43939224943137567, -0.8631798425879333, -1.8915310872020525, -0.3628239008571199, 0.16096709167574985, 1.6119328456953261, 1.3269413402680907, 1.8210754093881028, 0.7053826765396123, -0.8589957987570551, 0.21112666164700333, 1.0113921456298893, -2.752791212433436, 0.6441907626157533, -0.4730036635612317], "bias": 1.191810241148402}, {"weights": [0.29758653831046067, 0.13966142343695104, 0.6215366512167277, -0.07624527217453814, -1.4717232353171084, -1.0933485143374622, -0.78327223731865, -1.018299850876767, -1.3113934739883712, 1.870782310953448, 2.1974605107230687, 0.7982477711042651, 0.5915705050441771, 0.2526749824646273, 1.0175285071108586, -0.3469347621329354, -0.7730604387804728, -1.57454175800386, -0.7048897720177547, 0.06703161804594493], "bias": -0.13138709433472118}, {"weights": [0.03372633981549211, 0.18878442940016527, -0.48957547374269594, 1.300316198895083, -1.4014503681886918, -1.8175990287698094, 0.1528345333378841, -1.447974780982524, 0.3708202829502305, 1.6483500743447088, 0.4603245671121162, 0.5326610867703525, 1.122703960828562, -0.23388928064147946, -0.2632852580782261, -1.021196184616298, 0.4682939399352987, -0.861520914480897, 0.779139016917986, -0.6011445594950323], "bias": 1.0773432039808086}, {"weights": [-1.7000222100112072, 0.7800074449665376, 0.3700162331622361, -1.834467472980032, 0.3744040765374641, 0.7302166538263535, -0.12375800202706244, 3.3466192637056453, -1.5389583234679876, 0.7479151415238283, -0.4379722921376413, 0.6426966822553715, 0.7080330049758151, 1.491899895352661, -0.1421413672507068, -0.031380539533210905, -0.46676385092845774, -0.38402431213802557, -0.9324645001402885, -2.2713305038162055], "bias": 0.32932622054624894}, {"weights": [-1.570642036748202, -1.682629598922878, 0.29054434780194666, 0.7127048022780202, -0.9356444641971784, 0.7265104217522887, -0.10204279009571693, 0.25318240829551125, -0.6732795679845278, 1.311751860408205, 1.0542838049855878, -1.0095619288400783, -0.2096735353491067, -0.06363872605891197, 0.24731034946693675, -0.32397987969609143, -0.2469217748795945, 0.2456262903061281, 0.6822490403924006, -1.7661548801167326], "bias": 0.10674838809769743}, {"weights": [0.8648909256954931, 1.8295014595235637, 0.47689687826898003, 1.3486403444232058, -0.9701483850263345, -0.7422701901580528, 0.13584262590471602, 0.01388780070228357, -0.1883465473600464, -1.476558309325232, 1.2011215868745218, -0.27317103449995506, 0.40239623815796643, -1.2947204118233824, 2.8703120576012644, 1.609350725799715, 1.2944734815666694, 0.6412975693954093, 0.7271053255248512, 0.02112177799451065], "bias": -1.5797967249233436}, {"weights": [0.2979279794378232, -1.9680138604911481, -0.48075747942141056, 0.49706072495073217, 2.078420968438277, 1.1297390929524638, -0.5468371618768211, 1.1915989256112725, -0.8117677540485677, -1.068605698485028, -0.023851497903511598, 2.877103500660442, 0.33218446385236766, 0.8153307954768754, 0.4798395601226936, -1.26981430419737, -0.7559105494082239, -0.6966181430538567, -1.8275923287655673, 1.863660340712305], "bias": 0.26136440736321065}, {"weights": [0.05960902163338577, 0.7102434179611323, -2.3810992827652213, -0.083434414552502, 0.2988248069000392, 0.5982996638746777, 0.5940781603831706, 0.02597967304283244, -0.9349065603933131, -1.4925539563271815, 0.13568092179241398, 1.170057365324587, -0.9926796374865665, -0.5223475847933482, -1.4665921169145861, -0.09285671160753206, -1.0695930524406156, -1.1017894957644203, -0.2680443910313235, -1.6036668957777513], "bias": -1.3577748823138496}, {"weights": [-0.6184932527384639, -0.604010122915071, 1.9001001335857284, 1.5488736249290302, 0.6142161261819941, -0.3815941025965306, 1.994232879751126, 1.503856070040259, -0.6245675208481338, -2.2806414320336, 1.3223634935709159, -0.9472092084179179, 0.7111689555259396, -2.10599502070847, -1.871197291753476, 0.552898308439371, 0.17777164942330492, -1.8964648019973063, -2.1258909937092607, -0.16126434701368475], "bias": 0.15163386845159527}, {"weights": [-1.2587140865566186, 2.5518055282304286, -1.386995053424226, -0.5874013103473463, -0.585055922820293, 1.3211858786862654, 0.9895881246407277, -1.0448241469173682, -1.2621175353829381, -0.7334439883804765, 2.131693928069964, 1.0700759125448753, 1.6489456429063465, -1.0126265093175222, -0.7117397828939173, -0.23756959815548218, -0.6953711379951036, 0.9327883712558874, -0.24254242379930746, -2.0311604792644937], "bias": 0.4938593295980822}], [{"weights": [-1.3115712428712412, 1.1510763437004297, 0.3695696279851946, -0.30224387514521467, -1.8931802511833233, -0.1789857737524687, 1.129696202467406, 2.298775172020834, 0.6121198034332191, -1.7031347086999742], "bias": -0.046667829662710436}, {"weights": [-0.5429727490770682, -0.7112882833234955, -0.17997621011487064, 1.6046881135466378, -0.9142246963160872, 1.8822192498552845, 1.0315650275898158, -0.4725428032606258, 0.1392971355445044, 1.1282277951413815], "bias": -0.9331415672737811}, {"weights": [-0.3082473553638049, 0.6137807919541147, -0.06054999459693011, 0.06933568571273152, 0.8996408505230988, -0.4411333600693198, 0.6982564733901805, -0.6529942108557001, -0.9632951177569861, -0.8316901563627852], "bias": -0.6906650109778337}, {"weights": [-2.3069362959266853, 0.15607870290065595, -0.010845159991139386, 1.2573160010458952, 0.8819060107738838, -1.2375533591083125, 1.2099829336328354, 1.5924074855954662, -0.6443486768613449, 2.260938759091504], "bias": -0.8672714520699457}, {"weights": [-1.531310865104667, 1.5979037064055521, 0.23331261227651157, -0.50937162234677, 0.9159926022679158, -0.3537139394139532, 0.6088241700007471, 0.846266275489234, 0.5349296419692768, -0.5406039626986423], "bias": 1.9212520520673397}, {"weights": [-2.0096631815155006, 0.0813693726378506, 0.969920574266745, 0.09984059028177783, -0.8014688734598272, -1.884252715553466, -1.43463186134605, 0.5426497201325526, -2.57422631450003, 0.5761693316571538], "bias": -1.2648548783999325}, {"weights": [-1.1574714015215157, 1.0637127926289145, 1.9207448852983702, -0.3893012637655946, 1.2205062848447554, -1.0221910018953853, -1.0180873588292412, -0.6923079285516153, 1.5213824413851804, 0.643930201962889], "bias": -1.3728253420122396}, {"weights": [0.6363496508881615, -2.4997841652584403, -1.750566361745122, 0.9928833368892483, -1.8198728052003417, -0.3516984628290247, 2.454173670888181, -0.83511467998029, 0.1581995525143236, 2.145261877359455], "bias": 2.2035686529028338}, {"weights": [0.7212243351691678, 1.1204678028869128, 0.1701555400244974, 1.6333698264501906, 1.476807105026137, 0.7789686146857655, -0.34921678656830796, 0.606309331572723, -0.6652976816919369, 2.554299173868423], "bias": 0.8790791465616914}, {"weights": [-0.1509003628229586, 0.7348405618815655, 0.18648855351152532, -0.05747745176133845, 1.0476457597196984, 0.504854907232315, -0.40013107428558714, 2.0943697373271553, 0.8322214831370655, -0.516288349531995], "bias": 0.507677825025945}], [{"weights": [1.0565833848988293, -1.0447778325817891, -1.1808882828049982, 2.1218051374750955, -0.6781256005855463, 0.5126839726945622, -1.7195776569291743, 2.0707725943383943, -0.9084458053826083, -1.2387385376719264], "bias": -1.584894270223168}, {"weights": [-1.0838585433790149, -0.11975990339246068, 0.12101136990612726, 0.2072695601795697, 0.5038607581881461, -0.9193557751539994, -1.8400239657194004, 1.203262098772218, 1.342013852839369, 0.6187620441625158], "bias": -1.3474994638507651}, {"weights": [1.7901818319455103, -0.7616436682264748, 1.164699908649229, -0.45335874947827914, -1.6351242514041577, 1.2914530129148614, 0.99259937451577, 0.2113973753279077, -0.1670066715411591, -0.7747135530102787], "bias": -0.1500384367874502}]], "generation": 1000}