{"score": 128790, "inputs": [1, 0, 0, 0, 0, 0, 0, 0, 0, 1, 1, 0, 0, 1, 1, 1, 1, 1, 1, 1, 1, 0, 0, 0, 0, 0, 0, 0, 0, 1, 1, 0, 0, 0, 0, 0, 0, 0, 0, 1, 1, 1, 1, 0, 0, 0, 0, 0, 0, 1, 0.48, 0.66], "layers": [[{"weights": [2.5519534573664435, 1.165620446640395, -1.4407849158761166, -1.6984023583122447, -0.11179261594275502, 0.9909552494199951, -0.9914173338751522, -0.5660387929195826, -0.302116398382423, 0.18751356675419117, 0.4238060542135889, 1.8769348386119007, 1.143664893677266, 1.7673189844386576, -0.3831447934672776, 1.3602612737031894, -0.8802405000634068, 1.5591137558866945, -0.012486235981760518, -0.07407552117154093, 0.3203142527618522, 0.5455574436703667, 1.3581973529956395, -0.7902079070966541, 0.7392572963544428, 1.5352351460220721, 0.33475845462941595, -0.5902723642430537, -1.4967798889891295, 1.6895291571598867, 0.19552749037342404, -1.1628191695969017, -0.09445638071321383, 0.3788300993071583, 1.4008541624969975, 0.7286486540878487, 0.6503352476981298, 1.3068096434728114, -0.07913550850655854, -1.226411540587402, 0.5622473622977749, 0.8061867847365479, 1.7918216199253627, -0.16314413479480855, 1.205296366041911, 1.6746659364404062, 0.09912741410063758, -2.2069004300540502, 0.987509280276532, 0.4161283158685012, -1.5990448374960042, 0.29464341318929177], "bias": 0.9274354280394597}, {"weights": [-0.059371396957553335, -0.05888005924430195, 0.5666452563795906, 0.2749553728877362, 3.0575403546590283, -0.19007150077333246, 0.21967778747018973, 0.9459403109685515, -1.8648404269811065, -2.058164421260449, 0.5846567350608022, 1.0891757746190944, 1.6171954676328713, 0.4558258723859275, -0.596842740799283, -0.2516503598141252, 0.3456039406552697, -0.7305691637192119, 0.6980706415266611, 0.2085191789057411, -0.41779508324797704, -0.6665524696561709, 0.11773780702264103, 0.34169766220475495, 0.2348635082992826, -0.9515862969449616, 0.9409671164188382, -1.0389737163791746, 0.31374258783532466, 0.45317384798242133, 1.358203681187198, -0.1338184696730481, -2.204886454730442, -1.3244938577682022, 0.45523945672856336, -0.8922310623811128, -1.287795724291572, -0.3927888915276996, 0.589752820703202, 0.09902752579786689, 0.6788822948649307, -0.40315546266733904, 0.3407615660129487, -0.20680074581378505, -1.2215670295285455, -0.31155454150339473, -1.9868440753842116, -0.8058463311244777, 1.9908735159600026, -1.173453266499498, -0.8968249774378572, 0.9871089523778114], "bias": -2.046359103260733}, {"weights": [-0.2986980602494479, 1.2044523342756506, 2.271757937155748, 0.601651948959431, -0.39917509861430567, 0.719974563508629, 0.36231266346831925, 1.6796592559884376, 0.9558038427661202, -1.0629459833849426, 1.509020835794165, 1.1990509171511352, 0.8206210176643204, 0.014450359045369288, 0.550087679066675, -0.012862636719631337, -0.5856046129041524, 0.9948894155789092, -2.247421918933642, -2.252891950648487, -0.12859543447738184, -2.207572984131165, 1.0795935526944715, 2.7621529527536715, 0.6492606999015418, -0.3065335181205743, 0.29841791219822933, -1.0719087681300694, -1.544788142254726, 0.5822636211196562, 0.14947432151157297, 1.2196321950276543, 0.47642634078917434, -0.10705565964528835, -0.36105054588170116, 0.3736497586606846, 0.7065661536399293, -0.8828444073493882, 0.954921918103787, -1.4617387117664626, 1.594178790616558, 0.6699884151227257, -0.7468006762522367, 0.2973206071200401, -1.117133910480952, 0.3236519598739275, -1.6413274972833278, 0.8235725987774171, 1.9768550335719517, 0.26110577332877744, 1.2731088926272713, 1.7847701786510368], "bias": 1.7449729025019036}, {"weights": [2.0054380793357174, -1.0055758362534102, -0.9281055897325743, -1.5491656871572248, -0.7505945237654437, 0.7291333825335166, 1.9987823552019517, -0.9606764770536103, -0.5230285297245955, -0.13853083496254687, 2.0444858816209392, 2.6305698021394885, -0.22469647684076338, -0.06458026737289119, -0.7525255705528203, -0.6022301111879765, 2.400085445691883, -1.6052808572776702, 0.8071687230224638, -0.5537282034791375, -0.7711591023157995, 0.19664235220596704, -0.33804964202573595, -0.796782540507306, -0.7109765390962633, -2.2808937221596763, -1.158209904393258, -0.6441872411328585, -0.5936154263487652, -1.6591529533969605, 0.5969578109729081, 0.9162430554856088, -0.49975380899588184, -0.08985611063462134, -0.3592533171950645, -0.26038204726871844, -0.7142308228307022, 1.873611235125341, -2.0753832911045684, 1.6111615865183455, 1.002088112546628, 1.2364651113679015, -0.6909969898677267, -0.28490473116013987, -0.5939956519403626, -0.3220665176740745, -0.9226246031835048, -0.14366677543395806, 0.3976213731228867, 0.7430036726683761, -0.9497486378418816, -1.3781019452304508], "bias": 0.8678648403105038}, {"weights": [-2.332142648526731, 2.0784480845025857, -0.2791319761707529, -0.6037650042254912, 0.3585848285056276, -0.803498637013285, -0.7777804664317366, 1.1664563704917443, -0.9652186238267615, 0.10131951914802728, -0.9305560188521371, 0.433242375717394, -0.21209768820839991, -1.1236966522911382, -1.9061956937399973, -1.8006698969198756, 2.4717160790037136, 0.40828128593724367, -1.2326068902993619, -2.318961717888939, 0.04691783139482483, 1.076633699293089, -0.6968344286510881, -1.0714282470956134, 1.6370841931932396, -0.3166660235920843, 0.365952912067549, 0.3192774041182428, -1.323316880486154, 1.4629046271247195, -2.6578745774243466, -0.6992585131352322, 1.7652617853609363, -0.43765514806938166, 0.8221975317214676, -0.22853299440609443, 1.5901467278757178, -0.21668730641027112, 1.6126152441339274, -0.5641572071583714, 0.18851694189831808, -0.5490396774975624, 0.8579307872347646, -2.390305986909117, -0.08276065996550064, 1.978909552453105, 1.4048275868869484, -0.9697961143416904, -0.045688113687558096, 0.7523923032996429, 0.09062553504011661, 0.5759826365282092], "bias": 3.014861405473681}, {"weights": [-1.04239671104559, -0.13703456292921634, 0.2353179217851801, 0.06491539277345687, 0.5726666323647924, 1.0947203719180858, 0.23872342137200225, 0.05346040101941568, 0.5163151090666438, -0.7757387867399654, 0.7445681033827656, -0.8607865920908033, 0.9036962264170552, -0.3123464148343579, -0.6055534265769291, 0.49021339902683553, -0.09168230357554663, -0.5637940682797342, -0.7979482307633168, 0.05125724434907508, -1.7940677172550483, 0.19777994518216568, 0.45486478970958694, 0.5524243438883829, -1.2139508713994744, -0.884484692364755, -0.15467346174424523, -0.9427670777290718, -0.32850094235453714, -1.5592765109703155, -0.7250474614360778, 0.6819774062015937, -1.191239786792425, 0.4625333445747132, -1.8626246399626587, -1.0230627177311213, 0.21062738602041908, -0.021911636103714605, -1.1073324468479333, 0.47711581865458746, -0.20616501868330706, -1.2034358539571444, 0.9331284877742729, -0.06885397235053348, -0.8046414461198698, 1.6628825644360845, 1.0101267631423356, -1.0945078393803076, 0.9575537300544528, -2.0132873771090187, 2.341039613794788, 0.6980084672649041], "bias": 0.19873910855943638}, {"weights": [0.12204456925070101, 0.4655157680032234, 0.3052814086152222, 1.154148078518102, -0.14197034674942016, 0.008746399353437795, -1.273788916088603, 0.7265896584784425, -0.794459740519984, 0.12312426632856699, -0.5078585457134698, -0.9760764950476031, -0.4735012267954902, -0.020161252045935885, -0.9488293763018052, -0.1930417829613122, -0.5369926725225405, -0.584492094901628, -2.10635969992515, -1.3331661080803339, -1.448349895806085, -1.0749653878193717, -0.6110116656569025, 1.196985468805672, 1.128697232421945, -1.7634672355665106, 1.3147207260342666, -0.5406433089191354, -2.4445875175208167, -1.1230481060944277, -0.923756033251959, -1.1311889753913102, 1.3032095591234076, -0.3848996910161837, 0.9580062857416022, 1.7128222503649737, -0.4518576177962983, -0.1724055864580809, -0.44039379529640277, 1.928619449914131, 0.37302760076188457, -0.7732677717699985, 1.0664625858436243, -1.9997715872649102, 0.7172683441220882, 0.7231066164088628, -0.6451080131604385, 1.192725900093952, 0.4054410494974203, 1.0291394686517326, -1.7317713884427257, 0.7081559800653462], "bias": 0.19191463029414071}, {"weights": [-0.055531404201874635, -0.8052967004383648, 0.6663758843782843, 0.023412309445676377, 0.6473070909648668, -0.41022485209886356, 0.4879303436879609, 0.7868686840654164, -0.3368030975632521, -0.2162937661786103, 0.005518162206984534, 0.15621225470421674, -2.3200027359955535, 0.26773228333840954, 0.23482787033516506, -0.551961664005022, 0.54389934185921, 0.6221912150997322, 0.8389075399196225, 0.614293353767221, 0.2210756593295286, -0.7727303489720074, -0.9166478840304249, -0.010892848230044883, 0.3454736207452407, -1.3836294692590734, 0.025932641293594516, -0.3013268567548244, 0.4123152107692254, -1.6167209374833957, -2.4435396384928754, -0.907078277681412, -0.759278106129347, -1.7273414817188342, 0.3110987771990762, -1.224427662469169, 1.6244757156058058, -0.2919638761286818, 0.7497812483210173, 1.7029374619917208, -0.18260223064030634, -1.7819522708660265, 1.463803812705307, 0.728952264597373, 0.5663704786116273, 0.7180876790452326, -2.58807981915805, 0.10460229447608987, 0.9435000336148022, 2.244988377400558, 1.3478921101932404, -0.018539794163113466], "bias": -2.6383960121285925}, {"weights": [0.6536692244152129, -0.9918259618951661, 0.29627161322564843, 1.6680658879252996, 0.4222718726620246, -1.437990304440227, -0.41388837646194165, -0.6552104875679721, -0.8302389018177447, 1.381940150512787, -0.41077643343924886, 1.705785902244573, 0.3590938289307586, 0.3266098778061829, 0.7830821399576606, -1.1267853873329803, 0.22774250685517733, 1.83002502788287, -1.109414404265932, 0.5681272381933611, 0.5917541021914279, 0.760654182428012, -0.2895641748892873, 0.48492959489776244, -0.5746885947418169, -2.4708192158443576, 0.4421469416130743, 0.6691115154371182, 1.0789786774774297, 0.037497253700746525, -2.0871558286208876, 1.2826169803331597, -0.5976736995296361, -1.6890609238393386, -1.2160006177895433, -0.6814210650056318, -1.3342771272508285, -1.0154231483472245, 0.3500485232853855, -0.1184882302642909, 1.3843525891302078, 0.29970298239754206, 1.0982795275761126, -0.3840195201513177, -0.6035272599135457, 2.1936526199862487, -0.4957235234623397, -0.23110832937090842, 0.4671028863019014, -0.0456531873889775, -2.8908290998804445, -1.2511883629702578], "bias": 0.8557580897835848}, {"weights": [0.148437762017681, 0.08870162854366806, -0.9515008706560324, 0.4004615466730115, -1.7506926357821166, -0.9043853420151313, 0.755349979428885, -1.0349740719282539, -0.777068123345036, -0.4902148520778199, -1.8114066775097286, 1.2684081665033309, -1.8901562397801097, -0.2513810292535935, -0.6312095792008717, 0.7756713377541102, -0.540920034942266, -0.6610151359003323, 1.3869641980767153, -1.8780324643172244, -0.0370596200868516, -0.34018498807930647, 1.7014859508014937, 0.7804607461404193, -0.12441042451750195, 1.7583188813461206, 0.8571938341247526, 0.7809343977557627, -0.3192493149546375, 0.3875075352720475, 1.8358029242270832, -0.6905187229770271, -0.350154586051617, -0.17003899241526993, 0.9972029331091053, -0.13312875189682694, -0.9721769617864571, -1.2321228335407342, 0.5870884617132189, -2.103537466839509, -1.2763997388200197, -2.571669506555365, 0.9553749872539683, 0.052999150957855734, 0.030821409939737088, 1.5327402677645119, 0.6845453458419868, -1.3628937058814339, 1.9641367297349805, 0.012442247902071796, -0.5027252129244885, 0.46237022822788976], "bias": -1.6148181739396423}, {"weights": [0.9627101599899939, -1.5885037295880422, 0.2542726959125491, 0.949283909615384, -1.1002006603484986, 0.5213280069930181, -0.007351588450472457, 0.19362624802537537, -0.9373904992414515, 0.3560333358176667, 0.669806202392346, 0.38074747822844146, -0.5496825873719111, 0.4111396323515107, -1.6400862280554995, -1.3517631667461187, 0.5978292190636307, 1.4674113069577701, -0.1542149764933359, 0.37112390257175787, -0.7002539737427483, 0.14119491230041295, 0.04133990320781433, 0.8500744478066267, 1.102136953720305, -1.8350830153698645, -0.8441597380715282, -0.3340827173087533, 0.5901258852352615, 1.277461475251688, -1.6941035105851454, 0.6960628660793231, 0.07347631389536236, 1.0257983877176062, -0.5427348906055482, -1.5327472140101652, -0.28982714121740805, -0.1660461583912904, -0.6132002345557949, -1.3118628389790943, -0.7129061885846754, -0.8443405075148815, -1.8476937806794906, 2.998275646210906, 0.876122735834455, 1.9205758920786171, 0.11343453772360412, 0.9549657413835305, 0.2616750181708011, 0.7481372765996717, -0.023475465554389785, -0.37081558130308906], "bias": 0.3258164337995772}, {"weights": [-0.8648080847958783, 2.030784745841365, 0.9596575647102465, -1.2067476099265788, 2.0680519023297226, -1.018814043593355, -0.1837048098044004, 1.6281882688316076, 0.4262417047615011, 0.9427709749895548, -0.8619709722762668, 1.018858136498139, 0.25573029298551886, 0.4121598633662802, 0.029275988929765795, 0.4090338558987793, 1.708479369019546, -1.7686425166641848, 1.2679603787361486, -0.14622547127665064, 2.1206913188980616, -0.36789335682968777, 0.7332724337558468, -2.7140222799929754, 0.3710259168289727, -1.3091783790462173, 0.7643454526334066, 2.3587733109138664, 0.35887709625383013, -0.13419526194515596, -0.9531559787079539, -0.9915523315947858, 0.5770979149292934, -0.03521718124648504, 0.08516002928682265, 0.7391169020209369, 0.3249378152151852, -1.1492152152912491, 0.015965374320884462, 1.3866097435255567, -0.7121923413283151, 0.2666467887066795, -2.7208652102204915, -2.6411973405168307, 1.1417402141931214, 2.0862960868511156, 0.6739524621969539, 0.41395346247308973, -0.40101869200245555, 1.518665421619463, -0.44846191223133464, -0.8174736144922264], "bias": 0.3685498835146671}, {"weights": [-0.6413633305593847, -1.1470716046006426, 0.9421779490649075, 0.4794061646720856, -0.6268112613647255, -0.12907182636868159, 0.09222786895334634, 1.0353527878015811, -1.122001252370282, -0.33961368004901077, -0.5123584327210045, -0.640530625632889, -0.4859374880083988, 0.35062327034986907, -1.2423608839743394, -0.15456511138606543, 0.5914398563818922, -0.8084631170719316, 0.45368894723006625, 0.8391769842784371, -1.526654992327562, 0.9871965749504354, -0.007349132697863636, 1.6097159520269315, -0.48539328883511346, 1.408995754884787, 1.0900266373152308, -0.18444069908495542, 1.8088633252355557, 1.0457160388487643, -0.7867526614539043, -0.28330568248194976, -1.1447796501900755, -0.03912743920874778, 0.5465164151141582, -1.6317796453177118, 0.0673071358975279, 0.7824177940069504, 1.2474222483901571, 2.0504645496170557, -0.32495543259177906, -0.2784123973091582, -1.0509777428116835, -0.13495095213742103, -0.7693389173905525, 0.3423362228873531, 0.7766488975994482, 0.4281415950685691, 1.702903726664191, -1.0860119816396667, 0.8380257323220432, 0.3356735708814157], "bias": 0.009886260638225286}, {"weights": [1.8959176244726508, 1.3629439651764614, 0.17408568799340673, -1.0498906898021039, 0.4008643183469194, 0.9020039017550052, -0.13843947807899692, 1.0122436656478118, -2.3743796445646246, -0.6233694088120445, 0.263546828991951, 1.1749194288240798, 1.6511964571240978, 1.0813398110255128, -1.2272537701791317, 0.36721419666628863, 0.8445856822677896, 1.1837618271045764, -0.8446600199800083, 0.6606085845754979, 0.5367384473778077, 0.5400602389287495, -0.6638956125483125, 0.5245997783278722, -0.5860797476255616, 0.23203915121663288, 0.031136781055898233, -0.721558465083605, -0.8721301210546847, 0.16694620713757208, 0.5842226326892764, 0.4547265831897297, 0.8794161489054457, -0.7858448249281111, 1.3094374942313933, -0.9243334318144026, 0.4992747486294576, 1.6654362814673789, 0.7500523173783722, 0.7239232816544996, -0.2523259320331619, -0.5397049167428395, 1.6747547476312632, 0.2331456327607589, 0.058961369508182204, -0.5087368687733765, -0.7654673960009775, 2.5244471326540925, 0.2007850916282109, 0.813492645418308, -1.1146804020323755, -1.4244394688609714], "bias": -0.2760026857181665}, {"weights": [0.32777108006801936, -0.022582819927892017, -1.7658778714787848, 1.5708248354022816, -0.23985810796713586, 0.2615755323289602, -0.48287777073341964, -0.6639059512388426, 0.2150250949546061, -0.8975898053213163, -0.6316257853123386, 0.543827582411299, 0.858698631943144, -0.28349614422271596, -1.1336601934534944, -0.2553033349547657, -0.1991870776262234, -0.13561732401709514, -0.26411558527795775, -0.4639819180390276, -1.0835439249701597, 0.06436046671451101, -1.1423140821492084, 0.11253806791892113, 2.595945692949207, 1.9678949684206346, 1.4975922851588903, -0.45643991832010217, 0.06604798249843297, -0.03429557003949474, -0.5495249569459322, -1.2759927746048798, -0.6432583617074353, 0.7697976555225585, -0.20988176669151115, 0.9905624192383504, -0.723258406420818, 2.8345938014240413, -0.8999319349527812, -0.732072193444236, -0.8503586442543883, -0.8807064596819151, -0.8539806359545964, -0.9121131647278906, -0.3731169810178513, 0.7580095963472702, -0.7253749860294723, -0.5016021927628116, 0.5469851750367571, -2.9565493135216006, 0.6791514749505381, -0.8556398051405547], "bias": -0.4521276923797103}, {"weights": [0.42357557718461536, 0.74290091841997, -0.4539170427312744, -0.45077893685907533, 1.1347640025216679, 1.2738895095615796, -0.7343785210443051, 2.424901220609967, 1.4699274706384438, 0.9738528356458472, -0.7198416475327869, 0.19466601039011922, -0.6778524908439424, -0.03172777340403288, -0.8385295530247832, -1.876549392855626, -0.606924420909564, 1.2203552833661366, -0.8117043488201425, -0.5770318859921522, 1.2757257716821973, 0.9094080742661028, 0.9182746274519537, 1.2631879835419948, 2.1408304029019467, -2.4730574192573243, -0.25534833214267305, -0.08072887840985865, 0.17075334609452747, -0.2276650252139364, -1.5487221837827183, 1.614364568863298, 0.5651380950060528, -0.37872123153026926, 0.3777556875170803, 1.2419303788495002, -0.18261646744755483, -1.0543934607777414, -0.011448851006453487, -0.2772198083629383, -0.2560879526451454, 1.0358320726667682, -0.8073008018465919, 0.21800793132683283, -1.4818167627890655, -1.6827431820188017, -1.538370887285015, -0.16639752563824806, -1.1335822660794637, 0.20273074171224092, -1.4148965790981656, -0.9618052347383058], "bias": 0.8422412527911658}, {"weights": [1.7292359512874629, -3.02619920164483, -1.8251530196061125, 1.3164401003798432, 1.6164548241980476, 1.0225017556434206, -1.0434495242914141, 0.34564500377324126, -1.4522159600549855, -1.0121410196701417, -0.507518033345315, 1.1836428624375657, 0.7904077881715414, 1.5135204341803137, 0.6076582798244194, -0.5590201196126424, -0.07065566414416297, -0.0765706073728078, 1.0768703081897257, -0.039423458490660035, -0.48951869175003604, -0.5468624645923864, 1.1697123596610755, -1.7606407907764159, -1.8223073446842635, -0.18036475504692967, 0.49513167658622326, 0.4457485771485574, -0.2808571222896865, 0.5137405136471181, -1.7920073734308066, 0.3132043940990852, 0.9587537200859286, 1.4858030881792537, 0.558125700950451, -0.4224602917864909, 1.066311730183445, -0.3248627843179499, -2.3162620240369707, 1.300868673289654, -0.03891171697387247, 0.7260037928967299, -0.7163583513358625, 1.4848859360678421, 2.6892771390386505, 0.3558762381043662, -0.44952141495426867, -0.5744875039502513, -0.27756605114261573, -1.8764199969454194, 1.2516292107532077, -0.06470865234819134], "bias": 1.0348445648049398}, {"weights": [0.2511118859151878, 1.1698415029800013, 1.86255148811274, 0.3453560435418027, -2.828290580555258, -0.5759882619071628, 0.925270850455892, -0.7158540701770536, -0.9559644778614839, 0.4359975070071809, -1.073219465799938, 0.906984080619188, -0.7170125163134182, 0.9715238729364208, 1.7247972078582785, 0.2841643331500079, -0.5051065957578343, 1.255345297331497, 0.10837103467774012, 1.1224301369104133, 2.007454137187274, -1.2737615788820786, -0.2924151314846479, 0.42143841442015484, -0.06900798095426988, -0.5405298514096959, 1.4712882564657659, 0.6143556509680217, -0.6053716903747429, 0.27707767052639365, 0.8273548622519078, 0.18051006809501113, 1.2143820062705193, 0.4416071611496913, 0.33180374427067794, -0.7184821218383427, 0.7604538453909456, -0.6161031861080712, 1.7111230522663867, -0.11054877950374947, -1.4146521970443737, 0.36264914065303977, -1.744289193190186, -0.018498621441735086, 3.07220756841035, 0.06873111353022254, 0.09415170923345265, 2.277308346444869, 0.07767950350353542, -0.18929438623090317, -1.6345788504418983, 1.165218936611067], "bias": 0.7358371882350365}, {"weights": [1.0571182826647259, 1.7166282126095853, -0.23503404789949287, 0.11619850579751895, 0.10098356236335859, 0.06423475837141321, 1.154714359733544, -0.13932921742879584, 0.10259661430607603, 1.5865440706454002, -1.8793817588654416, 1.1891578669052258, -2.21003595924881, -1.7307285335187579, -0.5959164200616951, 0.9893302856772372, -0.29758327080883384, -0.9287351703567579, 1.0024805353222799, -0.5116508458386506, 0.2727035896794959, -2.1760224622397715, 1.1693812655161788, 0.23366453814376598, 1.1072624666157387, 1.181208237380209, 1.6527519320399904, -0.13639152091715534, 0.6183357697682282, 0.7648460436660245, -0.42021815590799033, 1.3903458110075386, -0.23826138963238264, -0.9840965130550778, -1.763256755236067, -1.1827802054064591, -1.1093574238591124, 0.8534843591440677, 1.3553347911355182, -0.5253960393265981, -0.34430242123276544, -0.42204733686152857, 0.9199319256293175, -0.6369958611581545, -0.4047571101273214, 0.9961940859740976, 0.4491943791510742, -0.2608847357687581, -2.5402469304957402, -1.314046320308111, -0.2835564159533275, -0.9217090761118558], "bias": -0.42026682663376475}, {"weights": [1.8550655610091575, 0.4596963511108386, -0.8285749115268695, 2.2019107570289425, -0.9963961043519736, 0.6898234244666448, -1.4184139072483275, 0.8723050004906983, -1.0073723461582271, -0.2551774784845502, -0.1486149139107898, 2.292294266968205, -1.6914338879998991, 0.304334717817476, -0.5270759641572067, 0.07020782158646727, -0.8705740921372673, 1.279679851551967, 0.3251271691471332, -0.4486085602039338, 0.6355462776223282, -0.11225289531954907, -2.072560268314328, 1.2815638358202475, 0.214887242412519, 1.187891046969198, -1.9262471313529057, 0.5217239419516229, 0.5130456493449587, 0.40316247493569407, 1.2663657881620454, -0.7825180118961506, -0.49586622259783364, 0.16326161917781726, 0.9029325004075569, 0.10436857900633606, -1.551115282417724, 1.9165942987262725, 0.9323387940993986, 0.3768685125040495, 1.7331896073583124, 1.0311414735822826, -0.059484204072396074, 0.6923811586943037, 0.3051075598133225, 0.5907670761318947, -0.266570895102188, 0.8551910369089419, 0.6343339590818962, -0.22704621393992697, 1.298310997950839, -1.1882829326064965], "bias": -0.7171136878590252}], [{"weights": [-0.05326428610020795, 0.4547602938506779, 0.19881354796368955, 0.9395300560464541, 1.546212249554611, 0.43939224943137567, -0.8631798425879333, -1.8915310872020525, -0.5647001210877998, 0.02525451714374996, 1.6119328456953261, 1.3269413402680907, 2.070110577769755, 0.4618020403527679, -0.8589957987570551, 0.21112666164700333, 1.0113921456298893, -2.752791212433436, 0.5354094997267835, -0.7047120944057341], "bias": 1.3707667207172376}, {"weights": [0.29758653831046067, 0.049119966537854665, 0.5150233390114444, -0.07624527217453814, -1.5082741745940127, -1.0933485143374622, -0.78327223731865, -1.018299850876767, -1.0377814004098407, 2.1345467609583544, 2.1974605107230687, 0.7982477711042651, 0.5915705050441771, 0.2526749824646273, 1.0175285071108586, -0.11857294126221246, -0.5475357707439759, -1.579731410297094, -0.6993082522530976, 0.06703161804594493], "bias": -0.13138709433472118}, {"weights": [0.25737321047413614, 0.1150862335816723, -0.21990708541215992, 1.0035628912125822, -1.2037591728605275, -1.8175990287698094, -0.03790108268347464, -1.447974780982524, 0.18467088030903045, 1.6483500743447088, 0.5986459623893289, 0.3711448502001774, 1.0369139699964545, -0.23388928064147946, -0.2201595233887248, -0.9295052270770542, 0.4682939399352987, -1.1134696177446384, 0.779139016917986, -0.8981265135109331], "bias": 1.0773432039808086}, {"weights": [-1.7568945132740699, 0.8537017256303265, 0.33026573024321776, -1.7289794972436319, 0.3744040765374641, 0.7902714460359559, -0.12375800202706244, 3.1095219773692047, -1.6835469129432352, 0.7479151415238283, -0.4379722921376413, 0.6426966822553715, 0.8635073246976352, 1.491899895352661, 0.04361812551268557, -0.031380539533210905, -0.6399517368875225, -0.5878820522388317, -1.1595803314318698, -2.4817502661385427], "bias": 0.32932622054624894}, {"weights": [-1.6811095882077567, -1.3844902820346108, 0.29054434780194666, 0.502391511937107, -0.9356444641971784, 0.4602969930431053, -0.10204279009571693, 0.48457688416546674, -0.47875779672871294, 1.0613363658828148, 1.0542838049855878, -1.0095619288400783, -0.46480558663380306, -0.06363872605891197, 0.24051446482535355, -0.6098062163087424, -0.4923605792170672, 0.14056781207299088, 0.7787694852525509, -1.7661548801167326], "bias": 0.34534371789159113}, {"weights": [1.0417205566060392, 1.900398854265089, 0.47689687826898003, 1.341184057779404, -0.7574318430052303, -0.7422701901580528, 0.03844859116887847, 0.51456844734639, -0.14802018915036375, -1.476558309325232, 1.1831572117565052, -0.27317103449995506, 0.40239623815796643, -1.5619191952665246, 2.8703120576012644, 1.609350725799715, 1.3849127576096558, 0.798832897117379, 0.7271053255248512, 0.02112177799451065], "bias": -1.6128739239883871}, {"weights": [0.5027420125558425, -2.0603164557886995, -0.48075747942141056, 0.28213595884959974, 2.002876840525819, 1.0916427915605273, -0.5468371618768211, 1.4553484671883923, -0.6099947806928747, -1.068605698485028, -0.08392640783507166, 2.7795096090223033, 0.33218446385236766, 0.5565212125337375, 0.4798395601226936, -1.4578371732829416, -0.7559105494082239, -0.5956291968467252, -1.8275923287655673, 1.863660340712305], "bias": 0.26136440736321065}, {"weights": [0.10594331204605933, 0.7102434179611323, -1.9967015881759949, 0.0872138755821193, 0.2988248069000392, 0.5982996638746777, 0.5267849941974441, 0.2903714094970769, -0.9349065603933131, -1.648424145422721, 0.12881467784375322, 1.170057365324587, -0.9926796374865665, -0.40053637318143154, -1.5003458629732511, -0.09285671160753206, -1.0695930524406156, -1.0702508805819875, -0.2680443910313235, -1.462136373710901], "bias": -1.0624099877421953}, {"weights": [-0.5083015633941013, -0.5255810763611779, 2.046588379101604, 1.825332148142293, 0.6142161261819941, -0.29653504211413845, 1.994232879751126, 1.7218099246719087, -0.6533773014083453, -2.2806414320336, 1.3223634935709159, -0.9472092084179179, 0.7111689555259396, -2.393401790563449, -1.6316048608742255, 0.552898308439371, 0.17777164942330492, -1.8964648019973063, -2.1258909937092607, -0.2654581735229212], "bias": 0.18465224675475767}, {"weights": [-1.2587140865566186, 2.5518055282304286, -1.386995053424226, -0.5874013103473463, -0.585055922820293, 1.0438810546051276, 0.9895881246407277, -0.8727720670583718, -1.5572737334979285, -0.5865045549031571, 2.3200077839487125, 1.0700759125448753, 1.9560215726917756, -1.120695851164007, -0.7117397828939173, -0.23756959815548218, -0.6470157817322921, 0.9327883712558874, -0.18153366907464696, -2.0311604792644937], "bias": 0.4938593295980822}], [{"weights": [-1.419203724436516, 1.1510763437004297, 0.3695696279851946, -0.5160622803114754, -1.8931802511833233, 0.09572811059729042, 0.8990438246371165, 2.298775172020834, 0.6121198034332191, -1.7031347086999742], "bias": -0.15417746537761923}, {"weights": [-0.5429727490770682, -0.8390963649696335, -0.3922824830629981, 1.8878090181630058, -0.7744754677394616, 1.8822192498552845, 1.0315650275898158, -0.4725428032606258, 0.1392971355445044, 1.2359969288159327], "bias": -0.8443749571664879}, {"weights": [-0.2408035494826446, 0.6137807919541147, -0.06054999459693011, 0.3394030687514718, 0.7343546471599371, -0.5573805803701425, 0.6982564733901805, -0.8911454541863152, -0.9632951177569861, -0.8316901563627852], "bias": -0.6906650109778337}, {"weights": [-2.3444498283558186, 0.15607870290065595, -0.010845159991139386, 1.2573160010458952, 0.8819060107738838, -1.2375533591083125, 1.063510412812513, 1.5924074855954662, -0.6443486768613449, 2.260938759091504], "bias": -1.1798809163136574}, {"weights": [-1.531310865104667, 1.2181499199859298, 0.23331261227651157, -0.50937162234677, 0.9159926022679158, -0.3537139394139532, 0.7973679014552508, 0.9815899164873422, 0.5349296419692768, -0.6128251488177934], "bias": 1.9212520520673397}, {"weights": [-2.0096631815155006, -0.20410958270058116, 0.9376395314141233, 0.06296797998097503, -0.8014688734598272, -1.7967070056658583, -1.1586764325797125, 0.5426497201325526, -2.57422631450003, 0.5761693316571538], "bias": -1.2648548783999325}, {"weights": [-1.1574714015215157, 1.0637127926289145, 1.9825526893421066, -0.20390266907500365, 1.1850541093823908, -1.0221910018953853, -1.0180873588292412, -0.6923079285516153, 1.7641867268254428, 0.643930201962889], "bias": -1.3728253420122396}, {"weights": [0.6363496508881615, -2.4997841652584403, -1.750566361745122, 0.9928833368892483, -2.0212231940219603, -0.3516984628290247, 2.454173670888181, -0.83511467998029, 0.1581995525143236, 2.145261877359455], "bias": 2.0405069654511347}, {"weights": [0.7212243351691678, 0.9634402169594181, 0.1701555400244974, 1.8112958579971452, 1.6232643115523335, 0.6013953331725295, -0.552097382296802, 0.606309331572723, -0.6652976816919369, 2.8199025243669618], "bias": 0.8235213256280507}, {"weights": [-0.4167948726468472, 0.7348405618815655, 0.18648855351152532, -0.05747745176133845, 1.0476457597196984, 0.504854907232315, -0.40013107428558714, 1.9836388788437285, 0.8322214831370655, -0.6715743450462875], "bias": 0.507677825025945}], [{"weights": [0.7673755106568894, -1.0447778325817891, -1.1808882828049982, 2.1781781630922117, -0.5654390127629011, 0.5126839726945622, -1.7195776569291743, 2.0707725943383943, -1.1934912051802746, -1.3671240164675553], "bias": -1.584894270223168}, {"weights": [-1.0838585433790149, -0.11975990339246068, 0.12101136990612726, 0.18907190444587918, 0.2679497829957097, -1.0847110067099284, -1.8400239657194004, 1.203262098772218, 1.4047691231217425, 0.34770980892311776], "bias": -1.3474994638507651}, {"weights": [1.8077694470544086, -0.9399236658329662, 1.042537287795442, -0.690285673406714, -1.470780785624034, 1.2914530129148614, 0.99259937451577, 0.33508342428846466, -0.223144640053607, -0.7747135530102787], "bias": -0.025956542639393287}]], "generation": 1000}