{"score": 128934, "inputs": [1, 0, 0, 0, 0, 0, 0, 0, 0, 1, 1, 0, 0, 1, 1, 1, 1, 1, 1, 1, 1, 0, 0, 0, 0, 0, 0, 0, 0, 1, 1, 0, 0, 0, 0, 0, 0, 0, 0, 1, 1, 1, 1, 0, 0, 0, 0, 0, 0, 1, 0.48, 0.372], "layers": [[{"weights": [2.793188803956042, 0.4066376216343658, -1.358265743304126, -1.7910521103866666, -0.35901039893196185, 0.7265592098202215, -0.9815087838901249, -1.1688911007916865, -0.3983948605441999, 0.8549122118541067, 0.016192801926021072, 0.9976536579585059, 1.9131659562022278, 2.3984545200024416, -0.1919635123032219, 1.72226731498714, -0.7197708823409068, 2.0044333864452555, -0.3215396432264691, 0.5815709418255783, 0.4080376347473369, 0.6265866888119095, 1.65016599385843, -0.7121116887435037, 1.168427516136762, 0.9346157816861862, -0.12806718548542828, -0.3735078041553555, -1.3425133315134368, 1.3021803929757283, 0.5205459999744078, -1.5261443063789557, 0.32426975811939657, 0.8611727380366627, 1.9344928216264305, 1.515699941238976, 0.2856482250516929, 1.2059271069358404, 0.11321538149353269, -1.246566306769432, 0.13002071391253953, 0.3346961040450165, 0.9013298716517364, -0.0878393257970439, 1.1545244619678667, 1.5767095252535201, 0.027681459687891513, -2.3694900713243503, 0.8433270790700178, 0.2987066316715466, -1.5427838843695838, 0.6348286453759968], "bias": 1.6330904466871088}, {"weights": [0.043965830189808486, -0.20919217175487886, 0.6813753129446959, 0.5705870175370978, 2.9668417007316377, -0.10179286420666533, -0.5419921321928247, 0.5048070602718495, -2.2808576610694797, -2.2690209429549952, 0.6529065390156831, 0.6933757385212233, 1.9457653263653374, 0.7329207076795673, -1.3178678740061234, -0.4615309169843595, 0.4570634116048926, -0.7478182908239701, 0.3527522880713496, 0.5760950769361162, -0.4517016624136594, -1.0255337414484529, 0.32374369739992614, 0.9620894155378896, 0.31842700011601655, -1.1239362130394215, 0.62333790053769, -1.3175612693047665, 0.10588590228933842, 0.6054768360337115, 1.6328426845601391, 0.22133128220158416, -2.2825189018410588, -0.5061746175870205, 0.763414676233975, -1.642535906867442, -1.0638974514956847, -0.5760824306879585, 0.06627138417616657, -0.012431926558963219, 0.6659767157786223, -0.0463542181063995, 0.5988797236553938, -1.019358092576894, -1.3654721357554098, 0.48657101548594284, -1.5454925611021344, -0.7144048356513859, 1.9384288961752705, -0.9620798245733, -0.6095194297318945, 1.38051856623197], "bias": -2.0633105798348135}, {"weights": [-0.9281223463370106, 0.9497281226342638, 3.1256039224823726, 0.7153274748697245, -0.7394932808802996, 0.6449567599201647, 0.8574044667529022, 1.3056899274628577, 1.2281118461015645, -1.4752775105671998, 1.1020301548583036, 1.4527525762925628, 1.0720353043542639, 0.16247650389695104, 0.49458642677575054, -0.027502679848557643, -0.6337116754673227, 1.3722408876643417, -2.030345233635736, -2.1983142652643326, 0.15393837138759975, -2.0597990856614103, 0.8812605228895645, 1.7094842405549557, 0.487455686520766, -0.45348042926039317, 1.02872158826959, -1.1389720128477672, -2.027531744341174, 0.9744397897817573, 0.9002066995107912, 1.4280366987363218, 0.8637690318283207, -1.0249667115392505, -0.4821882341704662, 0.8350093922815746, 0.3824666450650123, -0.29655226535984064, 0.6958640943695955, -1.8660788024560417, 1.5645209047090782, 0.5586209605059668, -0.6642018256862372, -0.06310959770138169, -1.319381446971562, -0.06934943424061774, -1.5843825730108283, 0.5851936431628366, 1.3188571444600121, 0.5461732189153738, 1.479872420941423, 2.144609240266388], "bias": 1.8533031560184872}, {"weights": [1.4612985973537171, -0.6471687491388949, -0.42319288919625353, -1.6687822104744243, -0.5701442394664558, 0.8233077880002158, 2.1126914911833214, -1.1996421585806056, -0.752404199706902, 0.057351555607850324, 1.7854642447791187, 2.567097906372697, 0.15452715671251457, -0.18179288482118136, -1.3544583328218305, -0.22033450645890995, 2.986478556572213, -1.5117370492569433, 0.7638100078922364, -0.2825343600641953, -0.8501688343483322, -0.02996145485151605, -0.27734770047148793, 0.5846238526650831, -0.7261570132439783, -2.3444371998076923, -1.8703299373239082, -1.0975707854011587, -0.16674896157222657, -2.0625109688667074, 0.6353414084498673, 0.6529100570914362, -0.514191565018584, 0.3555257928839205, 0.29237547194908814, -1.0118299788992244, -0.9649398848842312, 2.2253977012524597, -1.9859097722334818, 1.3792138667600995, 1.0960424313894195, 2.0275418827830984, -1.1764425462886205, 0.08456095068925568, -0.6300455255109205, -1.1054879576868846, -0.7971042493994982, -0.6629028080956993, 0.6231601982644813, 0.6118144186926782, -1.112115669965214, -1.7386927972727577], "bias": 0.6712614765796594}, {"weights": [-2.389158746956363, 2.1837248854261846, 0.411438055097357, -0.45916710112130565, 0.5223348481268715, -0.6373209545795264, -0.37728735750999803, 0.8586422065220194, -0.5204603379662438, 0.08231711819983356, -1.3038514093957312, 0.5390595554981401, -0.7953748944730689, -1.3775653555877492, -2.284144127083587, -1.5478815791397549, 1.5611353720752177, 0.4505832050506091, -1.0731153077315003, -2.5789772664334545, -0.1392612101618533, 0.9273350930004056, -1.321036215425151, -1.1301545572935003, 1.6097499716772543, -0.3045595820790436, 0.24326090982196258, 0.3796416705528849, -0.8150179781664681, 2.0917628712182017, -3.0879488546673493, -1.4604507720819482, 2.032882850046327, 0.1685782033354462, 0.5988115700147552, -0.22829174904206023, 1.1479954526133693, -0.10711699589062837, 1.9433600971850573, -0.3422321615969268, 0.3050603918364439, -0.6160546712849313, 0.6654077074886021, -1.8533075826267753, 0.04685739993833443, 2.262584049967069, 1.606886810538814, -0.6884257164579366, -0.23846745557263488, 0.40247128656521614, 0.23475341325481458, 1.3028834992822773], "bias": 3.3682751559693793}, {"weights": [-1.1122705126956538, 0.00698581261826714, 0.3538867788824431, 0.2755127215561831, 1.235960458664768, 0.22119079982833867, 0.8491987674524394, -0.14811674078032824, 0.23527187987141532, -0.14336916427508828, 1.1139464493380626, -1.2460640007628383, -0.049299417150167196, -0.029558704897476973, -0.2633405945492863, -0.5964755008725562, -0.09168230357554663, -0.5905152270134238, -0.5963604088228482, -0.07687451477462853, -1.3046447515619688, 0.5996662681424139, 0.614370222418422, 0.06494558591074512, -1.2172169401700033, -1.1859225662245496, -0.11810633614765625, -0.46283636751802026, 0.17167958583520881, -1.6594555130108506, -0.5499311074151372, 0.5373072581098999, -1.1351338958275239, 0.685784321865188, -2.3785194688449636, -0.9143645011480814, 0.20200502920919816, 0.678957821958236, -1.413988047809847, 0.6699822594830137, 0.012069354116291536, -1.5384578922184486, 0.9777452289228119, 0.047332252922016316, -1.1431121153909019, 1.1535372494735847, 1.0935917326423847, -1.18533994017166, 1.0128653508438985, -2.26658739480146, 2.0655571066512075, 1.3872713531958611], "bias": 0.16054719047686244}, {"weights": [1.129305334986142, 0.5199218222025034, -0.04391983062827501, 0.8904366483990882, -0.28589247593479267, 0.016079115925066778, -0.8995318694331963, 1.4452339309494566, -1.0708927953367149, 0.038166746205809426, -0.6502942708704789, -1.215678421569027, -0.6620000698862922, 0.39073828240416314, -1.252970545838927, -0.37630315827331634, -1.5156098942801943, -0.41986592911744225, -2.375292316267973, -1.3671503565989829, -1.605352696824074, -0.6385681356891995, -0.6724802448515541, 0.7355706284242355, 1.1876210744294373, -2.396580274766594, 1.3984036952141952, -0.6952481197438161, -3.0681444447684494, -0.3702025410016699, -0.36760706916540886, -0.8774516180174801, 1.9396566871882026, -0.05736997214585304, 1.1369934981083505, 2.043253597842014, -0.5070504049335071, -0.7706221846421191, -0.4576540404064297, 2.165662508741417, 0.6663419677395743, -0.2904040003697091, 1.0976690021514122, -1.4936953735407845, 0.698145828210939, 0.6270446306657436, -0.46207736454678705, 1.3055748451799598, 0.10913107597941957, 1.1137824108148613, -1.2633716704651612, 0.44914433347514937], "bias": 0.432067705639086}, {"weights": [0.0005958042274814279, -1.0226246933397096, 0.9210170468994651, 0.20445603796707065, 0.21577590796155932, -0.10839759862974951, 0.5522173921953855, 0.940087384298988, 0.015471956678385246, -0.6395653688188698, 0.32452386657918403, -0.3291286361402413, -1.6139454287168387, 1.194286713883074, 0.40360520735455313, -0.648267893078988, 0.5798814274852258, 1.0448272291185137, 1.1916331863055152, 0.8609555455888884, 0.5467291378002239, -0.3434258363889608, -0.9996960372741917, 0.05225601737487531, 1.1552446480651162, -0.6958304187962903, 0.4871797064810708, -0.19266868341311907, 0.23985124563175236, -2.0095700604047035, -2.3877623268687733, -0.9455300914836167, -1.3182861540112967, -1.7431460657479976, -0.19071859524518625, -0.8414915460882229, 2.453451218326023, -0.1997460606841942, 1.7171478135484455, 1.9287701237668085, -0.17835921043679026, -2.608372032334017, 0.7291706472600831, 1.1421473337380823, 0.5382878949861525, 1.132176010338442, -2.4524693125397654, 0.07620040169947656, 1.620017604704178, 1.2927869791685391, 1.6162817141305927, -0.23332936976586632], "bias": -2.088571035471409}, {"weights": [0.6715735415106296, -1.084904483118177, -0.17921137332748563, 1.8382533910481262, 0.6969375871162458, -1.2996132043682207, -0.21366744925761993, -0.6552104875679721, -0.9950167894230999, 2.1314305945274734, -0.022193753405853278, 1.3025664409672437, 0.28827804197516904, -0.0007642096578919233, 1.2255278357255044, -1.6100186505597343, 0.5214549085196981, 2.3399660169305614, -1.3546652485752193, 0.6341154354062855, 0.8934952220301262, 0.45128518703843107, -1.069237128239524, 0.5241963870086368, -0.9748657579074222, -2.4123051424465696, 0.37558248361351215, 0.31373609584074186, 1.6481910892248397, 0.06391628341410865, -1.8681635758699806, 0.9467397366066825, -0.2427193516096237, -1.6291012032983507, -1.5507552811396532, -0.9066762432135409, -1.472340062327033, -0.9497721242479911, 0.5891863377800572, -0.6629577500116699, 1.485525232841868, 1.1818380819040293, 1.0543990571330817, -0.16007791886730002, -0.5363798084201409, 2.493206332108253, -1.1095632894287102, -0.18163726519834644, 0.8859708321502988, -0.584880992622109, -2.5857820412498804, -0.9604185386387087], "bias": 0.7767173625486414}, {"weights": [-0.502837304892923, 0.2293600921523518, -0.7212568342277845, 0.15484454703546702, -1.5869357079957085, -0.3696902137734368, 0.628594429874533, -0.5880215137370897, -0.605858091445938, -0.3690201319662525, -1.3844483825087692, 0.7536899518824147, -2.2405567004536313, -0.018476647380300054, -0.22903856502257486, 0.8159166908484292, -0.30401791186938426, 0.08779008444785491, 1.8362874329970578, -2.6111877466015043, 0.1972577914847373, -1.1087114947486367, 2.0759273648607706, 0.2051837390044472, -0.9532282273228017, 1.791134499247069, 1.097374376662568, 0.6424677282254005, -0.6536602227385432, -0.19940556255452668, 1.590586519704515, 0.17986451558653174, -0.012913925698040618, -0.13416306114226723, 1.1427190080124467, 0.7181748298752826, -0.930258867119323, -0.6575829224840581, 0.8906171828982206, -3.4478072904150956, -0.7879651844426785, -1.9058995283853493, 0.5020024365151754, -0.41667425631779753, 0.6655197894817464, 0.65557380530495, 1.1695964713976208, -1.5179966479905318, 1.7281270628285448, 0.4763253869418949, -0.3697330743106697, 0.43614921276070706], "bias": -1.260187268048793}, {"weights": [0.7084379800608495, -1.6427333188057318, 0.6283241715030325, 0.8211585552978665, -0.8304095343896987, 1.4536942084719944, -0.02699789321169152, 0.303784831533323, -1.535796733545167, 0.5293980275476928, 0.7095525774208024, 0.2390238840351503, -1.3847116140998192, 0.750811768214632, -1.7117875137731513, -1.1349865455842085, 0.6848218175145858, 1.7620851190388716, 0.2920918448673986, 0.4377139067817707, -0.17841023410959317, 0.09671484232397187, -0.016549780970147088, 0.5378377466828566, 1.227456546523684, -2.4591276110447513, -0.38057432409123143, -0.020919503376960025, 0.6397813259380847, 1.8099359808074804, -1.3946056886822304, 0.5140864896010797, 0.17018115167664163, 0.8748066385405739, 0.06806891846353352, -1.965241263875747, -0.11954367161746948, -0.2554463379726889, -1.0607088852963706, -1.7091727103930523, -0.9413253799010303, -1.7145254507659304, -1.4245012216198192, 2.917607281550233, 1.8910033789054712, 0.9529764089887166, -0.12786059048540616, 0.5790850574265989, -0.06150824223168669, 0.5771455819480601, -0.4423971876400148, -0.16397020550030333], "bias": 0.21328716214459595}, {"weights": [-1.397364800097761, 2.544140342007216, 0.9996977131742668, -0.7310023006392439, 2.189850609451802, -1.049059895051493, -0.17355376949240764, 1.5673833321807593, -0.26853231020456886, 0.41195293932918775, -0.6232309776751894, 1.5321716505993406, -0.09394350860940359, 0.46390026792136935, -0.1692355181102848, 0.0889577438858348, 1.4149946694292252, -1.0670919761330198, 0.9134781950067989, -0.373442772816934, 1.5460497101409534, -0.8103229688309327, 0.1319258374568854, -2.8553612652851665, 0.9132872906274077, -1.6366423786168391, 0.542483458794771, 1.881809212722524, 0.29912531101185613, -0.09792196848990403, -0.573492360588655, -0.7023836656901096, 0.5569368185637479, -0.4319339514176404, -0.49722344445708366, 0.6831706903509205, -0.03789060193683924, -1.683354486532779, 0.17604736287409425, 2.0884749015194566, -0.31093870083511127, 0.2708118336988215, -2.7569252919323812, -2.5004928009699148, 1.808640448578508, 2.3762638688353737, 0.1471091149636125, 0.6467828750839606, -0.3422601847768987, 1.5767527734338638, -0.8323546004351687, -0.719997642554459], "bias": 0.24185066912872005}, {"weights": [-0.3150246202610167, -1.5569192084686572, 1.7718460417545951, 0.1540426996942823, 0.012577367135827577, -0.25198826107856664, -0.04903946992298408, 1.9744009449257387, -1.2921842949963316, -0.8495112065767954, -0.5068223158108136, -0.20144583419751652, -0.21395181183914924, 0.706218935653242, -1.2536418546194419, 0.4829253518141317, 0.7139321264948035, -0.5600482412045937, 1.0457503363984615, 0.7674253432663607, -0.6405417597350878, 0.4114901133577318, -0.8988324937856549, 2.508126455274616, -0.7890747435079171, 1.6818284403811439, 1.287347307451995, 0.1954077759109748, 1.2631260022007482, 0.9469953990306719, -0.3841884775814403, 0.4531017468635429, -1.1313548635043924, -0.337744938116233, 0.5502750069884099, -0.9133027084697485, -0.03976977254185113, 0.7855948281437267, 1.0694114037227749, 1.2856037653661267, -0.42979375444273477, -0.5103187700194681, -0.9659707650377977, -0.41337559831780735, -0.021363677057988695, 0.6497966530166543, 1.1555993714292063, 0.3807007317540752, 1.3353464321041042, -1.1310030013601002, 1.2762724393756808, -0.43102506837494553], "bias": 0.1634600345091642}, {"weights": [1.6207894439534611, 0.652847256980146, -1.105184696734104, -1.4206499610284253, 0.10861644450684238, 0.445935803322874, -0.9729100000240464, 1.0038060538931817, -2.5332839915342, -0.3306515022056463, -0.038472345703057576, 0.7112568486240065, 1.58082907625029, 0.6085130772753238, -0.6983796171930708, 0.43543873550511214, 0.6833927037450505, 1.1600228154712073, -1.0582831118768303, 0.8258361675270881, 0.36844749558154966, 0.4989965386758894, -0.13553204878414382, 0.250180759553317, -1.1675931095885317, -0.1404464844454668, -0.7754994895069207, -1.2365387783634625, -0.9685163102015446, 0.33893539915220794, 0.2809445992493901, 0.09512300685037398, 1.4156950094594287, -0.12166642187514748, 1.5912750929140915, -0.7542524238731168, 0.03493703918001839, 1.956001004036525, 0.6803443905158386, 1.1760654496662537, -0.07266234384063602, -0.19594507421728258, 1.5580338066338129, 0.9020993056877171, -0.06872858697910644, -0.32927880122529124, -1.3031118939561008, 2.020024309507525, 0.20697381427485673, 1.390857889199894, -1.5362026633822852, -1.6094550644408834], "bias": -0.4664869148539524}, {"weights": [1.158129156622875, -0.030809213844539413, -1.9679352615020336, 1.4820178760133478, 0.04621836619352887, 0.3538732114682803, -0.9294010504830601, -0.9422486448192955, -0.20838364004030774, -0.15095570014765392, -0.7333858446835897, 0.7922482285449653, 1.2864554616336532, -0.14456349263059154, -2.017208944228434, -0.057049839055828055, -0.2606082836167614, 0.4233134247701239, 0.08929636587198608, -0.10493121906800862, -0.6551309748180946, -0.4480565144174594, -0.94317136810005, 0.8018411838219857, 2.3303799849905, 2.3061762152003675, 1.5541737913921183, -1.1417814195587939, -0.6495487239992932, -0.054471124278205885, 0.40650008295542733, -2.181819361385629, -0.47326369424920733, 0.7016427278592363, -0.8807495251229371, 1.0789153285222646, -1.0203668527734826, 3.0819416787548053, -0.43949623445337477, -0.7639853199001407, -0.38316720286342676, -0.842513207666934, -0.6797268078503641, -0.8848045995245245, -0.6307743171303575, 0.26282504110237503, -1.0267135048531582, -0.7743219494157081, 0.2609321975625257, -3.6697478912011583, 0.6833714517065574, -0.3034508290321389], "bias": -0.29625059942617704}, {"weights": [0.44799081977005134, 0.6928965133778531, 0.04531913831465359, -0.7977088419197462, 0.5413337266382285, 1.1066344940170638, -0.418159236350253, 1.8412928004454314, 1.6224231117289838, 0.6569392078552524, -0.4942956069700662, 0.2918096214158948, -0.8341802057131114, 0.03407552664701208, -1.0920218314329444, -1.9531469097836145, -0.3333461994233095, 1.438040180286069, -0.45692793147783645, -0.5794655129971866, 1.3513275720165574, 0.7741291953556233, 1.3397195048636896, 1.450725381687878, 2.4301621471405674, -2.80450858017824, 0.09341483517637156, 0.05173357854890476, 0.29903678816299517, -0.7588822976686469, -2.039432434723072, 1.4204595404036202, 1.0028766028866503, 0.39228576629681855, 0.10355952381422556, 1.6305918782891777, -0.35598629958830436, -1.0080838116684914, -0.10518563864620209, -0.3326552851882691, -0.5075853902870067, 1.094665859536763, -0.6426700910905335, -0.003610693912957097, -1.0819547485045968, -2.245981898855208, -1.5711627386304214, -0.5031639236158553, -0.8818430356981628, 0.30737390968211864, -1.6290134661621873, -1.0542331827905165], "bias": 0.8337474800695641}, {"weights": [1.0349371799310747, -2.841745293223033, -1.8788293042035829, 1.1422097575572174, 1.3972022256864136, 1.2553704658608722, -1.5703333802098867, 0.5942889562240199, -1.6768156066977828, -0.1842918849155306, -0.2136632095895014, 1.3287497573524403, 0.5510987159629692, 1.3526320475278195, 0.21475527716930842, -0.6227993483986296, -0.7168880170671706, -0.19769428486221297, 0.4904818244300115, -0.3449281665097947, -0.535162325542078, -0.1433906617230638, 0.78950863983956, -1.3093147014941762, -1.450006661874019, -0.14076424357321632, 0.24435940345162238, 1.2726498925649625, 0.12219334610876798, 0.5942519580350879, -1.7293867492727697, 0.5234033608752957, 0.6906429383467578, 1.7904274148049262, 0.5982612331426668, -0.6154880387368935, 0.40609228131486724, -0.011650773906446754, -2.4266914694882002, 1.280937538964454, 0.2862833536928356, 1.376731041358479, -0.6634741738394508, 0.7566317716055736, 2.1088482563260427, 0.35915185350964335, 0.18407648236616392, -0.277684515507888, 0.029609714116458907, -1.63017861835073, 1.6858236607117554, -0.007069445926625062], "bias": 0.9506190615723332}, {"weights": [-0.3988229353872114, 0.3724802147834746, -0.04665161996232811, 0.8486917821671409, -2.534141972664119, -0.3385721303053986, 1.0747583963623706, -0.825008472614015, -0.480917941318266, 0.32675243012302907, -1.269636133097689, 1.3701475545175799, -0.8610353525929262, 1.030372732448992, 1.9719630924706015, 0.5090791672546967, -0.30905470112769995, 0.9519795413583472, 0.78996500536199, 1.581372884421275, 1.7158761420140514, -1.4889329608007977, -0.9765886774575816, -0.13776125522436222, 0.5974704563568485, -0.890067479655777, 1.7919427128351144, 0.8781163867496875, -0.648168258760607, -0.31160412689513584, 0.7309289114796533, 0.3558212263509181, 1.0440706788765617, 0.03188927512896453, 0.32247317896118544, -0.3755624835097929, 0.7119964435181001, -0.27215310925399727, 1.5530508813337898, 0.692492216802981, -1.0366243809128268, -0.10717609506426581, -2.0988422494417205, -0.25588630494393416, 3.3386130948748454, 0.15406300176544546, -0.398648682316706, 2.0464458512741484, 0.05998907123201125, -0.2720363915967204, -1.298119640671977, 0.9754550255782402], "bias": 0.5542211736738101}, {"weights": [0.6152352634006519, 2.1187165871996676, 0.5250492505010012, 0.09376348581746802, 0.09724706406401198, 0.15148677800565719, 1.3631721766113003, 0.9544442990907114, 0.2625650003787475, 1.5414338210517888, -2.0915780771666146, 1.299538269075063, -2.748743367870452, -1.9063807963561357, -1.5396655020326673, 1.1557043723476463, -0.060439972540673625, -1.5431944593547877, 0.8276281568125883, -0.8708908543172624, -0.10243337872897279, -1.8481805946461103, 1.2262039251331558, 0.5437749478623625, 1.183043232156507, 1.1712826033181714, 1.0393779891545185, -0.4263267988820464, 0.37597729925510315, -0.027283316406399194, -0.9075745879098258, 1.0573765414500274, -1.0219435663058367, -0.7740986836153243, -1.465913135040943, -1.844691436859372, -1.5479514607627962, 1.0675425918580377, 1.5725321942240706, -0.9552195801899478, 0.11945725698643314, -0.859083218267596, 1.0929578590747677, -0.7141190980278873, -0.13307081912257707, 1.4954379906599125, 0.09836321682156204, -0.42684531569378786, -2.123382374320184, -1.3480799874893197, -0.036901604610307004, -1.3396291510089802], "bias": -0.47641963748317956}, {"weights": [1.6932524832520182, 0.31940928010545216, -1.2832728994324922, 2.047827506682472, -1.3428084447580713, 0.8394536171900329, -1.0576428836690175, -0.20193772623172385, -0.2924344749365598, -0.30595699687529354, -1.0817058930599224, 2.505990906703714, -1.48452218879705, 0.2909994847269337, -0.018020939989177476, -0.029835025224421496, -1.2854073812167528, 0.9401298521998218, 0.8855203073532694, 0.1360573541995151, 0.26350177069566705, -0.39178462561985183, -1.5147449629494314, 1.4150683691690482, 0.39736907444132213, 1.1017243171247015, -2.380567799164324, 0.17490284296354333, 0.7339098656693854, 0.41824098428820716, 1.8354973746019156, -1.267207589120071, -0.7001519834364645, 0.6944640162741837, 1.0858186959605076, -0.22433249985787085, -2.1167194661800526, 2.3949938443642567, 0.8602089911827421, 0.18145433670288655, 2.0891787610835717, 0.9643270430975557, 0.5052220469953328, 0.6071275208913136, 0.11450111795176743, 0.7237848455101876, 0.02268295860980879, 1.3143410292934021, 0.13717726313726172, -0.04222935374719616, 0.9564325462016978, -1.161903206949701], "bias": -1.1244615643116553}], [{"weights": [-0.0522100916636494, -0.05020423219169723, 0.8980875198970751, 1.028842279411451, 1.6600809303465212, 0.21679185467393025, -0.9594815809710819, -1.7812984040470257, -0.5745584052102967, -0.44268468862509824, 1.342696100413257, 1.529576378401262, 1.6648729367309967, 0.5685842198233388, -0.7522448642882668, -0.039868123978149206, 0.9332419096935836, -1.9765792365159078, 0.8562172301313421, -0.4042175799676221], "bias": 0.8924335195295428}, {"weights": [-0.027575331729226382, -0.12855168655540244, 1.1957409331444415, -0.23743048151017307, -1.1351327726089164, -1.2865132230584373, -0.7961321809786959, -0.9029572135288144, -1.4100119176174408, 1.7901935380282106, 2.6143225317599663, 1.2787737552426877, 0.7112340347163959, 0.48936626029958175, 0.8607645980053634, -0.12249079896575202, -0.846235539623253, -1.7069633897863268, -1.1510461775069938, 0.32444243574756804], "bias": -0.02424784477785305}, {"weights": [0.7154084992716117, 0.30817565142491277, 0.0057585222154506455, 0.8549838259284285, -1.4550420430288746, -1.9856710857281823, 0.7097792668199454, -1.6962050294240745, 0.15377147545388242, 1.9614512540326943, 1.46969784614042, 0.29150720874784125, 0.7144657384432296, -0.3203237123218636, -0.02906480703172437, -1.1281866456389942, 0.39485416580547184, -1.0201413669641535, 0.41624434461847404, -1.6539216494127442], "bias": 0.8009080859131341}, {"weights": [-1.4656840398891655, -0.07248210264326452, 0.7560424713039524, -1.4979762106789742, -0.18551683242683492, 1.0138222265437797, 0.046575621066221984, 4.277317180860485, -1.4681730041590706, 0.4120561803370627, -0.31359297532898667, 0.5168252865198294, 0.6167776771526287, 1.2111763219549518, -0.30463366777359696, 0.2480890302157331, -0.5390267234377366, -0.46227712814413174, -0.6409538627714314, -2.9107671157400232], "bias": 0.19189052132037987}, {"weights": [-2.057175618765664, -1.1947962948337896, -0.20744129675765904, 0.5606309776095773, -1.0353184349597258, 0.5363199026674026, -0.2349995767500471, 0.26898320674608167, -0.5689456117976559, 1.3216307465558015, 1.3742576546076029, -0.8891561756776194, 0.07208705537710813, -0.039333434202728085, 0.38442832216921163, -0.8644344990351613, 0.026385735331451304, 0.18487654802233977, 0.7549503521078467, -1.8212059303984103], "bias": -0.025041653078737708}, {"weights": [0.8631802331874665, 2.0570553050566165, 0.5434766776956741, 1.9116931183445487, -0.7687935240193831, -0.6695470331010454, 0.4138320420797227, -0.1351160527638631, -0.33517371609243396, -1.3212414828494876, 1.4211073738733042, 0.5668801200573708, -0.02730817437448274, -0.5550099684722256, 2.6682357089790862, 1.877820910363341, 0.8735652392283836, 0.6814473874771647, 0.13582751084450945, 0.22097125394487072], "bias": -2.0806375713778342}, {"weights": [0.3213781715423414, -2.164926345606064, -0.2581436441293387, 0.42501215503498324, 2.013836724653002, 1.7849676586860972, -0.4474147706085152, 0.9577488100120093, -0.9699490693335603, -1.304705073833562, -0.8001496202926228, 3.031993564887104, -0.09726456331905822, 1.222314392726344, 0.7893996308488027, -1.4526690084938414, -0.5210265571130691, -0.22662490606808883, -1.839423705925618, 2.237677729519269], "bias": 0.3305712726924414}, {"weights": [-0.6436979557653492, 0.6827385439552207, -2.175656401140483, -0.9077700234184745, -0.23492233540370122, 0.4465556931757593, 0.46768032550982686, 0.685112753305177, -1.7857559022973468, -1.7664685445215083, -0.15134653711093476, 1.0840340387391532, -1.1586264834339974, -0.3060913696876094, -1.7582174004108335, 0.049903733519989, -0.8821755073437714, -1.8786413608606942, -0.21667932611862736, -2.108379431570698], "bias": -1.431809964786189}, {"weights": [-1.0870496317449736, -0.5468914226205284, 1.712467856783228, 2.005000444833228, 0.008810107537224526, -0.09938789235554946, 2.361192489105607, 1.7677373993049463, -0.6151501973933517, -2.0450135188590126, 1.3625920162969662, -1.2330915262619626, 0.020302107823144955, -1.5604433732334178, -2.104770117182153, 0.3044735885964622, 0.22009912638336962, -2.095196914608997, -1.725426659034167, 0.17326627541885142], "bias": 0.40576939414684826}, {"weights": [-1.1665255993167933, 3.120329003497083, -1.19364744463107, -0.07228040705329641, -0.2776514664061098, 0.7177072283910642, 1.4849590424346832, -0.7461177654527842, -1.1387096055208736, -0.4188874356128276, 2.5546781226297526, 1.2647374486934417, 1.5480309055252262, -1.3398651764246459, -0.13438097771304736, -0.45589132401008065, -1.0401151177577934, 0.33176183156524736, -0.6564719213508308, -2.719810300461039], "bias": 0.5795836449177467}], [{"weights": [-1.4746042361295435, 1.052415989540457, 0.6971304915319855, -0.14044363557706646, -2.034618978393294, -0.7238926301776294, 0.8811573511895658, 2.3228670652881895, 1.1620232561003332, -1.6440371696336915], "bias": 0.09575516266466425}, {"weights": [-0.3223652648469738, -0.16749291918311698, -0.48206497897092826, 1.4366089878285402, -1.2656660839043128, 2.2614478582676725, 1.756588470881124, -0.5874924631367344, 0.24796808553504746, 1.4803712485534382], "bias": -0.784287303028446}, {"weights": [0.14001880018644589, 0.40981881503714634, -0.2133958195781511, 0.47247964208107185, 0.355728616659263, 0.03834563010465969, 0.8508611407470663, -0.364899375900254, -0.6575497477689292, -1.0914677050751274], "bias": -1.0481776284882676}, {"weights": [-1.99330999196996, -0.06077981394095794, 0.4006480157350234, 1.571532576140759, 1.1525238957119328, -1.3384530238009795, 1.2353515531227854, 1.628861651117527, -0.09929351192187569, 1.978745197697829], "bias": -0.643919282143228}, {"weights": [-1.3515863892252098, 1.6265391721836513, 0.7002516454407772, -0.3278838056884323, 1.0387425129409007, -0.27181738676083206, 0.8618846813449621, 0.9237225778141127, 0.6803733598821722, -0.4199515646954056], "bias": 2.1405369617729577}, {"weights": [-1.861614278485968, 0.6441320313723979, 0.7456249593220041, 0.07536457902369617, -1.4153289628811778, -1.8847147184597641, -1.6166840795937283, 0.19358572494941184, -2.0583838972728983, 0.8578531295298996], "bias": -1.5109875851037355}, {"weights": [-1.2007325120601002, 1.3463693083723143, 2.154923964370727, -0.3562932391519524, 0.7908259079996709, -0.5312640759390381, -0.8428313592805705, -0.3269254202577275, 1.3147135312142537, 0.9176964188875938], "bias": -1.4393083007484762}, {"weights": [0.42881700798003214, -3.025495707001093, -1.5288377208604123, 1.2416295020030768, -1.823957685009794, -0.6272203471848581, 2.786109446764182, -0.9165966846278247, 0.18364492680219952, 2.9650467981646225], "bias": 2.440142187565301}, {"weights": [0.1556359634352432, 0.9301505803384795, -0.5071107372052792, 1.1983724813972974, 0.9210165673598372, 0.8752916004081854, -0.4707229056398115, 0.8898248881985962, -0.6198841806880906, 2.1984263121598495], "bias": 1.2468318241167073}, {"weights": [0.2532929413780699, 0.5976297652154812, -0.40351947223106244, 0.30620502457685106, 0.7174467250146679, 0.2104459435523658, -0.9805913676451886, 1.4014952091392456, 0.6085672701868505, -1.0086864480235855], "bias": 0.929843781785292}], [{"weights": [1.2125063217825862, -1.2465154310320254, -1.4038953650905317, 2.1218051374750955, -0.1472672715849274, 0.6599768110311731, -1.1549880779881485, 2.212474989377284, -0.43099211163124584, -1.2785832241473016], "bias": -1.2979676189879579}, {"weights": [-1.2289707940863996, -0.29129702117135636, 0.20588451858491036, 0.17890933693722133, 0.3508579441077997, -1.0038508600455378, -2.3588856647636183, 1.1865441402757646, 0.9544453846566723, 0.22384255457578955], "bias": -1.6690321994562751}, {"weights": [1.3909484949067765, -0.49991112119604963, 1.5426214991418055, -0.9570654178588889, -1.9815350420611297, 1.5598745188138448, 0.921637452657595, 0.4476608414604603, -0.3401643976950089, -0.8314645187738017], "bias": 0.6909035893736442}]], "generation": 1000}