{"score": 128988, "inputs": [1, 0, 0, 0, 0, 0, 0, 0, 0, 1, 1, 0, 0, 1, 1, 1, 1, 1, 1, 1, 1, 0, 0, 0, 0, 0, 0, 0, 0, 1, 1, 0, 0, 0, 0, 0, 0, 0, 0, 1, 1, 1, 1, 0, 0, 0, 0, 0, 0, 1, 0.48, 0.264], "layers": [[{"weights": [2.996999272616839, 0.15004890698791457, -1.5376893790878015, -1.8906312087561494, -0.35901039893196185, 0.7265592098202215, -0.9815087838901249, -1.2222810474022494, -0.3925320054500251, 0.8549122118541067, -0.20989168034862032, 1.056969948504617, 1.4397375367701088, 2.1902808609094215, -0.021271230443678735, 2.301381403973376, -0.7197708823409068, 1.6252745848154737, -0.5375636095253309, 0.5815709418255783, 0.1429919898762222, 0.6265866888119095, 1.9438846380828763, -0.8411768006277898, 1.4048149626818667, 0.9346157816861862, -0.4438152001304976, -0.57020910411631, -1.4552984314553699, 1.3021803929757283, 0.4433197894350335, -1.4941660661134946, 0.19802381994890897, 0.8617765688420984, 1.710701434452474, 1.515699941238976, 0.3181446478786022, 1.389660206446007, 0.11321538149353269, -1.2839246178876789, -0.14090401563578633, 0.15926898004910253, 0.9140679876287953, 0.1591433831138494, 1.489698112582127, 1.5767095252535201, 0.10249080114383072, -2.3862592010517316, 0.8433270790700178, 0.40165589426128595, -1.5427838843695838, 0.6348286453759968], "bias": 1.5151816055618084}, {"weights": [0.6044482513107121, -0.20460137258208994, 0.6009397876897902, 0.39360022002624434, 2.9844403794342984, -0.052946053571588436, -0.5405365427835263, 0.5072860815726246, -2.2808576610694797, -2.3225820988915764, 0.45386047275804897, 0.42753266516497407, 2.0135669072222004, 0.9475197264598699, -1.0493261545931294, -0.35995023974485496, 0.42209214607114015, -0.5526486888686517, 0.2843143373177648, 0.27010951558509344, 0.3535533143898603, -1.1618671803421343, 0.4804597538719934, 0.7932390834401575, -0.05116976583108521, -1.166158657577367, 0.62333790053769, -1.1972979388267089, -0.016880040653902306, 0.2778862661303605, 1.6878428074542713, 0.22133128220158416, -2.3260765179571656, -0.5061746175870205, 0.8836695289387512, -1.6817717167704103, -1.2700436462908609, -0.8447796755689762, -0.21559287352437245, -0.5674979882260642, 0.36123605782744506, -0.1380570842209329, 0.7892682121144783, -1.019358092576894, -1.1197999372992256, 0.3600742473201025, -1.5903631207643425, -0.5432336659224636, 2.230447121122647, -0.7164372718410221, -0.4075134899850648, 1.5796519340730364], "bias": -2.286390974018078}, {"weights": [-0.9281223463370106, 0.9916588820623014, 2.7035172582016864, 0.5444846065504625, -0.4979397023884959, 0.6925080570964555, 0.8574044667529022, 1.3056899274628577, 1.2281118461015645, -1.4752775105671998, 1.314065017221552, 1.6376775452948442, 1.4728412104606865, 0.16646881079105177, 0.4919099738888138, -0.21373874734837556, -0.6337116754673227, 1.2917140864927577, -1.9093989342546467, -2.255199785709969, 0.5624286557877327, -1.9698828974995195, 0.8239861266562687, 1.8996121782336883, 0.2344405086970232, -0.49125880817071055, 1.02872158826959, -1.135153526050027, -2.0809785023974285, 0.9744397897817573, 0.9433610339267413, 1.4280366987363218, 1.1634422930051984, -1.0249667115392505, -0.07754671610837877, 1.0078757348841403, 0.3824666450650123, -0.28164311870316644, 0.2922690543458864, -2.2748736364006397, 1.406955453991466, 0.3567950990318541, -0.7998494315188696, 0.08742177608821705, -1.4666202642499084, -0.2596220467747649, -1.9011623918945226, 0.5546570219937924, 1.3188571444600121, 0.20846074116002083, 1.5273111193280495, 2.144609240266388], "bias": 2.0981378045513748}, {"weights": [1.1799405686596192, -0.858817569765802, -0.42319288919625353, -1.6687822104744243, -0.5089533516711162, 0.8233077880002158, 2.438343316465399, -1.1996421585806056, -0.7084798001834006, 0.49639792346785255, 2.050390213710166, 2.7938092176927998, 0.15452715671251457, -0.0352837654926835, -1.5783402853810888, 0.01823752710830745, 2.986478556572213, -1.4949120645128666, 0.6247591608700157, -0.3353829454711265, -0.7516158039879801, 0.24421134445473205, -0.510694099936247, 0.6911139940180677, -0.5445049708214778, -2.203553936036689, -2.2786700702478395, -1.1611111991239085, -0.0854597776876645, -2.268758621173496, 0.9211553613150629, 0.21233627937074678, -0.514191565018584, 0.4944288376667799, 0.3470545029168455, -1.1397524031632695, -0.8220548941441108, 2.260745958574347, -1.836953077544056, 1.027853752032854, 0.8982192444658592, 2.0275418827830984, -1.897431946617829, 0.2704747852329494, -0.6300455255109205, -1.1119061112649633, -0.8994585421852617, -0.9612908413417212, 0.8331045354457438, 0.572253395710995, -1.0195325314342822, -2.107027202048455], "bias": 0.8078632174097373}, {"weights": [-2.245589016058723, 2.0119021655841585, 0.4898757215991863, -0.6503818885646337, 0.7691228740698957, -0.1537662487504763, -0.37728735750999803, 0.6901085434318532, -1.0227804140200671, 0.27219158314934505, -1.237531334762996, 0.7658996845457235, -0.856479714626668, -1.3775653555877492, -2.548028960842203, -1.3995019926907601, 1.3206077178535536, 0.45779364747049744, -1.3447563290424334, -2.028186187104705, -0.28645792364992895, 1.2124948108027513, -1.2270508880459254, -1.0287876714028878, 1.6097499716772543, -0.020373163537824257, 0.3090449388504696, 0.3082480756323631, -0.852779759164563, 2.203160658793715, -2.946950022496759, -1.5730134620298672, 1.6180766392197405, 0.17050348839395862, 0.5988115700147552, -0.22829174904206023, 1.4739891578391282, -0.16696525029876746, 2.3283377084064254, -0.5742123761464777, 0.7390734424321332, -0.6160546712849313, 0.6658420963340526, -1.8533075826267753, 0.04685739993833443, 2.1687803729694237, 1.5164779076560748, -1.13461189952367, -0.23846745557263488, 0.6254758682470052, 0.1331990722948764, 1.0832956328439214], "bias": 3.5662085616093093}, {"weights": [-1.0697598164705209, 0.22773808492567882, 0.4967050957425518, 0.7107895821849746, 1.3804591095946803, 0.4995570113960088, 0.8491987674524394, -0.42501407163165894, 0.23527187987141532, -0.17474298954383732, 0.8309554637896075, -1.3297356527718112, -0.19624863205691917, 0.015009728681035395, -0.4898043052884143, -0.6787897918487685, -0.24180432369465973, -0.6347853030470381, -0.6222426810613488, -0.2676766819734256, -1.0892101796018674, 0.7647066997416023, 0.4973216203421141, 0.3969727435867392, -1.4952399205871114, -1.1405065723513625, -0.7300527562597485, -0.4883099414914075, 0.1840072677966243, -1.5776936266193888, -0.5112365375043559, 0.5373072581098999, -1.278193051615964, 0.20088375078981907, -2.014906979311084, -1.2415161016019693, -0.31677595939327186, 0.6258078039262125, -1.679461957956188, 0.9713185642257348, -0.2673345001363975, -1.7282503249711103, 0.9777452289228119, 0.047332252922016316, -1.1431121153909019, 1.1535372494735847, 1.0935917326423847, -1.18533994017166, 1.5415403613878755, -2.47821444820742, 2.28283777607788, 1.3878920443700486], "bias": -0.06690899666065292}, {"weights": [1.3270104759224133, 0.3774561246008653, 0.14320834361892912, 0.7747286884138811, -0.33336159376833363, -0.05729448102472101, -1.1856928899177575, 1.4452339309494566, -1.0708927953367149, -0.2788609436248367, -0.8323473874190057, -1.2148625431312372, -0.8242460494110466, 0.39073828240416314, -1.4403655001317748, -0.3241479672326458, -1.354823502291806, -0.32490917011826165, -2.184335042539234, -1.5404705316042702, -1.3619351021551656, -0.6385681356891995, -0.8543180925020979, 0.7355706284242355, 1.2829232652640414, -2.6179722696620065, 1.4561659848408397, -0.866311979570241, -2.8478396035180027, -0.3702025410016699, -0.3661844275449783, -0.8774516180174801, 1.9396566871882026, -0.16476863596600969, 1.3509654648696598, 1.8673346733738292, -0.40926876913502436, -1.0611840913996766, -0.6749756723780049, 1.7998452730389414, 0.4442290244081645, -0.3965152888531889, 1.3486794375011715, -1.4936953735407845, 1.0345704392479207, 0.6270446306657436, 0.34272059837343755, 1.6528535656012153, 0.10913107597941957, 1.4030857374827321, -1.8801062281698449, 0.6395624108430417], "bias": 0.5325113503741028}, {"weights": [0.0005958042274814279, -1.0226246933397096, 0.9210170468994651, 0.42166417686893864, 0.21577590796155932, 0.003401953979095096, 0.5036820652309217, 0.9542493360995711, 0.2407206286173269, -0.5522021508245916, 0.3811087683755414, -0.46745314506486485, -1.5366914622052308, 1.4457884616085492, 0.23433017968268177, 0.15009140233872337, 0.18041120083770565, 1.2019613626095131, 0.9486563372056123, 0.9455452512377782, 0.7021558326547767, -0.24851438056977854, -1.3785586288785598, -0.02841685795355628, 1.2265826849669494, -0.5242803227860944, 0.7621581000919118, -0.19266868341311907, -0.20994261213475457, -1.9759240292153784, -3.0932240696978344, -0.9808154610866029, -1.3182861540112967, -1.4529539971328551, 0.0645970210275783, -0.8414915460882229, 2.5101550566902335, -0.2845648837327276, 1.2005051587090638, 1.6931831539285063, 0.2633614131397158, -2.8101161232655003, 0.3498285337980803, 0.7543575448038965, 0.4796243400824625, 1.087655538328036, -2.4524693125397654, -0.1218181530845533, 1.9856052351522728, 1.2725695346317432, 1.402046941833, -0.27470042310678716], "bias": -2.4571001240235564}, {"weights": [0.808449168712452, -0.7858733565810481, -0.2825587920164321, 2.0701343993478267, 0.6441169301277152, -1.7105179583938706, -0.015264241789590127, -0.41592960677698515, -0.8119254417851476, 1.7536301526305356, -0.31312283667750196, 1.0300892639156678, 0.5092835368424915, 0.08705318270159756, 1.466079359497542, -1.3558583182896782, 0.4418013404685591, 2.220068414333835, -1.3553882439127225, 0.6341154354062855, 0.9709466166988773, 0.6515820859726801, -1.069237128239524, 0.6617302549799258, -1.1423477846480041, -2.663282621661432, 0.18632994637921405, 0.516640069042849, 1.5737836555448992, 0.028714365439096362, -1.758875969787363, 0.7474512324228408, -0.4041437228913064, -1.8275783986236454, -1.4437500875865585, -1.18489626085437, -1.476059399671492, -1.0438780304719704, 0.887859243114097, -0.6601118198773197, 1.5835424460730239, 1.425750405672413, 0.8161000880498247, -0.14577615476039332, -0.26437300815236003, 2.319263732584757, -0.9287499802295072, 0.22935459576532857, 0.8859708321502988, -0.8133120728545007, -2.2050113359126464, -0.8150200160219696], "bias": 0.7631385938436264}, {"weights": [-0.502837304892923, -0.053833143661433075, -0.7099201630780083, 0.15484454703546702, -1.6495722186602113, -0.6694186444514776, 0.6028226193578794, -0.46062570092122684, -0.5577672465468756, -0.7428355326755083, -1.3940530761832486, 0.7073456034720198, -2.452959413321616, 0.12111558902493982, -0.3403737032675311, 1.1141566885383218, -0.06530448192677663, 0.07324189620445015, 1.6656284782277155, -2.668975577772016, 0.13596377917220437, -1.1087114947486367, 1.9936938729267424, 0.2831139991741595, -1.1094412021004492, 1.791134499247069, 1.097374376662568, 0.7824920472085061, -1.0765761376116447, -0.09917332932613487, 1.2959717536245416, -0.011745143423909282, 0.023905434162954237, 0.2830884701126914, 1.2324193490096134, 0.5653801634695813, -0.8960401350526784, -0.6898626165577855, 0.8906171828982206, -3.0889367142652895, -0.7801148856651059, -1.536918431686931, 0.6616367206693224, -0.39912039477001016, 0.915660917770126, 0.35757282506648563, 1.5481772682707138, -1.5179966479905318, 1.5125602449932394, 0.6309917370810071, -0.738729713844773, 0.21852023286470074], "bias": -1.260187268048793}, {"weights": [0.3071456874371481, -1.6427333188057318, 0.6283241715030325, 0.9529070762737777, -0.8531276970797717, 1.4536942084719944, -0.20399353958245864, 0.5052677189445474, -1.2591045112499428, 0.5293980275476928, 0.4982695371710252, 0.25005891757396514, -1.3670087753752378, 0.7430241778833042, -1.5575508030277339, -1.2000780115150729, 0.5226656398311906, 1.7620851190388716, 0.5745445544694234, 0.3947371101795401, -0.17841023410959317, 0.09671484232397187, 0.20920098553242422, 0.5757764365044148, 0.9745885077349401, -2.082025619071077, -0.6347467014824899, -0.020919503376960025, 0.6231963803397538, 1.876162106078679, -0.8878132045932838, 0.7694480720798584, -0.06804796336244134, 1.1125417365357917, 0.32627502721981966, -1.9565690020061837, 0.041610980909231876, -0.35770760911178806, -0.7727754738648083, -2.038726397908656, -0.8345726643731085, -1.9359451702045207, -1.3754465837841692, 2.528054567860084, 2.0330056748646967, 0.9529764089887166, -0.12786059048540616, 0.02748316213281099, 0.11277776508931428, 0.5771455819480601, -0.5445508166717759, -0.0240526301215786], "bias": 0.1362894863368123}, {"weights": [-1.1607336657680025, 2.574576509618193, 0.9996977131742668, -0.9289117757570571, 2.6516275210596603, -1.4302816487396715, -0.3073164864561896, 1.2644996650248659, -0.05326200026795741, 0.06688156281237342, -0.46928750774724554, 1.3035672901971112, 0.2221106428016144, 0.46390026792136935, 0.12082936037723535, -0.13152880729340208, 1.7437125735757995, -1.1289659021400549, 1.213542981339982, -0.4570815300338628, 1.3100012407876893, -0.6647133816158565, -0.4465890166875272, -3.2699376025956246, 0.8939387816162591, -1.7877674119967333, 1.035094110190827, 1.881809212722524, 0.15267511621436222, 0.10187512647635955, -0.78688031507147, -0.6713464417222668, 0.538957338666074, -0.19239032088479502, -0.49722344445708366, 0.8015313333655194, 0.0005047749831732506, -1.490066089681443, 0.041424608521358264, 2.382567048660483, -0.6872580264868582, 0.29590863527161343, -2.7569252919323812, -2.685915401396901, 2.0333627315113967, 2.595215195784685, 0.26070326508092295, 0.4880033901081704, -0.041602735460328, 1.8170768617456654, -0.8259901966769115, -0.5808900353613089], "bias": 0.0913328163685585}, {"weights": [-0.09452183800216507, -1.406062287978357, 1.5851002857686212, 0.01600949918447675, 0.12065072930951432, -0.5697934295975413, -0.04903946992298408, 1.9813181680838385, -1.0280307289528732, -0.9522345045519366, -0.5068223158108136, -0.08748557525695577, -0.16692859631310142, 0.6683840617262394, -1.2632119348399207, 0.31757933047878073, 0.5325392239201296, -0.6174272566105617, 1.225786449485124, 0.9786971188627951, -0.1459723436320266, 0.17510095600490483, -0.8988324937856549, 3.20353930048621, -0.5595815074146846, 1.8490840930769783, 1.111152621341101, 0.5926559716299937, 1.3919151331671817, 1.0293363689707726, -0.3841884775814403, 0.3887535284203933, -0.5314156672951955, -0.2623470930934899, 0.6905318244416355, -1.0102449532169397, -0.1793894956992709, 0.795735443896709, 1.4665872072341186, 0.9915435104286915, -0.5313371513563752, -0.3310816247202233, -0.8739924890302722, -0.39382603936447697, -0.016082260573269447, 0.9184432020952256, 0.9715565314594055, 0.3066829781574706, 1.3785968567845528, -1.0534123249115155, 1.2762724393756808, -0.40990849358734144], "bias": 0.41837949516161316}, {"weights": [1.1781072716634646, 0.652847256980146, -0.9838614772401737, -1.3038242754436118, -0.013452195957818186, 0.8440728897377683, -0.9729100000240464, 0.778216576195793, -2.0043183450469555, -0.2866463612491533, -0.06215884863664081, 0.7353170606708509, 1.4722617174902255, 0.6085130772753238, -0.7676995108833735, 0.43664344885960427, 0.8731003057631956, 1.0228454415871333, -1.0582831118768303, 0.7916199659723991, 0.5351175521822948, 0.4318998820579251, -0.052444148884672026, 0.3932580869162907, -1.2752965525349764, 0.05729983420502566, -0.886365144377687, -1.0692951708482838, -1.4639231667062027, 0.1695179495723721, 0.5830999328045782, 0.09512300685037398, 1.7344165281369992, -0.33604451636550814, 1.315005537344524, -0.7542524238731168, -0.017045963104794976, 2.0521745276646093, 0.6803443905158386, 1.1760654496662537, 0.1454885510865006, -0.17836243301784072, 1.5624740539041342, 1.0482767316927062, -0.06872858697910644, -0.4510568778747307, -0.6099070446190714, 1.732038596520286, 0.1976130730237991, 1.0090486659404525, -1.4404248828938495, -1.5124163575881007], "bias": -0.6042592670850099}, {"weights": [1.0111520302941952, 0.2665892112482221, -1.6494967886665912, 1.522545499685383, 0.3498329765966027, 0.3538732114682803, -0.8687832131869502, -0.9536316586561975, -0.28319271223612563, 0.28022177791911845, -0.45441602489157534, 1.1290926061800057, 1.2864554616336532, -0.15908542920441643, -2.1887591771718937, 0.11765743598468181, -0.03819124623010128, 0.5780781636810496, 0.06943004905576311, -0.166885348984642, -0.7125466784898844, -0.382356111679348, -0.681465689797593, 0.6628220465620429, 2.0665190157911977, 1.8255871462520672, 1.1209357270903375, -0.6791124670246154, -0.4280393884979873, -0.8842444549574768, 0.541472209080778, -2.559952577595213, -0.47326369424920733, 0.5845788737721255, -0.6449290262469729, 1.1860702254894109, -1.0323127042834928, 2.777467587507824, -0.46105753792450743, -0.7437912765102974, -0.30728758430645664, -0.842513207666934, -0.8174358169907566, -1.1455856903441655, -0.8898588361602409, 0.12038886984837885, -1.2583765450034239, -0.986221403749274, 0.13700918924194203, -3.765350640618093, 0.6833714517065574, -0.1546715449530645], "bias": -0.5563258636130262}, {"weights": [0.44799081977005134, 0.20151325439701995, 0.03079360213836299, -0.7480601865178221, 0.5253985036556663, 1.3634605060930154, -0.5190486442399396, 1.8412928004454314, 1.6224231117289838, 0.6569392078552524, -0.5906851898953895, 0.794522515976404, -0.9015665841784886, -0.2661992676327918, -0.9860742263088549, -2.351431849141611, -0.3333461994233095, 1.6026091808994367, -0.38397330073915226, -0.3473455703893898, 1.3513275720165574, 0.8377743630587031, 1.2724430915804437, 1.4952767350703964, 1.9602276696023677, -3.2704675404198675, 0.040552955127653306, 0.28619347959075003, 0.2953782814578506, -0.6032628032811318, -2.039432434723072, 1.2916285585812017, 1.038596787726444, 0.9303310664061697, 0.10355952381422556, 1.1181253632325838, -0.35598629958830436, -1.0379018728614793, 0.3558141657154793, -0.28547861957000464, -0.528278644850031, 1.2373952856422532, -0.7269225937479679, 0.27423432275272924, -0.9983080363871234, -2.245981898855208, -1.4532926607564756, -0.7828114648871248, -0.7110792810688848, 0.4106066441507324, -1.7078751405263062, -0.9041051795814654], "bias": 1.2934222251303726}, {"weights": [1.1983982931600252, -3.0750729018428444, -1.9516294578174345, 1.2452695294631537, 1.824834452901672, 1.8465107471718851, -1.6648712838338855, 0.38938054060627075, -1.5197089128262047, -0.1305914734038097, -0.14072572992146792, 1.1936948823360307, 0.5510987159629692, 1.8664057354664625, 0.21475527716930842, -0.5621560160646988, -0.46789378830043415, -0.19769428486221297, 0.16482211464144703, -0.3449281665097947, -0.31196036581640835, -0.10073982948461113, 1.1404586108884234, -1.1699784868215466, -1.5751666361877825, -0.2652692957312239, 0.3043917949978375, 1.026757480174361, 0.25264097955996034, 0.496197847785227, -1.6071159510710233, 0.44556049653926655, 0.6685808490171715, 1.7904274148049262, 0.3106483433291365, -0.2753900391414125, 0.40609228131486724, 0.021875359132120076, -2.6180308112168205, 1.280937538964454, 0.2713354488817634, 1.0914283959017244, -0.7740621595693559, 0.7566317716055736, 2.234951009044421, 0.5017878408224301, -0.08341652557561718, -0.17689744445364564, 0.18945164787346214, -1.63017861835073, 1.4740981759449987, 0.032679317566478905], "bias": 0.9506190615723332}, {"weights": [-0.611933494058807, 0.415469404103546, 0.05588862299088429, 0.5194645731050329, -2.658241617895531, -0.5243885177151895, 1.0747583963623706, -0.928499327884146, -0.4459524583174221, 0.4412905305782818, -1.5540363757889204, 1.3701475545175799, -1.004565384860797, 1.030372732448992, 2.162895733310298, 0.3153242282287736, -0.30905470112769995, 0.9519795413583472, 0.977494834688214, 1.581372884421275, 1.8122708196783939, -1.4889329608007977, -0.9997200699533302, -0.055510383502074545, 0.446331911643097, -0.8974240090066881, 1.9739485280212583, 1.0661635166484895, -0.5006620133277018, -0.39793128559337265, 1.1906366722951358, 0.3558212263509181, 0.7969040004348457, 0.23846680895468134, 0.6476344830839431, -0.5588338908656498, 0.4492866064229793, -0.03853384204532778, 1.562360000120281, 0.692492216802981, -1.1440138290703794, 0.010453692729677694, -2.3235400529716235, -0.34958953772799783, 3.4350375163147397, 0.19303527290045563, 0.13689798045861346, 2.1225355949977174, -0.0019254326165139835, -0.4622223855157782, -1.2145245938357085, 1.412808896977365], "bias": 0.36382024525534673}, {"weights": [0.612384881776125, 2.2132916909973526, 0.5250492505010012, 0.3195225571311805, 0.09724706406401198, 0.3426503950556338, 1.810536439975727, 0.7059314102625769, 0.2625650003787475, 1.997708846908302, -2.039200429693445, 1.2265906453147295, -2.826075828442333, -1.6864629999885221, -1.7411447361898529, 1.1400855606748053, 0.14836678958324212, -1.7450832061598711, 0.6796798747387391, -0.8708908543172624, 0.42390911231504264, -1.10883174315614, 0.6193938596454568, 1.0877609275733762, 1.2684207635530758, 0.6728077597715054, 0.9699269664446581, -0.4263267988820464, 0.11358567463594654, -0.08479500119894501, -0.9729056693881452, 0.9028265930449662, -0.9077104795135482, -0.6406707804020306, -1.9171633296475432, -1.9572373672455456, -1.5479514607627962, 1.2688934058498118, 1.1549686785669286, -0.8785409860392324, 0.03283026341825174, -0.8488100866242947, 0.9621795021745199, -0.5390413236043832, -0.10302319369631302, 1.4954379906599125, 0.264466260991524, -0.8453542285024034, -2.034087454476511, -1.1751248147614286, -0.46187214667842946, -1.2357833431104912], "bias": -0.26194002188274035}, {"weights": [1.6932524832520182, 0.4051749802941256, -1.4513984459022469, 2.047827506682472, -1.7092252518520996, 0.27812025898127496, -1.3002970433030754, -0.20193772623172385, -0.2924344749365598, -0.14114574024608506, -0.8358203641872555, 2.416676731615077, -1.7698260944686137, 0.146902928815015, -0.29456359051485637, 0.17141452668681928, -1.0790585935911574, 1.108895482476685, 1.0835405062188357, 0.23370403781034832, 0.26350177069566705, -0.09878663993549636, -1.8111500514537302, 1.2082132560167427, 0.538755459692463, 1.2437906692823575, -1.9863162085257904, -0.015474311114087508, 0.9982834425745868, 0.05856139972204008, 1.7321643366341588, -1.1314967785482781, -0.5880261326144888, 0.6944640162741837, 1.1139844760662585, -0.44606244383615007, -1.8789321611135565, 2.3385907487898048, 1.0816131973698315, 0.24565301701308848, 1.9216029263849408, 0.9537694485017949, 0.4049486792468686, 0.5050360238815935, 0.3602484953942647, 0.8730938527508774, -0.2531479808147306, 1.3143410292934021, 0.3804887744626112, 0.11263693107591555, 0.9564325462016978, -1.161903206949701], "bias": -1.1786298194064937}], [{"weights": [-0.3984922477434172, 0.09406681764062313, 0.8980875198970751, 1.1592665743941284, 1.4938319009931553, 0.21679185467393025, -0.9681241611471438, -1.508774775807266, -0.3133336922616216, -0.7562110960830487, 1.9414714670714615, 1.665824537716665, 1.4083578485803625, 0.4871760626024102, -0.7522448642882668, 0.15817666553827414, 1.1352899500039102, -1.9765792365159078, 0.9610679527374517, -0.5690209099578595], "bias": 0.6235455927119571}, {"weights": [-0.13403359907214152, 0.1591258206557793, 1.2394814699981225, -0.28895627089198306, -1.37564136676961, -1.5966208442818652, -0.7961321809786959, -0.9439964667946912, -1.4294186877951383, 1.796569330499611, 2.3834964892119004, 1.3953117335725962, 0.7112340347163959, 0.32775479827339205, 0.7843869702371354, -0.265143589007917, -0.7377336770152346, -1.7069633897863268, -0.6765278686529186, 0.32444243574756804], "bias": 0.14338190389728792}, {"weights": [0.7154084992716117, 0.4508234958812044, -0.03852132834156241, 1.4076127293071121, -1.7357409679694376, -1.7032657360371388, 0.4527845172930784, -1.5463488025773884, -0.1141718317891467, 1.6005955380550787, 1.46969784614042, -0.08013125304645496, 0.2934445016266646, -0.2184994534141822, 0.20975794177241058, -1.1281866456389942, 0.47282695930142216, -0.7263134013051853, 0.6203973427587985, -1.7473329872908139], "bias": 0.5716473806834836}, {"weights": [-1.4656840398891655, -0.07248210264326452, 1.10638992033926, -1.544280749512923, -0.2523064022498639, 1.6516244563192946, -0.07844446031788022, 4.382101218520474, -1.6915396111708203, 0.2329354671616364, 0.0033582791336667084, 0.1495636356372709, 0.6167776771526287, 1.0487348918749666, -0.4712625167937545, -0.027784819689423257, -0.43742012186001616, -0.07931998391177003, -0.6409538627714314, -2.9771419131895462], "bias": 0.3717517206852732}, {"weights": [-2.057175618765664, -1.2266650323721064, -0.6544632651381578, 0.6779692286410248, -1.0353184349597258, 0.7880786528162649, -0.20739105042789516, 0.3480793683732473, -0.4954009781870633, 1.1827212037646866, 0.8590861378113526, -0.8891561756776194, 0.07208705537710813, -0.5301929318153005, 0.29532756505491586, -0.8644344990351613, -0.2009778754001144, 0.4221323344314321, 0.8126755846472292, -2.0666018244347524], "bias": -0.2152350741284102}, {"weights": [0.8631802331874665, 2.0199019031956924, 0.7095524469289434, 1.8803110755281731, -0.7687935240193831, -0.4030238635316514, 0.39887905682360786, -0.27898303668861535, -0.21915522547192356, -1.2690509770556937, 1.2798206696095569, 0.39994461266396647, -0.02730817437448274, -0.6005538767378358, 2.6682357089790862, 1.789613902768559, 0.902762523615536, 0.6681105645518561, 0.045346238062185296, 0.40760621320043305], "bias": -2.7213316494569066}, {"weights": [0.3213781715423414, -2.0232391895487147, -0.2581436441293387, 0.12395929165768338, 2.2740340843735383, 1.5943065203287, -0.4474147706085152, 0.8870129549351891, -0.9699490693335603, -1.5458807020568608, -0.9642666744516166, 3.104012832909163, -0.05162681360356533, 1.2549243891570314, 0.5888784777589215, -1.1660762268155271, -0.5210265571130691, -0.5939014757339341, -2.0247667042140858, 2.294012435343811], "bias": 0.45583614877918904}, {"weights": [-0.6436979557653492, 0.5083819767968735, -1.8904851767981972, -0.6369669187514848, -0.2883938733613067, 0.4753716480377089, 0.6261151818697591, 0.685112753305177, -1.969334726461996, -2.021622918598575, 0.13487850254259925, 0.861692406943231, -1.1586264834339974, -0.5689314856896883, -1.7582174004108335, 0.005130130608259259, -0.8821755073437714, -1.8786413608606942, -0.21667932611862736, -2.108379431570698], "bias": -1.6767853872335008}, {"weights": [-1.0099659930888374, -0.8135699952866999, 1.2029629642613824, 1.943463268093431, 0.008810107537224526, -0.09938789235554946, 2.4689008222367295, 1.7260770620305819, -0.7322084955432714, -1.918038374059172, 1.6975752066896395, -1.3509578438068768, 0.45132119168687984, -1.7240719653796848, -2.439135072803949, 0.056642001588132485, 0.05852087461634495, -1.6410618320573862, -1.8808243680857477, 0.07559854674974123], "bias": 0.40576939414684826}, {"weights": [-0.9313666274631835, 2.9810751314094244, -1.2200765769796882, 0.09147132381922468, -0.3895292133094864, 0.6480627975789353, 1.4792629049564352, -0.6951108087889054, -1.0767908574688696, -0.4188874356128276, 2.768957735987967, 0.8268192882013494, 1.7409843852762252, -1.3261386853465258, -0.13438097771304736, -0.49658244285839515, -0.8368374928885058, 0.6487251412508326, -0.868091685151465, -2.6173409370029614], "bias": 1.0033251561811607}], [{"weights": [-1.4986147023880911, 0.410381599520025, 0.8693070098315383, 0.1649531144411524, -2.2161794278238913, -0.334726998139803, 1.3726643503033755, 2.3347302073086955, 1.0713807890164067, -1.4754656365650773], "bias": 0.28418749085208705}, {"weights": [-0.5304293210468354, -0.050555006259792035, -0.7128740171641124, 1.3968145627847766, -1.2656660839043128, 2.535595175155462, 1.713384075496104, -0.5874924631367344, 0.3194106365287384, 1.6032507218592968], "bias": -0.585662052059997}, {"weights": [0.16743099805590764, 0.4843410634631913, -0.7496162690244434, 0.47247964208107185, -0.02193309315913619, 0.081849630708071, 0.437953127209908, -0.1045697685148072, -0.8294091213000103, -0.9179253585638796], "bias": -1.1036852249179285}, {"weights": [-1.6970985214520697, -0.159548264635486, 0.4006480157350234, 1.779161550336976, 0.7860714647145812, -1.3384530238009795, 1.2353515531227854, 1.5154171707411268, -0.2630299967254316, 1.8821857146427914], "bias": -0.6560992830964749}, {"weights": [-1.3515863892252098, 1.6833054876176872, 0.8064955245944305, -0.4748040751573378, 0.978168644908403, -0.03164614338819441, 0.8618846813449621, 1.0117606472319005, 0.9611495700176209, -0.32038515829152686], "bias": 1.8429299039447944}, {"weights": [-2.216980282325043, 0.6441320313723979, 0.7456249593220041, -0.06344916414835544, -1.5674827877934812, -1.681385282433539, -1.9829790838719001, 0.31889056035370367, -1.8322556703346626, 0.8470161451397311], "bias": -1.596131806339423}, {"weights": [-1.1787120378919647, 1.329522950950014, 1.922355664431642, -0.3562932391519524, 0.7697231851213422, -0.7348222881154968, -0.8428313592805705, -0.20169951268882702, 1.0634685983258914, 1.5184869449647815], "bias": -1.4393083007484762}, {"weights": [0.3749486563058916, -2.7743146345981953, -1.7521319074622532, 1.352535442154935, -1.9917346297050185, -0.43979737298386157, 3.0618160567266623, -0.7903241215717899, 0.047455667546605074, 2.8423047190635358], "bias": 2.578434695924315}, {"weights": [-0.3972496188131245, 1.059341223046535, -0.29773948124400834, 1.10806979574767, 0.6834580539985079, 0.7052106131129797, -0.4707229056398115, 0.520650945706354, -0.26340142147700535, 2.3872955454437412], "bias": 1.3725708803728476}, {"weights": [0.35050217247982596, 0.5976297652154812, -0.056892279247582445, 0.3938936400911379, 0.9972054892585152, 0.46564078283946403, -1.1640094501344862, 1.9118773406803358, 0.5897682650263307, -1.0086864480235855], "bias": 0.6621516204563491}], [{"weights": [0.9853473953112706, -1.2465154310320254, -1.2620568271884396, 1.6367981292959841, 0.04618589865627745, 0.7782218272075039, -1.1549880779881485, 2.401602214865598, -0.20008203149590065, -1.3233134440288818], "bias": -1.49549016084755}, {"weights": [-1.2289707940863996, -0.4311009061467467, 0.20588451858491036, 0.5285181126829546, 0.4490400883665064, -1.1450014137934383, -2.3588856647636183, 1.3029529790868508, 0.7528125010133631, 0.009426947871988445], "bias": -1.7694655846361094}, {"weights": [1.0270671254026726, -0.05909463721048658, 1.6163269509314186, -0.5397020123621097, -1.8687614072486232, 1.7774351324001296, 0.7154759983813388, 0.5275793368614683, -0.8829568875216539, -0.8314645187738017], "bias": 0.534988353858022}]], "generation": 1000}