{"score": 128940, "inputs": [1, 0, 0, 0, 0, 0, 0, 0, 0, 1, 1, 0, 0, 1, 1, 1, 1, 1, 1, 1, 1, 0, 0, 0, 0, 0, 0, 0, 0, 1, 1, 0, 0, 0, 0, 0, 0, 0, 0, 1, 1, 1, 1, 0, 0, 0, 0, 0, 0, 1, 0.48, 0.36], "layers": [[{"weights": [2.7739604203949657, 0.5202209392166137, -1.3284505926622243, -1.8280521038938613, -0.22262947658500226, 0.7391236202226841, -0.8033776684925671, -1.187243953162832, -0.22203040816127112, 0.7631475925878162, -0.053553995403528565, 1.0522185847014685, 1.8046652241362906, 2.2207620949090567, -0.2786529626687197, 1.6583394196604881, -0.8480733820644287, 2.054673359874381, -0.4144076275485808, 0.7144339605857097, 0.2319640775060462, 0.6274801218694985, 1.8089150835933194, -0.5696149177881, 1.1167568935671364, 0.914896141478799, -0.07563674289169997, -0.5120017154511358, -1.1829836463844603, 1.1029347105518785, 0.353987827346468, -1.4856685020390874, 0.471450473920687, 0.6655757929385404, 1.9412086810214084, 1.5499005301734423, 0.3330772717787211, 1.2610986375250521, 0.09520611000928805, -1.2821980345623207, 0.2592332585564896, 0.4637126599158687, 1.051737834985992, 0.09038493942461151, 1.172958318659174, 1.4198439242532719, 0.12241953806874192, -2.4078447759838197, 0.6752862143269376, 0.21437340328270382, -1.541945594872469, 0.4416827482918263], "bias": 1.6901683112896209}, {"weights": [0.191751603828955, -0.37527601434150526, 0.7234730469073565, 0.7701957233259267, 2.941642716833739, -0.12477193104025847, -0.5726339534666747, 0.42460586588912286, -2.328094036099498, -2.463348314416573, 0.7665177569822715, 0.5186217386533345, 1.9856194549217945, 0.6062454813766396, -1.1628224006194874, -0.3583491927241846, 0.3437518432179819, -0.7266683852635054, 0.4264637639079559, 0.5563359440440819, -0.2577834490214966, -1.0047703079988541, 0.16322792099576588, 1.0821526264641894, 0.3401481760156508, -1.0905967931088691, 0.5064369871894228, -1.184703727203711, -0.08512643329700365, 0.7245254725248593, 1.4343133291786532, 0.03168355961427266, -2.1656141363900625, -0.4553614834402081, 0.6291731803681115, -1.5897737050397067, -1.0712370462163143, -0.44268863581005774, 0.1252379533982116, -0.1536675497485748, 0.6755497312287377, -0.18882225537367792, 0.6136984077787251, -1.1967095555581007, -1.279331237065482, 0.49554890770385834, -1.3785032760271168, -0.612602579619575, 1.9600023214678042, -0.9541683909870815, -0.7307725904863814, 1.5653218721564663], "bias": -2.1690277321721543}, {"weights": [-1.0757230127378787, 0.9166573638880078, 2.987182569607419, 0.663096540256055, -0.6993142259893366, 0.6833102040928303, 0.8712166079762546, 1.194137499441865, 1.1575003186826331, -1.5237398045063795, 1.07368104923265, 1.3775710677477342, 1.1685821570583486, 0.13150126166690843, 0.5974505852696643, 0.06862059570694762, -0.6521036028195586, 1.2936403109737764, -1.9366321223623246, -2.2947616979967345, 0.29900123824372105, -2.234941095074013, 0.8764675799521605, 1.5850248075857571, 0.63973029765536, -0.3638993000863642, 1.1359304411134734, -0.9421410854082195, -2.0242258519253333, 0.8739630188387231, 0.7897299983895063, 1.5388001573747625, 0.8534936305664063, -1.1814858895055558, -0.28238779369011213, 0.9631698766822547, 0.18913650384794795, -0.2568945161154266, 0.6578544534857611, -1.9880671396400817, 1.613288260401122, 0.7192707331522941, -0.5032954066585074, 0.022722733896743064, -1.5049585016990126, -0.19721727193276523, -1.6034491842509901, 0.7655645523158228, 1.4421453447256871, 0.42849070917376675, 1.5626719788503083, 2.113672915973603], "bias": 1.7371164859097534}, {"weights": [1.6267159810368683, -0.6254883653023217, -0.5780042774708486, -1.6238774628164723, -0.3861275487667955, 0.7934477310260198, 2.234666366264144, -1.3361046836058752, -0.6022444713707984, 0.15326222024310493, 1.7435818568813028, 2.669560064001494, 0.2530028213407777, -0.27460200517821165, -1.420706545069962, -0.07843292298506893, 2.8584494380105205, -1.5760321095803904, 0.7263105390126998, -0.3398344767905149, -0.8668784028467513, -0.07339861242996279, -0.37406847597529774, 0.6961710174653849, -0.7673478040774161, -2.3133464039730365, -1.9208241908778911, -1.2813092176948107, 0.020851096657664714, -1.9300464630336986, 0.8230288236514987, 0.847613741028748, -0.663964184131542, 0.5360415650017823, 0.3355730512691105, -1.1088503364288393, -1.0779336129055272, 2.131055796284022, -1.8601155148364823, 1.5145917608397204, 0.9876416053174865, 1.8737588985442402, -1.0066111058735694, 0.16064024830290663, -0.5144602209724476, -1.1918626333597941, -0.7575470814504411, -0.6572349526833406, 0.5849342977722246, 0.6954545909535457, -1.1636380087703009, -1.5968892975158258], "bias": 0.7103271643649849}, {"weights": [-2.256572949310077, 2.1588241631298914, 0.36926459898630426, -0.2768863702230873, 0.5275397479526069, -0.5490667736719457, -0.5744269812970333, 0.9216396085823946, -0.36664286205367846, 0.16397389877911622, -1.4557798218670719, 0.4054794430965708, -0.619982731530327, -1.3917962440982241, -2.4202505223474757, -1.4888813723522465, 1.3817248701087932, 0.5578274868751683, -1.0200544145991208, -2.4104193971567103, 0.0239724204843815, 0.7427639795774507, -1.359994105676514, -1.3233574976787148, 1.6343684082693237, -0.49015316064292175, 0.4250472976319417, 0.39993416526508907, -0.615680225477047, 2.168805038352826, -3.18156000359072, -1.2928505829620238, 2.161131416378909, 0.16571400692576846, 0.4265352773608625, -0.38132211421510775, 1.0446374077791631, 0.0538290618200051, 2.0711417865403785, -0.4294634468182162, 0.2872802507462025, -0.7477123452799106, 0.8021868655584042, -1.7124203912514426, 0.04169532127610723, 2.4160426057082076, 1.795273831848524, -0.881914063042091, -0.11614598071490789, 0.45068444909512695, 0.15746620247895088, 1.3749161120705824], "bias": 3.526568756471634}, {"weights": [-0.9961822276080567, 0.09147141815032639, 0.3765200207696504, 0.3306301771702748, 1.3957931161664, 0.3199902602848683, 0.7260240446393542, -0.32271233304623614, 0.12540918879389465, -0.29628579887498613, 1.1983237227616048, -1.2631066271942613, -0.14660402510198325, 0.10000191368307076, -0.20994950448552024, -0.7375284763388097, -0.26011142171881896, -0.6821362765774971, -0.532515929597126, -0.12104408800228511, -1.1382846218528102, 0.44660065546869976, 0.688733159590019, 0.09658109333142667, -1.1783026795748444, -1.0761579520899656, -0.12154019170501063, -0.4465648203677054, 0.06224023619927903, -1.4955500354327573, -0.3682320332990626, 0.5338049976476062, -1.0831793142011499, 0.5707724291187644, -2.5235839372382243, -0.9567748651561612, 0.31287418658765426, 0.80485556769636, -1.5365021830470307, 0.7959891567415706, -0.0018423307501494457, -1.47093246611746, 0.8668694069310721, 0.11650748425217727, -1.1696971532721439, 0.9681258004991168, 1.0558436860420455, -1.0824773610470746, 0.9885407329447131, -2.2304896321738275, 1.894655035194833, 1.3048096247906837], "bias": 0.1470234721624858}, {"weights": [1.301620128056213, 0.7125700165099907, -0.11671173268137816, 0.7779569670575752, -0.21531853666635842, -0.16521191962913556, -0.9633047468974407, 1.357940331784502, -1.232177205673019, -0.007986534216736674, -0.47247100903456296, -1.1679718919500974, -0.6767791391143624, 0.5867941913548768, -1.2580667663918441, -0.3220147880288941, -1.3717953221568917, -0.5870554454288166, -2.408111840645317, -1.458090859964425, -1.6978410840655576, -0.7206379038838293, -0.5344923622532043, 0.8856275960876419, 1.2672460159293684, -2.529861133419862, 1.2205922518220307, -0.7208536593538447, -3.1724589517164032, -0.44277789765927467, -0.43765266409423054, -0.9325545170379408, 2.0227611791665336, -0.122738860110366, 1.1344444744808162, 1.8662302866539635, -0.42078240842533027, -0.9000015347597172, -0.6152705379030001, 2.119530685908486, 0.5475693126870602, -0.18101823967645203, 1.2530801608647075, -1.6816161905674802, 0.5052470278397196, 0.7321475038430612, -0.38879432953555654, 1.4051208732001965, 0.11853169136929775, 0.9870130773047711, -1.2626271637058182, 0.3146353656695558], "bias": 0.4645306623999902}, {"weights": [-0.10884243731870272, -1.0240801306496263, 0.8847557636014214, 0.2417879749202355, 0.30026186655851783, 0.056297861453524556, 0.4658724507900912, 0.8896713153244832, -0.06618327716316527, -0.6831922429734505, 0.38109598492867996, -0.2976847464776753, -1.6877980169691462, 1.1608759386117307, 0.24358478412283063, -0.6918989690122905, 0.7568780359571603, 0.8599701176779888, 1.2474134482739156, 0.7030122437647925, 0.48399052906206885, -0.22313550043656066, -1.0789394554861056, 0.07557665131170807, 1.0797828658895658, -0.6642047210903443, 0.5108078051014942, -0.024928392026033058, 0.11452484871431437, -1.952702757537459, -2.4436144354017544, -0.8994651603207717, -1.169453521641806, -1.7142019517894878, -0.11783149730602416, -0.7571353273969246, 2.374224307298038, -0.22212209614643655, 1.727341365154704, 1.913500324556885, -0.050153248261184336, -2.801602823156632, 0.8394155307937488, 0.9874505184876469, 0.5025872305266775, 0.9593654619084618, -2.553120360422746, -0.06487645478255893, 1.812271130019555, 1.1385626668217672, 1.622045995756335, -0.28033661641926144], "bias": -2.1192282210461126}, {"weights": [0.5287287830374429, -1.122749842429206, -0.3217815958116157, 1.7886774003505046, 0.8809948132318917, -1.4408171971416424, -0.06847412417500243, -0.4797776742272583, -0.8135237381152017, 2.302844827939426, 0.1540280105529772, 1.2181406925417193, 0.4415480899411334, -0.05238959876515975, 1.2916982481768353, -1.5649781238740208, 0.4220940923830207, 2.231104109391833, -1.1941991768738238, 0.4950049179738562, 0.8646238952796216, 0.5326595882436471, -1.024632504591872, 0.5859264242724488, -1.0368948120516828, -2.4623011262415515, 0.25549025091361494, 0.3200334218568111, 1.713301248985804, -0.05105680108583115, -1.7855717826539392, 0.8396588433809706, -0.4132968062057192, -1.5372763872361477, -1.5510858798195055, -0.9574576284620422, -1.4237402238579977, -0.9737270497158877, 0.6674945934155633, -0.8453190875104307, 1.4181451330781527, 1.3063331776055562, 1.1611217594245475, -0.03725897658939567, -0.7268362869186232, 2.3527974432239986, -1.0752450480404325, -0.037002197734777975, 1.0365059675051844, -0.5211187694403866, -2.4761417914431427, -0.9572272385526096], "bias": 0.6585834559591961}, {"weights": [-0.6006923109656215, 0.2100023106291932, -0.6417860230361986, 0.1675461109424747, -1.4062427931052612, -0.5209244816482015, 0.7462819846222248, -0.6704108831647987, -0.5884304535306369, -0.3504296637253432, -1.3108050858293507, 0.6182653642144658, -2.2773406807383085, 0.050741801715650764, -0.3383513367338746, 0.6373122894570028, -0.38341224987041284, 0.03777873506653695, 1.897404139988454, -2.8099192681746388, 0.07892269967441426, -1.2753576687716046, 2.110344505609775, 0.07777114078898137, -0.9972691806933105, 1.6084165777150976, 1.0315302422517947, 0.5055291135398927, -0.6592955651358214, -0.03930563950446947, 1.5857894369713192, 0.29317164006393237, 0.01107416617700499, -0.22674090303510486, 0.9596970434733657, 0.6572914998713921, -0.9048143149381651, -0.6800145037451987, 1.0631437864198863, -3.496807261508474, -0.9777478618384415, -2.071632078720075, 0.6775095254363777, -0.5783899375442263, 0.7765270088451921, 0.7966963224498683, 1.3673680706275841, -1.492161576246048, 1.8963645829021107, 0.5657909823069323, -0.515361653936511, 0.2631676171408266], "bias": -1.1410363815805062}, {"weights": [0.5276505466993731, -1.6781971110240284, 0.6788548297434996, 0.7579116992071037, -0.854644595343666, 1.6485174010756056, 0.0060390862431798364, 0.3123870285801865, -1.5170563045565217, 0.6221699101196477, 0.5187772106077351, 0.06006667260015153, -1.2603015992552695, 0.8063222634164176, -1.6463536010859448, -1.1203957081982434, 0.7621912124083032, 1.8721353426557374, 0.09426921547766662, 0.29307979552087615, -0.04005869014260188, 0.006361550972574015, 0.060029780982469416, 0.3391362670671818, 1.2504177528741458, -2.6325524742186923, -0.5006275196341875, -0.013631850762387238, 0.6490984422004944, 1.8745615053836393, -1.2628654810152464, 0.41060306768506366, 0.31882451439245374, 0.9137654349306843, -0.07150025204682509, -1.8562648471737395, -0.07405555080415496, -0.44049176895587394, -1.0207265257063998, -1.8521237752293, -0.8785497604183592, -1.816805055654993, -1.334157927821282, 3.0123382570895503, 1.8146624279108787, 0.9643895734197394, -0.052414123523846445, 0.5416324344333343, -0.04058567053759621, 0.5680326387011916, -0.47357441059801836, -0.00025261655137526207], "bias": 0.19074361015917188}, {"weights": [-1.204468814567058, 2.492883393653776, 0.8925517753613113, -0.7960927649185873, 2.174096862540217, -0.9229956297781801, -0.36656393148484084, 1.4817652637870982, -0.27323834985747764, 0.4541781320429862, -0.6399272892347659, 1.5718280386673837, -0.24614927447359874, 0.6333276774682552, -0.023067209621593476, -0.04768534759103546, 1.4846828157923984, -1.1576052447350793, 0.992928585976947, -0.43449520105320116, 1.5246526436080856, -0.9598364826003711, 0.22868186975663868, -2.6990535540121687, 0.8108167187617016, -1.7892026359841902, 0.6946124133067946, 1.9674565955576129, 0.25787246425780486, -0.23245764385287204, -0.5596437616453869, -0.5128501866017746, 0.396508486276677, -0.416632820200219, -0.6819005268819973, 0.8516077480329283, -0.00848113303123732, -1.5415007743501392, 0.1792373629063065, 2.148144082514086, -0.1450248286190815, 0.2044638370213829, -2.894680528324524, -2.426044658807805, 1.8941828438430925, 2.3530120353346073, -0.03623809389852817, 0.5811350727567882, -0.45671678465384236, 1.5319606311613836, -0.8708529396665841, -0.5585382234583776], "bias": 0.08151079456102137}, {"weights": [-0.14538711830571455, -1.6631650586292726, 1.7927147132201708, 0.23130855551828183, -0.07081942265546348, -0.25713499311729227, 0.07057314360901201, 2.050629825460727, -1.126906185548013, -0.708075951991745, -0.6161605017365266, -0.0699798007325573, -0.14472049478903437, 0.6756235897828464, -1.0849523850287885, 0.6712655713279171, 0.8610783293997802, -0.6059017632949738, 0.8716003871764098, 0.6995094299088518, -0.8375202894559493, 0.22481512237521048, -0.960878371871122, 2.5833641158908796, -0.800062523326462, 1.8320640561586585, 1.233629310236538, 0.24220015524834299, 1.395264405799757, 0.8495309795280355, -0.2591102056326038, 0.3004107875913885, -1.2773310396439728, -0.30490580445006876, 0.5289276297181316, -0.9494884201124019, 0.027674777799876288, 0.5920477365516196, 1.0371624312328696, 1.2759045885790934, -0.3829832224549322, -0.5636635921342086, -1.0522641907945247, -0.4526198085433214, -0.12483583553789715, 0.6956056823972667, 1.3459886923040512, 0.18700216118254825, 1.356797910949879, -1.004655388857687, 1.0903328039871896, -0.6167928771887126], "bias": -0.016629437455220497}, {"weights": [1.7187090084565735, 0.8361760814846545, -1.2947830008528083, -1.4094900816322438, 0.21114281748343405, 0.5806742749460092, -0.8572934020889911, 1.169965598092141, -2.5410526375387197, -0.5202930545273357, -0.06136949826638555, 0.8215721510850051, 1.4134892233907512, 0.6848468734153702, -0.5879184876357426, 0.2817367745391156, 0.5439016384624513, 1.1511535806897661, -0.8931623723549797, 0.734804480493175, 0.47193888339623025, 0.6655996069315081, 0.05803418312711511, 0.08422181468377396, -1.2189005138815219, -0.11155476319337093, -0.9126063743223832, -1.0957134575381449, -1.132332220597699, 0.24157131884788935, 0.20445537881156833, 0.007356940745848015, 1.2641221974644457, 0.032968013152887665, 1.484200238443285, -0.8109114905363805, 0.19395792463525408, 2.0720994915331645, 0.8494423113416849, 1.019606196922964, -0.2560167788942404, -0.1494720525774833, 1.4181001736965375, 1.0474264720747657, 0.02514630341827956, -0.45189684919245543, -1.3438341814049335, 1.9744826072624202, 0.10603895128454566, 1.243676840776877, -1.6093569327337274, -1.4628904870185475], "bias": -0.48849071204730965}, {"weights": [1.2409450920859102, 0.04908837051733769, -1.7846462878702023, 1.4915986769374752, 0.09825797974157541, 0.408634774563423, -0.9386979522674532, -0.8953723988642417, -0.3636887305973382, -0.34154153697572254, -0.5630393055688963, 0.6892528249866376, 1.4776474977847722, 0.04104685342552561, -1.8915232798382307, 0.011083536942606276, -0.13221197291677023, 0.4873132515037759, 0.2790110854379439, -0.2321418402177044, -0.6702493810241581, -0.5637528329320592, -0.8385624451336281, 0.7238044506848452, 2.3206620213507794, 2.1155471305943783, 1.5069052355223862, -0.9639194145083374, -0.6637713033405874, -0.08155718793159758, 0.32438634390630916, -2.218395235359881, -0.3618704653946962, 0.8257398604027877, -1.018189368545598, 0.9897867177706071, -0.8758999933733232, 2.8987021627734735, -0.46985554399712604, -0.6148614788031068, -0.22152610006291035, -0.689225665854682, -0.6997940833534539, -0.7348029223518586, -0.7733479829304257, 0.28033225856706534, -0.9686753101015051, -0.8638940177549437, 0.17792645905140164, -3.815572452343937, 0.5602374300458808, -0.2897918747989914], "bias": -0.3681604399736029}, {"weights": [0.31806562781979203, 0.5521130463888015, -0.10271271345677921, -0.9590657018190374, 0.5241534890890915, 1.2766042652820484, -0.36395623054030085, 1.9483154250450356, 1.753809134036128, 0.8267861893607314, -0.5261983491817038, 0.2497960922524335, -0.8187034135015218, -0.06520313745728545, -1.0836224476459937, -1.7639140207725825, -0.4252608276359043, 1.4451873517918723, -0.2813932870386403, -0.5299390160061145, 1.5407594537574465, 0.7160451242962281, 1.4571665691286209, 1.4029149933755982, 2.497703961931636, -2.981864821698446, 0.0778450918417585, 0.05759505038005547, 0.30030155188509783, -0.7928028405879367, -1.8649497982819816, 1.5286985150949448, 0.9533624000858881, 0.4447181613111336, 0.17827108153178212, 1.4543303747068952, -0.29507479317991586, -1.1776394407271802, -0.17170838422706775, -0.2406557926433815, -0.35426588097815526, 1.2267931854772907, -0.8067177819176016, -0.008964597486518289, -1.2360975776588243, -2.296117662406985, -1.6936862937812507, -0.39792369689614476, -0.8189629004589278, 0.4761281521618332, -1.7572829144857873, -0.90431257305938], "bias": 0.732304356237529}, {"weights": [1.0750392043563062, -2.8124692049766025, -1.9350317320065882, 1.0614180068149563, 1.3201173884848791, 1.1490182555975472, -1.727941943185408, 0.6155554395451435, -1.6024087318153146, -0.09697391395472377, -0.24708201626247095, 1.1306835465878946, 0.594340853241051, 1.193652223182894, 0.2420178424586213, -0.4845083919732951, -0.5297644224161704, -0.04924150652640008, 0.38677894223644427, -0.1976298400730761, -0.4199165222912181, -0.3267701373456633, 0.8550902572719423, -1.4299441575923224, -1.4059757132968118, -0.02574603444389456, 0.4427032560753567, 1.1266224789594967, 0.15445916797690498, 0.5449785141865635, -1.9040502937161485, 0.40528373108394666, 0.7511567765975433, 1.8711263551023585, 0.44010615422570776, -0.5347933729680232, 0.5492513002906535, -0.022981312737020393, -2.278994058162634, 1.1031979693352003, 0.4020104961943716, 1.3810936322001546, -0.651685819188146, 0.7519559938913283, 1.9348350419105247, 0.5149378822206581, 0.08619869600606848, -0.23420856516210065, -0.12695046555999806, -1.7861794842218268, 1.6440494058749298, 0.08881500573387124], "bias": 0.7993020923763595}, {"weights": [-0.5739468372904104, 0.5372638066933733, -0.1839083793648321, 0.9064945097177795, -2.6789651202753877, -0.19475556684527462, 1.0885271445235627, -0.9103091715705043, -0.6457704645514888, 0.4946550798519246, -1.2096032636989709, 1.195039776541587, -0.8521588097037381, 0.9483232224455717, 1.7988928730233145, 0.38311034456847143, -0.15045867717085087, 0.9320551577145522, 0.9391689098663312, 1.3966314617802038, 1.8912957873799516, -1.6030583728224583, -0.9745514701197436, 0.03273616204739965, 0.6865654294446917, -0.7281910708206437, 1.8497078403368894, 0.7518918734709064, -0.7287386753036931, -0.3838704108563495, 0.5880221061679813, 0.3187286595626969, 1.0404278318395803, -0.1291169186650715, 0.21924136948602102, -0.5171208563002938, 0.7686292513944668, -0.2770832375485083, 1.4916504194464504, 0.7295768271535779, -0.8625386805744804, -0.01012651146940488, -1.9820555038033265, -0.07368328954952597, 3.4334978652114225, 0.15710585368283372, -0.2600683698547453, 1.8791122503345914, 0.10874492446589121, -0.23896766933459115, -1.1389022940462528, 0.8838208102782964], "bias": 0.3942722453818538}, {"weights": [0.5988830444820618, 2.055236481631001, 0.720834251809843, 0.0845280347544925, -0.0463198506641547, -0.01717198624132263, 1.475082995773905, 0.756526385827788, 0.3579489885433089, 1.6588349813914103, -2.0440962573546466, 1.4519665484610504, -2.595739583271616, -1.9799654607449606, -1.3659561682721653, 1.1032081530978224, -0.14735709607334874, -1.4367787888718007, 0.767844549610455, -0.8216307696542519, -0.12209598769111898, -1.7205770013834258, 1.2874066635798682, 0.6900541176129191, 1.2537328325222656, 1.2919878514998033, 0.9256315245347411, -0.61071615166672, 0.2514430672050671, 0.039788434513234605, -0.790688483418116, 1.0996954238268177, -1.179287860072654, -0.8374715395083024, -1.4873667281527028, -1.6929533527844378, -1.5230964141457388, 1.0210226670843698, 1.6081244108350656, -0.9796433595682427, 0.1993575942808484, -0.9948681480306754, 1.1006208825921697, -0.790523992230171, -0.2860987594632708, 1.304004265891452, 0.04360867035517202, -0.31670394319349837, -2.3223251517437604, -1.2821219472248004, -0.11342636511609494, -1.470168110082492], "bias": -0.6604439164094036}, {"weights": [1.7718158019194101, 0.13906107544827223, -1.1191066667973388, 1.9749492293353195, -1.3289645494976408, 0.6566547526765065, -0.8737159238848307, -0.04232839238537761, -0.28166723062974874, -0.34595798381503035, -1.2772328171748553, 2.484828887493809, -1.3441195004066795, 0.27143791650012383, 0.06586598419457096, -0.003113717729196497, -1.4040856994544426, 0.8615680060752506, 0.6928910150509731, 0.044583449000865846, 0.38523122709490615, -0.36313696013737257, -1.3717760479030403, 1.3030306666764946, 0.44981168827669954, 0.9663000180048658, -2.4986729222761017, 0.3448093106384984, 0.6519860132176856, 0.597868108914839, 1.7214656891760072, -1.2413225646636268, -0.8227037490760385, 0.7980089395872823, 1.268088966163387, -0.07114950891624067, -2.260139047575256, 2.338121775677733, 0.7231652610518933, 0.22312869077546232, 2.2094072600546797, 0.8112121123999512, 0.6755739080339107, 0.7379488290830416, 0.03153975953405998, 0.5326154385416288, 0.10320271305500278, 1.291065726813369, 0.11915617830353445, 0.009652531923105778, 0.8489437174244641, -1.015380129383464], "bias": -0.9771756617224396}], [{"weights": [0.09998972223873556, -0.006165064435049106, 0.7908358432750842, 1.0193175608137548, 1.745181249481842, 0.2947147169935252, -0.878647924131306, -1.9248653234448787, -0.5569580182673468, -0.30901964589836983, 1.4317175611358117, 1.5280058883377987, 1.6881364160031864, 0.38530929243249057, -0.7133853213490482, -0.03194471803502913, 0.8302872433098644, -2.028509468267277, 1.0408654017512675, -0.3508053443654324], "bias": 0.9604457347085155}, {"weights": [0.15256670545983442, -0.017127384534327605, 1.002977599524909, -0.2951476601800083, -1.1258101660021864, -1.2512320056566204, -0.6062638563822726, -0.8798023363143286, -1.3230079039940048, 1.5944544197339432, 2.4896064320376285, 1.305215210525499, 0.8038924992587005, 0.5915204755400343, 0.8943377887126384, 0.02407049208695025, -0.886474558744768, -1.5519358848406115, -1.0851977319716501, 0.14923693506120045], "bias": 0.09391178383399021}, {"weights": [0.6702147518975243, 0.4159098824586575, -0.029097728840150994, 0.9538918024389358, -1.3745497293294084, -2.1492748735827187, 0.9078062298813425, -1.7350290065708134, 0.017761352983296064, 2.1340725127142512, 1.3340123395162757, 0.2992691429532054, 0.7255138710847099, -0.37852823730592167, 0.08369426172228106, -1.0892092956302315, 0.29547890424948553, -1.11446539531112, 0.4047416078465317, -1.8253824531951865], "bias": 0.8486775271964073}, {"weights": [-1.5140886096935902, 0.12516562997343397, 0.8084013752209929, -1.3992817459164129, -0.2962984391074819, 0.9590348646049857, -0.11296256833688842, 4.426738811931651, -1.2973520759577988, 0.37664319839308497, -0.17020667771604864, 0.6394523415992819, 0.6996858668691484, 1.311255076752531, -0.1414235223189123, 0.15467198446900754, -0.47932709658910155, -0.4754608343865849, -0.6883678774406872, -2.721078912717425], "bias": 0.10031813212935305}, {"weights": [-2.05986214492418, -1.3366841436170633, -0.16416467661692521, 0.7378045531723583, -1.0789900003374302, 0.5276479432696832, -0.05888157043415368, 0.4634795150806993, -0.5047685382097742, 1.2743487651339924, 1.267936358952399, -1.0871007828633026, 0.1296398471201694, -0.016670382641332304, 0.4950727162738555, -1.061054794637044, -0.1598419812500481, 0.24683909330174508, 0.6857781171194256, -1.7338988140953504], "bias": -0.04376128092573764}, {"weights": [0.930700303449897, 2.067878341453129, 0.5759364270922758, 1.851707827794086, -0.7783326575893719, -0.7623239632621188, 0.5838129460199203, 0.04744375795640385, -0.28615088673034367, -1.369993493484574, 1.2839170184929933, 0.5851095264896284, -0.10693353704453848, -0.5899301432253461, 2.662921419719857, 1.9628898596383602, 1.0635167879077017, 0.5938917078195218, 0.15921917438793842, 0.212040910837794], "bias": -2.183848433260354}, {"weights": [0.25172125565430814, -2.091659765427354, -0.2757305224237546, 0.5063539073211608, 1.9321217333149394, 1.7879505178228288, -0.5953022532991283, 0.8846676105311413, -0.9838070051641619, -1.279477722221392, -0.9100404231218666, 3.106515765574874, -0.15134326388777858, 1.3666839018454362, 0.9193456034387884, -1.3597815610376864, -0.5625894916491322, -0.13335712947618444, -1.9355822969102892, 2.2829782054390275], "bias": 0.18264835065177432}, {"weights": [-0.5765398403249647, 0.5418419591199279, -2.1118768168916984, -1.08011289547413, -0.07837632323805027, 0.3699097028267267, 0.5912633964994862, 0.5901777432831159, -1.8761767391060784, -1.9234356805994042, -0.30880135087328686, 1.1234136951258027, -1.253427491202673, -0.3947039694558023, -1.71519660342222, 0.12819064320826257, -0.7378452098347303, -1.8414371145308837, -0.03134824926957505, -2.0185610502482603], "bias": -1.2321357540409787}, {"weights": [-1.2631955050707329, -0.46837195899889195, 1.8938876515191496, 1.8681730714452338, 0.17066253421388652, -0.23562710964250394, 2.423805333626808, 1.8083670796185125, -0.6320489280724141, -1.8972929079727914, 1.311248377531358, -1.0467342499939076, 0.11626982340722036, -1.6577199777673035, -1.971398013071541, 0.5007214944542866, 0.3886388499951403, -1.9257912612326007, -1.821758240195384, 0.03235666749007238], "bias": 0.5387570414270518}, {"weights": [-1.0016155113087877, 3.2062823623498073, -1.30660884295143, -0.16228736988556136, -0.3718964166741635, 0.5627197750212634, 1.5876131721983733, -0.6012543920934206, -1.2222690881720317, -0.3503872365414452, 2.5088649214066265, 1.2737653917500569, 1.6747512771889923, -1.5162545647909043, -0.2587374684730474, -0.2750676203931164, -1.0079581425254518, 0.41743256374195387, -0.4823799047757163, -2.632640730700966], "bias": 0.4316712640275231}], [{"weights": [-1.6697003504217909, 1.008060967066389, 0.7672794631794602, -0.15365552534298, -2.203535871518042, -0.8503333952294271, 1.076670395424021, 2.18269869054733, 1.1927908868156591, -1.5101989950427293], "bias": 0.225569214971742}, {"weights": [-0.4848056879493031, -0.002123308530007917, -0.5456629096415976, 1.3856329224000765, -1.2059588144086528, 2.302133010809163, 1.7200733973562579, -0.4530349083434012, 0.26374031305316353, 1.491050075765071], "bias": -0.9264235149302879}, {"weights": [0.27174076851780093, 0.5195210577368403, -0.2628815926192357, 0.3788015185789111, 0.2974813761372065, -0.08590046379953709, 0.7781568206825316, -0.23132230891463718, -0.540863387781503, -1.2898970349581873], "bias": -1.0954328298576284}, {"weights": [-2.128667339795129, -0.020005578592485307, 0.5983783997356786, 1.5987262386432857, 1.0851548403582059, -1.3070669408183049, 1.3567119056019772, 1.4684343234990898, -0.2113742259358293, 1.9057411544866023], "bias": -0.5635462883952637}, {"weights": [-1.2761130897702224, 1.793011324666982, 0.7210824615693618, -0.23835691231494027, 1.033234118630819, -0.40638890178606224, 0.9538160169175827, 0.7556743931606638, 0.5805734954886852, -0.6083521669484958], "bias": 2.005781244509431}, {"weights": [-1.7518603777437172, 0.7477241597737729, 0.9388102671206945, 0.10968259152562923, -1.3750615383695675, -1.8305272601600031, -1.7601388673698626, 0.10328520275021066, -2.1242180443844756, 0.8404478745627426], "bias": -1.5721746577757458}, {"weights": [-1.1172794368661179, 1.5224647509721223, 2.3464183671528773, -0.5096723724135963, 0.6499293557508685, -0.3397747684453317, -0.7188437371248473, -0.5157635708053134, 1.2743331996635674, 1.0224478500727723], "bias": -1.4593091765451047}, {"weights": [0.31404456940743414, -3.1945068003181443, -1.4439500137659111, 1.355659471789742, -1.9300130088106748, -0.4752923072837626, 2.762232112301681, -0.7609540639427391, 0.35961457731289886, 3.0512842247672567], "bias": 2.41739540607257}, {"weights": [0.1664461521652995, 0.7341188248070497, -0.5291423778989518, 1.381706558090364, 0.9243901935432473, 0.8195377806035561, -0.3810157162312963, 0.7840888082827489, -0.4674637019638238, 2.0221836349125883], "bias": 1.3696120297922183}, {"weights": [0.37404153591167316, 0.6227691639643448, -0.5415571135016481, 0.3425767354833827, 0.5306738241738187, 0.2592900469982707, -0.8709567255718229, 1.4351808945116105, 0.7357833217736894, -0.9345628857075593], "bias": 0.7949473219712875}], [{"weights": [1.3088928086902583, -1.3660588955856374, -1.599842395418905, 2.0994319220660627, -0.3263836629003124, 0.6515262546468255, -0.998203258974292, 2.3964538128590265, -0.5001820629368063, -1.3785346227478534], "bias": -1.251770568771697}, {"weights": [-1.240741753841741, -0.4830938071317966, 0.009703690147670668, 0.31749549616068856, 0.4801502519966221, -1.1000279448911376, -2.2374833623355332, 1.2268706338583268, 0.878922671257054, 0.1664269629334844], "bias": -1.7538334238909743}, {"weights": [1.5134043652610722, -0.3277607830012306, 1.4697494865165426, -0.8959114806315831, -2.02204998416004, 1.4938373599837205, 0.7495472392454696, 0.49336621929099844, -0.1851674485831401, -0.694833699530669], "bias": 0.7514967368326329}]], "generation": 1000}