{"score": 128964, "inputs": [1, 0, 0, 0, 0, 0, 0, 0, 0, 1, 1, 0, 0, 1, 1, 1, 1, 1, 1, 1, 1, 0, 0, 0, 0, 0, 0, 0, 0, 1, 1, 0, 0, 0, 0, 0, 0, 0, 0, 1, 1, 1, 1, 0, 0, 0, 0, 0, 0, 1, 0.48, 0.288], "layers": [[{"weights": [2.933980117448558, 0.4066376216343658, -1.358265743304126, -1.7910521103866666, -0.35901039893196185, 0.7265592098202215, -0.9815087838901249, -1.1688911007916865, -0.2714931485537118, 0.8549122118541067, -0.14155489006037023, 0.9976536579585059, 1.9131659562022278, 2.3984545200024416, -0.021271230443678735, 2.1099829340365837, -0.7197708823409068, 1.7521656828874075, -0.5375636095253309, 0.5815709418255783, 0.4080376347473369, 0.6265866888119095, 1.65016599385843, -0.898780284586471, 1.4236007371474313, 0.9346157816861862, -0.12806718548542828, -0.4963984971919405, -1.4552984314553699, 1.3021803929757283, 0.4433197894350335, -1.4913696915198886, 0.19802381994890897, 0.8611727380366627, 1.710701434452474, 1.515699941238976, 0.3181446478786022, 1.3864842947515563, 0.11321538149353269, -1.246566306769432, -0.11705023130462291, -0.04183574237580304, 0.9140679876287953, -0.04718344728342627, 1.2821288998031535, 1.5767095252535201, 0.027681459687891513, -2.3694900713243503, 0.8433270790700178, 0.2987066316715466, -1.5427838843695838, 0.6348286453759968], "bias": 1.757121332026269}, {"weights": [0.18617097033227875, -0.20919217175487886, 0.6813753129446959, 0.5705870175370978, 2.9668417007316377, -0.052946053571588436, -0.6194275165858036, 0.2367676854870702, -2.2808576610694797, -2.3225820988915764, 0.5333508538017525, 0.8463855483617275, 2.1912165957771426, 0.9223318621262495, -1.0493261545931294, -0.4615309169843595, 0.4720378782073081, -0.4524496100884558, 0.25831297021846167, 0.5760950769361162, -0.2874557455605774, -1.1618671803421343, 0.32374369739992614, 0.7932390834401575, 0.31842700011601655, -1.166158657577367, 0.62333790053769, -1.3175612693047665, -0.016880040653902306, 0.4919122416598434, 1.6328426845601391, 0.22133128220158416, -2.2825189018410588, -0.5061746175870205, 1.0269770254797383, -1.642535906867442, -1.2700436462908609, -0.725424965624852, -0.17990640054285062, -0.21880681172850494, 0.6972787953298816, -0.1380570842209329, 0.5988797236553938, -1.019358092576894, -1.3654721357554098, 0.48657101548594284, -1.5454925611021344, -0.7144048356513859, 2.36306232306382, -0.9620798245733, -0.6095194297318945, 1.4117471822544547], "bias": -2.0633105798348135}, {"weights": [-0.9281223463370106, 1.2341541841310417, 2.6206026092913173, 0.5709807556921485, -0.7394932808802996, 0.6925080570964555, 0.8574044667529022, 1.3056899274628577, 1.2281118461015645, -1.4752775105671998, 1.0640577465468444, 1.4527525762925628, 1.0720353043542639, 0.17147458011741937, 0.4919099738888138, -0.027502679848557643, -0.6337116754673227, 1.3722408876643417, -1.7556950055923022, -2.1983142652643326, 0.1801148812761595, -1.9698828974995195, 0.8239861266562687, 1.7094842405549557, 0.487455686520766, -0.3109675234664137, 1.02872158826959, -0.9289956198610707, -2.027531744341174, 0.9744397897817573, 0.8208151719475618, 1.4280366987363218, 0.8637690318283207, -1.0249667115392505, -0.233717074440079, 1.0808343408944847, 0.3824666450650123, -0.28164311870316644, 0.5135049225610296, -2.144839234653816, 1.5645209047090782, 0.5586209605059668, -0.6642018256862372, -0.06310959770138169, -1.4666202642499084, -0.2596220467747649, -1.7470001916048363, 0.5546570219937924, 1.3188571444600121, 0.5125005086147367, 1.479872420941423, 2.144609240266388], "bias": 1.8461257325823413}, {"weights": [1.2275799582941054, -0.6471687491388949, -0.42319288919625353, -1.6687822104744243, -0.5089533516711162, 0.8233077880002158, 2.244629501361013, -1.1996421585806056, -0.752404199706902, 0.3501742951583198, 1.7854642447791187, 2.667452410184002, 0.15452715671251457, -0.18179288482118136, -1.3544583328218305, -0.22033450645890995, 2.986478556572213, -1.5117370492569433, 0.7638100078922364, -0.3353829454711265, -0.766809450875475, 0.24421134445473205, -0.27734770047148793, 0.6911139940180677, -0.5445049708214778, -2.203553936036689, -2.0422919521493608, -0.9648338348295409, -0.0854597776876645, -2.0174443118771905, 0.6353414084498673, 0.43092621164696937, -0.514191565018584, 0.3555257928839205, 0.3470545029168455, -1.0154242109136313, -0.8220548941441108, 2.2253977012524597, -1.836953077544056, 1.2120323586507942, 1.0960424313894195, 2.0275418827830984, -1.1764425462886205, 0.08456095068925568, -0.6300455255109205, -1.1054879576868846, -0.8989061628892335, -0.6629028080956993, 0.6231601982644813, 0.7819802114805796, -1.112115669965214, -1.980670908353356], "bias": 0.6712614765796594}, {"weights": [-2.5155096612826786, 2.1837248854261846, 0.411438055097357, -0.45916710112130565, 0.5020937042134854, -0.6373209545795264, -0.37728735750999803, 0.8586422065220194, -0.5204603379662438, 0.08231711819983356, -1.3038514093957312, 0.4840973277687878, -0.7953748944730689, -1.3775653555877492, -2.5059441498549413, -1.5478815791397549, 1.5611353720752177, 0.4505832050506091, -1.3447563290424334, -2.227582334328043, -0.28645792364992895, 1.2124948108027513, -1.2577609220036494, -1.0287876714028878, 1.6097499716772543, -0.3045595820790436, 0.3677159835913214, 0.1209535867285389, -0.8150179781664681, 2.203160658793715, -3.0879488546673493, -1.6992429458212739, 1.748559226160444, 0.17050348839395862, 0.5988115700147552, -0.22829174904206023, 1.0871120851770781, -0.10711699589062837, 2.3283377084064254, -0.4781753657332919, 0.5262369810427481, -0.6160546712849313, 0.6083392686405587, -1.8533075826267753, 0.04685739993833443, 2.3981277586738923, 1.325960919262171, -0.8738371273490404, -0.23846745557263488, 0.40247128656521614, 0.23475341325481458, 1.067738345058306], "bias": 3.3682751559693793}, {"weights": [-1.3402346608118885, 0.00698581261826714, 0.4967050957425518, 0.3429577843384641, 1.4673908484661515, 0.22119079982833867, 0.8491987674524394, -0.42501407163165894, 0.23527187987141532, -0.14336916427508828, 1.1139464493380626, -1.2460640007628383, -0.19624863205691917, -0.029558704897476973, -0.377294967345836, -0.3791867716492961, -0.09168230357554663, -0.5905152270134238, -0.43286336084255783, -0.07687451477462853, -1.3046447515619688, 0.23352097670074118, 0.614370222418422, 0.32837769670188144, -1.2172169401700033, -1.2141388950876264, -0.38352652171202817, -0.46283636751802026, 0.17167958583520881, -1.60746815054056, -0.5112365375043559, 0.5373072581098999, -1.1351338958275239, 0.20088375078981907, -2.3057097736534926, -0.9535599744593902, -0.0895757331852226, 0.6288102775705641, -1.5193791055869648, 0.9271044138056928, 0.012069354116291536, -1.7282503249711103, 0.9777452289228119, 0.047332252922016316, -1.1431121153909019, 1.1535372494735847, 1.0935917326423847, -1.18533994017166, 1.2938002362142662, -2.26658739480146, 2.0300698211052493, 1.3872713531958611], "bias": -0.06690899666065292}, {"weights": [1.129305334986142, 0.5199218222025034, -0.04391983062827501, 0.8904366483990882, -0.28589247593479267, 0.11148157057598951, -1.049894987461114, 1.4452339309494566, -1.0708927953367149, -0.18367899089060905, -0.6502942708704789, -1.215678421569027, -0.7344151961228009, 0.39073828240416314, -1.252970545838927, -0.3241479672326458, -1.5156098942801943, -0.41986592911744225, -2.375292316267973, -1.3671503565989829, -1.6269189312277792, -0.6385681356891995, -0.6724802448515541, 0.7355706284242355, 1.1876210744294373, -2.514784177258958, 1.4561659848408397, -0.6952481197438161, -2.8478396035180027, -0.3702025410016699, -0.11522427658309947, -0.8774516180174801, 1.9396566871882026, -0.05736997214585304, 1.1369934981083505, 2.0563664126135452, -0.5070504049335071, -1.0611840913996766, -0.523201153064352, 2.165662508741417, 0.6663419677395743, -0.5372056672507532, 1.0976690021514122, -1.4936953735407845, 0.8842969243173182, 0.6270446306657436, -0.20369900769287758, 1.6103183733539734, 0.10913107597941957, 1.1137824108148613, -1.3825813069380153, 0.44914433347514937], "bias": 0.432067705639086}, {"weights": [0.0005958042274814279, -1.0226246933397096, 0.9210170468994651, 0.20445603796707065, 0.21577590796155932, -0.12189723246008705, 0.5522173921953855, 0.940087384298988, 0.2407206286173269, -0.4807696528691078, 0.3348709676239307, -0.46745314506486485, -1.6139454287168387, 1.2270678789811986, 0.40360520735455313, -0.10829961426404378, 0.5798814274852258, 1.3188880067900062, 1.1916331863055152, 0.8609555455888884, 0.799795471865357, -0.5962773339902084, -1.160653155990241, 0.05225601737487531, 1.3039975456719906, -0.6958304187962903, 0.7621581000919118, -0.19266868341311907, 0.31499885995329224, -1.9759240292153784, -2.59596984808326, -0.9455300914836167, -1.3182861540112967, -1.7431460657479976, -0.19071859524518625, -0.8414915460882229, 2.453451218326023, -0.1997460606841942, 1.7036413621240836, 1.6931831539285063, 0.06595269079543103, -2.8101161232655003, 0.7291706472600831, 0.9926158746697914, 0.4796243400824625, 0.9538417701291759, -2.4524693125397654, -0.1218181530845533, 1.596095273365474, 1.2434481188919257, 1.6162817141305927, -0.27470042310678716], "bias": -2.5598301607973637}, {"weights": [0.808449168712452, -0.7858733565810481, -0.2825587920164321, 2.0120592685942094, 0.6969375871162458, -1.4260480169652343, -0.21366744925761993, -0.6691268601938156, -0.7168226659707124, 2.1314305945274734, -0.022193753405853278, 1.0300892639156678, 0.3435288497194575, 0.08705318270159756, 1.4506909535086492, -1.3558583182896782, 0.5214549085196981, 2.220068414333835, -1.3553882439127225, 0.6341154354062855, 0.8934952220301262, 0.45128518703843107, -1.069237128239524, 0.5241963870086368, -0.8952313771907872, -2.678418177330278, 0.17586075766442233, 0.31373609584074186, 1.6481910892248397, 0.06391628341410865, -1.758875969787363, 0.9467397366066825, -0.4041437228913064, -1.879630346540487, -1.4059907704794345, -1.152863041598926, -1.472340062327033, -0.9497721242479911, 0.5891863377800572, -0.6629577500116699, 1.485525232841868, 1.425750405672413, 0.7782486826287076, -0.14577615476039332, -0.5363798084201409, 2.319263732584757, -0.9287499802295072, -0.18163726519834644, 0.8859708321502988, -0.8133120728545007, -2.424161121258945, -0.9604185386387087], "bias": 0.5659999137604466}, {"weights": [-0.502837304892923, 0.04375931466702787, -0.7212568342277845, 0.15484454703546702, -1.6495722186602113, -0.6694186444514776, 0.628594429874533, -0.5880215137370897, -0.5577672465468756, -0.30263104472913444, -1.3844483825087692, 0.7073456034720198, -2.452959413321616, 0.16319164600080585, -0.22903856502257486, 0.8159166908484292, -0.30401791186938426, 0.08211227954697076, 1.5907583306195143, -2.6111877466015043, 0.13596377917220437, -1.1087114947486367, 1.8783671014521561, 0.2051837390044472, -0.9532282273228017, 1.791134499247069, 1.097374376662568, 0.6424677282254005, -0.7969300448265211, -0.19940556255452668, 1.590586519704515, 0.17986451558653174, -0.012913925698040618, 0.08587041370153159, 1.2324193490096134, 0.7181748298752826, -0.8960401350526784, -0.6898626165577855, 0.8906171828982206, -3.4478072904150956, -0.8173195356966779, -1.88897856078492, 0.5020024365151754, -0.4129111855766603, 0.7240096153167481, 0.35757282506648563, 1.2559314503229018, -1.5179966479905318, 1.5125602449932394, 0.5789656901619521, -0.6257752488439225, 0.21852023286470074], "bias": -1.260187268048793}, {"weights": [0.5846174733398165, -1.6427333188057318, 0.6283241715030325, 0.8530046374559335, -0.8304095343896987, 1.4536942084719944, 0.08229394568183393, 0.303784831533323, -1.2996249976213003, 0.5293980275476928, 0.4982695371710252, 0.2390238840351503, -1.3847116140998192, 0.750811768214632, -1.7117875137731513, -1.1349865455842085, 0.5255280821499588, 1.7620851190388716, 0.2920918448673986, 0.4183093683338253, -0.17841023410959317, 0.09671484232397187, 0.02821472271065595, 0.5757764365044148, 1.227456546523684, -2.1767243346725853, -0.5010146333584966, -0.020919503376960025, 0.6397813259380847, 2.014533975520519, -1.1169465026664949, 0.5140864896010797, 0.17018115167664163, 1.1125417365357917, 0.32627502721981966, -1.875163463390537, -0.11954367161746948, -0.31389954810437387, -1.024188829107028, -2.038726397908656, -0.954351603416074, -1.7145254507659304, -1.431283104587384, 2.636225847872935, 2.0330056748646967, 0.9529764089887166, -0.12786059048540616, 0.5654767021037985, -0.06150824223168669, 0.5771455819480601, -0.4423971876400148, 0.22370024698913477], "bias": 0.011312735863542062}, {"weights": [-1.397364800097761, 2.544140342007216, 0.9996977131742668, -0.8695938738568896, 2.389349148208864, -1.303297827946516, -0.39943622210818114, 1.4455469706611317, -0.05326200026795741, 0.1809651112552284, -0.46928750774724554, 1.3057199426196724, 0.11654956156938695, 0.46390026792136935, -0.0019617021186833505, 0.09283331438153927, 1.6796336168928259, -1.1289659021400549, 0.9134781950067989, -0.4570815300338628, 1.2428543856178222, -0.6647133816158565, -0.02081033620562317, -3.2699376025956246, 1.1177197930655702, -1.5626158602660958, 0.8274226087461909, 1.881809212722524, 0.15267511621436222, -0.12364235742302149, -0.573492360588655, -0.7023836656901096, 0.5569368185637479, -0.15927358758621424, -0.49722344445708366, 0.6831706903509205, 0.17383472860986954, -1.490066089681443, 0.204052163515037, 2.382567048660483, -0.6872580264868582, 0.2708118336988215, -2.7569252919323812, -2.5004928009699148, 2.0333627315113967, 2.301008416750703, 0.2088521570574719, 0.6467828750839606, -0.39485699978718297, 1.8170768617456654, -0.8323546004351687, -0.843569110768372], "bias": 0.0782262530085871}, {"weights": [-0.09452183800216507, -1.2700686385568065, 1.7718460417545951, 0.1540426996942823, 0.12065072930951432, -0.25198826107856664, -0.04903946992298408, 1.9744009449257387, -1.0280307289528732, -0.8495112065767954, -0.5068223158108136, 0.04077071112800282, -0.16692859631310142, 0.8028915731730377, -1.2632119348399207, 0.4829253518141317, 0.5983636954589547, -0.521232929425028, 1.0752751459646817, 0.546754844113055, -0.6405417597350878, 0.17510095600490483, -0.8988324937856549, 2.7849517163617676, -0.7890747435079171, 1.8490840930769783, 1.287347307451995, 0.3320254662989709, 1.3919151331671817, 0.9469953990306719, -0.3841884775814403, 0.3887535284203933, -0.7505155066045606, -0.337744938116233, 0.7383896803024026, -1.0102449532169397, -0.06890376951117552, 1.0205175574461263, 1.197793135964212, 0.9915435104286915, -0.42979375444273477, -0.5103187700194681, -0.5956628902149226, -0.41337559831780735, -0.021363677057988695, 0.8806831478885127, 0.9715565314594055, 0.3066829781574706, 1.3353464321041042, -1.1310030013601002, 1.2762724393756808, -0.43102506837494553], "bias": 0.4342179160685481}, {"weights": [1.1781072716634646, 0.652847256980146, -1.1352860825124007, -1.4206499610284253, 0.10861644450684238, 0.8440728897377683, -0.9729100000240464, 0.7472451650489356, -1.99599289994162, -0.2866463612491533, 0.1542971599123299, 0.7112568486240065, 1.4722617174902255, 0.6085130772753238, -0.7296527475304355, 0.43543873550511214, 0.7005082149211943, 1.1600228154712073, -1.0582831118768303, 0.9028510719708991, 0.36844749558154966, 0.4989965386758894, -0.4283034902907667, 0.3932580869162907, -1.1675931095885317, -0.1404464844454668, -0.7754994895069207, -1.3479503778709674, -0.9681864558795144, 0.07464366320755617, 0.4785803747928804, 0.09512300685037398, 1.4480015749227277, -0.12166642187514748, 1.5912750929140915, -0.7542524238731168, 0.03493703918001839, 2.0521745276646093, 0.6803443905158386, 1.1760654496662537, -0.07266234384063602, -0.17836243301784072, 1.5624740539041342, 0.9489056879444439, -0.06872858697910644, -0.32927880122529124, -1.0073269234604647, 2.020024309507525, 0.20697381427485673, 1.1554485780456052, -1.6537605077827924, -1.6094550644408834], "bias": -0.6019128047381417}, {"weights": [0.8723544793767682, -0.030809213844539413, -2.2096925626343027, 1.522545499685383, 0.3936942069031843, 0.3538732114682803, -0.8687832131869502, -0.9536316586561975, -0.20704346899519832, 0.1427263684762387, -0.7333858446835897, 1.015719128413442, 1.2864554616336532, -0.15908542920441643, -1.9342804830629343, -0.057049839055828055, -0.03819124623010128, 0.3106942825935642, -0.11157958567652587, -0.10493121906800862, -0.6551309748180946, -0.4370099911023204, -0.94317136810005, 0.5424382472065774, 2.3303799849905, 2.0353631791714664, 1.3837000238743689, -0.6791124670246154, -0.35978843315699865, -0.31971809726901934, 0.40650008295542733, -2.2845650252118026, -0.47326369424920733, 0.7016427278592363, -0.6449290262469729, 1.0789153285222646, -1.0203668527734826, 2.8414199657902204, -0.18439412411522205, -0.6961427339170493, -0.38316720286342676, -0.842513207666934, -0.6797268078503641, -0.8848045995245245, -0.6307743171303575, 0.26282504110237503, -1.0267135048531582, -0.8850380154726728, 0.2609321975625257, -3.574205813902249, 0.6833714517065574, -0.1546715449530645], "bias": -0.5563258636130262}, {"weights": [0.44799081977005134, 0.6928965133778531, 0.03079360213836299, -0.9878716870239921, 0.5413337266382285, 1.3634605060930154, -0.418159236350253, 1.8412928004454314, 1.6224231117289838, 0.6569392078552524, -0.7621871060578922, 0.2918096214158948, -0.8341802057131114, -0.2661992676327918, -0.9860742263088549, -2.0537591736455005, -0.3333461994233095, 1.438040180286069, -0.21893526031820942, -0.5794655129971866, 1.3513275720165574, 0.6815119550051812, 1.2724430915804437, 1.4933347385115798, 2.2166443600126993, -2.757128318281634, 0.11084993743656613, 0.05173357854890476, 0.2575371850661524, -0.7492498622468188, -2.039432434723072, 1.3963408510299329, 1.038596787726444, 0.39228576629681855, 0.10355952381422556, 1.6305918782891777, -0.35598629958830436, -1.0080838116684914, 0.16831000995799236, -0.3326552851882691, -0.528278644850031, 1.2373952856422532, -0.7269225937479679, -0.003610693912957097, -0.9378773544057558, -2.245981898855208, -1.340851440748772, -0.7828114648871248, -0.8818430356981628, 0.4191708392779518, -1.6290134661621873, -1.1871212169898695], "bias": 1.0440619042035197}, {"weights": [1.0349371799310747, -2.841745293223033, -2.034167290651576, 1.1422097575572174, 1.6175142779493326, 1.4639049452914215, -1.5703333802098867, 0.46075288541502146, -1.6768156066977828, -0.004096982086949086, -0.2136632095895014, 1.3287497573524403, 0.5510987159629692, 1.580286640402059, 0.21475527716930842, -0.6227993483986296, -0.2277010238665365, -0.19769428486221297, 0.4181854858814565, -0.3449281665097947, -0.5465796758736599, -0.15437572310415737, 0.931648550853051, -1.1699784868215466, -1.5958051395411803, -0.14076424357321632, 0.24435940345162238, 1.2726498925649625, 0.12219334610876798, 0.496197847785227, -1.6071159510710233, 0.5234033608752957, 0.6906429383467578, 1.7904274148049262, 0.5982612331426668, -0.332055732106654, 0.40609228131486724, -0.028799415085582758, -2.6180308112168205, 1.280937538964454, 0.2862833536928356, 0.9970411465001582, -0.6634741738394508, 0.7566317716055736, 2.071072128334799, 0.35915185350964335, -0.08341652557561718, -0.17689744445364564, 0.029609714116458907, -1.63017861835073, 1.7311367025607665, 0.26201863321243285], "bias": 0.9506190615723332}, {"weights": [-0.3988229353872114, 0.3724802147834746, -0.04665161996232811, 0.7343251110326765, -2.534141972664119, -0.3385721303053986, 1.0747583963623706, -0.825008472614015, -0.480917941318266, 0.555121972925881, -1.269636133097689, 1.3701475545175799, -0.8610353525929262, 1.030372732448992, 1.9719630924706015, 0.5090791672546967, -0.30905470112769995, 0.9519795413583472, 0.9640554336443634, 1.581372884421275, 1.7158761420140514, -1.4889329608007977, -0.9765886774575816, -0.13776125522436222, 0.446331911643097, -0.890067479655777, 1.7919427128351144, 1.2204553850232331, -0.648168258760607, -0.31160412689513584, 0.7309289114796533, 0.3558212263509181, 1.0440706788765617, 0.23846680895468134, 0.4376230941122286, -0.41213755921827117, 0.6460165525262014, -0.27215310925399727, 1.562360000120281, 0.692492216802981, -1.0366243809128268, -0.08326790662216452, -2.0988422494417205, -0.34958953772799783, 3.565039465734272, 0.19303527290045563, -0.1986566204936025, 2.0464458512741484, 0.05998907123201125, -0.42490268295306033, -1.0092966314910634, 1.275029513781581], "bias": 0.5542211736738101}, {"weights": [0.869276726735061, 2.0296730042561215, 0.5250492505010012, 0.3195225571311805, 0.09724706406401198, 0.15148677800565719, 1.6072935408321032, 0.9544442990907114, 0.2625650003787475, 1.5414338210517888, -2.094411065745094, 1.299538269075063, -2.826075828442333, -2.176629116504288, -1.715813259520388, 1.1557043723476463, -0.060439972540673625, -1.5431944593547877, 0.9722531650116026, -0.8708908543172624, 0.1334497683428828, -1.5610209326059932, 1.0683367892747329, 0.805917718066155, 1.2684207635530758, 1.1712826033181714, 1.1625476041418383, -0.4263267988820464, 0.11358567463594654, -0.08479500119894501, -0.9075745879098258, 0.8691356994399284, -0.9077104795135482, -0.8111982460834758, -1.6831165559476269, -1.844691436859372, -1.5479514607627962, 1.131202191534979, 1.463118185411267, -0.9552195801899478, -0.07783922750157513, -0.859083218267596, 0.9047465056495856, -0.7141190980278873, -0.10302319369631302, 1.4954379906599125, 0.3040879124136201, -0.6243943417585454, -2.123382374320184, -1.1751248147614286, -0.31318029513344053, -1.4204463404393746], "bias": -0.27255596320358244}, {"weights": [1.6932524832520182, 0.3474248314002467, -1.4513984459022469, 2.047827506682472, -1.5491435660921111, 0.8394536171900329, -1.0576428836690175, -0.20193772623172385, -0.2924344749365598, -0.135637271066611, -1.0817058930599224, 2.416676731615077, -1.7698260944686137, 0.146902928815015, 0.04206163660759932, 0.17141452668681928, -1.2854073812167528, 0.9401298521998218, 0.8855203073532694, 0.23370403781034832, 0.26350177069566705, -0.39178462561985183, -1.5147449629494314, 1.4150683691690482, 0.4103782229007998, 1.1017243171247015, -2.380567799164324, 0.07016927636228087, 0.9982834425745868, 0.41824098428820716, 1.8354973746019156, -1.1314967785482781, -0.7001519834364645, 0.6944640162741837, 1.2856534976688014, -0.4065987345407998, -2.075945342319317, 2.3385907487898048, 0.8602089911827421, -0.024248618071936318, 2.0891787610835717, 0.9643270430975557, 0.4049486792468686, 0.5796313548689132, 0.3602484953942647, 0.7237848455101876, 0.02268295860980879, 1.3143410292934021, 0.13717726313726172, -0.028970610520481, 0.9564325462016978, -1.161903206949701], "bias": -1.1244615643116553}], [{"weights": [-0.1110638852321709, 0.09406681764062313, 0.8980875198970751, 1.1592665743941284, 1.4938319009931553, 0.21679185467393025, -0.9594815809710819, -1.7812984040470257, -0.4706642759227603, -0.90297368215985, 1.5138295045128622, 1.665824537716665, 1.6648729367309967, 0.7146885286046204, -0.7522448642882668, 0.15817666553827414, 0.9332419096935836, -1.9765792365159078, 0.9610679527374517, -0.5690209099578595], "bias": 0.8924335195295428}, {"weights": [-0.3005394162031288, -0.12855168655540244, 0.940294794867544, -0.23743048151017307, -1.37564136676961, -1.3738520844830833, -0.7961321809786959, -0.9439964667946912, -1.4100119176174408, 1.796569330499611, 2.478050693770236, 1.4679847306188916, 0.7112340347163959, 0.32775479827339205, 0.9254973612789585, -0.12249079896575202, -0.7020473316681743, -1.7069633897863268, -0.6765278686529186, 0.32444243574756804], "bias": -0.10844219132073799}, {"weights": [0.7154084992716117, 0.30817565142491277, 0.0057585222154506455, 0.8549838259284285, -1.7357409679694376, -2.0763708634619857, 0.7097792668199454, -1.6962050294240745, 0.15377147545388242, 1.7371972937315214, 1.46969784614042, 0.11523041184105753, 0.41020349777107545, -0.3203237123218636, -0.02906480703172437, -1.1281866456389942, 0.39485416580547184, -1.0201413669641535, 0.6048310988992102, -1.7473329872908139], "bias": 0.8009080859131341}, {"weights": [-1.4656840398891655, -0.07248210264326452, 0.7560424713039524, -1.4979762106789742, -0.18551683242683492, 1.379961191097296, 0.046575621066221984, 4.0901871630188005, -1.6915396111708203, 0.2329354671616364, -0.22670233642312704, 0.306664346263909, 0.6167776771526287, 1.2111763219549518, -0.30463366777359696, -0.027784819689423257, -0.7097097098897027, -0.3227234773732338, -0.6409538627714314, -2.9107671157400232], "bias": 0.19189052132037987}, {"weights": [-2.057175618765664, -1.2266650323721064, -0.4094851509128245, 0.5606309776095773, -1.0353184349597258, 0.7880786528162649, -0.2349995767500471, 0.3480793683732473, -0.46415958239315125, 1.1827212037646866, 1.0956051981075254, -0.8891561756776194, 0.07208705537710813, -0.5301929318153005, 0.29532756505491586, -0.8644344990351613, -0.041535245824950606, 0.24891597441104668, 0.8126755846472292, -2.0666018244347524], "bias": -0.025041653078737708}, {"weights": [0.8631802331874665, 2.0570553050566165, 0.5434766776956741, 1.7983439373491477, -0.7687935240193831, -0.60641469105987, 0.3519559210104755, -0.1351160527638631, -0.4891513046546811, -1.3212414828494876, 1.4211073738733042, 0.5668801200573708, -0.02730817437448274, -0.5550099684722256, 2.6682357089790862, 1.789613902768559, 1.1009389162317074, 0.8092570517308914, 0.045346238062185296, 0.40760621320043305], "bias": -2.1579107973597753}, {"weights": [0.3213781715423414, -2.164926345606064, -0.2581436441293387, 0.22713665220407725, 2.0121231534066304, 1.5943065203287, -0.4474147706085152, 0.9577488100120093, -0.9699490693335603, -1.5458807020568608, -0.8400359059834509, 3.194502797673371, -0.09726456331905822, 1.3200576574147287, 0.7893996308488027, -1.1660762268155271, -0.5210265571130691, -0.22662490606808883, -2.115966147641675, 2.203941480870787], "bias": 0.3305712726924414}, {"weights": [-0.6436979557653492, 0.7257916936183244, -1.9284851632564266, -0.9077700234184745, -0.2883938733613067, 0.4465556931757593, 0.7298710140987222, 0.685112753305177, -1.969334726461996, -2.021622918598575, 0.13487850254259925, 0.7415878545478316, -1.1586264834339974, -0.3060913696876094, -1.7582174004108335, 0.1274152003909108, -0.8821755073437714, -1.8786413608606942, -0.21667932611862736, -2.108379431570698], "bias": -1.431809964786189}, {"weights": [-1.0870496317449736, -0.5468914226205284, 1.4154526373211547, 2.005000444833228, 0.008810107537224526, -0.09938789235554946, 2.361192489105607, 1.7677373993049463, -0.6151501973933517, -1.918038374059172, 1.662494894957561, -1.3509578438068768, 0.020302107823144955, -1.4490799461552681, -2.184462043019987, 0.3044735885964622, 0.22009912638336962, -1.930457780809859, -1.7190910203847793, 0.07559854674974123], "bias": 0.40576939414684826}, {"weights": [-0.9313666274631835, 3.120329003497083, -0.9057893035505782, -0.1315123641595315, -0.35217707297087386, 0.941316635606477, 1.4849590424346832, -0.7461177654527842, -1.1679671545431016, -0.4188874356128276, 2.5546781226297526, 1.022164208999972, 1.5480309055252262, -1.559785814246609, -0.13438097771304736, -0.45589132401008065, -0.8368374928885058, 0.6051519323932271, -0.6564719213508308, -2.719810300461039], "bias": 0.7194146746113717}], [{"weights": [-1.4986147023880911, 0.4967398862343109, 0.8693070098315383, 0.1649531144411524, -2.2161794278238913, -0.4275672181412817, 0.8811573511895658, 2.3228670652881895, 1.0713807890164067, -1.6440371696336915], "bias": 0.28418749085208705}, {"weights": [-0.3223652648469738, -0.050555006259792035, -0.7128740171641124, 1.4694851192019058, -1.2656660839043128, 2.535595175155462, 1.9454282439128647, -0.5874924631367344, 0.3194106365287384, 1.4803712485534382], "bias": -0.6115462999950536}, {"weights": [0.32323179794193335, 0.5343230736097346, -0.39770307040341135, 0.47247964208107185, 0.1041731469348427, 0.03834563010465969, 0.7677364507310884, -0.1045697685148072, -0.6180999357226145, -1.0914677050751274], "bias": -1.111369581035247}, {"weights": [-1.99330999196996, -0.159548264635486, 0.4006480157350234, 1.779161550336976, 0.9234863727629318, -1.3384530238009795, 1.2353515531227854, 1.628861651117527, -0.2630299967254316, 1.978745197697829], "bias": -0.643919282143228}, {"weights": [-1.3515863892252098, 1.8816943006585178, 0.8064955245944305, -0.3278838056884323, 1.0387425129409007, -0.039403360549570055, 0.8618846813449621, 1.0076690881955932, 0.9611495700176209, -0.2900651545883619], "bias": 2.1405369617729577}, {"weights": [-2.0225547450206367, 0.6441320313723979, 0.7456249593220041, 0.07536457902369617, -1.4439163039365581, -1.8847147184597641, -1.8364636703480866, 0.19358572494941184, -2.0583838972728983, 0.5618773275976796], "bias": -1.5109875851037355}, {"weights": [-1.1787120378919647, 1.4950330344309624, 2.154923964370727, -0.3562932391519524, 0.9492718555802717, -0.7348222881154968, -0.8428313592805705, -0.20169951268882702, 1.0634685983258914, 1.0254531497882993], "bias": -1.4393083007484762}, {"weights": [0.537346405858993, -2.7743146345981953, -1.5288377208604123, 1.2416295020030768, -1.9907328136691063, -0.3376197125622245, 2.865525806039526, -0.7903241215717899, 0.18364492680219952, 2.8619206042759884], "bias": 2.288651524074115}, {"weights": [-0.12709289806823085, 0.9301505803384795, -0.29773948124400834, 1.1983724813972974, 0.6834580539985079, 0.8132224801434731, -0.4707229056398115, 0.8898248881985962, -0.44948161899450917, 2.3211071848273876], "bias": 1.2468318241167073}, {"weights": [0.2532929413780699, 0.5976297652154812, -0.40351947223106244, 0.30620502457685106, 0.7174467250146679, 0.2104459435523658, -0.9805913676451886, 1.4014952091392456, 0.7625441192523977, -1.0086864480235855], "bias": 0.929843781785292}], [{"weights": [1.2125063217825862, -1.2465154310320254, -1.2620568271884396, 1.806095907845332, -0.1472672715849274, 0.9289964413813192, -1.1549880779881485, 2.2607854812515313, -0.16657982476088212, -1.291664887480755], "bias": -1.2979676189879579}, {"weights": [-1.2289707940863996, -0.4311009061467467, 0.20588451858491036, 0.26998731529739384, 0.37765697843877544, -0.9580530097190014, -2.3588856647636183, 1.1865441402757646, 0.9544453846566723, 0.22384255457578955], "bias": -1.6690321994562751}, {"weights": [1.207252318776532, -0.05909463721048658, 1.5844133881280196, -0.6789091386124162, -1.9815350420611297, 1.7767504119781181, 0.7154759983813388, 0.4476608414604603, -0.44957520823668656, -0.8314645187738017], "bias": 0.534988353858022}]], "generation": 1000}