{"score": 0, "inputs": [0.425, 0.5, 0.5, -4, 4, 0.425], "layers": [[{"weights": [0.24933725604521695, -0.2567668144512003, 0.30586956958222955, 0.481820948738537, -0.32667847069928824, 0.8033239444439721], "bias": -0.029534901522173307}, {"weights": [-0.8446107334786845, 0.029152001164706176, -0.8971854140262476, -0.3133637426005009, 0.8355035957884422, 0.8519613365096101], "bias": 0.4113059647787949}, {"weights": [-0.49950258498991773, -0.3983087536116341, 0.3335886168818998, 0.6609997884553955, -0.6062960007557638, 0.9168678305749951], "bias": -0.9385233639214536}, {"weights": [0.6021814371779479, -0.46616601833037663, -0.877898620511085, -0.12779740738115986, 0.11204855507830813, -0.7348862292159488], "bias": -0.38512883317059643}, {"weights": [-0.9302942200764093, -0.5430991159259579, 0.11841019622094895, -0.11240588101953874, -0.6538523350012129, -0.20571460013414722], "bias": 0.009230190192982324}, {"weights": [-0.5918805589981484, 0.23397203433949199, -0.546770450144352, 0.9674631836799157, 0.4851955338517806, -0.9236441274133467], "bias": -0.9483303626623019}, {"weights": [-0.028810278815151413, -0.3262293290563145, 0.7675647966819303, 0.3028035825507831, 0.9149716692110577, -0.37590999789679613], "bias": -0.06733845200179367}, {"weights": [-0.6990395319893412, 0.5596246177255715, 0.7160398870595184, -0.9068869349117119, 0.3522444234673361, 0.11175437648829911], "bias": 0.9266839966103722}, {"weights": [0.8833003394087149, 0.15360232364522242, -0.582588291682929, -0.6325746590054375, -0.1862503493650347, 0.6624615398757452], "bias": 0.7612997608891561}, {"weights": [0.44898615365800065, -0.4643756973669051, 0.5242793554704539, -0.06736817308074916, 0.9932897274468053, -0.7838588050328101], "bias": -0.9569558247772678}], [{"weights": [-0.24212276462837834, -0.40732470949455424, -0.762938323394518, -0.9088522922228408, 0.4933794126575801, 0.47411217399070904, 0.5829436198490681, -0.16900204288542042, -0.2586719553586443, 0.09442709555060524], "bias": 0.8068410108287936}, {"weights": [-0.6123505283765607, 0.0828589472746164, 0.3715542477039906, 0.9582801551290518, -0.5447378303570329, -0.7935447294531024, -0.9493354341969513, -0.12315938149138139, 0.15376489314473374, 0.1741919318742151], "bias": -0.8810302047431662}, {"weights": [-0.10615532573442676, -0.7764488880763492, -0.52516114261358, -0.7891722486268584, 0.9751359833279067, -0.9681732915192749, -0.24338443094396744, -0.07514550027660372, 0.351003084383682, 0.08085347439177482], "bias": -0.47251888132043507}, {"weights": [-0.7708044643720395, -0.5125878201093725, -0.6512065993717693, -0.4413917213139391, -0.694149545541977, -0.3293968850413973, -0.9912471696500276, -0.08738631987066303, -0.5595746880275927, -0.6932715931715672], "bias": -0.31145708703099695}, {"weights": [-0.3260742433922976, -0.5293691828823053, 0.3888903800399426, -0.5990542313386575, 0.12953933775121595, -0.019412104429380683, -0.9409408318931449, 0.5109077391999972, 0.11270564142073747, 0.0009880569212004087], "bias": 0.5911297627937382}, {"weights": [-0.4698936423073272, -0.25395934975245305, -0.7415404434587729, 0.18355277005503945, 0.6300688472275291, 0.4053199733382862, -0.26686131615397746, -0.692726432298111, -0.16964294437177774, -0.7146583921088427], "bias": -0.10624914009244102}, {"weights": [0.4713674522253455, -0.012072881714447758, -0.24572743020684373, -0.16005549450627798, 0.6461327138567361, -0.8203121922114693, 0.3635457720898758, 0.9729128339802768, 0.03530087895586287, 0.4555820460993014], "bias": 0.0020097927331983456}, {"weights": [0.09168713341473445, 0.8247975335969924, 0.48332715808778115, -0.07426627086619897, -0.22594475278532755, 0.6253846561407113, -0.10750002427925653, 0.20948441666462503, 0.9401889305732671, -0.8917225441778076], "bias": 0.2611881087900274}, {"weights": [0.13191939956815468, 0.5599666863874722, 0.05960796050823425, -0.866888040601719, -0.4985738319318864, 0.827756123558123, 0.8350476348198914, 0.27501212617018167, 0.3623796139744513, 0.28945004675453356], "bias": -0.3258239378900789}, {"weights": [-0.09119809566264103, -0.49796413883972623, 0.224158259261245, -0.3585916263710245, 0.4341809846331377, -0.5628575966581144, 0.43807479177868625, 0.863599570577197, 0.17835082938792168, -0.07090978222207234], "bias": -0.05939501247626411}], [{"weights": [0.15282215239246777, 0.3665243978568393, 0.42290188894531067, -0.5601677893283674, 0.08530868035417782, -0.1589151897090051, 0.0829839156136698, 0.08485245590580526, 0.009699507416053965, 0.6977216745658015], "bias": -0.6870047697214456}, {"weights": [-0.4887334724225314, 0.930678741242754, 0.18861253589878602, 0.8397123416834722, -0.554632593791909, 0.59262881278019, -0.9641775093868108, -0.41547082625643705, 0.8090726536012398, -0.6380198339861112], "bias": 0.8751139843653257}, {"weights": [-0.8492813250189395, 0.6141254557563596, -0.19454437667658864, -0.8789077057117465, 0.30590734464311575, -0.1676423962439071, 0.12917130155963896, 0.9950463079818466, 0.07604703371667076, 0.33185694328685567], "bias": -0.07687590446911319}, {"weights": [-0.5062764953465504, -0.3845172708793636, 0.2792722100213929, 0.707241600399708, 0.6019705271210658, 0.6534449016517037, -0.969592777757851, 0.9211887513816825, 0.3837777479869313, 0.6149285720487141], "bias": 0.595115503185448}, {"weights": [0.24997652232795664, -0.7155798403077562, 0.3723475623690067, 0.3703227519016743, 0.607031968837747, 0.6472287185968013, -0.22678862671091826, -0.23961084025086365, 0.1164348147176888, 0.3635437693291803], "bias": 0.713078230045499}, {"weights": [-0.32862581508863653, 0.8755105459844545, 0.21045306941414, 0.5239767653435108, 0.4802240853048638, -0.929012984219103, -0.24530787585000247, 0.0029109313153814487, -0.3443997694627319, 0.7954966861879289], "bias": 0.7108486941382695}, {"weights": [-0.4839242409446336, -0.9317408267692413, -0.5846011492632597, -0.3358956962599444, -0.03804079025607621, -0.33343167982309296, -0.3326173177488694, -0.5854406899057436, -0.2766709565060015, 0.41111272448638103], "bias": 0.3092730359632663}, {"weights": [-0.679746495583812, -0.32478558766651777, 0.9620670464723604, -0.2711111562809929, 0.9264716419750865, -0.26817308794162287, -0.22498283678631714, -0.650927731383725, 0.25744337489047897, -0.23241013202698735], "bias": -0.7834881605479485}, {"weights": [-0.7638592452958892, -0.8881121110739529, -0.7186633183554827, 0.19902033884686965, 0.2778150190798956, 0.9253824936944766, -0.5678360875056518, 0.8897576790957256, -0.2366519566902372, 0.14407279004082651], "bias": -0.4301334522268061}, {"weights": [0.7309750071367169, -0.35499664191412683, -0.39503971096776236, -0.2248466219754106, -0.7850014919817059, 0.04288021520769858, 0.14285031648222968, -0.9333194006280059, 0.15633375359401414, -0.5993670180307498], "bias": 0.6309510723659895}], [{"weights": [-0.461242882362227, 0.3309563684121768, -0.20275889053264606, -0.6313290846859501, 0.1594999592961004, 0.07869343652628302, 0.6825255714159273, -0.12443138139906917, 0.29722544628626446, -0.44562703711653473], "bias": -0.6951922059596267}, {"weights": [0.9400904745280179, -0.8220888316161861, -0.04361035726353801, -0.42667468435090306, -0.3891826573192372, -0.6239516932293916, 0.37327298894381555, 0.7608477533925753, 0.23602869028208673, -0.8951666379772507], "bias": -0.5550339281215977}, {"weights": [0.1507298260276706, -0.5339298061487705, 0.04692692673541554, 0.6143830475875216, -0.29582424913587024, 0.6554375902847087, -0.9077527026120935, 0.6709934329049951, -0.40924350684073296, 0.007804436079833721], "bias": 0.9275755310463167}]], "generation": 0}