{"score": 0, "inputs": [0.0, 0.5, 0.5, 4, 4, 0.425], "layers": [[{"weights": [0.8043776420112501, -0.6744882430572292, -0.22760344400448362, -0.5771481798123721, -0.5563780154870004, 0.8224796157334082], "bias": 0.06732225794078706}, {"weights": [-0.4530800099869725, 0.4691083187708458, -0.06623730331885724, -0.32849499281944494, -0.3219906228976199, 0.8309611574985707], "bias": 0.9971209994935128}, {"weights": [0.04330849760236899, -0.6636730626077669, 0.13789395106191504, 0.8824218972375373, -0.9632761935579761, -0.6314501817048428], "bias": -0.41171880544453954}, {"weights": [-0.45801749262768165, 0.2314529928286011, 0.36032480884161977, -0.47906500143412245, -0.4410156399994507, -0.9426831908511752], "bias": -0.8633427878027133}, {"weights": [0.8992903422151282, -0.49911558147467083, 0.1979452695520667, -0.7889319828966401, 0.9625242519334831, -0.7968582481408779], "bias": 0.8695945676211849}, {"weights": [-0.17822534963556458, -0.944051318037473, -0.09092900496704948, -0.3032259345724573, -0.23482479725033256, 0.1395115004102201], "bias": -0.8174920349287509}, {"weights": [0.05668713776881962, 0.6314744746210266, 0.7469337072423803, 0.7301582157754349, -0.693324589451288, -0.17771061682726508], "bias": 0.07453480188123462}, {"weights": [0.0498487429586405, 0.3736724074568565, 0.2103352421961946, -0.05549972102275369, -0.3625733053209361, -0.7644306279979873], "bias": 0.47523254206691634}, {"weights": [0.8834249593703543, -0.8061810881837639, 0.6371648967803218, 0.18828752758243184, -0.990258516847492, -0.8739006605442297], "bias": -0.19796105425649135}, {"weights": [-0.6362023837681006, 0.29199070614983813, -0.7030540815715913, 0.31850547809665275, 0.3002746584859475, -0.38215360535040066], "bias": -0.9715555613693971}], [{"weights": [0.4734083457082028, -0.12791104646835905, -0.21704664297543785, 0.8795578817922867, -0.5554073844564791, 0.5115345360463148, -0.22398938509198363, -0.25745693316225426, 0.4005832374641274, 0.05432903202984729], "bias": -0.6321692097195786}, {"weights": [0.6076300880568402, -0.36748209878003224, 0.5858452155382077, -0.9046763371776316, -0.5402807690037923, 0.2837172978073581, 0.3922030022801124, -0.5339644562433248, 0.1663758371696027, -0.806116182293787], "bias": 0.6219775775825038}, {"weights": [0.6354501997400401, -0.5899249594736871, -0.5250786233039606, 0.27233527071208097, -0.23898037020231855, -0.021425156091952946, 0.030760221840203883, 0.09150431061399211, 0.42125962733091415, -0.5976060140188022], "bias": -0.46140984253680695}, {"weights": [-0.1865434718353618, -0.8149530163927106, -0.8301998959664842, 0.976067447799619, -0.14710759332060697, 0.38236115038221574, -0.49010767416384615, 0.0488902521018828, 0.6674510666160978, -0.964449533530122], "bias": -0.5276925841652111}, {"weights": [0.035301272065012546, 0.4724224929906553, -0.9157509327642641, -0.5185205150214081, 0.9494968614967729, 0.43097052652649426, -0.2768597104425201, -0.24382744737432138, -0.5834208676884249, 0.6163161699629667], "bias": -0.5470522850711663}, {"weights": [0.16799508266082208, -0.9412138569200088, -0.06155802161614243, -0.28658347535346973, 0.7609322556261005, -0.16657027468871455, 0.17482378744691873, -0.8819210143781253, -0.5817563115540656, -0.527912850590063], "bias": 0.40982400939042973}, {"weights": [0.9451022949879131, 0.4363107134781825, -0.23876239141665123, -0.6665597499544569, -0.7175485028436421, -0.22749859069759615, 0.780777024167278, 0.7481454722819052, 0.45866045267652056, -0.28358583126981896], "bias": 0.15060319664546573}, {"weights": [-0.08139767195174108, 0.6522661586157565, -0.42543855367172534, 0.8071605136188347, 0.43201477776385144, -0.5400232422730786, -0.8118256751745001, 0.8565329836773097, -0.4367815552204741, 0.23754032177616335], "bias": -0.048009486350438335}, {"weights": [-0.1332393433245258, 0.7119180945269139, -0.2952592180932603, 0.3332424524944235, -0.8658405901534147, 0.5425819687451532, -0.014620521571845346, 0.08350480166712893, -0.04742038856860065, -0.38094864983720655], "bias": -0.9396712980447104}, {"weights": [0.6413263969896774, 0.019534343149024025, -0.6006744548458698, 0.474316511111337, -0.13940090909778013, -0.13483921846968538, 0.5117354165133663, -0.23908730691949676, 0.3306589874929944, 0.6269381436080335], "bias": -0.33276011258113325}], [{"weights": [-0.09911523229637953, -0.9742763390002196, -0.237662565158266, 0.12412930350282503, 0.0919560071828942, 0.7659634904174819, 0.7852444330865793, 0.5553640525619843, 0.4900164064946382, 0.37406796686246424], "bias": 0.15807511698705778}, {"weights": [0.37570190493468436, 0.8948341743647543, -0.7511089915086451, -0.41504742216612756, -0.6631534212902415, -0.39196129612264374, 0.4179089099996276, 0.9324007302249628, -0.7983112787554871, -0.8013156895647646], "bias": -0.32978323947684873}, {"weights": [0.3828063748496906, 0.9427174881098934, 0.09956268353728115, -0.6572105609799903, 0.009508972271931482, 0.4976060901723669, -0.430054122628315, 0.5010066284544281, -0.1634239459834319, 0.2821076517723766], "bias": 0.17314534466361042}, {"weights": [0.2728437208253114, 0.9649013373746522, -0.9190625380973605, 0.873665447459091, 0.3288014764254803, 0.6298298387283483, 0.7838039335616647, -0.8011490968650472, 0.6490544202137303, -0.35393233475514174], "bias": 0.16504674532826802}, {"weights": [0.13834366353761585, 0.05798524894150314, 0.377681493355851, 0.05799151407069436, -0.9199273637450478, -0.9655123150136184, 0.6474845946486305, 0.496518461127579, 0.6526930233399337, 0.26305261230079546], "bias": -0.9999166330771432}, {"weights": [0.47727922178463245, -0.08287148179016102, 0.7069325490289591, -0.4066474575850392, -0.5952862841490532, -0.341660862610774, 0.4996401349247801, -0.700407220262055, 0.9966252039539825, 0.3250540433246518], "bias": 0.5513965685749374}, {"weights": [0.016554716365719813, 0.15115200287004726, -0.9404560057531923, -0.202708357938852, -0.04340427356300447, 0.30552924372022283, 0.4883270956421488, 0.779483618594871, -0.19789055228607721, 0.5934371646620091], "bias": -0.4063981505132226}, {"weights": [0.08164232448469622, 0.04641401321702188, -0.4067021362733745, 0.20169949658468123, 0.36002876096616565, -0.32203883475909234, -0.8375210875579013, 0.6044776985013149, 0.36752930331869127, -0.582796541101471], "bias": 0.6876819240013519}, {"weights": [0.15749978473578286, -0.8194287372141453, 0.2556727966970609, -0.9043667591168265, 0.18186769615746878, -0.7686169126372915, 0.6070761142871479, 0.11669007260045383, -0.01189640113242163, 0.09560332677148553], "bias": 0.7609846505328393}, {"weights": [-0.7233964622141906, -0.5683791907139824, 0.23606164124098994, 0.9171843176595798, 0.4872674017399137, -0.4858766805328192, -0.10518566194235968, -0.3786604098512816, -0.5380985084004266, -0.8025617953327473], "bias": -0.2633189140545187}], [{"weights": [0.6342755474429556, -0.12048221436962492, 0.26568309163656334, 0.855387604666543, 0.47407898558902706, -0.3042295305920044, -0.3956742040369483, 0.7033234386744824, 0.594835832239536, 0.8801774384985692], "bias": 0.8454966330408709}, {"weights": [0.5989657394144339, 0.638407359995834, -0.2655949997839435, -0.6891115349473886, -0.18317480653208418, -0.6844603852189508, 0.017202214100370927, -0.5859258089236401, -0.7809248961213082, 0.6249278637635232], "bias": -0.3389512422549412}, {"weights": [0.46891051552435226, 0.4344436831015204, 0.4690154043307546, 0.6836343391793511, 0.5305645466591935, -0.9121190909219066, 0.23914271270182574, 0.6359408495767738, -0.2943757825565516, -0.3703834409283264], "bias": 0.6177998827954869}]], "generation": 0}