{"score": 16384, "inputs": [0.85, 0.5, 0.5, 4, 1.2, 0.0], "layers": [[{"weights": [0.8454400219725136, 0.6773564259863329, 0.03542653476178259, 0.6711211547047065, 0.2321201238395012, -0.6391968025100085], "bias": -0.22513932389168523}, {"weights": [0.2928375284768929, 0.5223295959372485, -0.7580717189317865, -0.2557227329927463, -0.8465243115935339, -0.27255560776891663], "bias": -0.8291857709632984}, {"weights": [-0.0009590090358206904, -0.5635085408039469, 0.8219276469357248, 0.3315153580430932, -0.743695419950311, 0.2504569683148621], "bias": 0.894911649381392}, {"weights": [0.7947023738782961, -0.9935217895195476, -0.033701511077401713, 0.4819496187480925, 0.6555777180745399, 0.05266611109073849], "bias": 0.704749492061008}, {"weights": [0.5470251843271914, 0.6457414639716121, -0.9519311780863278, 0.35802764537590015, -0.6045681569693595, 0.9128863712200688], "bias": 0.4838161230282705}, {"weights": [-0.38258329142211633, -0.7153012261478486, 0.7710379931693474, 0.9288532374553349, 0.4767297203410692, 0.21570622416420893], "bias": -0.5244819702164465}, {"weights": [-0.46960041465357416, -0.2911716441482539, 0.8433374766038209, -0.3982931449419067, -0.5423451457799775, 0.5124323998248306], "bias": 0.9872929608279222}, {"weights": [0.9679222908325915, 0.5050044535901064, 0.7805603753942274, -0.8008197691754237, -0.013372267052286224, 0.7228124559455482], "bias": 0.97331461446414}, {"weights": [-0.8364403418542918, -0.9784030215694726, -0.026305114812057884, 0.8652096186338782, -0.09377901717358994, -0.8368051490157984], "bias": -0.5044973702377193}, {"weights": [-0.4431747620715236, -0.7949171081265758, 0.6523391875883182, -0.9021716696988507, 0.6357525766495273, -0.1949303881092519], "bias": -0.5799383252772214}], [{"weights": [-0.11820050679327032, 0.3181634687573638, 0.46087611072666324, 0.9428815367985004, -0.14049656877033856, 0.5115197087810115, -0.7430407360311555, 0.5251475452117687, -0.9927672226192259, 0.09559906995718004], "bias": -0.5923594277201167}, {"weights": [-0.24689036659356156, 0.7698003442617216, 0.8882743636904915, -0.4534516981612897, 0.27296011671982945, 0.05847770992036194, -0.4437464235559212, 0.7086302282614501, -0.5223870678520031, -0.00071906557644974], "bias": -0.4500947328974654}, {"weights": [0.8286157366192535, -0.68785965025615, 0.7344665776447836, 0.7755684458801033, -0.3843628565272177, 0.8051080288893167, 0.9929062374911044, 0.6233465895917185, -0.9451234770971864, 0.14376259624722065], "bias": 0.680930210928473}, {"weights": [0.20538159327567573, 0.8815142180871152, -0.3551910512271397, -0.4124044188148235, -0.2261045115985838, 0.7268597028592252, -0.9051468729637207, -0.1546012458938555, 0.06299905756542334, 0.6947937293929516], "bias": -0.9603221499056629}, {"weights": [0.35359744048962316, 0.9325822788836018, 0.320163527830835, 0.33380619247555443, -0.013350361626131013, 0.45523430355644856, 0.29639643052398723, -0.48260467193514334, 0.3888478560389794, -0.12181925040465491], "bias": -0.591927424245797}, {"weights": [0.2648855043518037, 0.9503417098632938, -0.8515362159475746, 0.6540732260163871, -0.943746489279123, 0.4915880871084657, -0.7166083909956538, 0.19066243413001982, -0.7552269893544001, -0.6193787238745603], "bias": 0.500232129619445}, {"weights": [-0.9717535222709317, -0.9463930788251256, -0.19674022331934005, 0.021881877402330385, 0.993626703245746, -0.8868894678420505, 0.2615762673642743, 0.22832797259658522, -0.996257319079592, -0.3960258371379497], "bias": -0.35338779583162805}, {"weights": [-0.9780015230483867, -0.9278144980623084, -0.7541701531515432, 0.5527846489814827, 0.6065124721481334, -0.39953234703924, 0.2509419823321877, -0.949167085040163, 0.09550850367680219, 0.29999134807424177], "bias": -0.47294179381956636}, {"weights": [-0.16236258927680347, 0.22430313201613417, -0.37940241044564593, 0.4009980758164171, -0.5696991720924938, -0.8413818711671532, 0.6095434236670145, -0.7552778938104319, 0.8197191347120527, -0.012801449547966692], "bias": -0.7937659218634396}, {"weights": [-0.9094304216947724, -0.12162976957705296, 0.5048636421239481, 0.7258329720012187, -0.36071132911136194, -0.05768141236156987, 0.5772225217747045, -0.7906865173139184, -0.8639200271653331, 0.21741611760081092], "bias": 0.22779175760016845}], [{"weights": [-0.6040844747672998, -0.7581501896095852, -0.9807083123656284, 0.03796826550878318, -0.07194021252248772, 0.583103521934135, -0.8751921923100419, -0.9939791084814591, 0.9466743418646493, -0.44554912544216996], "bias": -0.8051656441707067}, {"weights": [0.051640904208478, 0.6256041182901961, -0.5684756639815605, 0.4148052800655502, 0.9997353222554721, -0.5264233058404182, -0.3670785080179906, 0.905539207392579, 0.08712731810527696, -0.7841377772667268], "bias": 0.4734852132970384}, {"weights": [0.9610003076337763, -0.40594832643672296, -0.3076895114614715, 0.5698858114094763, -0.2621005769953786, -0.5306388079789903, -0.47260398342923327, 0.4952564064275442, -0.5627291155480576, 0.5673800865184986], "bias": -0.24419471563890127}, {"weights": [-0.39912824047036577, -0.7057739755796486, 0.6451879044626412, 0.5315726286836249, -0.5920594565739588, 0.37663232916017164, 0.4994021947946552, 0.16255269959209628, -0.5211283643175515, -0.7645138971418581], "bias": -0.6266654724284515}, {"weights": [-0.9261032292960818, 0.5996603346510647, -0.07259443790327325, 0.9234584427901191, -0.04754683780163993, 0.7468172476050801, 0.2380469088660062, 0.8461907300091867, 0.10492662198310954, 0.24426232686358929], "bias": 0.4820235469154046}, {"weights": [-0.7169029455928095, 0.20503547484857587, 0.7281654447034065, -0.5121015293575846, 0.526515473323528, 0.6974980352517206, -0.17625529491467828, 0.21418505933430132, 0.2652930077232256, -0.18941608908757446], "bias": 0.04546529591522841}, {"weights": [-0.38935413854461, 0.7441694272009893, 0.9127961307538115, -0.14848305090707425, 0.9412588602034171, -0.7390716216146633, -0.4508316278996298, -0.057468360874910696, -0.3801284461761236, -0.7955399081913139], "bias": -0.3014801510943743}, {"weights": [0.02170779459088279, -0.910572792177851, -0.4342754849750021, -0.2361385990212861, -0.47008144065787727, -0.07738662726873136, 0.6938703987642116, 0.2782488415421547, -0.4467654298505319, 0.010773145488259361], "bias": 0.23784266724027225}, {"weights": [0.30980119660382655, -0.0074191151476177275, 0.6384499946198541, 0.6794752952001664, 0.32720471801932693, -0.9539870658427572, -0.18006416227815425, -0.3267520505170731, 0.6692333307867899, 0.8992197258484493], "bias": -0.9320697923008361}, {"weights": [0.6879461709930932, 0.4748315907909968, -0.498344254076192, -0.03190756527881922, -0.99327875974653, -0.07309555870464846, 0.8309925271822505, 0.16952183998324322, 0.06599272518158394, -0.38275771065637554], "bias": -0.2535653766614907}], [{"weights": [-0.5635825694042875, 0.04038077877923052, 0.8868671506185646, 0.7391920218309842, 0.9602755012959985, 0.5401313103354439, -0.8334269961731271, 0.7902692881881668, -0.7226921103353006, 0.5843289623541794], "bias": -0.18334142322091895}, {"weights": [0.21146069535333822, 0.17811495047205272, 0.14763828110096666, -0.4188932161067105, -0.024796107885474372, -0.7392325068216792, -0.8378564496982717, 0.5343545072131399, -0.442524707778188, 0.5628705262170917], "bias": -0.30438742672446306}, {"weights": [0.9253002490749989, 0.3696066694112119, 0.34219968689899094, -0.43175913801575794, 0.10070950650697541, 0.1281443207451518, 0.8526426035634278, 0.7621290123094051, -0.8512780904504782, -0.3566662764010615], "bias": -0.8542203418404659}]], "generation": 0}