{"score": 32, "inputs": [0.425, 0.5, 0.5, -4, 1.2, 0.425], "layers": [[{"weights": [0.7202070874228057, 0.3771700229483137, -0.5648020846478337, 0.44473618912024615, 0.6127944517069044, -0.10152065362144347], "bias": 0.34848700020228773}, {"weights": [0.2498000592987999, -0.9302994969471403, -0.9907345845107236, -0.9238868785054963, -0.39670172946368987, 0.6150636649801611], "bias": -0.025599709749505095}, {"weights": [0.12367289120580183, -0.27701890001313445, -0.09098388193196061, 0.33101110800114686, -0.36660170866389885, 0.9891627032207178], "bias": 0.39270538368867136}, {"weights": [-0.6033780371816859, 0.16954005294854824, -0.5963183651184962, -0.8434731612552269, -0.8219821787131387, -0.750530342527308], "bias": 0.48566505597840703}, {"weights": [0.9264164305718448, 0.9326012607544707, 0.7386866085772703, -0.4735059380256852, -0.2271892469960033, -0.2711421445285531], "bias": 0.0038347668459066675}, {"weights": [-0.7312619531984661, 0.06487526084984263, -0.6909959412980407, -0.03301985234497251, 0.8403380091499046, 0.5904122815487727], "bias": -0.2949038271977027}, {"weights": [-0.2122349224216491, -0.3684722966168381, -0.8651312408305176, -0.8337214361493184, 0.3138694416594394, 0.9710564172287453], "bias": 0.8909425846809274}, {"weights": [0.23758494395302598, -0.11081136374849998, -0.1962368024638561, -0.8550843729609308, -0.4915911108827382, 0.5900985698968033], "bias": 0.9289626090124905}, {"weights": [0.06582529352248678, -0.8403655739445313, -0.9852603376530877, -0.549880729979491, 0.17310550445548545, -0.6653975460498023], "bias": -0.09209682128213892}, {"weights": [0.6139302164738758, -0.853221103699638, 0.8818923411841331, -0.3647607454070658, -0.19945726896595217, 0.38855146141015107], "bias": 0.43180508555650343}], [{"weights": [0.6619780702737168, 0.8197655972985678, -0.31690131374136254, -0.6261350902677758, 0.864804972094239, -0.19625202091946914, -0.6431933813226569, -0.45459052222291585, 0.6616696054567401, 0.8043678161606678], "bias": 0.3378405356351004}, {"weights": [-0.7631547625223765, 0.574422030278072, 0.4456067832080446, -0.815688517148409, 0.3297506970176878, -0.3453003913264856, 0.656376521478806, 0.7406244109875304, 0.8890842076548602, -0.8124233632916869], "bias": -0.046668776560419456}, {"weights": [0.5687777527434332, 0.39568060538544114, -0.20112217041926606, -0.7623381122282391, -0.26568222166315514, 0.9622899620810546, 0.15936764729719788, 0.14397027479371438, -0.03335921333225644, 0.13639211317374778], "bias": 0.5611309377815104}, {"weights": [0.23543212133013558, 0.46600055268187135, 0.9428779762523376, -0.817933676384641, -0.5683184668370225, 0.40320874560139974, -0.9490901786592523, -0.5380166684182748, 0.5580305246420272, 0.537909066555573], "bias": -0.0672476340678303}, {"weights": [0.9403421989896783, -0.5143124804242822, -0.11684076659525755, 0.7665473555785518, 0.49507704375621464, 0.6924964575995904, -0.5479664998240807, -0.8102330276859344, 0.8769238475499237, 0.05027667280568138], "bias": 0.13894188446191102}, {"weights": [0.8612533448560549, 0.23941309270553401, 0.09258430030614817, 0.5698782202545587, 0.15341868971560868, 0.4767870365605993, -0.896334568499779, -0.8436112935807389, -0.25018272674543685, 0.7750355970604024], "bias": 0.0877763601514383}, {"weights": [-0.7437759483392714, 0.36039354115121847, 0.8231263581654615, -0.693284359511507, -0.001437052069975131, -0.8061548209538323, -0.572315886365065, -0.5613275348605475, -0.46466283877529624, -0.8589431438309503], "bias": 0.5947486878367616}, {"weights": [0.5206377852991138, 0.7410659138421909, -0.6852228350582192, -0.8871029610349053, -0.2920997257065643, 0.9114571075904947, 0.9533157282269538, -0.8366289712623303, 0.6930502421799314, -0.3486617613739518], "bias": 0.6772668707429013}, {"weights": [0.5722010566928761, 0.6205979900925651, -0.9350852624126031, 0.26448319841427503, -0.8216243512195103, 0.7560467916653117, -0.05788668595008106, 0.11006208259844996, -0.7821409094328271, -0.7621681218904217], "bias": 0.4064399517080062}, {"weights": [0.551595075725275, 0.2618480601286495, 0.6407334320964417, 0.6800598879724642, 0.6689222014993259, 0.16414459051857477, 0.8455352794853903, 0.34234206699372627, 0.028515207932048092, -0.7194378994057151], "bias": 0.7617168309671962}], [{"weights": [0.09448682669404063, 0.8058253662867694, 0.1900741816087257, -0.36127644861123254, -0.9584953343313893, 0.6118869123812452, -0.7288124970747258, 0.6881267614478759, 0.9544167174832479, -0.25599370161632073], "bias": -0.19028066515379538}, {"weights": [0.47803137920835104, 0.14276409298071369, 0.49900909235236246, -0.37739959975793314, 0.15919142552572896, 0.16000923799051958, -0.2010652299160156, 0.7388564204055166, 0.6108619584432287, 0.45828704949914933], "bias": -0.818441320659262}, {"weights": [0.4111313585419427, -0.29473291637357724, -0.548054479839353, 0.5263644555290192, 0.4903184588446752, 0.5891608325591302, -0.3474971183504685, -0.6220591314289405, -0.8400201358433197, -0.4963200219168402], "bias": 0.9251300581019508}, {"weights": [0.22047097385030923, -0.21767659571901055, -0.8224843473292343, -0.793738796051388, -0.7198420545028956, -0.25165847953867426, 0.04236703140607001, 0.054248305061378455, 0.6910378891959428, -0.8388473999489954], "bias": 0.0981056516834069}, {"weights": [-0.6355968516482677, -0.12181002242816308, 0.2645146889422625, -0.15591602149165484, 0.951260800626387, 0.17443293240545854, -0.9416865434637651, -0.9809546295931966, 0.5554763717832443, -0.11532728764434985], "bias": 0.43202914949294713}, {"weights": [-0.875111143906337, -0.7010336386953344, -0.2297319657677297, -0.2982838768227185, 0.2610476735236993, -0.6404225613060319, -0.8959436060416568, -0.586147015401471, 0.16050426109329474, -0.6203159168284655], "bias": -0.8427182315469193}, {"weights": [0.7918242146617378, -0.3434405925670516, -0.8250467986298557, -0.49019416390544057, 0.6154064431007125, 0.6230948148017061, -0.9350975797912044, -0.8008377470226782, 0.6893039201607707, 0.7215504921237901], "bias": 0.8957442640096127}, {"weights": [-0.6274141914748288, 0.5951835163750041, 0.30148016821637724, 0.4467825854691916, -0.0656101442867778, -0.29420486537547386, 0.8085342049561433, 0.04153843867286389, -0.9347015837317789, -0.12412603582027115], "bias": 0.44583748493944775}, {"weights": [-0.5749270509066711, 0.6381078265276774, -0.2831782371319467, 0.998860609622173, 0.29445431092817476, 0.937306347719375, 0.42509787250165765, -0.9696950451902728, -0.08083311433516593, -0.7182937763844297], "bias": 0.37741545475936644}, {"weights": [0.6612538937621759, -0.28355594032378817, 0.7298156909287186, 0.019139713799084745, 0.7175209475363398, 0.3275160886755826, -0.30155257031911864, -0.16926173401355737, -0.6719332458706511, -0.5177067967330857], "bias": 0.5094782374118347}], [{"weights": [-0.8483326331157963, 0.2542854723386616, -0.4745094459982515, -0.8187522627493735, 0.7083368328832202, 0.716690976511168, 0.31313739777569327, 0.02228970585945289, -0.6165121068462536, -0.8377322248039101], "bias": 0.15940826363494653}, {"weights": [-0.19422117960163598, 0.8928725309909684, 0.9220380347390611, 0.6499946999284645, -0.00809402048316299, -0.7527270886607402, 0.5143759353519657, 0.782295227284538, 0.7758544763923574, 0.15319474997297888], "bias": 0.3858471282041436}, {"weights": [0.25718111715417, -0.6619653521614037, 0.6259557661532511, -0.6611784764501651, -0.4706977112219264, -0.4547467688857325, -0.13426692539949703, 0.18340006011433707, 0.8449127781289361, -0.798758059617843], "bias": 0.694761541621963}]], "generation": 0}