{"score": 32, "inputs": [0.425, 0.5, 0.5, 4, 1.2, 0.425], "layers": [[{"weights": [-0.021259072942126922, -0.8209136680630558, -0.7400781721464091, -0.43917871973732203, -0.514808561194853, 0.8796022745550724], "bias": -0.5191354061572011}, {"weights": [-0.6264938739927117, -0.4072216541620799, 0.8058085773742585, 0.9654165593908188, -0.3286623733596703, 0.41740439076369684], "bias": 0.16847588420557158}, {"weights": [-0.48769328508222687, -0.26643493352673, 0.46164974713766194, 0.08061219960498422, 0.2691603770750368, -0.10593395689730567], "bias": -0.0648271210508733}, {"weights": [0.8233026507394736, 0.3841400979424858, -0.12085040086040699, -0.31541223995623624, 0.5182989324017624, -0.4942751642330312], "bias": -0.651291470278877}, {"weights": [0.16981458220700962, 0.7391706675605456, -0.953246407963859, 0.7449720272693185, 0.7270734383846533, 0.930599941136526], "bias": -0.5432233424102224}, {"weights": [-0.9447487369663101, -0.26352522274576984, 0.19786885448078695, 0.17085695772938614, 0.07667833180024264, 0.7263180841652277], "bias": 0.9356982548670232}, {"weights": [0.22065072453735057, -0.38869521808399354, 0.38893266535300364, -0.40754145603043535, -0.5875295441529533, 0.9996809554924382], "bias": -0.5732265992730075}, {"weights": [0.5092579475171819, 0.8833469204792403, 0.026997436206016134, 0.5611315972759119, 0.5983359513037962, -0.37313672919310936], "bias": -0.7157382964514627}, {"weights": [-0.4251701040651592, 0.3786338959392308, -0.521778744832128, -0.3661124077091642, 0.09197964027341476, -0.41230363834995476], "bias": -0.6654694987148677}, {"weights": [0.8461520190804339, -0.15603490131599362, -0.22853727689944447, 0.7731464247990825, -0.7854472591197796, 0.08731105669942951], "bias": 0.9788491506815111}], [{"weights": [0.7173629514645612, -0.4215386533716694, -0.006952430348141858, -0.26026618320254724, 0.6528980259004062, -0.3384254309922816, -0.40068285295928074, 0.7083182937208448, -0.2775451617604885, -0.08263293356715562], "bias": 0.6065569207214132}, {"weights": [0.13404788007804314, -0.35282830227876527, -0.28132298976224934, -0.7350155188767873, 0.9114970249495538, -0.4238601768181989, 0.2691246622454646, -0.8233061297562183, 0.2513853472358154, 0.07131300464973012], "bias": 0.14780370932557418}, {"weights": [0.9811403575218212, 0.1639016487279783, -0.8690837919404182, 0.9163615857974965, 0.17105980809841048, 0.7304731145986147, -0.7559471688042796, 0.4085079395823703, 0.6659581121050973, -0.893022013362357], "bias": -0.514732872699299}, {"weights": [0.3001646913330136, -0.27510357896988746, -0.8351714222285855, 0.22916252062591913, -0.7356860441034949, 0.3921122668238801, -0.27746725110385784, 0.4228616215347505, 0.0001240785661749122, 0.5739620337308502], "bias": 0.4317801355292896}, {"weights": [0.7552386760243122, 0.07428711177289338, 0.6009620171213934, -0.20495960277357606, 0.0060588984832559145, -0.06437616873164043, -0.3429767542813795, 0.8205584932129766, -0.8304233797238578, 0.6560611638203442], "bias": -0.7330434587313976}, {"weights": [0.3498812684779915, -0.5860192557364667, -0.060778412139668614, 0.37503013687565145, 0.9092900708188447, -0.38266174782523343, -0.0392354089832625, -0.6566682601543665, -0.6438855524549187, -0.2642801363879079], "bias": -0.3662826474981389}, {"weights": [-0.5941919719754418, -0.14676777623680715, 0.4936371129298396, 0.7848699337904796, 0.9709654658791389, -0.5707949371082841, 0.37984122495765593, 0.5695294067399157, -0.38752888873816316, 0.3431010729863393], "bias": -0.7566363169987069}, {"weights": [-0.5925060596266973, 0.897337180228885, -0.5186287657941056, -0.4071799679641861, -0.28839838680787744, -0.6006395633869921, 0.6079280940900198, -0.6259433536148022, 0.4988976188981562, 0.4997394060473048], "bias": -0.1856741534137758}, {"weights": [-0.4126325964281812, -0.305693201958686, 0.9360671761895107, -0.9151960140707338, -0.8918523399232057, 0.5625335796024551, 0.6354982773309263, 0.7861497694478876, 0.846285552040601, -0.39417754187706233], "bias": 0.5784188313854768}, {"weights": [0.5595429671698473, -0.697909010920061, -0.3193587753136298, -0.27122566103244794, -0.4602301507846882, -0.8693921099189685, -0.7244003826552579, 0.44548164496035314, -0.6514537740762141, -0.3493205981959955], "bias": -0.3940392639731025}], [{"weights": [-0.5971839443898312, 0.8620142591901856, -0.836637723236509, -0.2658635153417148, 0.8076138229553256, -0.07953303439702153, 0.6182775555152973, 0.8804338828548002, -0.12201485970079884, -0.7490433373572805], "bias": 0.7527311700279002}, {"weights": [-0.9091156853320763, 0.44820688117635865, -0.09856484381638353, 0.43168433091804004, -0.9770091249326118, 0.2860508972712501, -0.7477942271079403, -0.7750210304878522, 0.9741697923173762, -0.3482002831840947], "bias": -0.2529281186805412}, {"weights": [-0.8141310764613907, 0.5816859746556491, -0.0643948511686705, -0.23993282059381427, 0.4679532037407177, -0.2719658137142442, -0.5008002473886086, 0.9203565607590882, 0.9322978953799714, -0.7796501958448754], "bias": -0.2748344496752051}, {"weights": [-0.7793984793387894, -0.8464411220550081, 0.44061633341988893, -0.739742304114976, 0.23316295206658255, 0.5184343774437337, 0.609034353344855, -0.9839449224163896, 0.7239977525403261, -0.8830323673628893], "bias": 0.7643931703153266}, {"weights": [-0.49540306661401834, 0.3402239482522744, -0.3469145091156294, -0.8649789900679574, 0.35736407523442004, 0.7679692870149823, 0.7660457183819946, -0.9021121453004419, -0.9767914342525046, -0.3343712316578997], "bias": 0.5695301212587704}, {"weights": [-0.017139878315862944, -0.6081942493304207, 0.5479989248920287, 0.2260813525614933, 0.3114715294364838, -0.8478853972621381, -0.22857882436905141, 0.7364562597934088, -0.6064063102946493, 0.06065974912962835], "bias": 0.8670551420548926}, {"weights": [0.6520339503547303, 0.7958450589034654, -0.9147058494542197, -0.6792162486036881, 0.8612400022555393, 0.20176214898108058, 0.9995554241733788, -0.46789698584203143, 0.6908949133130178, -0.7084342793102736], "bias": -0.10401835139005478}, {"weights": [0.9391239626098402, 0.9571424839124423, -0.670207836939051, 0.45060641758440445, 0.3689689489758723, -0.970846422068431, -0.5292349637582581, 0.625602618294079, -0.5564752058104081, 0.8834797197764068], "bias": -0.6823951665529726}, {"weights": [0.8766077362529794, -0.6457330539976187, -0.8499668237966833, -0.959748031892687, 0.6191983558828245, -0.7138034901266423, -0.040994522612539885, 0.7095492106281196, -0.8308184129583369, 0.31314799915106595], "bias": -0.2902468137017922}, {"weights": [0.5964985901084372, -0.2993777926175376, 0.367420072519415, 0.5252137870214977, 0.7905970386262968, -0.9671433817776827, -0.16116232993684831, 0.7748423580146793, -0.9947997778650954, 0.9331623421990445], "bias": -0.3139678487447457}], [{"weights": [-0.2661664088142075, -0.14216473008984387, -0.005876807680533336, -0.1867873674331071, 0.7914932082183495, -0.172570409844365, 0.777912285848896, 0.4673856452680283, 0.7986499898301238, -0.40368742741433006], "bias": 0.693153446349154}, {"weights": [-0.5143397512901233, 0.6847880594001787, -0.9695711044208302, 0.8564197235499593, 0.3049125127602079, 0.9104456204235414, -0.5030181161909504, -0.23732526135114385, -0.6158139770989295, 0.7682112135812209], "bias": -0.8438539620343253}, {"weights": [-0.17299483178353325, -0.6906229020349435, 0.06944179070416578, 0.9548220751992973, -0.46795014651956945, -0.4062082887630398, 0.36275654036559346, -0.7067764292326795, 0.04445666625593514, -0.23594998775475196], "bias": -0.9134897555501833}]], "generation": 0}