{"score": 32, "inputs": [0.425, 0.5, 0.5, 4, 1.2, 0.85], "layers": [[{"weights": [-0.6600938996970052, -0.9410782895065068, -0.5298760531205802, -0.9648065366333127, 0.2755302774239281, 0.8325738515330616], "bias": 0.1743929796267234}, {"weights": [-0.4509127622784608, -0.23865612395559066, -0.37948512565389847, 0.9394258592683453, -0.8186993373111107, 0.37281977808078826], "bias": -0.7333762446974008}, {"weights": [-0.6264052431797253, -0.18173025413874, 0.3417232419194245, -0.7777986414933573, -0.038490784591988625, 0.14944287127341327], "bias": -0.5523237338670894}, {"weights": [-0.2346945675501273, 0.8320531696125655, 0.3768552845882096, 0.8753568144564885, 0.8693200135921457, -0.47700549339086806], "bias": -0.24326275721770574}, {"weights": [-0.1514528150630119, -0.506287116416869, 0.7677828445753954, -0.7525683820934317, 0.44464779363523443, 0.14509751093252454], "bias": 0.3672752987085237}, {"weights": [-0.22659151530987542, -0.8746483980750515, -0.7206853102365107, -0.6310587184058185, -0.5671217591207292, -0.15346936495170493], "bias": -0.9929673352758333}, {"weights": [-0.8822716001064757, 0.7526228063392002, -0.8567883245772816, 0.4259564055490459, -0.9955223948636946, -0.8938274464191072], "bias": 0.5258724391097847}, {"weights": [-0.0069595917392584195, 0.8086727201239725, -0.6746216071846789, 0.5564450176964943, 0.6693364678569136, -0.6996801108389992], "bias": -0.6741892915891192}, {"weights": [-0.36883444933253307, 0.5145319270343158, -0.8150584653228183, -0.21104333310154955, -0.8317038381569286, -0.5941471548835835], "bias": 0.16152032870758126}, {"weights": [-0.9571900364548138, 0.45409169597369714, -0.150458294199731, 0.3924273030544678, -0.5378220361799684, 0.3481634763823189], "bias": 0.8921137778256898}], [{"weights": [-0.7925380054678077, 0.6930549389526179, 0.9149926590169566, 0.03494752700538517, -0.2754448024915821, 0.38966201954326185, 0.7348427242065403, -0.6437942713781937, 0.7076215659072056, -0.2062424587726177], "bias": -0.49226241934047343}, {"weights": [-0.33019161688566867, -0.7762612832439237, -0.24183296576767432, -0.7243603847270168, 0.6863441733249711, 0.3447887683059354, -0.5598565586954958, -0.716557670581629, -0.921841715575257, -0.07867517216300679], "bias": 0.8810618569494806}, {"weights": [0.7311589826741864, 0.5356803645805661, 0.7212581359342358, -0.09498108519360393, -0.8081419324646675, -0.6332867245538756, 0.48578285921465136, 0.7592165920442664, -0.7449100014858381, 0.8478671071455068], "bias": -0.5084554486248176}, {"weights": [0.5991059013070841, -0.516043237194552, -0.8138454415027687, -0.477510641876274, 0.9630216744339446, -0.6845332836093876, 0.7066290146598266, -0.08745034510851712, -0.35341079834281297, 0.6904558572906567], "bias": 0.5158890356447796}, {"weights": [0.26367782250907523, -0.751865493680351, -0.3065102106767119, -0.1965348717586861, 0.43352077315274573, -0.49358706481002734, 0.8289677916362319, 0.755376487515578, 0.7536266390268513, -0.9808028740069332], "bias": 0.2986151347889092}, {"weights": [-0.9177105624609967, 0.42268247472150744, -0.6654879180154849, -0.3339534612700621, -0.036413012531045785, -0.004381767301168793, 0.974474723390548, 0.46621409122063917, -0.5178136362573207, -0.05787141033047161], "bias": 0.15661080226892232}, {"weights": [-0.01054688625095146, -0.36025115746237857, 0.9925517675110271, 0.7772779740699014, 0.8175496238236695, 0.014245228368107377, -0.45792515753595886, -0.11942283735258963, 0.3427457035903365, -0.840280093985426], "bias": -0.4200621860433831}, {"weights": [-0.09570949151935992, 0.2941813311767294, 0.24158091519401403, 0.784259684830175, -0.6338697833102449, -0.5820328706218587, 0.5964151715796939, 0.3264510448646778, -0.27631897213272927, 0.14599981315441757], "bias": -0.33219798879704054}, {"weights": [-0.9006429454324776, -0.15133859827409135, 0.2477790455071125, 0.723718737384091, -0.9664252729671008, 0.241061552317837, 0.15848356939087727, 0.8132808996505383, 0.22733112280554235, -0.5457350975775965], "bias": 0.0511603079149594}, {"weights": [-0.3101984538560987, 0.2780976481216866, 0.05168493805210783, 0.305414248034533, -0.13046393775337006, 0.05240721174286711, 0.12540205011480632, -0.3235746203894856, -0.742184241062467, -0.44230140465416956], "bias": 0.2164779349688446}], [{"weights": [-0.9162761640032582, 0.06143647840519195, -0.5772924401837483, -0.5621125996548162, -0.6005897659613602, 0.6074954817999239, -0.5069084584725017, -0.7659448610832458, 0.3363119636853762, 0.01065153249535844], "bias": -0.8594587939311564}, {"weights": [0.8522803596886468, -0.0716960003237006, 0.8350260344977725, -0.6300116008068655, -0.2405297163977933, -0.18761490076933773, 0.15593433534096235, 0.2334668103335633, -0.75131290455334, 0.6959212839334761], "bias": -0.5687192589150645}, {"weights": [0.8185816328086335, 0.1396822605302115, -0.1646990568862352, -0.5355429768874196, -0.20396246098371051, 0.7668515384895465, -0.924303703553301, 0.8616437853190777, 0.5623804510936208, -0.4630099105435517], "bias": 0.36277275845457413}, {"weights": [0.6029162751925137, -0.38042869667594004, -0.35586275449735605, -0.4627671941442937, 0.10006954079360786, -0.5047430466799916, -0.6042564078784953, -0.2926089535257972, 0.2670718629132154, 0.12290087779051051], "bias": 0.46158606923432766}, {"weights": [-0.37428878546816025, -0.8773979181218134, -0.3160114723216001, -0.23389478479347692, -0.5805741384015561, 0.6039897106399266, 0.03577208432064194, 0.5173888024562552, 0.18623039554369436, 0.8083799802390639], "bias": -0.13921868903560752}, {"weights": [-0.3258427506898953, -0.8024135752333716, 0.9524898710495799, 0.04136681199521752, -0.29192104579508826, 0.04235288978007712, 0.12390538344911128, -0.9275740869307005, 0.4445988351266763, 0.9018183816660679], "bias": -0.27242550611461125}, {"weights": [-0.3221042443905955, 0.46165178705135723, 0.4001162145663979, 0.973922636980648, 0.6014792488356155, 0.7231982148576976, 0.1350407212578486, 0.8967670938023522, -0.8654121242000872, -0.6323994536042892], "bias": -0.8168057909410724}, {"weights": [0.4895808213009949, -0.03484778771351604, 0.6539519378131056, 0.2688807051255797, 0.34612459641996307, -0.7384148630966363, 0.13484266390097632, -0.2694489740486965, -0.6219896425823286, 0.2928840603828482], "bias": 0.23109099874823325}, {"weights": [-0.37824990119783153, 0.9834344232696435, -0.10661164741747253, -0.29245044665607645, 0.9141043311019448, 0.013453295212766836, -0.20348076635618684, 0.4812225321415171, -0.8281638479032132, 0.24342972845560373], "bias": -0.840274189536679}, {"weights": [-0.35780362612444994, 0.017046564089067795, -0.8265473838408228, -0.3087053192121034, -0.0106375441996438, -0.86610096893814, 0.28210120560312424, 0.6578920287046326, -0.12740334855812585, 0.7966719186489479], "bias": 0.8121731104817098}], [{"weights": [-0.4851494803952341, 0.5387940949772303, -0.07946450993897902, 0.026688552562225132, 0.7090975439019123, -0.9149229297287347, -0.5427252622865488, 0.3899583256513508, 0.19115354480567537, -0.46698117284919305], "bias": -0.15119188441442488}, {"weights": [-0.08380762355499671, -0.3073320198667806, 0.24293103295343021, -0.6202240277934365, -0.32841625942559993, 0.039609537272895734, 0.7284926895319916, 0.22804517390645107, 0.34971234089581005, -0.5644224192545115], "bias": -0.6789772291807896}, {"weights": [-0.33090881710531495, 0.1916965720003203, -0.5465592794423413, -0.3936816985002376, -0.6197985321742832, 0.8486079535570694, 0.12530144061145032, 0.8926007511752498, -0.3784652698236646, -0.7613850172689876], "bias": -0.17468537333059442}]], "generation": 0}