{"score": 32, "inputs": [0.85, 0.5, 0.5, -4, 1.2, 0.85], "layers": [[{"weights": [-0.6172363871437769, 0.9775954161989211, 0.3598943691097236, 0.147480155350445, 0.8329021952709017, 0.21097155309962545], "bias": 0.2843392718642499}, {"weights": [-0.358222236332294, -0.9026741794188811, -0.22551449890477815, -0.04815745808075311, 0.37624710418410845, -0.5660133360066701], "bias": -0.7062236782670308}, {"weights": [0.4774011845447992, 0.8681402380153151, 0.8292602906650817, 0.6327977184220264, 0.7174900568356666, 0.6146520783369287], "bias": -0.7235656338313556}, {"weights": [0.9078815587449187, 0.7067403426344523, -0.92650143332048, 0.9562252121592933, -0.46783468106583403, 0.579506232307021], "bias": -0.49832910247586204}, {"weights": [0.14344336964493576, -0.44192421881494304, 0.5781252773562686, 0.9774631573703141, 0.7445198034305736, -0.2150926060965066], "bias": 0.32701365656933845}, {"weights": [-0.336570883875112, 0.5110717257109749, -0.0033266916574787864, 0.18642079301059655, -0.42576827088357483, 0.17345338819430345], "bias": 0.7956507214972628}, {"weights": [-0.6292660259291063, -0.3231150925625703, -0.7959818083151147, 0.739290406912785, -0.23272776826270625, -0.20977200438031907], "bias": -0.17561473218280144}, {"weights": [-0.9314417709336196, 0.20063962863415163, -0.2645993228714465, 0.3312866163816517, -0.002812262860515391, -0.9582007654095888], "bias": -0.7330981522450564}, {"weights": [0.29390327472057276, 0.5619897684477027, -0.07451176085495659, -0.1405264279846281, -0.8502683295926281, 0.29446569661271793], "bias": 0.5739685760460338}, {"weights": [-0.4166989906692937, -0.1977500578654634, -0.9509054366516878, 0.23471681043695236, 0.08466874744629349, -0.2553192889999514], "bias": 0.8466204397075585}], [{"weights": [-0.48772431050852005, 0.9911800540027489, 0.6164956040313294, -0.9535380644902332, -0.7185274375403543, 0.5454697113840434, -0.4039798480159129, 0.47171017410542215, -0.5776168445597079, 0.4327852440730673], "bias": 0.3551165350912986}, {"weights": [0.5085391320383255, -0.7827929067274371, 0.9402394181669687, -0.5233313970593956, -0.12934599544939562, 0.47374133456977585, 0.6706033219558745, -0.6195474436866386, 0.9459599166723358, -0.441433837864323], "bias": 0.7424748814893216}, {"weights": [0.5462354856480496, 0.9858933943863786, 0.6571930314447421, -0.6695765217806915, 0.6919172211851026, 0.44347312369917224, -0.6932162106526614, -0.3155560597670446, 0.8433336788949737, 0.881987791673922], "bias": 0.582669841028908}, {"weights": [0.007732438779650241, 0.12530130101573334, 0.4304786905255722, -0.77832124332386, 0.13822052855047362, -0.8132354596649995, 0.45591974282556746, 0.5213500625904277, 0.584993391316154, -0.2664377199279835], "bias": -0.21891719639985996}, {"weights": [0.3070357716027816, 0.06829970378607775, -0.21839205270511775, -0.8917455511459922, -0.8427069348470193, 0.7238012181947446, 0.848111091685434, 0.22850453175426066, -0.40735752017127114, 0.1612794195801719], "bias": 0.3493152637731036}, {"weights": [-0.35393093664326436, -0.466583429957496, 0.47777624073769487, 0.8084381279740831, 0.6389588522118292, 0.9614927265865432, 0.25610802587032455, 0.653302592080822, 0.9791016622733584, -0.8351250198747142], "bias": 0.042259867209293756}, {"weights": [0.9715145109245531, 0.2320664483714192, 0.3717626774988072, 0.3731230915884922, -0.3217895392545467, -0.5066899836297765, 0.6730023008270749, 0.6697039678278167, 0.41706798028517045, -0.8182811044400407], "bias": -0.6052266047614225}, {"weights": [0.3365337031087383, -0.8534788441661803, -0.5840932519563022, -0.7679395603513077, 0.1801996310938876, 0.13562853034810662, 0.6727342538671117, 0.31843527112737235, -0.18510934879293228, -0.9251586235401081], "bias": 0.7456168848735019}, {"weights": [-0.6253731028068505, -0.6333884271341741, 0.8197286295032824, 0.3358792399913082, -0.8313021762561021, 0.19226186465080186, 0.312145574852277, 0.7350249339497066, 0.10464134215127774, 0.8096951237770784], "bias": -0.4110486378365843}, {"weights": [0.6881949697467591, -0.43473405443896795, 0.9383435850052504, -0.9327085199061129, 0.7514597272765657, 0.8788630603077447, -0.7260524361578402, 0.2875778410488188, 0.9443911535293983, -0.6185738905277811], "bias": -0.35111447428363074}], [{"weights": [0.8167484216515186, -0.43581341388045547, 0.6881070864397443, 0.11609496641060146, -0.6288379802475252, -0.5690850261606291, -0.8035596234745983, -0.456225124610111, -0.40415285029384096, 0.7794918057613858], "bias": -0.733114973659194}, {"weights": [-0.042367574072390335, 0.5087690810927459, -0.47580793584236636, -0.7782881390922907, 0.8033846452209337, 0.832901750037466, -0.5533077327911962, -0.9688250431882757, 0.006876361642559781, 0.4238692663047714], "bias": -0.28517982842927303}, {"weights": [0.09943241123108093, -0.4802819637750999, 0.1288761104178373, -0.458391375842778, 0.9189802329088994, 0.17805281218533686, -0.2083348721557463, -0.18751017084773114, 0.2968637994015835, -0.17329154051827778], "bias": -0.5202589151197476}, {"weights": [0.6744171901154177, -0.7464682923627701, -0.009196035399513969, -0.045860246956107575, -0.19590747858243707, -0.9317965026489328, -0.5553057872808909, -0.8916219919514634, 0.7797717190003717, 0.4503155726084096], "bias": -0.060973269034565014}, {"weights": [-0.8207744695961783, -0.8052058014788617, -0.47385144351584363, -0.22595045226002752, 0.24914035961298908, -0.4692440456753233, 0.20008379705456214, 0.2680896269763682, 0.3401298543397724, 0.5171164277747655], "bias": 0.28355576034492525}, {"weights": [-0.18886569227769767, -0.8848776231571636, 0.7795476320432169, -0.4989498644394803, 0.31778783320581505, -0.5090026971786601, -0.17625765364961055, 0.6414191372490785, -0.7456260186490133, 0.9616709849140255], "bias": -0.6897168023824962}, {"weights": [0.8092044466860961, 0.9144877751268006, 0.6298223981147746, 0.08012246748588137, -0.8105693968753347, 0.7210801701273981, -0.6199252811734628, 0.5588033786834536, 0.3700466511280658, -0.46493483316978734], "bias": -0.27005277641657655}, {"weights": [-0.33065521056645797, 0.8129010404361348, 0.222612324840606, -0.40179903752440804, 0.16597601423613284, -0.1466180791685594, 0.3388163541361213, 0.045980112491454284, -0.28741760500640545, 0.5243136276907117], "bias": 0.9296625411867456}, {"weights": [0.4476603894257942, 0.31307371028109254, 0.13093015874785863, -0.6662608848655542, 0.4967696463726008, -0.09437253292385339, 0.5573039424710826, 0.8785761671428951, 0.7660488581922731, 0.5760276656433894], "bias": 0.20447823315164615}, {"weights": [-0.38390807376851166, -0.26107126309842066, -0.09954551443027815, -0.7166452327396735, -0.5178907333816967, 0.0005179937524741884, 0.13024262400084696, -0.32070332154109105, -0.41126786857999065, 0.4182376561666923], "bias": 0.6557701589891856}], [{"weights": [0.4009355419585565, -0.9405026017046905, -0.7317852376769898, 0.4441163167101998, -0.21540775631204379, -0.2616659741872691, -0.4828621898611196, 0.7958657795815864, -0.05336604485040164, 0.5323626188867985], "bias": 0.8398001625491982}, {"weights": [-0.7922507123800102, 0.24480712825505946, 0.8126987318568768, -0.06969752055866318, 0.06436825445356686, 0.08136208552631818, 0.755335959283574, 0.7919904113312426, -0.024658919184267658, 0.6155634259891989], "bias": 0.525535161457986}, {"weights": [0.812479497974693, 0.3956125196636209, 0.6328167686204038, 0.5457223854161004, 0.6594061378614662, -0.8672642837371325, 0.13584478073464057, -0.3830401257223881, 0.5061214487359174, -0.25272600527569544], "bias": 0.3533669905081107}]], "generation": 0}