{"score": 63, "inputs": [0.0, 0.5, 0.5, 0.9820137900379085, 0.7685247834990175, 0.5, 0.5, 0.01798620996209156, 0.7685247834990175], "layers": [[{"weights": [-0.9344439158070617, 0.977546925769202, 0.2585200616824497, -0.2927524731457132, -0.7151179488910364, 0.12592537790366265, -0.8446383760062826, -0.5180068872793806, -0.8604056004890073], "bias": 0.3695945899370483}, {"weights": [-0.07599542798900116, -0.02021485810842849, -0.6029394064347131, -0.7379761052245044, 0.5452390658391433, -0.5540213294002949, 0.18166669842470462, 0.18834596477046106, -0.7900287390410607], "bias": 0.40278246610774415}, {"weights": [-0.13821407776611583, -0.49944771766469165, -0.8289023804546092, -0.06106815090536055, 0.6875440577337322, 0.6241199702397384, -0.3209820678141335, -0.5582681838401982, -0.22945391052218933], "bias": 0.8450405759806665}, {"weights": [0.15202634894128475, -0.7079139167895643, -0.6237186034529998, -0.12736020207532084, -0.04254981749700404, -0.5515072010448174, -0.2909519563862577, -0.7942442908799996, -0.9029561821635483], "bias": -0.9625359487125866}, {"weights": [0.10968670404820258, 0.9148501538587968, -0.9469635834977974, -0.19240821206253966, -0.5438722230523314, -0.2625523308672175, -0.19166572032073992, 0.7874253156780808, -0.9095983683007662], "bias": 0.12080153700568008}, {"weights": [-0.1313874699118236, 0.7772033033311814, -0.6435102819504257, -0.35472359083437555, -0.5486612171811578, 0.7417286979953654, 0.6122385338619041, 0.8500884757475846, -0.1442815161618889], "bias": 0.3803821147595503}, {"weights": [-0.9656488400405032, 0.20472965012919087, -0.293523540267727, 0.5891691292825016, 0.5086343252713816, -0.3874372248199356, -0.16500956825967417, 0.7249804958202466, -0.18260268563234816], "bias": 0.8354784450004713}, {"weights": [-0.02944150615349339, -0.8837241936815747, -0.7407177819492108, 0.1314131408094612, 0.6899781032039247, -0.31902881896613233, -0.11598633183770302, -0.34008089923361573, 0.9008153689583585], "bias": 0.8734033388821087}, {"weights": [0.2239583675209229, -0.9273205180582114, -0.19310552533507197, -0.22200711157544917, 0.8531646161924, 0.010452536144849311, -0.21504403110210912, 0.040820571509584624, -0.6524250908068965], "bias": -0.6826279917372058}, {"weights": [-0.9081580913100009, 0.5659243289255731, 0.7268067080301686, -0.052760976221971845, -0.9639659562893874, 0.5566356180115002, -0.08431792585305797, -0.7021624368503079, 0.9061975173327383], "bias": 0.8185970069816064}, {"weights": [0.5734045319129719, -0.8197038558207312, -0.3149668979232729, -0.2696243671465173, 0.17726671052110632, 0.3928544424903573, -0.5802997390617886, 0.18067310954597482, -0.5620830309155227], "bias": -0.7371742750963968}, {"weights": [-0.9828003765979967, -0.6758152646328031, 0.5852126413363992, -0.3454891850609889, 0.9354915092309746, -0.19034226613385719, 0.11632557909469932, 0.5278364307968109, -0.6362114934056793], "bias": -0.04987898500201693}, {"weights": [0.7237540537702924, -0.5686314704639337, 0.3561200100687003, -0.059750772265483976, 0.32048078852184525, -0.15624419347461216, -0.5256565141913492, -0.7075530589015124, 0.4190051954875704], "bias": -0.9564122378899558}, {"weights": [0.7456644950557041, 0.06517620670394653, -0.052369671072454604, -0.08997934538892527, -0.7045713103926576, -0.4843288414100202, -0.260624816225858, -0.46314587111162075, -0.27907247162744175], "bias": 0.3265491630502457}, {"weights": [-0.8205414886185323, 0.08863558363488622, 0.3317471832778942, -0.6937002169654669, 0.9467609755803654, 0.9135596993498865, -0.030134466907980606, 0.8404121499236485, -0.5140898138961363], "bias": -0.4763444419827507}], [{"weights": [0.8181971369960881, -0.32451209368962175, -0.06334222653637589, 0.6188140208133488, -0.395434679614435, 0.21766409167089074, 0.06979827554919416, 0.4117641202528277, 0.6794105132760158, 0.3139146154968777, -0.4068594825755676, 0.3274935555086498, -0.1122400564481445, -0.6783781902338302, -0.2899035768090279], "bias": -0.691091140045984}, {"weights": [0.7898362235038066, 0.6656091559846555, -0.4113485915186601, 0.6323271196717453, 0.8287999377274573, -0.04893180422359533, -0.6278137956214482, 0.508632874971884, 0.5679428189083868, 0.40525637093467126, 0.3244220771074804, -0.8083291747373604, -0.6407253528118113, -0.8651595026251324, 0.8979503146990306], "bias": 0.878874516765384}, {"weights": [-0.4933476098169338, -0.8768294736117159, -0.8493070063919383, 0.5196368629493924, 0.24175708239334837, 0.34144912754179946, -0.5215910279188753, 0.20175122795867506, 0.2546520227061748, -0.6560558451660627, 0.5327058099841329, -0.3980451622317547, 0.256646015943631, -0.8309213898604555, -0.5921824459187535], "bias": -0.5677306501713522}, {"weights": [0.6313894545924867, 0.23573522361069443, 0.5118112049141115, 0.9885441020783832, 0.5085891986407638, 0.1191822946229204, 0.44051146092696114, -0.840639044249057, 0.504273881559469, 0.3532366004342098, -0.9818958350441238, -0.5519598153596641, 0.6391575250005461, 0.7095104011589877, -0.9393032504331147], "bias": -0.47469711036259676}, {"weights": [0.8334583956828396, 0.2787718167953024, -0.814185165241498, -0.826747403220425, -0.4097719406458238, -0.9384814608158347, -0.8684512692113957, -0.4954587318657633, 0.0369769033819789, -0.5696934248805092, 0.8043448066799805, -0.7887157996549925, -0.8794166329800086, 0.4253624142340484, -0.8591392752268738], "bias": -0.896778802708851}, {"weights": [-0.5046988310559242, -0.23813989625296572, -0.04034123313634308, 0.2521782379775168, -0.4718243836761902, 0.883164735486399, 0.5466848245580758, -0.38925785705531, 0.6251356306390583, 0.018899642646980075, 0.13025888092819327, -0.7462072954894661, 0.36431474759866345, 0.8344269946020038, -0.1534750251554322], "bias": 0.5962536470710489}, {"weights": [-0.3874424736887574, 0.0468040201215254, 0.030216666080830068, -0.5280651335051834, -0.05883401491863505, 0.13184758416104647, 0.7727675991954261, 0.3123190329606893, 0.4959370304587474, 0.867989828362697, -0.7647680356146793, 0.7918317293404746, -0.1296067715662399, -0.09555474081204585, -0.9905891066129526], "bias": 0.4788492889526066}, {"weights": [0.38750416927623665, -0.6423686102537078, -0.008137285333243982, -0.7507272566309195, -0.5617199578191312, -0.5245009671518206, -0.8496518961016932, -0.885560107550359, -0.21137671982994877, 0.9895478917149603, 0.3420114489995081, -0.3353721982984774, 0.46294308809542795, -0.3505572285819627, -0.04542748455890311], "bias": 0.3784124219889653}, {"weights": [-0.17673295160524227, -0.764591706035713, 0.5982888473857133, -0.5928916352090614, -0.49902652482505316, -0.11807871212883359, -0.35870322423540024, -0.8331537467564145, 0.803238289837283, -0.70621199512908, 0.2228214551796217, -0.5308493561423693, -0.08483714442606849, 0.6518079713251139, 0.2228875002546855], "bias": -0.3317498709204829}, {"weights": [0.19802202452063478, -0.007898120284858035, 0.6718211259143738, 0.9003695801276881, -0.04583911948542041, 0.818946978272888, 0.07081767120161442, -0.6607976847874393, 0.2739280960600168, -0.7358579333470483, 0.6998753684741355, -0.7992492161192146, -0.4505118135541408, -0.8909493735496945, -0.6261906310033896], "bias": -0.5585464991683682}, {"weights": [0.937090043870556, 0.9870483984815543, -0.6949511444621166, 0.09150872449530856, 0.3888057702240786, -0.7698622329306017, -0.7010986202541762, 0.4961394872069744, -0.9070751680806264, -0.3190385592570406, -0.3232726305689577, 0.9204728262840034, 0.8253551823507612, 0.2555309033681996, 0.4833086927272352], "bias": 0.7933298782623743}, {"weights": [-0.6129285248830076, 0.6700090807539234, -0.20941649576256527, 0.5428596083058652, -0.6033519659079105, -0.6701758591344296, 0.47812713287857345, 0.3775395411497773, -0.2551252800358297, -0.01601009731386993, -0.7677469328825357, -0.31658925115177117, 0.5528557310700963, 0.3854580425023837, -0.18175172804468875], "bias": 0.15504535974152445}, {"weights": [0.8232927594449322, 0.32931085882714695, -0.868212573267759, 0.8458289849724825, -0.8195815777174409, 0.5681177761738738, 0.7711523668087386, -0.7109999101188775, -0.041232256632818265, 0.36518198598266016, 0.04869296248001542, -0.2451617551465386, 0.07876140113596741, 0.1374519808695287, 0.07007675987214101], "bias": 0.010021448500178165}, {"weights": [-0.6494541669261116, 0.49147855446612554, -0.8255465802460094, -0.31937979165515884, -0.35816112047170967, 0.0122116720333596, -0.13498940956794336, -0.3418276238370115, 0.40333510820657525, -0.06994098811379068, 0.4649425328798138, 0.5306299637716809, 0.8210891085248706, 0.9107590292955359, 0.7057185430309465], "bias": 0.9913958794210609}, {"weights": [-0.0009485836879268295, -0.024991407345306138, -0.1386132771743802, 0.14629917250420665, -0.38505675119748073, 0.569362895634633, 0.6455200983180174, 0.454220429808031, -0.9041151352197654, -0.8909105821502079, -0.27672492055829867, 0.6658689018286261, -0.9351697335114411, -0.5800589342672742, -0.25869047379882115], "bias": 0.8114216885016403}, {"weights": [-0.5720004502305589, -0.7967462226124566, 0.10207569143890716, 0.932347944780924, 0.9543311470026541, 0.38988649126146546, -0.014702646442332545, 0.27357910866239754, -0.6752237165139479, 0.7436432148876924, -0.24809793885344433, -0.10034708018255234, -0.6751301302917045, 0.8298794539035224, -0.459219868714146], "bias": -0.7335689328208834}, {"weights": [0.1377878139571722, 0.6023691513656466, 0.19531209832954932, -0.022195414502294897, 0.38993068186165347, -0.3760421814542607, -0.8760183521441622, -0.8805809492213359, -0.6062736995771161, -0.5552771612285183, -0.6202114454080419, 0.5411449144750564, -0.33931697448582776, 0.3436253133327627, -0.8961762190881186], "bias": 0.19634019398452485}, {"weights": [0.22783529739099717, -0.0227638591661381, -0.7493835581736317, -0.5487061303240344, 0.5993768163006707, 0.5538854933903539, -0.9617088587856271, -0.6725336892093681, 0.308370789735658, 0.9118197662942451, -0.4725944420767467, 0.894990726190674, 0.6246180962462073, -0.8405112479960282, 0.8991078460126996], "bias": 0.8154917114846754}, {"weights": [-0.6478807441517715, -0.10760320154078729, -0.4524345586290637, -0.5984525633052344, 0.711778002123528, -0.9401625120023869, -0.5304962278412895, 0.7089168802144341, 0.48267905582029647, -0.7657410426391578, -0.5466322314967393, -0.11858928772229049, 0.7883772272898459, 0.8699299554877999, 0.8320200600285002], "bias": -0.9837110062352421}, {"weights": [0.7152477958523757, 0.16877291944360295, -0.6122651299241897, 0.37220943412349317, -0.7188843824657076, 0.6693830104192213, 0.26933358453065415, -0.45956910097446824, 0.04877609564116314, 0.4287673557022438, 0.4699652729760737, -0.33919836845498685, -0.18655747696822145, -0.08234238876333344, 0.9516594139453265], "bias": 0.10702895532210244}], [{"weights": [0.38523271524917213, -0.35298010460592244, 0.3304798574438501, -0.17525499836383873, -0.7322817969603568, 0.1583037632119344, 0.6370148635440263, -0.5992619414511087, 0.9831927620309295, 0.0023676121328752853, -0.6551044029199831, 0.8432669205100471, -0.1704047545440508, 0.19790073589362422, -0.6015193396727259, 0.05382159220614868, -0.051338376529127316, 0.5378729761678291, 0.6896502050783775, 0.4447653151939872], "bias": -0.933861842358259}, {"weights": [-0.8090792132593139, 0.03679043487090006, -0.9580727972353311, 0.4373741783007954, 0.4612392319515417, -0.5378482577578487, 0.8038723463647095, -0.5377843111772529, -0.9558158270004034, -0.3125625445690372, -0.3034115339488681, -0.6396415019480355, -0.9824611761175954, 0.9027042074979712, 0.18108661922043656, 0.006254352675435504, 0.49414657648641347, 0.14220062984510418, -0.08268981002001041, 0.20991197781850635], "bias": 0.7161360269955164}, {"weights": [0.004435866637392483, -0.5750068394766716, 0.04124464556469132, -0.0801680215691698, -0.3543522716338443, -0.6034323523053571, -0.23214014142289452, 0.6506895229120861, 0.8898438360714898, -0.1309979969497499, -0.8719256670144926, -0.7318690888426538, -0.3366354410446839, -0.11897530351904573, 0.9021341398358358, 0.3661512656764825, 0.8761277057700327, 0.07706556033801526, -0.9068844560676144, -0.16853472059957242], "bias": 0.8869904461447233}]], "generation": 0}