{"score": 64, "inputs": [0.0, 0.5, 0.5, -4, 1.2, 0.5, 0.5, 4, 1.2], "layers": [[{"weights": [0.4614453311320843, 0.8322065140495236, 0.23918248700677758, -0.34622867757430575, 0.9587147798083304, 0.05464795591152982, -0.46158812665387683, 0.5758014904303981, -0.7541020951410995], "bias": -0.43528038097290156}, {"weights": [-0.6856970043577841, 0.9270235033203214, -0.6041074925942127, 0.8448500268264254, 0.44814400848826863, -0.33767417733631544, 0.9679047175996909, 0.9805366974104222, 0.4496230684544833], "bias": 0.06908965971094916}, {"weights": [-0.5874980654333213, -0.15903885826180253, -0.647557126883588, -0.8205587586293732, 0.0920636613222785, -0.9169740818205951, 0.32845600717066814, -0.39217838011831385, 0.14082539443032172], "bias": -0.4468014982284507}, {"weights": [0.004292110608471678, 0.6782306999947698, -0.8348758935044462, -0.7461120995763373, -0.45520989123469846, -0.08048002591874348, -0.3378629227081693, 0.8759555217689396, 0.8059114484406347], "bias": -0.05015664852238433}, {"weights": [-0.904572563069659, -0.4232897166671983, 0.15453990981902122, 0.1961021408439565, 0.6886916372575718, 0.6925853865640943, -0.9004664277475101, -0.7538008417004887, -0.003334946919801629], "bias": -0.7382694070456597}, {"weights": [0.6712339874748763, 0.9134159984277315, 0.574854004400432, 0.7293212008208849, 0.0695210323245894, -0.28237265185302407, -0.3752016983068429, 0.2522647633307793, 0.4523090531989553], "bias": 0.15203717068788136}, {"weights": [-0.5731816853915692, -0.3041665874818511, -0.31558867602486407, 0.9292104089725235, 0.7573949398826174, 0.9021374413978638, 0.8951829300845886, -0.5339444539356182, -0.1521963432141611], "bias": 0.4250629385798763}, {"weights": [0.7429803117097842, 0.08393092440048089, 0.024852456763739594, 0.5230329548270756, -0.32965568894695574, -0.3709631068131467, -0.6760746425022839, -0.7945094027372883, -0.2385221994308948], "bias": 0.6682282519199638}, {"weights": [0.012871067628366983, 0.9633052746414739, 0.827706226350591, -0.9832949700640778, -0.9705889545081376, -0.8176360698743466, 0.9816990080355019, 0.16305116562985722, 0.8943196664801254], "bias": -0.8696929922488772}, {"weights": [0.46753939273932255, 0.017303676968851267, 0.8646617453295804, -0.8865786439127155, 0.6235916318507813, -0.44809195406900404, 0.5465153977231278, 0.4898622545109763, -0.6695147686309886], "bias": -0.16765825304313342}, {"weights": [-0.670895178485557, -0.7262814626894583, -0.2426031076813564, 0.33210958575951355, 0.1750140954874415, 0.5788428707385966, -0.37956509977248065, -0.435554478330078, 0.7460652538630907], "bias": -0.42792960711471695}, {"weights": [0.6015343433227753, 0.8607095264016931, -0.27136540765591666, -0.37773973614624845, -0.34328302382597076, -0.05585295698957604, 0.14426039647392463, 0.290406656464659, 0.7648322515153159], "bias": 0.41738172811811336}, {"weights": [0.7855123462841462, 0.2530076589908665, -0.9706120024410467, -0.5265055315511948, 0.9047091725758096, -0.9234215627886555, 0.8782958872424349, 0.5880092174114664, -0.22208463386650168], "bias": -0.13665085845817804}, {"weights": [-0.39517815881551677, 0.07790315995606378, 0.5582567768198896, 0.6103218258944747, -0.3462949492082281, -0.5389124551532425, 0.4201970036394609, 0.38179997717211767, 0.29057188826908176], "bias": -0.5597635448500025}, {"weights": [0.3464775634624149, 0.18064067904051173, 0.9442695104300023, 0.5341964897288443, 0.7038854292790191, -0.27283982590465694, -0.5446828308375424, -0.8089475874976053, 0.05055457744666758], "bias": 0.03242264665124206}], [{"weights": [0.5572573426103458, -0.8980703335232267, 0.19760846224615336, 0.06346217980656643, 0.16829835067771137, 0.34331317556809116, -0.8007654241938398, 0.5786353377982181, -0.48225889730674587, 0.6449786789382803, 0.8469615348452972, -0.8199507771898555, 0.09001201729253472, 0.6651503360592554, -0.9361853620273546], "bias": 0.8061971271683386}, {"weights": [0.9650965209096161, 0.3473231284433633, -0.1499870931516698, 0.9061845708412672, 0.28991175525034807, -0.8216794076091656, -0.9973540636798885, 0.28286091666530844, -0.661408222719861, 0.559252236689854, -0.7431477974711362, -0.9711047871346858, 0.6592082685244833, 0.8858209611995862, -0.7781412761364819], "bias": 0.7511710979710586}, {"weights": [0.5854817514972341, -0.9763083809712976, -0.599620742208274, 0.670538644263587, -0.6738664499995735, 0.3667983493771574, 0.7409295644257845, 0.96203475297279, 0.7929553886227036, -0.5863465529720926, -0.6155687735120836, 0.535858748973471, 0.2750993149292158, 0.5364596832937294, -0.6640760539242321], "bias": -0.10464179421023267}, {"weights": [0.5437615965816316, -0.45248486969683865, 0.4525894186600494, 0.8224631350857705, 0.9270228852636564, 0.5083362482284608, -0.14246055345358632, 0.08564647101344036, 0.5894874255228939, -0.9932057355188022, 0.588042455312662, 0.23974159969445363, -0.8435769093933543, -0.3549942052524935, -0.684996377075529], "bias": -0.4020081946291618}, {"weights": [-0.39698571093464685, -0.5751388756946494, 0.28322571479803105, -0.512661493274756, 0.8147587037377646, -0.8031557483709153, 0.28096073644158426, -0.05755638529675777, 0.3218467598055583, -0.37011597143097275, 0.6999491345420477, 0.8163837312897639, -0.812422540432109, -0.40261149141936947, -0.25285269403234567], "bias": -0.7772777047313006}, {"weights": [-0.06900597371877115, -0.7179783503867574, -0.5505281890326543, 0.8624616405683532, -0.8136464832983059, -0.8775356084464363, 0.20434041527687463, 0.6193768706774649, -0.3006894003647491, 0.4603089507660756, 0.44797765502801457, -0.31158376025655454, -0.8379436681153127, -0.895314943650223, -0.3461041348834666], "bias": 0.5427460424847248}, {"weights": [0.30590349842626985, 0.22771680242991432, -0.6345867394196192, 0.8978775858005534, -0.18995434125313726, 0.7646098697827028, -0.5729819985164128, 0.426546846359819, -0.4480083253253282, -0.23711080050596633, 0.5479717758041309, -0.8304714418892005, -0.5461713526219945, -0.7515057015119204, -0.8571735319012856], "bias": -0.21119330820105509}, {"weights": [-0.1296385963349136, -0.696423519964821, -0.13531171300750278, 0.2798061814893078, 0.31235859710311176, 0.5852988417087386, 0.09935297462460535, -0.3900854056588554, 0.6568198304691557, -0.11737226308874993, 0.29131576163985695, -0.6244510485252741, -0.8003965741012136, -0.9381921355991953, -0.8921025519733652], "bias": 0.06598502555828722}, {"weights": [-0.6011631316899446, -0.12768231408816777, 0.14104182887372363, 0.12781040114067466, -0.8670800170011299, 0.33949325463740565, 0.9975315616676237, 0.8204610927584479, 0.22841365045317796, 0.990269500712228, -0.5957097558263802, -0.00324324446633395, -0.5864173713252412, -0.5123843629608154, -0.6290943796270099], "bias": -0.6878954452623882}, {"weights": [0.7771233141889833, -0.20999807010215132, -0.11287027324656407, 0.9990512983615107, -0.24948505336365479, -0.012970969062939153, 0.5680668271112728, -0.03127414187976174, 0.9480483918251517, -0.9118549612756901, 0.656888692885887, -0.3915776619834359, 0.5242460897615988, -0.10318321700978306, 0.615625864513839], "bias": 0.9210879526571807}, {"weights": [-0.5609553882663032, 0.4787542519715926, 0.8257724362531154, 0.41968733885613596, -0.7087506669319379, -0.7143447833152465, 0.4546743286762245, 0.6150809109287418, 0.4431057177358473, -0.20939563643439585, 0.024255219101699144, 0.4775483467916275, -0.2241365717759829, 0.6819584852845841, -0.03669782025355839], "bias": 0.8818825109977433}, {"weights": [-0.2288708593797295, 0.24434168183939486, 0.2889771851655405, 0.8803466779731106, -0.4194679407232671, -0.6673928283704811, -0.089744301825466, -0.9071450507613299, -0.008189476486802905, -0.8129831421850509, 0.5415595139128873, -0.8419467258116935, 0.9243931715648555, -0.15460131950331402, 0.12170517918535362], "bias": 0.971652838891532}, {"weights": [0.6308418753355804, -0.33089158550995257, 0.6375114321121567, 0.278058678843333, 0.7941527407958542, -0.8697255346179062, 0.26529780817308635, -0.27459045146797045, -0.5261423018564617, 0.2515354412425157, 0.22869202120373466, 0.20067586373572288, -0.6213416718782052, -0.5511319235384107, 0.9406992537327188], "bias": -0.8904454974396472}, {"weights": [-0.979218101607392, -0.6945748456530696, -0.08113079943572221, 0.735998108396138, 0.22141889865462416, 0.11412892194901425, 0.503060185573919, -0.7393884209085944, -0.8231705361732842, 0.8697676297866463, 0.005503652370523193, 0.5318175027967187, -0.2901269795968313, -0.9946156330709413, -0.4932463312189963], "bias": -0.46662960349640725}, {"weights": [0.3886735421431875, 0.6584502795605136, 0.2957406082897662, -0.8819174870894493, -0.31300332363274874, 0.5516151927700488, -0.9211801897826257, 0.9456093810941295, 0.9712151857161468, -0.9392539837245137, -0.4269529300780863, 0.9571341513026366, 0.6116421623825379, -0.10673466227202066, -0.3955104455474976], "bias": 0.844778143249733}, {"weights": [0.14214461142294588, 0.47645040712818565, 0.6352632477942504, -0.941161543048125, -0.9408850537370461, 0.9656387771137647, 0.7282525701526585, -0.3979180762279704, -0.7975522648883093, 0.6479849249539349, 0.26868938079225146, 0.7576560626188806, 0.9430852475941833, 0.9297125561166761, 0.13117474168696375], "bias": -0.08803721918028207}, {"weights": [-0.6788057694988872, -0.5515155543623655, 0.26922933168642404, -0.9054694572929378, 0.4827627057895769, -0.9524396466191469, -0.8136536598733579, -0.023093130631454573, -0.08097398924719501, -0.2548951076854813, -0.41951898909424745, 0.802484804348107, 0.15123292818607137, -0.34662389884977207, -0.6901523124451956], "bias": -0.8979588025530214}, {"weights": [-0.631823576020611, -0.42439733122029244, 0.7776448947054497, -0.45733616669948485, 0.7378460223815249, 0.5533997397131629, 0.4531951564642065, -0.6361904573322423, 0.4705739914537461, -0.6172641000837884, 0.8517984809413888, -0.7121281460782536, -0.6416785563248835, -0.7067008980196703, -0.11061958727733412], "bias": -0.0672522971297409}, {"weights": [-0.5645021972640596, -0.5547858499070253, 0.6974460386000627, 0.0009824300491931837, -0.7730387443334403, -0.6046199540174613, 0.4039493966617991, 0.11243152147069901, -0.9318498674203894, -0.7552790092602153, -0.7716024695454289, -0.27563674927552695, 0.23455659734586076, 0.35080309891229366, 0.13216021496545216], "bias": -0.6039220296138619}, {"weights": [-0.9385006914144352, -0.34410018291513467, -0.3861334823348579, 0.035132494109952894, -0.5410076216339743, 0.7429293268015067, -0.30754192929689594, 0.44083615773148654, 0.7242689832518066, -0.013795885102437344, -0.7066103370681971, 0.9066276069209389, -0.11562938902878495, -0.740447698775522, 0.3979299540014043], "bias": 0.9304992491918118}], [{"weights": [-0.025312634061698258, 0.3702066210390156, 0.947079687530594, -0.28604721183473747, 0.3111667737862156, -0.004909345536675769, 0.2370838393118142, 0.5006230352776702, 0.9703469534895253, 0.6026713664812506, -0.07104471502451681, -0.666124271341404, -0.2521538202046847, 0.6492738082975127, -0.06615215213310921, -0.6990990830910417, -0.18354712155025021, -0.4610236359143298, 0.30561328964052126, 0.3917475552433236], "bias": 0.3537701149282009}, {"weights": [-0.6537975483630389, -0.9124849601078582, -0.11120505303656003, -0.8339043664823536, 0.48717230721283467, 0.35326666127873385, 0.08744210431424682, 0.8826139677803229, -0.6925309771295607, 0.22981033924143124, -0.29675139795476624, 0.37904586385633054, -0.3610615787460336, -0.029058066642678515, -0.8748073093785154, -0.09813005139120179, -0.6598791013400225, 0.7784364254593896, 0.5096096750626724, 0.09836132467616432], "bias": 0.06736270838961533}, {"weights": [-0.25988897770022157, -0.6653606503329788, 0.6163073258091558, -0.41774370639480485, -0.6651955091390216, 0.38292805805334007, 0.011694112990062733, 0.1844137667653305, -0.8797724049074047, 0.6107475463586924, -0.5844215277537794, 0.04931789660405883, 0.4995267349501422, 0.6653574756293634, -0.7221420371516718, -0.6344463754376615, 0.5384774496744487, 0.49530720761035774, -0.5676067544903698, -0.12584177157725618], "bias": -0.2589039570705354}]], "generation": 0}