{"score": 8191, "inputs": [0.85, 0.5, 0.5, 0.01798620996209156, 0.7685247834990175, 0.16702493630511284, 0.6997850382169319, 0.012958309140081661, 0.785816893628793], "layers": [[{"weights": [0.7013873140313553, 0.19091674789061885, 0.05819214179223953, 0.7356022271440252, -0.9050585978642804, -0.7055405853541696, 0.2258271893753916, 0.5891631434513032, -0.4536390108796746], "bias": 0.8881836044442553}, {"weights": [0.28879827785264056, -0.9658446849914677, -0.7748299628058475, -0.8453742461748917, -0.6967170375681324, -0.499390781138904, -0.05122127166396129, -0.6170961490623144, 0.8497087225492248], "bias": 0.13553963241857336}, {"weights": [-0.39719384702220206, -0.4659524588884276, 0.008638671192903402, -0.5871541563700529, 0.022304068517775333, 0.07926528846689074, -0.062176686244275414, -0.41823462213356066, 0.38951847748073454], "bias": 0.3076665441113029}, {"weights": [-0.7018312690877051, -0.16536296813005724, -0.7606687643536532, -0.5561834971538788, 0.19801033765036946, 0.8476207780773006, -0.23163809317625716, 0.3260857698194286, -0.11055874882937444], "bias": -0.033140661200592}, {"weights": [0.22324109240555545, 0.5753903797281565, 0.10255120650469363, -0.32958287288162014, -0.25465609188260685, 0.3496606185594595, 0.07080739578950701, 0.4670372388507509, -0.30845339382680104], "bias": -0.9856730918412224}, {"weights": [-0.048334567485753155, -0.2786068622029123, -0.8833793424116918, 0.04622800863290344, -0.7760979146420464, 0.7748003743415537, 0.9397262065769538, 0.3022041800884103, -0.7615512962177076], "bias": 0.8795930884028207}, {"weights": [0.11578981664402077, 0.5314037262072657, 0.7143356473582527, -0.8713377092934176, 0.08073171404145651, 0.7960373019319162, 0.3440886925097093, 0.799248932604999, 0.05788231429746715], "bias": -0.20172067019255047}, {"weights": [0.020046335538366433, 0.7298956676327604, -0.0434294854250028, 0.7505317427431986, 0.49138327046817465, 0.2296476589360057, -0.479729269314886, -0.23195517785198616, -0.8085582909235778], "bias": -0.10329118240463164}, {"weights": [-0.5542134286033551, -0.3193753430113053, 0.15300978842047153, 0.18763673330335817, -0.6115512074212885, 0.07966736457773771, 0.006742545743842143, -0.12293614265504482, -0.0950923494974989], "bias": 0.5372656827241329}, {"weights": [-0.477910089170835, 0.7840443454015316, -0.3434560357418699, -0.5537780981121045, 0.9738529359279737, 0.8003442104883036, 0.4582868520929695, -0.7216413872568592, -0.6189465170775081], "bias": 0.002580561802878689}, {"weights": [0.10851844960406987, -0.404243504033176, -0.4956339377153003, 0.2722622608620373, -0.6368292323760039, 0.3599905049208747, 0.27322269796068577, -0.018396011255371825, -0.6673578130259052], "bias": -0.051314791383367364}, {"weights": [-0.40008094249009685, 0.08428626402619921, -0.11843358179038121, -0.2778146422479746, 0.5037166415055552, 0.11862750443245718, -0.38615059540488805, -0.3177241765322083, 0.8753889729727387], "bias": 0.38602422745104925}, {"weights": [0.8418719482245471, 0.2748643268587456, 0.0258639906371676, -0.5328872607033224, -0.06637320521366052, -0.8205262168181953, -0.6282911072693005, 0.01523223598672252, -0.4838293644536269], "bias": -0.8365839408491829}, {"weights": [-0.641551935324914, 0.08085454203507614, 0.5598705541019982, 0.648253992569902, -0.5896328485798259, 0.8492180528918711, 0.5833462395059643, 0.5124239334107306, 0.9527842135974238], "bias": 0.9712510130998506}, {"weights": [0.662380535213331, -0.49624135253547474, -0.621658101889522, -0.7742802211222284, 0.18265275132863934, -0.09484840098121272, -0.6747350682198352, 0.8334579809582376, -0.11443398976839791], "bias": 0.5000468944313836}], [{"weights": [-0.09937969052683293, 0.26360095024013996, -0.14341924418639773, -0.16016451739330262, -0.5307877548867337, -0.09629087438078843, 0.07725154311223892, 0.14818726837261664, -0.3196465467353742, -0.7852886811268303, -0.4134870302983107, -0.6852248573011375, 0.4244459857224516, 0.15927608253688752, -0.3023771538079687], "bias": 0.42443500428620795}, {"weights": [0.7366723252678455, -0.7363575495650596, 0.455511030790382, -0.6688385103475285, -0.12206369172636311, 0.2951516389094442, 0.22020228092354555, 0.8517675473359734, 0.2999669479983953, 0.46210615780947495, 0.18901559282534697, -0.4501503324952836, -0.3778421931646132, 0.4580502410987881, -0.0030538955881804775], "bias": -0.8292559828197834}, {"weights": [-0.09595412436124762, -0.05661904622997094, 0.038927371724922555, -0.6170138275539061, 0.7932422038564739, -0.8516749853315244, 0.6761299952760373, 0.3473150886499088, 0.5845650879143729, -0.33086615276503695, 0.33765035082785744, 0.2705333010013016, 0.8317806718648961, -0.7565683146821738, 0.7961648377678263], "bias": 0.6692205774167073}, {"weights": [0.07476067813992948, -0.008935007374806236, 0.604546515925926, 0.4779608289283388, 0.1158828579326856, -0.055349727797315396, -0.8459934136349576, -0.26220529720769004, 0.9229981760398611, -0.4459536802294446, -0.5959991011062096, -0.36257981976043707, 0.6423750077401729, -0.3994671527870268, 0.08714221625449237], "bias": 0.5595994787580509}, {"weights": [0.7351703772125242, -0.6025275013869085, -0.9833857565190969, -0.32563706927553837, 0.8510773356880998, -0.2888853760579104, 0.18724226191036908, 0.7281585094073577, -0.5799039541412088, 0.8939565215975096, 0.046883582098326215, 0.6829165026113724, -0.3233233518603491, 0.6249658924223571, -0.2251940942245545], "bias": 0.017458003680950407}, {"weights": [-0.45972643091443466, 0.9529600407251695, -0.15351143548922885, -0.45938339061581157, -0.3454582080538662, -0.20723034696057074, -0.770092791209966, -0.5192298410530218, -0.994361154727341, 0.41967193450561546, -0.036818299418360345, -0.5535703533639815, -0.8808061927572732, -0.12641092644776042, -0.69203123814587], "bias": -0.9760818256464627}, {"weights": [0.04376689627621566, 0.5313280706682537, -0.0963997569204611, 0.1255733374926633, -0.9734557068697374, -0.5000030203443984, 0.3570469528205964, 0.7114533115512263, 0.5331174840166455, -0.8936039692805196, -0.39709446358634626, 0.03237542871586774, -0.27147757364544, 0.4910989727635957, -0.05816595136584568], "bias": 0.44126693929372873}, {"weights": [0.6094370986153053, -0.8937413582538798, 0.2139437716210213, -0.8647952959095551, -0.9045233166167825, -0.5329547003103485, 0.7070588482927229, 0.982341301674279, -0.7449914642752355, -0.605274344870879, 0.4429566571512664, 0.4777624629465418, 0.4090466425478483, -0.23207079867877778, 0.9498761154740829], "bias": -0.9919338040700902}, {"weights": [0.3891737200222849, -0.18936866505096006, -0.9536650105379982, 0.054616217514005694, -0.8689822507472369, -0.22977581518231527, 0.14947013236238504, -0.37843626128605856, -0.5705009548190105, -0.30677015358996074, 0.8138839427095117, 0.967884717168104, 0.8968232644108856, 0.9112283579734097, -0.0772790669502812], "bias": 0.36914992021322823}, {"weights": [0.609431314469431, -0.7626520239797352, 0.6156386693795708, 0.9926977443465734, -0.9837322443423686, 0.8618267575711089, 0.1493725136078936, 0.740760809553509, 0.9002338078094647, -0.3299804079029611, 0.6711674033001334, -0.8679042813131985, -0.4177585940725701, -0.7092719666524474, 0.3938641967106622], "bias": 0.21646208001040712}, {"weights": [0.466218963324714, 0.8351267663949862, -0.37853358402860926, 0.9514675533044703, -0.6218356647758472, 0.7095307905451775, -0.14135250100648378, 0.726798188308196, 0.9195788331240093, 0.2517423979506599, -0.055159699496977854, -0.944606207516719, -0.2969983047945195, -0.8520793151396264, 0.390617813643249], "bias": -0.20509887296604856}, {"weights": [0.6762645551113671, -0.12260003990782309, 0.639055569326717, 0.15500061870781567, 0.8333031017987333, 0.41902423505894215, -0.7378525126691968, -0.4951787200554678, -0.5376738756616559, 0.8742238421971156, -0.14505647224198048, 0.12145133689836762, 0.066420777294937, -0.9206458231854453, 0.43473141229229606], "bias": -0.2570065776254187}, {"weights": [0.6361807255769591, 0.9435844364278942, -0.30184504345515184, -0.5624838688116078, -0.9201546373835869, 0.5440389023755909, -0.7807646535487249, 0.8123415565722283, 0.9920479440175625, -0.6760731104921038, -0.31417614939235206, -0.34354652856345447, 0.3171825620683759, -0.5987069597088206, -0.6888309114504314], "bias": 0.778439987401768}, {"weights": [-0.3970403926506978, -0.5211836509019736, 0.6904130148787284, 0.41442849387292746, -0.07354697521807374, -0.041791042019207136, 0.8633289552567789, 0.2992272555969391, -0.5101695372760131, 0.2574334907425291, -0.5708397605859861, -0.43342919651127754, 0.008315939062875755, 0.21912396200603013, -0.5301852149612152], "bias": -0.4437755486933357}, {"weights": [0.9661037821922935, 0.34858004316294977, 0.7668198397274852, 0.10650383319696899, 0.9949125477447516, 0.19650524673137948, 0.42985873611912573, 0.8855579790832475, 0.6168262768989228, -0.004176663086111088, -0.7696495055133772, 0.948496929482245, -0.2627415430846167, -0.36165593432655063, -0.7055038718578588], "bias": 0.9728877382605361}, {"weights": [-0.1705584348149476, 0.6064720528868963, 0.5452086193712418, -0.20004629601362467, 0.3911316466823953, 0.29010282235854157, 0.06631265493909777, -0.04925034182006427, 0.49333709036946094, 0.928683862823048, -0.10053620341260006, -0.8797791588344581, 0.016804074621836085, -0.9069244419778997, 0.2987146319335876], "bias": -0.23349812271788717}, {"weights": [-0.40129477935002167, 0.4879929924507611, -0.1976029063892546, -0.7992852344218975, 0.9655419294932759, 0.4219271247112144, -0.648974317986466, 0.18517351993622988, -0.5464851677778306, 0.9090177824964369, -0.9330936345270826, -0.6589924742410531, 0.99561067057399, 0.8270471977514373, 0.12411533951859144], "bias": -0.8990190874923782}, {"weights": [0.34903202954432144, -0.5687641577024296, 0.959243395118393, 0.6176930174272783, 0.12715040578196324, 0.6709310509006017, -0.8874635880811366, 0.7260695589317203, 0.11931188918528068, 0.36965390440315393, -0.7176564644535157, -0.5290500909505977, 0.4058976688828353, -0.034671459301631735, -0.17722434928542108], "bias": 0.20403512300020554}, {"weights": [-0.45772507914161564, -0.4945568497577124, -0.9695663595718778, -0.9321812281054735, -0.8790430481406455, -0.6192862804145498, 0.48689698223649835, -0.3339765315932748, -0.360956218500986, 0.22210756505680718, -0.017881840272434557, -0.2305061261486656, 0.9346386743327302, -0.8158117891331458, 0.9219368017776084], "bias": 0.23577283295667617}, {"weights": [0.3832921487801306, -0.45501641570043505, -0.5842226415329292, 0.47456607856199673, -0.36165855531926594, -0.3721280602151962, 0.8609546197900306, 0.6688852083921537, -0.3618107159096875, 0.07169288068822044, 0.5651077596232297, -0.033677303582553275, 0.06607565002661886, -0.5808324515650909, -0.1555602362444457], "bias": 0.5586045211996451}], [{"weights": [-0.1956239482496296, 0.36719578965284994, 0.4556503136480323, 0.3043715472401727, -0.08093528606176603, -0.7873179964269335, 0.5133343557087844, -0.27409149818074474, -0.9524325334584303, -0.4989176847360628, -0.8751789804074879, 0.5156211347328308, 0.08053435338738768, 0.12172540198840953, 0.5560693104427301, 0.6370614738936211, -0.6985644928444872, 0.41282564024095514, 0.47640998072845986, 0.2317043678248354], "bias": 0.14809657515232377}, {"weights": [0.7868187113947245, 0.3129951491741856, 0.30981891295628383, 0.346899886590156, 0.993801307163827, -0.8171405231030318, 0.7561243648359395, 0.09296587746925944, -0.5817536409469977, 0.9377896028282404, 0.5747305513011687, 0.9578137770830994, 0.09071660915100765, 0.48635530364547996, -0.13867070781367263, -0.7315957713139818, -0.7497206169529209, -0.9049380579844071, 0.3093551972852062, 0.6263465007549172], "bias": 0.8311444550117228}, {"weights": [-0.7052651845805333, 0.5615374510101001, -0.7060853344042726, 0.4856078004512905, 0.8826899985939829, -0.09315226895749884, -0.3014456792595761, -0.38547432760083855, -0.6825475579783284, -0.13385367031138684, -0.4904092357484511, 0.21799386985499858, 0.4604043650137053, -0.11392809117154545, 0.857658505953794, 0.35653483847067435, 0.24851168640613008, -0.28976967223775696, -0.7518964936453498, 0.668361873710229], "bias": 0.0915711227869993}]], "generation": 0}