{"score": 8192, "inputs": [0.0, 0.16702493630511242, 0.6997850382169319, -4.332975063694851, 1.2998925191084554, 0.5, 0.5, -4, 1.2, 0.0], "layers": [[{"weights": [-0.8107818811845293, 0.6610421765431418, 0.8548516204356642, -0.17613694639168442, 0.7562077602713685, 0.32933820032686456, -0.22497486034043668, 0.2728046649438005, 0.3390826359992599, 0.34299155033812445], "bias": -0.5325373608521939}, {"weights": [-0.31235338837156434, 0.9937079835018026, -0.24401535254374318, 0.06599399167013176, 0.11369311774649415, 0.17594222870658016, -0.996213512827058, 0.8648029519538107, 0.13061509849091402, 0.10792338287442238], "bias": 0.09879286658543585}, {"weights": [-0.8302375519482499, -0.23629814375127267, 0.3362134945067137, 0.33023922733063327, -0.9433853327061286, -0.663401881812169, 0.7689301154334294, 0.7769764975142932, -0.7828749953429708, 0.305416602510606], "bias": 0.5100291219157802}, {"weights": [-0.7637054173200439, -0.7008079622045028, -0.9192167548926486, -0.28365384212363187, -0.3025737908750299, -0.2818389416112559, -0.9299868784470662, 0.4283082910299332, 0.05123085163036167, 0.8105801411399558], "bias": -0.9100101098740165}, {"weights": [-0.35352699500066387, -0.6556581702209201, 0.40399369202643, 0.9084164545742008, -0.5504466867275117, -0.42758753143281236, 0.0696107692963055, 0.47127942978490234, -0.4417607586064922, -0.3399271474698915], "bias": -0.22163346901888814}, {"weights": [-0.016552549937389083, -0.40322392383667705, -0.6069226186718608, 0.31128858038494994, -0.00920427526423806, 0.5099344359111913, -0.2685200138571162, 0.7993327208788048, 0.6197138002954738, -0.4943295428823349], "bias": -0.7544997807133613}, {"weights": [-0.5113967700378474, -0.582096176798887, -0.4266385897610838, -0.85795978818287, 0.05233192701179101, 0.7910942088053434, 0.41281515676092595, -0.3414374386994974, -0.16632060935251042, 0.4478485167831123], "bias": -0.9169967433163249}, {"weights": [0.20218350341350733, -0.7895981039605018, 0.5640651014772524, 0.3762705691676449, -0.6962119788054635, -0.058624752052107265, -0.965944357470166, 0.47451235638010947, 0.7879393655564055, -0.1105907718585768], "bias": 0.7183859823582608}, {"weights": [0.006854450145551416, -0.1439152228755931, 0.15050878537830914, -0.3466424117482909, -0.41185512915142564, -0.6381609186314599, 0.5847571306481791, 0.8632086269147041, 0.08770956696401933, -0.4146142338825496], "bias": -0.6550056683942782}, {"weights": [0.5593812120469441, -0.344354241093366, -0.9521265668828156, -0.20834201598573232, -0.17565589223979305, -0.27599583515338755, -0.22538498473601676, -0.6843993416091716, 0.6435745893606624, -0.6022879082791781], "bias": 0.8589434052071601}, {"weights": [-0.4015156613389579, -0.9339027689057128, -0.7480721076561208, -0.8485752689296191, -0.832953655464822, -0.2642786831184629, 0.7288357572434265, 0.4406263596532236, 0.5196145981392217, 0.6246061132475955], "bias": 0.9779661366709849}, {"weights": [-0.7441795805467575, -0.5174033405147713, 0.8745707063320789, -0.10769632239456972, 0.948016301125151, -0.0762599497523897, -0.40705880756228474, 0.7033469504171888, -0.6670907363587848, -0.6831131334069531], "bias": 0.3920304714427829}, {"weights": [0.7523898815572865, -0.21123599242793942, -0.5633425322363041, -0.6699487050647406, 0.4714645243203628, 0.9333336363302918, -0.30177759204981003, 0.6545255272374846, -0.5262118086854939, 0.2071354985692071], "bias": -0.5317596497063481}, {"weights": [-0.9944955387534258, -0.5202706439473521, 0.3905382413045222, 0.8902955598184159, 0.7228445589452259, 0.4548159761129087, 0.2728057219995461, 0.025144354765319177, 0.6773917226757016, -0.6081638069399855], "bias": -0.10619505026667886}, {"weights": [0.9902362446950264, 0.991351735055878, -0.5903772421831477, -0.6216545769011443, -0.8760030732922097, -0.83311951077079, 0.572262171082421, 0.3330348013839337, 0.6848836634902666, -0.5150124126767126], "bias": 0.18815816331188873}], [{"weights": [-0.4174493211514475, 0.3587831399914765, -0.2546880216901817, -0.0189679891182033, 0.11212105813645157, -0.3437137303259642, 0.09696724612314878, -0.9543889772186063, -0.9946345991007859, -0.17764090727916249, 0.1921282426977884, 0.43613101566601387, -0.7958441560083824, 0.7482592520866218, 0.17684686942148975], "bias": -0.1675415494355057}, {"weights": [0.6883829780959911, 0.7951949070706199, 0.7754131817794121, -0.8131242205714779, -0.7431633588507087, -0.14830452763919522, 0.8694466396408085, -0.6387755936550397, -0.36334521671536546, -0.5953123022227631, -0.694692982097209, 0.6795198416558459, -0.5182941056087125, -0.015980293832817072, 0.5464463792469509], "bias": -0.2233903569635467}, {"weights": [0.360890931058528, -0.29116895512300367, 0.7543059316402079, 0.8827329471494612, -0.5950934620114918, 0.4315972872547078, 0.5272941784260505, 0.03306675475341203, -0.020558736673566003, -0.9921514046891917, -0.6627558464543035, 0.7775322359955148, 0.3550031235211064, 0.3691100596948489, 0.511092729167935], "bias": 0.08493777585818707}, {"weights": [0.5597334511205774, -0.8884941999065805, -0.17693888586085138, 0.7710922745527526, 0.1751053248872989, -0.5974989530496817, -0.8255268515832295, 0.22295839958539995, 0.4040653516467603, 0.19367415254307052, 0.21183046606373868, 0.8891767491728491, 0.498993017992017, 0.1045073525029232, 0.3182079781680672], "bias": -0.3376394128286174}, {"weights": [0.4085150386243157, 0.25581609391017696, 0.004864540265294037, -0.6783594137712641, -0.7022862271052903, -0.733425228551805, -0.6413655575459765, -0.31890017407934024, 0.3819660108527121, -0.22763783431654527, -0.8298758403882314, 0.27627468757760076, -0.8363580128789061, 0.49498310908930754, -0.6963326598920152], "bias": 0.7111628419672218}, {"weights": [0.8097077351329156, 0.4895905001115519, 0.7972858412101145, -0.9114512341666265, -0.5002483597115377, 0.6943181158098648, 0.23052081545174596, -0.8439888863346279, 0.3269455845056026, 0.6626989667538117, -0.23632416018507363, 0.5811711174262126, 0.0694871188104853, -0.8044923298355844, -0.546380596411902], "bias": 0.8085416178874025}, {"weights": [-0.5419454030424293, -0.5104603050092746, 0.5690461003280753, 0.6149383991199837, -0.7918725612897637, 0.7032446288236971, -0.161396508064505, -0.2536603773614585, 0.846877708253504, -0.8386118211716542, 0.7637184649759885, 0.8695905335136056, 0.8163989457222964, -0.6974518228045623, -0.8972242187618664], "bias": 0.4703941595615231}, {"weights": [-0.6769654997188981, 0.37854178387079584, 0.5863356666818829, 0.9679825467432772, 0.40464702385786655, -0.5702926972735989, -0.0902432954341843, 0.8237586926864728, 0.3569749737000767, -0.20250539299446269, 0.42370540825010083, 0.024126171382620853, -0.4259802669431192, 0.2717402478283706, -0.9386739804037616], "bias": 0.18620479816333102}, {"weights": [-0.8939843966949741, 0.8114974430079644, 0.007121918622853052, -0.6897626382886239, -0.7450675438563275, -0.1838321177431872, 0.9658449056077845, -0.6253602667970763, 0.7973265747202929, 0.5224497591163775, -0.721127992981816, -0.18647208024708872, 0.8534504419393296, -0.6019919591384941, 0.12224702789874864], "bias": 0.4185736218829512}, {"weights": [-0.5653091803513677, -0.2374538891010161, 0.8045583902743998, 0.05621700872952928, -0.5053472125043177, 0.6589957392213845, 0.9098867341471386, -0.008556604680056257, 0.6150585389317085, -0.584539002164876, -0.3796608186491026, -0.22232106315958577, 0.7404915984431639, -0.7164246391631819, 0.9969149925483294], "bias": 0.18662150767680852}, {"weights": [-0.7130238673499625, 0.7614205663941727, 0.04097057277929239, 0.8780590174107035, 0.7657794036398393, 0.2877788382020037, 0.07567603166522185, 0.5226148307990846, 0.5393994182152584, -0.06117178103223564, 0.8201473022867258, 0.0469078831628833, 0.5152348345249111, -0.8723520494010464, -0.41842299687267365], "bias": 0.3543532385478104}, {"weights": [-0.8584525218215688, 0.11323891667769814, 0.5830639510037159, 0.146535488849046, 0.9137132210837353, 0.17359562977462462, 0.7256867088152206, -0.7719217028333207, -0.8573466608110332, 0.20381524447050903, -0.5801823577935878, 0.0337851558991098, -0.9729570173752982, -0.19304872115306249, -0.6324619334845019], "bias": 0.5994282381419174}, {"weights": [-0.8260851056107439, -0.5419076577090605, -0.18984281598539476, 0.7823886663068941, 0.029785709899666835, 0.878744692508219, 0.375047677097484, 0.9496154733045883, 0.2637387854255224, -0.5066737947300912, 0.4250658950933677, -0.8434915253471675, -0.3442135581554697, -0.42234029492383307, -0.05005986337921442], "bias": -0.9412739847507794}, {"weights": [0.6931062090220996, -0.28757794992916996, -0.5779378649388827, -0.9810225450273615, -0.3424456825831488, 0.9255891036266788, -0.8664318849186698, -0.1691210618587613, 0.4500460759758256, 0.21578205329840006, -0.9301075029281094, 0.8393271498656225, 0.8985258860201499, -0.5255228270445735, 0.24460916013533684], "bias": -0.8201748445715697}, {"weights": [-0.6926788485289919, 0.475839774154976, -0.948969335335671, 0.04944455504824852, -0.6007764965990707, -0.12649460210729813, 0.03643916045221807, 0.023778397216161817, -0.15363206591895207, -0.12056612665839261, 0.23186284472054197, 0.3801770049799691, -0.5419065359662527, 0.20213969243645202, -0.8872761128947566], "bias": 0.3566385990656573}, {"weights": [-0.6844769209953376, 0.03517865333234105, -0.13295904436961603, -0.017054002096795307, 0.6192396920975589, 0.9550007221574275, -0.7073450302001405, -0.6297578974080045, -0.6091384901631309, -0.6871416950649059, -0.1360515453667881, -0.8384446318454633, 0.7819493252414831, 0.7144201301983963, 0.30563647715144415], "bias": -0.196210539690592}, {"weights": [0.3571746285711004, 0.10749963262931805, -0.33707619895463514, -0.8344303304806642, -0.9390979920643949, 0.2636670444673819, 0.30352044451295335, -0.15175829346310676, -0.612528904300611, -0.582600555437147, 0.6655275097544713, 0.17252151383458036, -0.21996115495496316, -0.6471204451914101, 0.6544159249347457], "bias": -0.7392288861995122}, {"weights": [-0.8655510208719805, 0.1627446203155098, -0.8992447253462827, -0.8474121985661205, -0.8780458921434562, 0.9873877966063922, 0.792891385293184, 0.9015048659465434, -0.6702516170250039, -0.21795095316648894, 0.39895485510215356, -0.5664880398586682, 0.44281078324926826, -0.36651001427222574, 0.9165685181111427], "bias": -0.0749039599603527}, {"weights": [-0.9419507167908829, 0.5989543609609864, 0.26980739152950894, 0.32190580382356937, 0.25301443045986516, -0.5438633865689291, -0.02533459478351391, 0.749852505295477, -0.725651608276453, -0.03966537098153183, 0.7512859276798052, 0.702189476486679, 0.32546774119943556, -0.36679709753650314, -0.42283578394791665], "bias": -0.34035751520310553}, {"weights": [0.3436784623618174, 0.5702253258737036, 0.8198948816312892, -0.04721500308699755, 0.8711491191020662, -0.4228461346895558, -0.42587154151936385, 0.6741553927977599, -0.8672933390741335, -0.5498391765974469, 0.22058999296877868, -0.9224758230151704, 0.014846535335158784, -0.7452266769619562, -0.20957833788901947], "bias": 0.5911580760867796}], [{"weights": [0.446451830307252, -0.06159612016323179, 0.8132797789716215, -0.14626850820633974, 0.8470208891175546, 0.7437431791735922, 0.5462778616963795, -0.9150567358379518, 0.8256845552832301, -0.7137620571136944, 0.9191511788557483, 0.6390499405758261, -0.8154923997074301, -0.5365964881917131, -0.2876548263855234, 0.46500444578507927, 0.8824222251232086, -0.7695392921680695, 0.7069337135562535, 0.6981400428969593], "bias": 0.686236550699717}, {"weights": [0.4120637444456299, 0.7080050698848136, 0.08232218861314067, -0.6394339224941172, 0.45314764308261024, -0.3422145898476652, 0.045249554169172646, -0.3363650911540981, 0.16974627988789281, -0.4476749479081492, 0.4599735398646807, 0.005348284932207237, 0.3412029992150065, -0.5635869755842937, -0.6273239254828498, 0.15686351560578943, -0.4401014568792561, -0.6424487002746806, 0.1740696696878572, 0.7526383372784768], "bias": 0.10035730895034822}, {"weights": [-0.6315099400360205, 0.08794215156242347, 0.38553735114444465, -0.18623529923867754, 0.004917499615949561, -0.8625332371786658, 0.4450304215818992, -0.9894506079642038, 0.07715499808968684, -0.13145664996643203, 0.99731152691437, -0.17463304631477206, 0.35070171182151944, 0.42679444534847377, -0.22406731885778366, 0.7472981668502094, 0.023710324670797034, -0.834022036677635, 0.6903291273740721, -0.4598682408696533], "bias": 0.06090342266751403}]], "generation": 0}