{"score": 8192, "inputs": [0.425, 0.5, 0.5, 0.01798620996209156, 0.7685247834990175, 0.5, 0.5, 0.01798620996209156, 0.7685247834990175, 0.85], "layers": [[{"weights": [0.6977667884903966, -0.8394813994117662, -0.16042627229781026, 0.8255523594587906, 0.047820542580992775, -0.4060766970521359, -0.7401510487764105, 0.9716474320408774, 0.14793334686159398, 0.12975407187641408], "bias": 0.6003451121046157}, {"weights": [0.49804577823112317, 0.8286184107755468, -0.5475558998728052, -0.10011597922647142, -0.7174364940930655, -0.4901460293433193, -0.2853128971154444, -0.7935688513798917, 0.4546592725448677, -0.6031983854555969], "bias": 0.9236047045001208}, {"weights": [-0.6163497091476731, 0.8543519240554198, -0.8720571621303079, -0.39251963753823627, -0.5636737774975855, -0.014529789252911929, 0.09211079400309208, -0.23127160016065984, 0.5243393172115294, -0.030343070448733966], "bias": 0.9195313727156293}, {"weights": [0.8722079634498352, 0.03052958535579986, -0.872434342796307, 0.3866130116927866, -0.13678460177032847, -0.22083380305127354, 0.12506390472574846, -0.666810186209208, 0.16243688748306795, -0.19282503796430994], "bias": -0.033837192940406435}, {"weights": [0.023247090501876233, 0.8522048131591722, 0.8910706161519555, -0.7127809622149293, -0.28654367595706876, 0.13751132209325623, -0.01882108730387011, 0.3000858778246933, 0.633790145145481, -0.8303935978771129], "bias": -0.20516648329919152}, {"weights": [-0.34299752704071285, 0.8161721384881984, 0.1637197285549461, -0.10989339899438333, 0.5079979117325346, 0.4535319540783791, 0.7366388758358955, -0.9611831136250293, -0.1543116094318393, 0.36516704163037605], "bias": -0.7103110094058087}, {"weights": [-0.29435108425075374, -0.9991595469474621, -0.15320271195315338, -0.0777925390451919, -0.3873604878368575, -0.766252570185755, 0.6621504550112032, -0.9820955444798016, -0.5566314374142278, -0.6726117778817551], "bias": -0.6470591597614033}, {"weights": [-0.8224578180320246, -0.5180157838832344, 0.08123722972716374, -0.49680457798764976, -0.7710960998038603, 0.9300572692450506, 0.817410190108361, -0.6634834773189597, 0.1362453828664214, 0.6713204860476063], "bias": -0.3599527621056333}, {"weights": [-0.6552426873744794, -0.9522192541616856, -0.5561216816781018, -0.2329141713111511, -0.33244245174099785, -0.4438557183203311, -0.8210624280597072, 0.8311606648888923, -0.3036735140263529, 0.40321943289120754], "bias": -0.8542499077312027}, {"weights": [0.9666212978133977, -0.03580555826603682, -0.08680634432696532, -0.08377042645975208, -0.8662695194155783, 0.7403958390767811, 0.9586608485604451, -0.5736292871734057, -0.24156826684328103, 0.47755018150900064], "bias": 0.5135578903282167}, {"weights": [0.5203917805988116, 0.7362349347977548, 0.011894884756853852, -0.351443829229654, -0.026842529101653856, 0.1769861679328475, 0.699291846010121, -0.027160098678301603, -0.43230528227348364, 0.6928650512265186], "bias": -0.8965272645189049}, {"weights": [-0.875429608278028, -0.013894490392222014, 0.8524381758338011, 0.6609670400302918, -0.5895575966205835, -0.30802891767029994, -0.47691142217331484, -0.8171415155415149, 0.5991206175136741, 0.585190723039809], "bias": -0.09288197532153397}, {"weights": [0.5232045967575021, 0.6841924389689689, 0.10711318000048942, -0.5654787078257875, 0.8935613624776066, 0.5301847930244936, -0.4584712539768012, -0.7982866402843567, -0.14094677845619952, -0.12464676873840963], "bias": 0.3556978850836092}, {"weights": [0.19260076554549577, -0.38561506776962684, 0.687492341233843, 0.27992745695350285, 0.2013064927151973, 0.5532233368692807, 0.2627805179558027, 0.03856285259879688, -0.8183224259438064, -0.7653738728300283], "bias": 0.31803886318495356}, {"weights": [-0.6010781611614828, -0.9895595135408068, 0.6521834306670093, -0.3500285223287589, 0.5076055685545244, 0.7258488668186915, 0.09092472067703761, 0.4790005956211387, -0.1393150164873136, 0.22046112533770845], "bias": -0.9439463130276842}], [{"weights": [0.09027430059012542, 0.19335144627113943, 0.5597193793332287, -0.7287372862104375, -0.9868334159974499, -0.4900618587214647, 0.9349200757016563, -0.5873383908768028, 0.7543531233831, -0.6126106932502653, 0.5701021494437781, 0.47081467245184627, 0.8668600251811425, -0.6282220168804384, 0.3896731850152457], "bias": 0.9864527101873104}, {"weights": [0.5088403008576305, 0.47554219248473784, 0.20409968710345772, -0.9757084099105173, 0.17909323326448323, 0.8813736341870293, 0.4438751121722946, -0.16241605709383844, 0.7483874840069433, 0.5727450911511045, 0.7956606389688172, 0.505471086936981, -0.20959294989150434, 0.5203026169702121, 0.3734614981933311], "bias": -0.8735690469669533}, {"weights": [-0.8121470934735264, 0.22769839678439308, -0.997487868684864, -0.9972189583175264, -0.8301128572125389, 0.9591854487210514, -0.5504131548475473, -0.29686283531401947, -0.0795734875714258, 0.6416693533589488, 0.5156680600133927, -0.03556138858204094, -0.7727890032735094, 0.8067782855311951, -0.9100833177590935], "bias": 0.8070451552846236}, {"weights": [-0.9754130379216446, 0.08582644750140633, 0.5226850957182887, -0.6130132697293276, 0.8371464849902541, 0.5287285401979736, 0.11664093461096736, -0.622074494497235, 0.7548011509641368, 0.5615701796790258, 0.07188474133988532, -0.9255160173654606, -0.9235422015028392, 0.7607346377999367, 0.779178588000335], "bias": -0.15413842584859272}, {"weights": [0.18610074466525406, 0.6967609794553697, -0.032115019135834366, -0.2458314198536542, -0.31983528800014205, -0.8789832581375856, 0.34214594353761796, -0.9965913411701521, 0.0367932201625123, 0.9994080099131843, -0.8871760599625682, 0.2956982635687675, -0.6545540565080656, -0.22537414746104267, 0.4829296804301242], "bias": 0.5706268771834802}, {"weights": [0.7540275949187389, -0.8732575838088281, 0.7144934743644789, -0.4400281007207567, -0.6018816979068049, 0.9639933046561431, 0.02100040865972841, -0.9324425362498718, -0.37585814783296834, 0.10311732047668465, 0.15016905303349026, 0.29726355320050923, 0.2938180254553233, 0.29381644484694114, 0.9355061104353635], "bias": 0.16601970303822422}, {"weights": [0.5561564100409131, -0.2523819423890248, 0.5080786898389029, 0.44339263558725217, 0.14528380625073378, 0.35479024230166867, 0.13902141757115438, -0.24716004147123538, 0.7512738126124732, 0.08011917115260903, 0.6628596381748153, -0.9668378295645053, -0.7601416829437968, -0.14643831656239303, -0.34137107462976135], "bias": 0.8347368852223227}, {"weights": [-0.9985457455778652, 0.606133206245643, 0.6516501320986372, -0.4658337656064606, -0.9953431147994973, 0.6967123984225354, 0.05254638560917679, -0.02686785000236558, -0.4353805933518926, -0.0938931208397884, 0.30946928237243854, 0.6495389059425014, -0.4589062492095406, 0.6447859732164625, -0.7468794190373984], "bias": 0.7297667367949716}, {"weights": [0.9564595509259843, 0.542394431889107, 0.8334143606515627, 0.3585412237589152, -0.4030137471775421, -0.9579730695052282, -0.318207416833032, -0.4775149902666258, -0.6241311784131904, -0.2551651859842321, 0.5431679014954762, -0.8891676765431147, 0.5601793142419811, -0.31910526174751364, 0.736785738365815], "bias": 0.24623919758413337}, {"weights": [-0.7489392473459384, 0.45093274423519425, -0.13781851157164504, 0.7554201863580863, -0.9937537102278668, 0.14312691930436516, -0.8862583432973923, -0.5357221356494148, 0.3808867781744556, 0.10220814489162389, -0.5052726579014111, -0.8198214519997358, 0.31904679322578766, -0.933844714563222, 0.27399018202759384], "bias": -0.6221286803443786}, {"weights": [0.38978281890629707, 0.9687291230639636, -0.4145802153817246, 0.940637730639625, -0.7919486970807275, 0.7134696273618943, 0.9045512883001774, 0.25671349118639997, -0.37311118821161693, 0.7982451405784841, 0.3361075216101499, 0.5224961656376839, -0.6696410248793223, -0.8381981545486732, 0.40692446172979024], "bias": 0.0605753693845843}, {"weights": [-0.952277899109941, -0.8276485279484496, -0.578525497904431, 0.06541740382266026, -0.33452071524804405, -0.876902725172704, 0.8599799477516898, 0.6138896402699898, 0.885347479546944, 0.08487946498856669, -0.8257641723690987, 0.9035531036757383, -0.8158605700912387, 0.07104879761974292, 0.07754781715403336], "bias": -0.8085386317044387}, {"weights": [-0.10454556820058625, 0.7305902985035893, -0.6447534768171328, -0.3646228328458023, 0.039041011283304394, 0.7937514727265162, -0.8508385166252661, 0.3968614316831578, 0.7951507761070793, -0.6841153584322996, 0.5594457977035341, -0.3236525859086492, 0.4766044926933841, 0.22742179532958406, 0.153088592915541], "bias": -0.6912615874687678}, {"weights": [-0.30965343924044597, 0.3660219030918255, -0.6283255142790931, 0.29675319687502477, -0.045014666539725745, -0.5893588090315616, -0.6636785875404443, 0.10615464519254414, -0.40183163912339603, -0.7045327055879587, 0.39879063697904593, -0.9643923497984079, 0.8959616496647411, -0.48598972465696666, -0.9418690922116839], "bias": -0.06328981889240715}, {"weights": [0.2672395218277883, 0.8026051110969281, -0.7136586245407772, -0.07391299368852167, -0.4838541714815372, 0.11549664534875381, 0.35827009123432463, -0.8775563555910371, -0.6311755511781423, -0.8989675741243921, -0.2179279330964996, -0.501294688851819, -0.0468923004637265, 0.22186410061923678, 0.576122439084368], "bias": 0.052534461130575805}, {"weights": [0.03280029874742674, -0.1442440147968016, 0.6241602202953709, -0.5484769170382848, -0.32880421870880583, 0.37718398425854116, -0.7789687604218036, 0.7153188649531759, -0.9590991672494293, -0.36554369895253647, -0.5453966146852816, 0.6087578017290758, -0.8039439743940608, 0.6796523075768379, 0.5639302185681374], "bias": -0.9979720102479135}, {"weights": [-0.5280381034518113, 0.8193469623745939, 0.5952664517196176, -0.12755384045830032, 0.47282002210045126, -0.9978637753908859, 0.4310998359025451, 0.7942177730288493, -0.951909760208927, 0.9074008588191955, -0.3310050272718654, -0.7167140698615269, -0.11590579164091541, -0.10572490461006612, -0.4497571269406444], "bias": 0.39514929103301144}, {"weights": [0.8043764516025043, 0.6480585141988038, -0.17819005619913764, 0.7354740366050851, -0.885713028232521, -0.3424338389707975, 0.33448833726902194, 0.2524660093095539, 0.5756710556136875, -0.05160470215506141, 0.13500784108084085, 0.6251299898748943, 0.9532825461164478, -0.12597990402624504, -0.582143605992367], "bias": 0.3107427048184177}, {"weights": [-0.1168111930313196, -0.8136384562076953, 0.691387239823605, -0.4665927059463628, 0.017105700231579757, -0.3937513304779767, 0.570012238589322, 0.20464171784046759, -0.14249518752337287, 0.8102996514156566, 0.15990867972454614, 0.5192179751062902, 0.6716265938494725, 0.31471474941425215, 0.5842343985230309], "bias": 0.3425805506206985}, {"weights": [0.9142270584838292, 0.42127294195987397, 0.933171602525604, -0.846704395770481, 0.6769500347420578, 0.8609607762193017, 0.8808284364416552, -0.30126462585693314, -0.7636257161134237, -0.3044180847205973, 0.25660265661223725, -0.46694679544569473, -0.41318947449052335, 0.33148354899902954, -0.16149701881394618], "bias": 0.8831829384028096}], [{"weights": [0.2963674818281714, 0.05264360007490909, 0.5659177497702346, 0.008847180956084166, 0.18203938256968066, -0.2409773631790897, -0.09015614518833548, 0.31472242599083255, 0.8955515283082214, 0.595862294942427, -0.7754627659473416, 0.35003670009826493, -0.30687098880959285, -0.14650086504400606, -0.6252770666545755, 0.6128309574247215, -0.2803211277940041, -0.4090318299804503, -0.07157308588774058, -0.22415591998416162], "bias": 0.15310923301819845}, {"weights": [-0.3590983495831368, 0.57969397562796, 0.6964246755053292, 0.6008751915374182, -0.2025016810305158, 0.6810133637687543, -0.35707178687086305, 0.1164827622328588, 0.9429781647977138, -0.8985215310326979, -0.12475616387792177, -0.5204266990644129, -0.4378801469517615, -0.2967660798361522, -0.14258373333219865, 0.31475422215781856, 0.523090562779722, 0.6734950333234755, -0.37185030069647507, 0.06436509688675929], "bias": 0.23289560095635853}, {"weights": [0.5870454076184244, 0.9782176437732211, -0.9311583613158918, -0.773340980488118, 0.10038785139451711, 0.7027352269243883, -0.9384952705020582, -0.563537301118725, 0.40440938913527424, 0.07073110096871948, 0.0817719222881339, -0.339949500859295, 0.5504651059819392, -0.859542200897967, 0.19710573177160606, -0.2577329530931143, 0.44288224471730286, -0.2992453326782323, -0.46075630452687566, -0.46298077314151453], "bias": 0.13703126942439048}]], "generation": 0}