{"score": 8192, "inputs": [0.85, 0.16702493630511242, 0.6997850382169319, -4.332975063694851, 1.2998925191084554, 0.5, 0.5, -4, 1.2, 0.85], "layers": [[{"weights": [0.15523959104145968, 0.9890364399090434, 0.6705201653145747, 0.24502611147285824, -0.3430964559093599, -0.8303358505822211, -0.7306938831274423, -0.41284820968709, -0.7766668263253742, 0.28888654032918515], "bias": -0.8700824805632474}, {"weights": [0.7611171879678369, -0.612906338856287, 0.7336653831751758, -0.44407107515675337, 0.12591519279149344, -0.23392242791761242, 0.12505654909669706, 0.9583221504991177, -0.555023001258133, -0.3254841805627473], "bias": -0.6302500496155452}, {"weights": [0.8512250627988176, 0.1398986259614281, 0.5367354175766217, -0.34185871431361026, 0.09323621743558053, 0.9737452569191467, 0.8774428311237252, -0.33202943168147825, 0.27747535510110377, -0.9037760309840246], "bias": 0.5604868303919639}, {"weights": [0.7856154140806377, -0.9662693516274159, 0.0960443079004758, 0.1970371312459649, -0.014811712860418824, -0.07854890367693179, -0.4804080728193094, -0.9166159147058752, 0.15176349356621066, 0.07528273314776679], "bias": -0.0188167715820442}, {"weights": [0.68960007545667, -0.20105040889775494, 0.942385239266887, -0.09544548791063034, -0.9596261480371113, -0.6643499416584981, -0.13069829715933023, -0.6889577069808286, -0.213769389011776, -0.3646415066365363], "bias": -0.39882218433530414}, {"weights": [0.6237065716533639, -0.8704678724699222, 0.21619739447852404, 0.2840240520744841, 0.9771835962803368, 0.8172393289433633, 0.20542070340901386, -0.3929147354767526, -0.7099832657663303, 0.5902411503748521], "bias": 0.043667070713045764}, {"weights": [0.14972071473853554, 0.3597047442418906, -0.022254580015603542, 0.3002510259043809, 0.8938373854079165, 0.275333610938862, 0.954799404705019, 0.3663126638636096, 0.12885157083445176, -0.8909664187051911], "bias": -0.8935266198177712}, {"weights": [0.4953627660136548, -0.9193695428619828, 0.6444619353544294, 0.38458033158244986, 0.1713694720160437, 0.4577119476380249, 0.09466866210865676, -0.006119339319549555, 0.6637153211731401, 0.38074652853913404], "bias": 0.998085525509014}, {"weights": [-0.9106550510712144, 0.5846177664180556, -0.5788297017499093, 0.6912206473066485, -0.18629676559016173, 0.11459068167922593, -0.40840626834290417, -0.1947655546769289, -0.7966856722209921, 0.36745539084859], "bias": -0.05860155784814669}, {"weights": [0.1994222151729519, 0.6103782105101472, -0.949933035840598, 0.8980714234950149, -0.2499162695856374, 0.16928202582965057, -0.8420065625212578, -0.7222367298913335, -0.9794560938308274, -0.20880288640424216], "bias": 0.6411041603033867}, {"weights": [-0.6604377634750667, -0.7950836977100122, 0.24360643877543087, 0.958388628574179, 0.5108901253098077, -0.1540719479670205, 0.7161114248284446, 0.7345878375175829, -0.6531161448285201, -0.5815423062766456], "bias": 0.7628336692505031}, {"weights": [-0.4682695460562851, -0.5145619100855499, -0.839558349332731, 0.20651557997731396, 0.5279985412827326, -0.6510492892106696, 0.5493470392027988, -0.3467034631739785, -0.16140762831315159, 0.13747752273123703], "bias": -0.8947624514092325}, {"weights": [0.5572063192996062, 0.5885453210129759, 0.7513401952712413, -0.9121083486010737, 0.8612459711700919, -0.5564814504223845, -0.39560267933287663, -0.1594182781428064, -0.8017504523232861, 0.271313319127761], "bias": 0.13710842652407362}, {"weights": [-0.17912078896935024, 0.7070263689216625, 0.9718734089622441, 0.21037646121316267, 0.8643147650333907, -0.5404349381216158, 0.47019440267650925, -0.14021793558893259, 0.44557636943832946, -0.8421725557238895], "bias": -0.3974810051409534}, {"weights": [-0.6530296571473033, 0.030098360591966022, 0.5951078513701016, 0.9393927569755318, 0.11620955510736808, -0.17262914851169708, 0.9118053650058402, -0.14996512591737066, 0.5552388714836434, 0.44373428646384583], "bias": -0.9327754318606549}], [{"weights": [0.4204579834645781, 0.5398123007766713, -0.10693145068602639, -0.30183996766596977, 0.6772796379337962, 0.5844394454090855, -0.21694642525138796, 0.7870695486103878, 0.3995450317021425, 0.15289834100775357, -0.08329717296652461, 0.598199174830295, -0.2742148086829028, 0.5210979862636784, 0.5453094455854848], "bias": -0.429749579866999}, {"weights": [-0.4510894278688595, -0.6545454869557279, 0.38299677931457143, 0.9547516418073367, 0.6413057279029757, -0.6100530563669238, 0.6125987236709098, 0.27553685731557165, -0.8736850219327976, -0.9568454829387083, 0.7521843587521291, 0.24919585634690633, -0.34268453601232585, 0.9846075466734536, -0.2625880229812598], "bias": -0.48292292539795856}, {"weights": [0.9857418985716304, 0.9932261325842433, -0.9859212643200033, 0.043035971633908154, 0.9493659550327511, -0.9236240598708934, 0.7039816514011652, 0.7756188788614848, -0.5464808303094539, -0.05879530726862203, -0.42054802218553067, -0.609183425591278, -0.29499480538036527, -0.383716061901473, -0.6821911355169998], "bias": 0.9276847172403064}, {"weights": [0.48169347145008734, -0.45580729444261836, 0.09094974562918368, 0.2907104780886054, 0.39336545949991475, 0.1626625038704197, 0.382417310783719, -0.2584231630827478, 0.6353018608198537, 0.5406116766011702, -0.6753861732636, -0.11636972593416628, -0.10883488024288668, 0.08695070146429251, -0.003205743061756472], "bias": 0.22328682230677233}, {"weights": [0.705083779272542, 0.25566446642606655, -0.5166849861985803, 0.6548191285535521, 0.4521034363317362, -0.25926670062914825, -0.5355268603171148, -0.9808001797548458, -0.14622159155528958, -0.7407040946743189, 0.026501324408778393, 0.6838008014957122, 0.9652121511895939, 0.6088410287834887, 0.13185374941348083], "bias": -0.8256897643160623}, {"weights": [-0.4620922584049616, 0.16870405861136906, -0.7474887243501167, 0.46401404504147625, -0.02004176994101403, 0.35166804256655326, 0.09631057934975584, 0.7129512277782102, -0.5293257952913097, 0.7148784737322731, -0.17401054455064813, -0.7204981198327505, -0.17949080323793343, -0.7393430400793095, -0.22374691444652894], "bias": 0.7159681122209307}, {"weights": [-0.6525433530520754, -0.7090047795814218, -0.6215240051318027, 0.5202916933917516, 0.26830451790964727, 0.15607185816365576, -0.06842536830586399, 0.23493734549924827, -0.526678929821403, -0.5436868116454585, -0.4207268692799726, 0.23953257338024803, -0.7663006853612677, -0.2824359588576326, 0.2695933067078098], "bias": -0.3036297333635347}, {"weights": [0.20185387390020915, -0.14617955825082163, 0.3044947642513274, -0.4589936693205521, 0.8698128439933674, 0.8504497602505687, -0.7972689465857201, -0.3243983743560084, -0.16117418917240567, -0.5973366711388219, 0.6475696357241798, -0.2849592048714569, 0.5856885055962944, -0.49955233984295244, 0.8270814457355458], "bias": -0.8001028654582263}, {"weights": [0.8134994018436004, 0.20811307481112928, 0.9343259339563255, -0.4998749608839024, 0.7805590959740176, -0.23352167057603923, -0.7544291123739251, -0.22158150667215937, -0.6682021789925343, -0.9601261053817096, -0.9132320402619183, 0.9796191374703087, -0.7587384945148623, 0.20031628264139822, 0.4503817356684736], "bias": -0.008712873657308995}, {"weights": [-0.47665302830303746, 0.34773314216108253, 0.35323442402325655, 0.22894762582296857, -0.943024646756734, -0.40764301773939504, 0.9653619290360298, -0.8536561877434325, 0.5808568655003479, -0.5404571565523397, 0.7452845771724836, 0.25618969392309165, 0.05711994569452594, 0.4058409615045113, -0.7820421579745731], "bias": 0.09069492804396528}, {"weights": [-0.2246447823062725, -0.6034692633080334, 0.28117284891239014, 0.647204711002159, -0.9137640974102226, 0.910865594343073, -0.09580092535975449, -0.2573753450110585, 0.014545223029822418, -0.8430952158622271, -0.2519446329349322, -0.7791010374494787, -0.4994736837672171, 0.29783711194693296, 0.01719435800356628], "bias": 0.5053708786740385}, {"weights": [0.12135268816406142, 0.9308253271878324, -0.6098685114922786, -0.08820694934027262, -0.14448982598485016, 0.9038408168122554, 0.1975765642061107, -0.403138764849043, -0.17721038704175252, 0.7330904438807777, 0.5858162429398077, 0.11468289978866975, 0.3270472935087252, 0.2057781313845477, 0.5149298753553524], "bias": -0.5500063300187434}, {"weights": [-0.6074414613071468, 0.8474230126474875, -0.4295288944047313, -0.8205300150435013, 0.32724815877456015, -0.9707544922062745, 0.6240734827883112, 0.8456157007095113, 0.3776950345328387, -0.5470848157431332, -0.8162106523006374, -0.9664103608075814, 0.287547791587341, 0.8452641755781805, -0.21999889990291832], "bias": -0.9666231896872679}, {"weights": [0.6851975989336723, -0.8761630107402469, 0.053013632304267366, -0.7618360341622266, -0.5460613432251706, -0.6760063601653135, 0.744004788954582, 0.7829634286774398, -0.016647751306269276, -0.6932480301870163, -0.526904750032237, 0.04574349820218848, 0.4127743044108314, -0.7759154058699973, 0.08840423436248512], "bias": 0.20929789767358664}, {"weights": [-0.7066873391354429, 0.8129256986730269, -0.7708141040181176, 0.7483405854481993, 0.7139240790282506, -0.02347084072096961, 0.37143561059015173, -0.7588478181554599, 0.6561003853393543, -0.1216484068848962, -0.26911648271155153, 0.3455384897244145, 0.4101080341928449, 0.3954301216702727, -0.6956237410161994], "bias": 0.3727693818237212}, {"weights": [0.6577891790720933, 0.20525431263261806, -0.6629068150180926, 0.37291453617801906, 0.38292986846565613, 0.7868701035165042, 0.7725200555527592, 0.11913348315941974, -0.27768316438742335, -0.022854665666942164, 0.0014354886224141605, -0.5383783122946071, -0.0021223932338376716, 0.009439522031733372, -0.9688275904214492], "bias": 0.9319312845860657}, {"weights": [-0.07082729451869318, 0.5758332723054185, -0.298553993090261, 0.8934146873648561, -0.8183108992126435, 0.31576266448495716, 0.5336265816216643, 0.97191858521987, -0.36737116897359545, -0.5023572477112486, -0.45473313124717185, 0.5197058707464766, 0.6281721943519794, -0.3062109386949998, -0.45310952565995866], "bias": 0.27713495223710827}, {"weights": [-0.855640423456238, 0.20063055964557686, 0.7036474475089707, 0.7185499717429733, 0.8463860700425172, 0.12373890007446309, 0.32749427255122554, 0.7880133730718595, -0.7531105755257399, -0.33752437144002756, -0.5255499530566632, -0.6072347531191409, 0.14554146854886785, -0.2645333863429038, -0.011313176844441664], "bias": -0.08657737904284124}, {"weights": [0.551330618631616, -0.7305691309406228, -0.015878794870997304, -0.11968738205314522, 0.4623768216949531, 0.2639021493631082, 0.10604343640416558, -0.486981468902731, -0.8857097769984734, -0.8350570808750406, 0.9865272108594063, -0.12193364435832943, 0.49723999813144304, 0.2416467992057132, 0.29240778045124904], "bias": 0.3417288396482365}, {"weights": [0.727714448756213, 0.5392898242074733, 0.6080105859595553, -0.13702403763777005, 0.5249918528902713, 0.35261826448126876, 0.46675129264853865, 0.5884451867412666, 0.4133151684333456, -0.6076532908205068, -0.3464061092598518, -0.6504737895497885, -0.8545526020911196, -0.7749361971598141, 0.7190249527161325], "bias": -0.6035993855848343}], [{"weights": [0.9040700109318172, -0.6182140299291723, 0.0715274869866116, -0.7596463478663145, -0.7874347731863891, 0.37380566848193775, 0.11656892478048198, 0.7279603126326264, -0.7212299994090052, 0.7850947470124245, -0.15527559404139635, -0.8674953789927109, -0.28955930720095724, 0.04288775663471389, -0.9704695837039354, 0.07793574263077718, 0.4562324951839938, -0.3302885664361377, -0.9218243730915066, 0.17555259977448467], "bias": 0.031695411331205126}, {"weights": [0.8497361344076575, -0.39030747358512774, 0.8299473181571297, 0.15362383829921789, 0.9926307088452098, 0.5901723188028412, 0.5672980407694432, -0.7963018529934931, -0.48003811058366486, 0.6868851138997607, 0.6736806800362789, -0.9258420278720594, 0.5217755111383748, 0.5561221635372375, -0.3437816938139302, -0.4359150642333578, 0.8059849512559523, 0.9006384627032729, -0.14597398602649903, 0.47966322037769693], "bias": 0.533042240754326}, {"weights": [-0.26403712175289984, 0.18813232077352326, 0.6269843210674808, -0.7809885905298954, 0.5710426943324489, 0.3963127514960729, 0.6864991379790912, 0.4844890604170877, -0.4762448457672426, 0.22785134099630144, -0.7098097091714735, 0.616104521206962, -0.7086479892316886, 0.8558443818359327, 0.6841864771247774, -0.5667102916304592, 0.42559941065578477, 0.005135802124219824, -0.483831650731787, 0.7543785056099168], "bias": -0.5853270539566859}]], "generation": 0}