{"score": 8192, "inputs": [0.642, 0.5, 0.5, 4, 1.2, 0.8329750636948872, 0.6997850382169319, 4.332975063694851, 1.2998925191084554], "layers": [[{"weights": [-0.05137214134217394, -0.6024956455453514, 0.25782277447546553, 0.6143124770021045, 0.7807907258397879, 0.8730097120184501, -0.42914758512938844, 0.5422083043702728, 0.3864512195571652], "bias": 0.04343475698771093}, {"weights": [0.025220562379987266, 0.05433083835031671, -0.8501747204085255, -0.031294121511587614, 0.5639045498706474, -0.977323475718175, -0.8895843091855742, -0.4108593375231544, -0.5445955280649528], "bias": -0.6337088392623929}, {"weights": [0.05821645815252441, -0.13576402243800945, 0.9741297439927106, 0.6682232565236546, 0.3457657164990404, 0.727530139752461, 0.07914098525174507, 0.6652606817393725, -0.5086014212834264], "bias": 0.6621459103726293}, {"weights": [0.6756999869918907, 0.5557642845947302, -0.5952010443994127, 0.3147492766919706, -0.3931013212095975, 0.3804301645378032, -0.5484594063687631, 0.032531241056010796, -0.0414704857528263], "bias": -0.6780417459312837}, {"weights": [0.2606460978992917, 0.18171838854620304, 0.8890376728997507, -0.8490170452288035, 0.22518714445612553, 0.7015086679691338, -0.5639872940812809, 0.7167269831068086, -0.7176235792546881], "bias": 0.9791447547060161}, {"weights": [0.29160457603587897, -0.5816118321039498, -0.6431739219905848, 0.7859709358907441, -0.6202834974830322, 0.9886249272581733, 0.7867574457045805, 0.32699353381832474, -0.4944676343090175], "bias": 0.46780430437064413}, {"weights": [0.25529117996435446, -0.9747144729425872, 0.4516856969172862, -0.7357041295100357, -0.6063925731641548, 0.8270440814854243, -0.1715150097756475, 0.8347715884022096, 0.6200139184015314], "bias": 0.4606985381204356}, {"weights": [-0.6431385426501262, 0.6209680492167897, 0.10603462861135537, 0.46966686350857634, -0.39000539964211156, 0.3504366167628572, 0.5022382164052892, 0.030879807137305093, 0.23241367825855952], "bias": -0.5822992975433827}, {"weights": [-0.9453048617081028, -0.1958490631533869, 0.9857076809857059, -0.7878525829586283, -0.5164839407675144, 0.10603759633055065, -0.8669483787226491, 0.0756332393923016, 0.9336544146438492], "bias": 0.4316532384782319}, {"weights": [-0.8450782963387915, 0.46919448379060036, 0.2247500295996263, 0.581864417198336, 0.8649150765305893, -0.7302189539653858, -0.24876583470459224, 0.398176836899957, 0.3190875580914745], "bias": 0.2881958887910443}, {"weights": [-0.0005941578448829254, 0.1900756670368624, -0.8417377364143954, 0.6529301757911818, -0.054135921492310723, -0.05486328531371476, -0.7444679079963925, 0.7045715193716273, -0.24341624297148634], "bias": -0.0484330163101232}, {"weights": [-0.9777137733150767, -0.9095487856767084, 0.6476533034565832, -0.8322776369225462, -0.670211350929439, -0.3964727979642828, 0.24163593368969183, -0.3005154112057864, 0.7390077943223765], "bias": -0.49540062618357106}, {"weights": [-0.29594679933795476, 0.4604710576040256, -0.45950267942753387, 0.9279249352699777, -0.7789550359090904, 0.37226562717925993, -0.5901750053696095, -0.396752112713912, -0.03603834880522716], "bias": -0.36872516340809414}, {"weights": [-0.6065022799108728, 0.7842180855275411, -0.5137037172936616, -0.23084058024295584, -0.9018756813610715, -0.9798401629225211, 0.03850593546820802, -0.7605316171635155, -0.12602281545172755], "bias": -0.570289619042035}, {"weights": [-0.428921993920494, -0.7502998904459697, -0.4685031543979874, 0.802413933935443, -0.41195610189989207, 0.047071009462952285, -0.41561488219207465, -0.5480281360865378, -0.8393818875584544], "bias": -0.6759387427910373}], [{"weights": [0.49668324360574423, 0.4038308627481222, -0.3950988726314697, -0.053819222427743174, 0.7922362913249246, 0.39626959483104707, 0.4383973439157527, -0.9423045486379316, -0.6190397258436988, 0.7640099432688776, -0.4984875728439082, -0.20454235579864188, 0.18067465261980153, -0.5786785337316553, 0.027998655030702535], "bias": -0.23447877917958038}, {"weights": [0.7523640673537781, -0.8623910402553954, -0.8865134188071899, 0.006069848085289875, -0.5546985178854407, -0.03976411160912785, -0.42003483389743224, -0.8979316931646253, -0.966792293214169, 0.9679019850937152, 0.21288405320338, -0.1068767478393795, -0.7402578456634299, 0.2249072979138511, -0.020131222083259237], "bias": 0.14865326418696556}, {"weights": [-0.8622616286985829, 0.9536301501661986, 0.20070416917757572, -0.18150093774679532, 0.7833047045232264, 0.07716100590223673, 0.7596464725766034, 0.22906100447307987, 0.8640066603970376, -0.5849114057412923, 0.158647800287941, -0.43416488182033475, 0.8311426299672771, 0.5701490658217276, 0.6103337924799404], "bias": 0.5203000049671798}, {"weights": [0.6820624261245511, -0.08271808928179758, -0.4442992113492841, -0.01988937468289742, 0.8089464218795694, -0.05941380566917154, 0.6222793557857045, 0.3562210918717177, 0.01954401652602744, 0.9469202758715287, -0.39200171842795983, 0.49582102712345666, 0.10730502516687479, 0.1072427929979356, 0.03127025487758672], "bias": 0.5067575093747263}, {"weights": [-0.2826144470810541, 0.31550889403743465, 0.5678935639300968, 0.4523878227975895, 0.051337813780236274, 0.7727078569562171, -0.3899378357957315, -0.9415570265819453, -0.9227060481437306, -0.7851396932993007, -0.9415596855548056, 0.22057599789222837, -0.5013688001261125, -0.7543342684236891, -0.7205193602618718], "bias": 0.8823606558066341}, {"weights": [-0.5040327573321484, -0.8209172674063909, 0.46350085004256636, 0.22489749004139026, -0.8170037722819419, 0.8468391950409164, -0.34918217576826227, -0.1961346449196355, 0.8942988515512686, -0.33631359263857963, 0.8362642658361552, -0.12433480224285454, -0.28861479189280215, -0.7825496053516836, 0.32476955424393705], "bias": -0.7777114756653698}, {"weights": [0.22878695266842453, -0.9783344838096879, -0.6740369126651129, -0.07713631365634277, -0.6756823589245773, 0.34816562669995466, 0.3257388027052206, -0.007702682501952607, -0.7008280657702137, 0.2042491536025559, 0.8168970163928184, 0.1126873912749966, -0.6588383337943078, -0.41054941681808765, 0.8952094003907243], "bias": 0.07247276927914181}, {"weights": [0.3185081523221578, 0.1986114778395076, 0.42209007237824436, -0.6203777934472754, -0.9569909563231596, -0.12195564436135098, 0.7189573565491434, 0.7569158328740699, -0.5913633046575824, -0.5885653818484924, 0.71688896640493, -0.5816581245160855, 0.16028774794590284, 0.9109408565123456, 0.8211658922326579], "bias": 0.7691745132325132}, {"weights": [0.4239296296446351, 0.7081556519224621, -0.4873206219819761, -0.3443367818377481, -0.9633579281223041, -0.3589719311899242, -0.6517782215229033, -0.4533553367928762, -0.6611077501880045, 0.7753973835067296, -0.14767045908325338, -0.30783621183584065, 0.6985467414228901, -0.05214633956072734, -0.07013586858930743], "bias": 0.6739764818404941}, {"weights": [-0.24512411101746667, 0.709129764599197, -0.0718493213413729, 0.9404676334649105, -0.3287541999225092, 0.06854837448522733, 0.7570902680535565, -0.9339872809198646, 0.767857944825556, 0.8259128350763938, 0.6195357288469481, -0.9719765326880088, 0.3631456488267457, 0.4023421960843707, -0.5655613205338497], "bias": 0.25540036621999995}, {"weights": [-0.33446515813339217, 0.4505221861522575, 0.5051386124380159, -0.5389151462918622, -0.8492698239263201, 0.589846318844482, 0.702613955181939, -0.0004375994463761135, -0.13015490184751988, -0.5538606644387059, -0.7037158806672061, -0.7177065452328191, -0.4054095115317138, -0.08439828777727221, -0.6863682454165607], "bias": -0.1346551095281736}, {"weights": [0.06590615632647823, -0.41064547859002465, 0.7130096049420078, -0.028184021765478517, 0.9203421347172129, -0.9345390802952511, 0.5388413269384347, -0.005574668147353856, -0.4828196841977912, -0.8882159512657304, 0.36505246522719026, -0.439146553767674, -0.9348297996339889, -0.5916471512602419, 0.8745093314385559], "bias": 0.7611224799104475}, {"weights": [-0.042045867526187886, 0.30954705641527025, -0.3499227554900479, -0.08830870317604722, -0.5282438043057278, 0.28646794794074726, 0.21009819047864808, 0.32884763610481293, -0.1586509803370304, 0.30128332773858224, -0.1488655028022936, -0.2704863278671843, 0.9417184064030821, 0.24869032754088072, -0.8952175344765319], "bias": 0.8907848258756366}, {"weights": [0.6995234285140497, 0.044830414345892855, 0.49733998226190934, 0.03926504283255938, -0.9631437322943859, 0.01650551772228015, -0.12481159750685578, -0.9909414747530005, 0.231715638716121, 0.18010179881692467, 0.030060938358990485, 0.5987930630470271, 0.5175919077066662, -0.1663465669355808, -0.31421711524319673], "bias": 0.7222823779317689}, {"weights": [0.5341913786084991, 0.25422407226233656, -0.22724818196516972, 0.9488721565131304, 0.12154934065321998, 0.49555957602776246, 0.02624671509995946, 0.5098252562603516, 0.23907234197813731, -0.997058995790467, 0.7286796028866034, 0.8029918534595679, -0.5851851598423046, -0.5756086735178667, -0.5749816739506517], "bias": -0.5960917049094485}, {"weights": [0.21422085310202443, 0.6250245813112478, 0.5126401103817233, -0.6818059519397903, 0.6378833018281018, 0.9585663317727469, 0.873443499618, -0.32132830052862627, -0.5927155707580014, -0.2884000674758773, 0.020894631314203327, -0.97961591371667, -0.33596256398578705, 0.9057153064817551, -0.3933842888345511], "bias": -0.7161742568885141}, {"weights": [-0.6610079996236564, -0.557187424132707, -0.10267690927073048, 0.48398828693063467, 0.12040391364589076, 0.5545032028277923, -0.40331925880244546, 0.3822018983869464, 0.8430741154943882, 0.529523103770984, -0.35634879173750145, 0.5638458416623298, -0.9310788496688827, -0.1884678551274852, 0.08713332896160542], "bias": 0.3654205438107012}, {"weights": [0.023345748081451845, -0.5107734252754772, 0.7260748030929538, 0.09064659785064078, 0.5505596309308756, 0.48945050398079415, -0.3071440514798447, -0.49777846838673856, -0.7564150191558532, -0.5844245883649377, -0.0646479728957603, 0.6322806193051151, -0.4028737781442726, -0.6002914911946573, -0.8582560344932371], "bias": -0.37385437757765994}, {"weights": [-0.12882661334572143, -0.22581971866609463, -0.34537926789637585, 0.41625240537058517, -0.704258354248928, -0.8866725505242619, -0.20490555145648215, 0.4028609246527126, 0.4347206794448175, 0.538686498105561, -0.4342645759741164, 0.758554394225087, 0.6579770793422024, -0.771532221482023, 0.9918338893513896], "bias": -0.7920551446565205}, {"weights": [0.24016626834988508, 0.4302910175994832, 0.10339067524169332, 0.6856726510917621, 0.1635493430948305, -0.8051559789931788, 0.9790394291943598, 0.4551909375177283, 0.5249043857566447, -0.4537857308895561, 0.024625770861292473, 0.4064081272967741, 0.035676264100137356, 0.6355940532694295, -0.2666986636131379], "bias": 0.972974283301514}], [{"weights": [0.9293033059954883, -0.860498758053303, -0.3626210021503944, -0.699510827006715, 0.29513617818707427, 0.936591182306002, 0.2165603560491023, -0.05983450455886641, -0.08983570000664143, 0.051077275097194175, 0.9324743206046495, 0.5393333539906546, -0.5604578407965524, 0.13332205393783259, 0.6812110074603501, -0.8018004240732666, 0.7416425810910061, 0.4510123198032112, -0.8278255884069015, 0.6029650522096996], "bias": 0.4459483285585042}, {"weights": [0.5474041963998952, -0.053329897990922026, 0.4558977598237939, 0.06036785736200723, -0.2243054687224897, 0.9529388041731581, 0.759683307550101, -0.3329580728520851, -0.5066322899930213, 0.742734603695208, 0.5509827836749663, 0.5708828637970214, 0.272610041237735, 0.26300533217994215, -0.8045197252897982, -0.2363941817472366, 0.42495831385192084, -0.44171462103536396, 0.02829342340658325, -0.5346208881157228], "bias": 0.2487111111306941}, {"weights": [0.20860133643819423, 0.483673769363103, 0.38973181651326394, 0.7409872131130462, -0.9959558111092957, -0.0418090236762636, -0.7834301484455504, 0.9024892444685058, -0.6633025966159978, 0.5346680745564614, 0.1488506819902089, -0.799730387517968, -0.9212173017000427, 0.8507058098591034, -0.4886955833268527, 0.7627323418292571, 0.8490274087012784, 0.15744429828094542, -0.6972257626349805, 0.7554049911598832], "bias": 0.9114877197268503}]], "generation": 0}